{"learner":{"attributes":{"scikit_learn":"{\"_estimator_type\": \"regressor\"}"},"feature_names":[],"feature_types":[],"gradient_booster":{"model":{"gbtree_model_param":{"num_parallel_tree":"1","num_trees":"1000"},"iteration_indptr":[0,1,2,3,4,5,6,7,8,9,10,11,12,13,14,15,16,17,18,19,20,21,22,23,24,25,26,27,28,29,30,31,32,33,34,35,36,37,38,39,40,41,42,43,44,45,46,47,48,49,50,51,52,53,54,55,56,57,58,59,60,61,62,63,64,65,66,67,68,69,70,71,72,73,74,75,76,77,78,79,80,81,82,83,84,85,86,87,88,89,90,91,92,93,94,95,96,97,98,99,100,101,102,103,104,105,106,107,108,109,110,111,112,113,114,115,116,117,118,119,120,121,122,123,124,125,126,127,128,129,130,131,132,133,134,135,136,137,138,139,140,141,142,143,144,145,146,147,148,149,150,151,152,153,154,155,156,157,158,159,160,161,162,163,164,165,166,167,168,169,170,171,172,173,174,175,176,177,178,179,180,181,182,183,184,185,186,187,188,189,190,191,192,193,194,195,196,197,198,199,200,201,202,203,204,205,206,207,208,209,210,211,212,213,214,215,216,217,218,219,220,221,222,223,224,225,226,227,228,229,230,231,232,233,234,235,236,237,238,239,240,241,242,243,244,245,246,247,248,249,250,251,252,253,254,255,256,257,258,259,260,261,262,263,264,265,266,267,268,269,270,271,272,273,274,275,276,277,278,279,280,281,282,283,284,285,286,287,288,289,290,291,292,293,294,295,296,297,298,299,300,301,302,303,304,305,306,307,308,309,310,311,312,313,314,315,316,317,318,319,320,321,322,323,324,325,326,327,328,329,330,331,332,333,334,335,336,337,338,339,340,341,342,343,344,345,346,347,348,349,350,351,352,353,354,355,356,357,358,359,360,361,362,363,364,365,366,367,368,369,370,371,372,373,374,375,376,377,378,379,380,381,382,383,384,385,386,387,388,389,390,391,392,393,394,395,396,397,398,399,400,401,402,403,404,405,406,407,408,409,410,411,412,413,414,415,416,417,418,419,420,421,422,423,424,425,426,427,428,429,430,431,432,433,434,435,436,437,438,439,440,441,442,443,444,445,446,447,448,449,450,451,452,453,454,455,456,457,458,459,460,461,462,463,464,465,466,467,468,469,470,471,472,473,474,475,476,477,478,479,480,481,482,483,484,485,486,487,488,489,490,491,492,493,494,495,496,497,498,499,500,501,502,503,504,505,506,507,508,509,510,511,512,513,514,515,516,517,518,519,520,521,522,523,524,525,526,527,528,529,530,531,532,533,534,535,536,537,538,539,540,541,542,543,544,545,546,547,548,549,550,551,552,553,554,555,556,557,558,559,560,561,562,563,564,565,566,567,568,569,570,571,572,573,574,575,576,577,578,579,580,581,582,583,584,585,586,587,588,589,590,591,592,593,594,595,596,597,598,599,600,601,602,603,604,605,606,607,608,609,610,611,612,613,614,615,616,617,618,619,620,621,622,623,624,625,626,627,628,629,630,631,632,633,634,635,636,637,638,639,640,641,642,643,644,645,646,647,648,649,650,651,652,653,654,655,656,657,658,659,660,661,662,663,664,665,666,667,668,669,670,671,672,673,674,675,676,677,678,679,680,681,682,683,684,685,686,687,688,689,690,691,692,693,694,695,696,697,698,699,700,701,702,703,704,705,706,707,708,709,710,711,712,713,714,715,716,717,718,719,720,721,722,723,724,725,726,727,728,729,730,731,732,733,734,735,736,737,738,739,740,741,742,743,744,745,746,747,748,749,750,751,752,753,754,755,756,757,758,759,760,761,762,763,764,765,766,767,768,769,770,771,772,773,774,775,776,777,778,779,780,781,782,783,784,785,786,787,788,789,790,791,792,793,794,795,796,797,798,799,800,801,802,803,804,805,806,807,808,809,810,811,812,813,814,815,816,817,818,819,820,821,822,823,824,825,826,827,828,829,830,831,832,833,834,835,836,837,838,839,840,841,842,843,844,845,846,847,848,849,850,851,852,853,854,855,856,857,858,859,860,861,862,863,864,865,866,867,868,869,870,871,872,873,874,875,876,877,878,879,880,881,882,883,884,885,886,887,888,889,890,891,892,893,894,895,896,897,898,899,900,901,902,903,904,905,906,907,908,909,910,911,912,913,914,915,916,917,918,919,920,921,922,923,924,925,926,927,928,929,930,931,932,933,934,935,936,937,938,939,940,941,942,943,944,945,946,947,948,949,950,951,952,953,954,955,956,957,958,959,960,961,962,963,964,965,966,967,968,969,970,971,972,973,974,975,976,977,978,979,980,981,982,983,984,985,986,987,988,989,990,991,992,993,994,995,996,997,998,999,1000],"tree_info":[0,0,0,0,0,0,0,0,0,0,0,0,0,0,0,0,0,0,0,0,0,0,0,0,0,0,0,0,0,0,0,0,0,0,0,0,0,0,0,0,0,0,0,0,0,0,0,0,0,0,0,0,0,0,0,0,0,0,0,0,0,0,0,0,0,0,0,0,0,0,0,0,0,0,0,0,0,0,0,0,0,0,0,0,0,0,0,0,0,0,0,0,0,0,0,0,0,0,0,0,0,0,0,0,0,0,0,0,0,0,0,0,0,0,0,0,0,0,0,0,0,0,0,0,0,0,0,0,0,0,0,0,0,0,0,0,0,0,0,0,0,0,0,0,0,0,0,0,0,0,0,0,0,0,0,0,0,0,0,0,0,0,0,0,0,0,0,0,0,0,0,0,0,0,0,0,0,0,0,0,0,0,0,0,0,0,0,0,0,0,0,0,0,0,0,0,0,0,0,0,0,0,0,0,0,0,0,0,0,0,0,0,0,0,0,0,0,0,0,0,0,0,0,0,0,0,0,0,0,0,0,0,0,0,0,0,0,0,0,0,0,0,0,0,0,0,0,0,0,0,0,0,0,0,0,0,0,0,0,0,0,0,0,0,0,0,0,0,0,0,0,0,0,0,0,0,0,0,0,0,0,0,0,0,0,0,0,0,0,0,0,0,0,0,0,0,0,0,0,0,0,0,0,0,0,0,0,0,0,0,0,0,0,0,0,0,0,0,0,0,0,0,0,0,0,0,0,0,0,0,0,0,0,0,0,0,0,0,0,0,0,0,0,0,0,0,0,0,0,0,0,0,0,0,0,0,0,0,0,0,0,0,0,0,0,0,0,0,0,0,0,0,0,0,0,0,0,0,0,0,0,0,0,0,0,0,0,0,0,0,0,0,0,0,0,0,0,0,0,0,0,0,0,0,0,0,0,0,0,0,0,0,0,0,0,0,0,0,0,0,0,0,0,0,0,0,0,0,0,0,0,0,0,0,0,0,0,0,0,0,0,0,0,0,0,0,0,0,0,0,0,0,0,0,0,0,0,0,0,0,0,0,0,0,0,0,0,0,0,0,0,0,0,0,0,0,0,0,0,0,0,0,0,0,0,0,0,0,0,0,0,0,0,0,0,0,0,0,0,0,0,0,0,0,0,0,0,0,0,0,0,0,0,0,0,0,0,0,0,0,0,0,0,0,0,0,0,0,0,0,0,0,0,0,0,0,0,0,0,0,0,0,0,0,0,0,0,0,0,0,0,0,0,0,0,0,0,0,0,0,0,0,0,0,0,0,0,0,0,0,0,0,0,0,0,0,0,0,0,0,0,0,0,0,0,0,0,0,0,0,0,0,0,0,0,0,0,0,0,0,0,0,0,0,0,0,0,0,0,0,0,0,0,0,0,0,0,0,0,0,0,0,0,0,0,0,0,0,0,0,0,0,0,0,0,0,0,0,0,0,0,0,0,0,0,0,0,0,0,0,0,0,0,0,0,0,0,0,0,0,0,0,0,0,0,0,0,0,0,0,0,0,0,0,0,0,0,0,0,0,0,0,0,0,0,0,0,0,0,0,0,0,0,0,0,0,0,0,0,0,0,0,0,0,0,0,0,0,0,0,0,0,0,0,0,0,0,0,0,0,0,0,0,0,0,0,0,0,0,0,0,0,0,0,0,0,0,0,0,0,0,0,0,0,0,0,0,0,0,0,0,0,0,0,0,0,0,0,0,0,0,0,0,0,0,0,0,0,0,0,0,0,0,0,0,0,0,0,0,0,0,0,0,0,0,0,0,0,0,0,0,0,0,0,0,0,0,0,0,0,0,0,0,0,0,0,0,0,0,0,0,0,0,0,0,0,0,0,0,0,0,0,0,0,0,0,0,0,0,0,0,0,0,0,0,0,0,0,0,0,0,0,0,0,0,0,0,0,0,0,0,0,0,0,0,0,0,0,0,0,0,0,0,0,0,0,0,0,0,0,0,0,0,0,0,0,0,0,0,0,0,0,0,0,0,0,0,0,0,0,0,0,0,0,0,0,0,0,0,0,0,0,0,0,0,0,0,0,0,0,0,0,0,0,0,0,0,0,0,0,0,0,0,0,0,0,0,0,0,0,0,0,0,0,0,0,0,0,0,0,0,0,0,0,0,0,0,0,0,0,0,0,0,0,0,0,0,0,0,0,0,0,0,0,0,0,0,0,0,0,0,0,0,0,0,0,0,0,0,0,0,0,0,0,0,0,0,0,0,0,0,0,0,0,0,0,0,0,0,0],"trees":[{"base_weights":[-5.2154063E-9,-6.535703E-2,9.506475E-2,-8.324601E-2,-1.5966205E-2,5.3972118E-2,1.2631017E-1,-1.8295489E-4,-8.4618217E-4,-3.1575412E-4,4.153771E-3,6.2297214E-2,-2.8690498E-3,5.82165E-4,1.4160718E-3,1.7533965E-4,-1.0264866E-2,9.613752E-5,6.561027E-2,-1.2245476E-4,7.941901E-5,-3.0498604E-5,-1.5954941E-4,6.8699865E-4,1.4267534E-4],"categories":[],"categories_nodes":[],"categories_segments":[],"categories_sizes":[],"default_left":[0,0,0,0,0,0,0,0,0,0,0,0,0,0,0,0,0,0,0,0,0,0,0,0,0],"id":0,"left_children":[1,3,5,7,9,11,13,-1,-1,-1,15,17,19,-1,-1,-1,21,-1,23,-1,-1,-1,-1,-1,-1],"loss_changes":[5.032651E-1,4.1081354E-2,3.5553336E-2,1.5712678E-3,4.5279525E-3,7.750068E-3,1.0505468E-2,0E0,0E0,0E0,1.530453E-3,1.8128417E-3,4.0135664E-4,0E0,0E0,0E0,1.155553E-4,0E0,1.0819957E-3,0E0,0E0,0E0,0E0,0E0,0E0],"parents":[2147483647,0,0,1,1,2,2,3,3,4,4,5,5,6,6,10,10,11,11,12,12,16,16,18,18],"right_children":[2,4,6,8,10,12,14,-1,-1,-1,16,18,20,-1,-1,-1,22,-1,24,-1,-1,-1,-1,-1,-1],"split_conditions":[2.9292E-1,2.293293E-1,3.4987423E-1,1.5134256E-1,3.8406867E-1,4.1227046E-1,3.8406867E-1,-1.8295489E-4,-8.4618217E-4,-3.1575412E-4,3.769522E-1,3.259957E-1,3.8108143E-1,5.82165E-4,1.4160718E-3,1.7533965E-4,3.8793397E-1,9.613752E-5,4.1227046E-1,-1.2245476E-4,7.941901E-5,-3.0498604E-5,-1.5954941E-4,6.8699865E-4,1.4267534E-4],"split_indices":[29,29,30,9,0,13,13,0,0,0,16,0,0,0,0,0,0,0,14,0,0,0,0,0,0],"split_type":[0,0,0,0,0,0,0,0,0,0,0,0,0,0,0,0,0,0,0,0,0,0,0,0,0],"sum_hessian":[7.9E1,4.7E1,3.2E1,3.4E1,1.3E1,1.5E1,1.7E1,1E0,3.3E1,7E0,6E0,1.3E1,2E0,4E0,1.3E1,3E0,3E0,1E0,1.2E1,1E0,1E0,2E0,1E0,1.1E1,1E0],"tree_param":{"num_deleted":"0","num_feature":"31","num_nodes":"25","size_leaf_vector":"1"}},{"base_weights":[1.9013136E-5,-6.4731784E-2,9.4201416E-2,-8.244296E-2,-1.5830146E-2,5.3487565E-2,1.2515809E-1,-1.8204011E-4,-8.3796924E-4,-3.129912E-4,4.110136E-3,6.174037E-2,-2.8547049E-3,5.775078E-4,1.4029227E-3,1.740247E-4,-1.0209732E-2,9.565681E-5,6.501798E-2,-1.2184247E-4,7.90219E-5,-3.0295352E-5,-1.587516E-4,6.807011E-4,1.4196202E-4],"categories":[],"categories_nodes":[],"categories_segments":[],"categories_sizes":[],"default_left":[0,0,0,0,0,0,0,0,0,0,0,0,0,0,0,0,0,0,0,0,0,0,0,0,0],"id":1,"left_children":[1,3,5,7,9,11,13,-1,-1,-1,15,17,19,-1,-1,-1,21,-1,23,-1,-1,-1,-1,-1,-1],"loss_changes":[4.9396864E-1,4.026799E-2,3.4897655E-2,1.518786E-3,4.4470252E-3,7.6159574E-3,1.0260791E-2,0E0,0E0,0E0,1.5100858E-3,1.7721839E-3,3.9735297E-4,0E0,0E0,0E0,1.14621216E-4,0E0,1.0501556E-3,0E0,0E0,0E0,0E0,0E0,0E0],"parents":[2147483647,0,0,1,1,2,2,3,3,4,4,5,5,6,6,10,10,11,11,12,12,16,16,18,18],"right_children":[2,4,6,8,10,12,14,-1,-1,-1,16,18,20,-1,-1,-1,22,-1,24,-1,-1,-1,-1,-1,-1],"split_conditions":[2.9292E-1,2.293293E-1,3.4987423E-1,1.5134256E-1,3.8406867E-1,4.1227046E-1,3.8406867E-1,-1.8204011E-4,-8.3796924E-4,-3.129912E-4,3.769522E-1,3.259957E-1,3.8108143E-1,5.775078E-4,1.4029227E-3,1.740247E-4,3.8793397E-1,9.565681E-5,4.1227046E-1,-1.2184247E-4,7.90219E-5,-3.0295352E-5,-1.587516E-4,6.807011E-4,1.4196202E-4],"split_indices":[29,29,30,9,0,13,13,0,0,0,16,0,0,0,0,0,0,0,14,0,0,0,0,0,0],"split_type":[0,0,0,0,0,0,0,0,0,0,0,0,0,0,0,0,0,0,0,0,0,0,0,0,0],"sum_hessian":[7.9E1,4.7E1,3.2E1,3.4E1,1.3E1,1.5E1,1.7E1,1E0,3.3E1,7E0,6E0,1.3E1,2E0,4E0,1.3E1,3E0,3E0,1E0,1.2E1,1E0,1E0,2E0,1E0,1.1E1,1E0],"tree_param":{"num_deleted":"0","num_feature":"31","num_nodes":"25","size_leaf_vector":"1"}},{"base_weights":[3.7676095E-5,-6.4112544E-2,9.334594E-2,-8.1647664E-2,-1.5695272E-2,5.3007398E-2,1.2401654E-1,-1.8112994E-4,-8.298359E-4,-3.1025262E-4,4.066897E-3,6.118855E-2,-2.8404396E-3,5.728877E-4,1.3898954E-3,1.7271958E-4,-1.0154888E-2,9.517848E-5,6.443108E-2,-1.2123331E-4,7.862672E-5,-3.0093293E-5,-1.5795782E-4,6.7446125E-4,1.4125228E-4],"categories":[],"categories_nodes":[],"categories_segments":[],"categories_sizes":[],"default_left":[0,0,0,0,0,0,0,0,0,0,0,0,0,0,0,0,0,0,0,0,0,0,0,0,0],"id":2,"left_children":[1,3,5,7,9,11,13,-1,-1,-1,15,17,19,-1,-1,-1,21,-1,23,-1,-1,-1,-1,-1,-1],"loss_changes":[4.8484427E-1,3.9470643E-2,3.4254014E-2,1.4676452E-3,4.3675303E-3,7.484194E-3,1.0021567E-2,0E0,0E0,0E0,1.4899916E-3,1.7323717E-3,3.9338926E-4,0E0,0E0,0E0,1.1369464E-4,0E0,1.0190792E-3,0E0,0E0,0E0,0E0,0E0,0E0],"parents":[2147483647,0,0,1,1,2,2,3,3,4,4,5,5,6,6,10,10,11,11,12,12,16,16,18,18],"right_children":[2,4,6,8,10,12,14,-1,-1,-1,16,18,20,-1,-1,-1,22,-1,24,-1,-1,-1,-1,-1,-1],"split_conditions":[2.9292E-1,2.293293E-1,3.4987423E-1,1.5134256E-1,3.8406867E-1,4.1227046E-1,3.8406867E-1,-1.8112994E-4,-8.298359E-4,-3.1025262E-4,3.769522E-1,3.259957E-1,3.8108143E-1,5.728877E-4,1.3898954E-3,1.7271958E-4,3.8793397E-1,9.517848E-5,4.1227046E-1,-1.2123331E-4,7.862672E-5,-3.0093293E-5,-1.5795782E-4,6.7446125E-4,1.4125228E-4],"split_indices":[29,29,30,9,0,13,13,0,0,0,16,0,0,0,0,0,0,0,14,0,0,0,0,0,0],"split_type":[0,0,0,0,0,0,0,0,0,0,0,0,0,0,0,0,0,0,0,0,0,0,0,0,0],"sum_hessian":[7.9E1,4.7E1,3.2E1,3.4E1,1.3E1,1.5E1,1.7E1,1E0,3.3E1,7E0,6E0,1.3E1,2E0,4E0,1.3E1,3E0,3E0,1E0,1.2E1,1E0,1E0,2E0,1E0,1.1E1,1E0],"tree_param":{"num_deleted":"0","num_feature":"31","num_nodes":"25","size_leaf_vector":"1"}},{"base_weights":[5.598478E-5,-6.349926E-2,9.249827E-2,-8.086006E-2,-1.5561583E-2,5.2531593E-2,1.2288542E-1,-1.8022425E-4,-8.217815E-4,-3.07538E-4,4.024033E-3,6.064173E-2,-2.8262336E-3,5.6830456E-4,1.3769894E-3,1.7142408E-4,-1.010035E-2,9.470254E-5,6.3849516E-2,-1.2062713E-4,7.823363E-5,-2.9892622E-5,-1.5716806E-4,6.682788E-4,1.4054596E-4],"categories":[],"categories_nodes":[],"categories_segments":[],"categories_sizes":[],"default_left":[0,0,0,0,0,0,0,0,0,0,0,0,0,0,0,0,0,0,0,0,0,0,0,0,0],"id":3,"left_children":[1,3,5,7,9,11,13,-1,-1,-1,15,17,19,-1,-1,-1,21,-1,23,-1,-1,-1,-1,-1,-1],"loss_changes":[4.758889E-1,3.8689047E-2,3.3622265E-2,1.4178753E-3,4.2894394E-3,7.3547363E-3,9.787619E-3,0E0,0E0,0E0,1.470167E-3,1.6933903E-3,3.8946533E-4,0E0,0E0,0E0,1.1277481E-4,0E0,9.887554E-4,0E0,0E0,0E0,0E0,0E0,0E0],"parents":[2147483647,0,0,1,1,2,2,3,3,4,4,5,5,6,6,10,10,11,11,12,12,16,16,18,18],"right_children":[2,4,6,8,10,12,14,-1,-1,-1,16,18,20,-1,-1,-1,22,-1,24,-1,-1,-1,-1,-1,-1],"split_conditions":[2.9292E-1,2.293293E-1,3.4987423E-1,1.5134256E-1,3.8406867E-1,4.1227046E-1,3.8406867E-1,-1.8022425E-4,-8.217815E-4,-3.07538E-4,3.769522E-1,3.259957E-1,3.8108143E-1,5.6830456E-4,1.3769894E-3,1.7142408E-4,3.8793397E-1,9.470254E-5,4.1227046E-1,-1.2062713E-4,7.823363E-5,-2.9892622E-5,-1.5716806E-4,6.682788E-4,1.4054596E-4],"split_indices":[29,29,30,9,0,13,13,0,0,0,16,0,0,0,0,0,0,0,14,0,0,0,0,0,0],"split_type":[0,0,0,0,0,0,0,0,0,0,0,0,0,0,0,0,0,0,0,0,0,0,0,0,0],"sum_hessian":[7.9E1,4.7E1,3.2E1,3.4E1,1.3E1,1.5E1,1.7E1,1E0,3.3E1,7E0,6E0,1.3E1,2E0,4E0,1.3E1,3E0,3E0,1E0,1.2E1,1E0,1E0,2E0,1E0,1.1E1,1E0],"tree_param":{"num_deleted":"0","num_feature":"31","num_nodes":"25","size_leaf_vector":"1"}},{"base_weights":[7.3934345E-5,-6.289188E-2,9.165833E-2,-8.00801E-2,-1.5429055E-2,5.2060094E-2,1.2176464E-1,-1.7932318E-4,-8.138055E-4,-3.048471E-4,3.9815605E-3,6.0099844E-2,-2.8120975E-3,5.637582E-4,1.364203E-3,1.701384E-4,-1.004611E-2,9.4228984E-5,6.327323E-2,-1.20023935E-4,7.784247E-5,-2.9693345E-5,-1.5638217E-4,6.621528E-4,1.3984322E-4],"categories":[],"categories_nodes":[],"categories_segments":[],"categories_sizes":[],"default_left":[0,0,0,0,0,0,0,0,0,0,0,0,0,0,0,0,0,0,0,0,0,0,0,0,0],"id":4,"left_children":[1,3,5,7,9,11,13,-1,-1,-1,15,17,19,-1,-1,-1,21,-1,23,-1,-1,-1,-1,-1,-1],"loss_changes":[4.6709946E-1,3.7922904E-2,3.300211E-2,1.369372E-3,4.2127306E-3,7.22754E-3,9.558916E-3,0E0,0E0,0E0,1.4506106E-3,1.6552322E-3,3.8558026E-4,0E0,0E0,0E0,1.1186124E-4,0E0,9.591542E-4,0E0,0E0,0E0,0E0,0E0,0E0],"parents":[2147483647,0,0,1,1,2,2,3,3,4,4,5,5,6,6,10,10,11,11,12,12,16,16,18,18],"right_children":[2,4,6,8,10,12,14,-1,-1,-1,16,18,20,-1,-1,-1,22,-1,24,-1,-1,-1,-1,-1,-1],"split_conditions":[2.9292E-1,2.293293E-1,3.4987423E-1,1.5134256E-1,3.8406867E-1,4.1227046E-1,3.8406867E-1,-1.7932318E-4,-8.138055E-4,-3.048471E-4,3.769522E-1,3.259957E-1,3.8108143E-1,5.637582E-4,1.364203E-3,1.701384E-4,3.8793397E-1,9.4228984E-5,4.1227046E-1,-1.20023935E-4,7.784247E-5,-2.9693345E-5,-1.5638217E-4,6.621528E-4,1.3984322E-4],"split_indices":[29,29,30,9,0,13,13,0,0,0,16,0,0,0,0,0,0,0,14,0,0,0,0,0,0],"split_type":[0,0,0,0,0,0,0,0,0,0,0,0,0,0,0,0,0,0,0,0,0,0,0,0,0],"sum_hessian":[7.9E1,4.7E1,3.2E1,3.4E1,1.3E1,1.5E1,1.7E1,1E0,3.3E1,7E0,6E0,1.3E1,2E0,4E0,1.3E1,3E0,3E0,1E0,1.2E1,1E0,1E0,2E0,1E0,1.1E1,1E0],"tree_param":{"num_deleted":"0","num_feature":"31","num_nodes":"25","size_leaf_vector":"1"}},{"base_weights":[9.154864E-5,-6.2290333E-2,9.082606E-2,-7.930767E-2,-1.529768E-2,6.590078E-2,1.4156409E-3,-1.7842658E-4,-8.059068E-4,-3.021797E-4,3.9394624E-3,-1.7110705E-3,7.2125085E-2,1.6886235E-4,-9.992175E-3,9.375781E-5,-1.19423865E-4,7.889628E-4,2.193062E-4,-2.9495457E-5,-1.5560031E-4],"categories":[],"categories_nodes":[],"categories_segments":[],"categories_sizes":[],"default_left":[0,0,0,0,0,0,0,0,0,0,0,0,0,0,0,0,0,0,0,0,0],"id":5,"left_children":[1,3,5,7,9,11,-1,-1,-1,-1,13,15,17,-1,19,-1,-1,-1,-1,-1,-1],"loss_changes":[4.5847273E-1,3.7171915E-2,3.240457E-2,1.3221502E-3,4.137375E-3,1.02235E-2,0E0,0E0,0E0,0E0,1.4313182E-3,4.5226846E-4,5.74705E-3,0E0,1.1095434E-4,0E0,0E0,0E0,0E0,0E0,0E0],"parents":[2147483647,0,0,1,1,2,2,3,3,4,4,5,5,10,10,11,11,12,12,14,14],"right_children":[2,4,6,8,10,12,-1,-1,-1,-1,14,16,18,-1,20,-1,-1,-1,-1,-1,-1],"split_conditions":[2.9292E-1,2.293293E-1,3.9601684E-1,1.5134256E-1,3.8406867E-1,3.8108143E-1,1.4156409E-3,-1.7842658E-4,-8.059068E-4,-3.021797E-4,3.769522E-1,3.259957E-1,4.6094283E-1,1.6886235E-4,3.8793397E-1,9.375781E-5,-1.19423865E-4,7.889628E-4,2.193062E-4,-2.9495457E-5,-1.5560031E-4],"split_indices":[29,29,29,9,0,0,0,0,0,0,16,0,16,0,0,0,0,0,0,0,0],"split_type":[0,0,0,0,0,0,0,0,0,0,0,0,0,0,0,0,0,0,0,0,0],"sum_hessian":[7.9E1,4.7E1,3.2E1,3.4E1,1.3E1,2.3E1,9E0,1E0,3.3E1,7E0,6E0,2E0,2.1E1,3E0,3E0,1E0,1E0,1.8E1,3E0,2E0,1E0],"tree_param":{"num_deleted":"0","num_feature":"31","num_nodes":"21","size_leaf_vector":"1"}},{"base_weights":[1.0433011E-4,-6.1694566E-2,8.999047E-2,-7.854271E-2,-1.5167452E-2,5.106026E-2,1.1959563E-1,-1.7753444E-4,-7.9808466E-4,-2.9953575E-4,3.8977521E-3,5.8961295E-2,-2.8313398E-3,5.529364E-4,1.3401809E-3,1.6759589E-4,-9.938523E-3,9.328902E-5,6.2061563E-2,-1.1882677E-4,7.635668E-5,-2.9298762E-5,-1.5482232E-4,6.4932567E-4,1.3804749E-4],"categories":[],"categories_nodes":[],"categories_segments":[],"categories_sizes":[],"default_left":[0,0,0,0,0,0,0,0,0,0,0,0,0,0,0,0,0,0,0,0,0,0,0,0,0],"id":6,"left_children":[1,3,5,7,9,11,13,-1,-1,-1,15,17,19,-1,-1,-1,21,-1,23,-1,-1,-1,-1,-1,-1],"loss_changes":[4.4994107E-1,3.6435694E-2,3.192711E-2,1.2761652E-3,4.063358E-3,6.9797337E-3,9.282708E-3,0E0,0E0,0E0,1.412285E-3,1.5752651E-3,3.7495347E-4,0E0,0E0,0E0,1.1005459E-4,0E0,9.047128E-4,0E0,0E0,0E0,0E0,0E0,0E0],"parents":[2147483647,0,0,1,1,2,2,3,3,4,4,5,5,6,6,10,10,11,11,12,12,16,16,18,18],"right_children":[2,4,6,8,10,12,14,-1,-1,-1,16,18,20,-1,-1,-1,22,-1,24,-1,-1,-1,-1,-1,-1],"split_conditions":[2.9292E-1,2.293293E-1,3.4987423E-1,1.5134256E-1,3.8406867E-1,4.1227046E-1,3.8406867E-1,-1.7753444E-4,-7.9808466E-4,-2.9953575E-4,3.769522E-1,3.259957E-1,3.8108143E-1,5.529364E-4,1.3401809E-3,1.6759589E-4,3.8793397E-1,9.328902E-5,4.1227046E-1,-1.1882677E-4,7.635668E-5,-2.9298762E-5,-1.5482232E-4,6.4932567E-4,1.3804749E-4],"split_indices":[29,29,30,9,0,13,13,0,0,0,16,0,0,0,0,0,0,0,14,0,0,0,0,0,0],"split_type":[0,0,0,0,0,0,0,0,0,0,0,0,0,0,0,0,0,0,0,0,0,0,0,0,0],"sum_hessian":[7.9E1,4.7E1,3.2E1,3.4E1,1.3E1,1.5E1,1.7E1,1E0,3.3E1,7E0,6E0,1.3E1,2E0,4E0,1.3E1,3E0,3E0,1E0,1.2E1,1E0,1E0,2E0,1E0,1.1E1,1E0],"tree_param":{"num_deleted":"0","num_feature":"31","num_nodes":"25","size_leaf_vector":"1"}},{"base_weights":[1.2127869E-4,-5.651518E-2,9.639921E-2,-7.7785164E-2,-9.39961E-3,6.699325E-2,1.3492539E-3,-1.7664678E-4,-7.903387E-4,-2.9019814E-4,1.1264997E-2,9.282261E-5,6.968373E-2,2.5146132E-2,-4.8691393E-3,7.395634E-4,2.3668607E-4,2.811812E-4,6.6290944E-5,-9.88517E-3,7.597491E-5,-2.9103458E-5,-1.540482E-4],"categories":[],"categories_nodes":[],"categories_segments":[],"categories_sizes":[],"default_left":[0,0,0,0,0,0,0,0,0,0,0,0,0,0,0,0,0,0,0,0,0,0,0],"id":7,"left_children":[1,3,5,7,9,11,-1,-1,-1,-1,13,-1,15,17,19,-1,-1,-1,-1,21,-1,-1,-1],"loss_changes":[4.416753E-1,5.0378382E-2,2.4947882E-2,1.2314171E-3,7.2194524E-3,2.3033172E-3,0E0,0E0,0E0,0E0,2.1380815E-3,0E0,1.7884299E-3,8.876412E-5,3.8776745E-4,0E0,0E0,0E0,0E0,1.0916102E-4,0E0,0E0,0E0],"parents":[2147483647,0,0,1,1,2,2,3,3,4,4,5,5,10,10,12,12,13,13,14,14,19,19],"right_children":[2,4,6,8,10,12,-1,-1,-1,-1,14,-1,16,18,20,-1,-1,-1,-1,22,-1,-1,-1],"split_conditions":[3.136959E-1,2.293293E-1,4.018155E-1,1.5134256E-1,3.8406867E-1,3.259957E-1,1.3492539E-3,-1.7664678E-4,-7.903387E-4,-2.9019814E-4,3.769522E-1,9.282261E-5,3.9285412E-1,4.7508746E-1,4.1780564E-1,7.395634E-4,2.3668607E-4,2.811812E-4,6.6290944E-5,3.8793397E-1,7.597491E-5,-2.9103458E-5,-1.540482E-4],"split_indices":[29,29,12,9,0,0,0,0,0,0,16,0,12,6,0,0,0,0,0,0,0,0,0],"split_type":[0,0,0,0,0,0,0,0,0,0,0,0,0,0,0,0,0,0,0,0,0,0,0],"sum_hessian":[7.9E1,5E1,2.9E1,3.4E1,1.6E1,1.8E1,1.1E1,1E0,3.3E1,8E0,8E0,1E0,1.7E1,4E0,4E0,1.5E1,2E0,3E0,1E0,3E0,1E0,2E0,1E0],"tree_param":{"num_deleted":"0","num_feature":"31","num_nodes":"23","size_leaf_vector":"1"}},{"base_weights":[1.3757795E-4,-6.052386E-2,8.836823E-2,-7.703495E-2,-1.4923001E-2,6.403527E-2,1.3793051E-3,-4.0196828E-4,-8.0491585E-4,-2.943756E-4,3.7969265E-3,-1.6282201E-3,7.007868E-2,1.647672E-4,-9.832099E-3,9.235844E-5,-1.1678174E-4,7.6635764E-4,2.1412864E-4,-2.8909344E-5,-1.5327796E-4],"categories":[],"categories_nodes":[],"categories_segments":[],"categories_sizes":[],"default_left":[0,0,0,0,0,0,0,0,0,0,0,0,0,0,0,0,0,0,0,0,0],"id":8,"left_children":[1,3,5,7,9,11,-1,-1,-1,-1,13,15,17,-1,19,-1,-1,-1,-1,-1,-1],"loss_changes":[4.3352422E-1,3.4990564E-2,3.0965507E-2,1.2212396E-3,3.915734E-3,9.638064E-3,0E0,0E0,0E0,0E0,1.3716934E-3,4.3540783E-4,5.3793415E-3,0E0,1.08274486E-4,0E0,0E0,0E0,0E0,0E0,0E0],"parents":[2147483647,0,0,1,1,2,2,3,3,4,4,5,5,10,10,11,11,12,12,14,14],"right_children":[2,4,6,8,10,12,-1,-1,-1,-1,14,16,18,-1,20,-1,-1,-1,-1,-1,-1],"split_conditions":[2.9292E-1,2.293293E-1,3.9601684E-1,1.6406061E-1,3.8406867E-1,3.8108143E-1,1.3793051E-3,-4.0196828E-4,-8.0491585E-4,-2.943756E-4,3.769522E-1,3.259957E-1,4.6094283E-1,1.647672E-4,3.8793397E-1,9.235844E-5,-1.1678174E-4,7.6635764E-4,2.1412864E-4,-2.8909344E-5,-1.5327796E-4],"split_indices":[29,29,29,9,0,0,0,0,0,0,16,0,16,0,0,0,0,0,0,0,0],"split_type":[0,0,0,0,0,0,0,0,0,0,0,0,0,0,0,0,0,0,0,0,0],"sum_hessian":[7.9E1,4.7E1,3.2E1,3.4E1,1.3E1,2.3E1,9E0,4E0,3E1,7E0,6E0,2E0,2.1E1,3E0,3E0,1E0,1E0,1.8E1,3E0,2E0,1E0],"tree_param":{"num_deleted":"0","num_feature":"31","num_nodes":"21","size_leaf_vector":"1"}},{"base_weights":[1.4640353E-4,-5.5447057E-2,9.465041E-2,-7.629909E-2,-9.254802E-3,6.571489E-2,1.3257745E-3,-1.7375372E-4,-7.752111E-4,-2.8519926E-4,1.1038635E-2,9.1896654E-5,6.834464E-2,2.4712026E-2,-4.842484E-3,7.2506204E-4,2.336806E-4,2.763325E-4,6.513565E-5,-9.779327E-3,7.452443E-5,-2.8716624E-5,-1.525116E-4],"categories":[],"categories_nodes":[],"categories_segments":[],"categories_sizes":[],"default_left":[0,0,0,0,0,0,0,0,0,0,0,0,0,0,0,0,0,0,0,0,0,0,0],"id":9,"left_children":[1,3,5,7,9,11,-1,-1,-1,-1,13,-1,15,17,19,-1,-1,-1,-1,21,-1,-1,-1],"loss_changes":[4.255525E-1,4.8417196E-2,2.421084E-2,1.173228E-3,6.961066E-3,2.19623E-3,0E0,0E0,0E0,0E0,2.0740062E-3,0E0,1.6747862E-3,8.581788E-5,3.7637044E-4,0E0,0E0,0E0,0E0,1.0739418E-4,0E0,0E0,0E0],"parents":[2147483647,0,0,1,1,2,2,3,3,4,4,5,5,10,10,12,12,13,13,14,14,19,19],"right_children":[2,4,6,8,10,12,-1,-1,-1,-1,14,-1,16,18,20,-1,-1,-1,-1,22,-1,-1,-1],"split_conditions":[3.136959E-1,2.293293E-1,4.018155E-1,1.5134256E-1,3.8406867E-1,3.259957E-1,1.3257745E-3,-1.7375372E-4,-7.752111E-4,-2.8519926E-4,3.769522E-1,9.1896654E-5,3.9285412E-1,4.7508746E-1,4.1780564E-1,7.2506204E-4,2.336806E-4,2.763325E-4,6.513565E-5,3.8793397E-1,7.452443E-5,-2.8716624E-5,-1.525116E-4],"split_indices":[29,29,12,9,0,0,0,0,0,0,16,0,12,6,0,0,0,0,0,0,0,0,0],"split_type":[0,0,0,0,0,0,0,0,0,0,0,0,0,0,0,0,0,0,0,0,0,0,0],"sum_hessian":[7.9E1,5E1,2.9E1,3.4E1,1.6E1,1.8E1,1.1E1,1E0,3.3E1,8E0,8E0,1E0,1.7E1,4E0,4E0,1.5E1,2E0,3E0,1E0,3E0,1E0,2E0,1E0],"tree_param":{"num_deleted":"0","num_feature":"31","num_nodes":"23","size_leaf_vector":"1"}},{"base_weights":[1.6215444E-4,-5.938059E-2,8.676487E-2,-7.5563215E-2,-1.4682567E-2,6.2820025E-2,1.3555599E-3,-3.9375367E-4,-7.8962435E-4,-2.8930415E-4,3.6982E-3,-1.5556415E-3,6.874307E-2,1.6198687E-4,-9.726837E-3,9.14371E-5,-1.1477172E-4,7.5151597E-4,2.1116792E-4,-2.8525094E-5,-1.517491E-4],"categories":[],"categories_nodes":[],"categories_segments":[],"categories_sizes":[],"default_left":[0,0,0,0,0,0,0,0,0,0,0,0,0,0,0,0,0,0,0,0,0],"id":10,"left_children":[1,3,5,7,9,11,-1,-1,-1,-1,13,15,17,-1,19,-1,-1,-1,-1,-1,-1],"loss_changes":[4.176772E-1,3.3610433E-2,3.0038133E-2,1.1962056E-3,3.7734E-3,9.258144E-3,0E0,0E0,0E0,0E0,1.3322985E-3,4.2340576E-4,5.1277503E-3,0E0,1.06520776E-4,0E0,0E0,0E0,0E0,0E0,0E0],"parents":[2147483647,0,0,1,1,2,2,3,3,4,4,5,5,10,10,11,11,12,12,14,14],"right_children":[2,4,6,8,10,12,-1,-1,-1,-1,14,16,18,-1,20,-1,-1,-1,-1,-1,-1],"split_conditions":[2.9292E-1,2.293293E-1,3.9601684E-1,1.6406061E-1,3.8406867E-1,3.8108143E-1,1.3555599E-3,-3.9375367E-4,-7.8962435E-4,-2.8930415E-4,3.769522E-1,3.259957E-1,4.6094283E-1,1.6198687E-4,3.8793397E-1,9.14371E-5,-1.1477172E-4,7.5151597E-4,2.1116792E-4,-2.8525094E-5,-1.517491E-4],"split_indices":[29,29,29,9,0,0,0,0,0,0,16,0,16,0,0,0,0,0,0,0,0],"split_type":[0,0,0,0,0,0,0,0,0,0,0,0,0,0,0,0,0,0,0,0,0],"sum_hessian":[7.9E1,4.7E1,3.2E1,3.4E1,1.3E1,2.3E1,9E0,4E0,3E1,7E0,6E0,2E0,2.1E1,3E0,3E0,1E0,1E0,1.8E1,3E0,2E0,1E0],"tree_param":{"num_deleted":"0","num_feature":"31","num_nodes":"21","size_leaf_vector":"1"}},{"base_weights":[1.7057433E-4,-5.439917E-2,9.293345E-2,-7.48414E-2,-9.112276E-3,6.4460896E-2,1.3027055E-3,-3.9060367E-4,-7.8198296E-4,-2.802865E-4,1.0816574E-2,9.0979935E-5,6.703117E-2,2.428571E-2,-4.8158765E-3,7.1084156E-4,2.3071488E-4,2.7157133E-4,6.4000036E-5,-1.2027432E-2,4.0009716E-3,-2.942115E-5,-1.5099034E-4,-1.3081282E-5,7.3095856E-5],"categories":[],"categories_nodes":[],"categories_segments":[],"categories_sizes":[],"default_left":[0,0,0,0,0,0,0,0,0,0,0,0,0,0,0,0,0,0,0,0,0,0,0,0,0],"id":11,"left_children":[1,3,5,7,9,11,-1,-1,-1,-1,13,-1,15,17,19,-1,-1,-1,-1,21,23,-1,-1,-1,-1],"loss_changes":[4.1001928E-1,4.653205E-2,2.3495138E-2,1.1495054E-3,6.711861E-3,2.0938069E-3,0E0,0E0,0E0,0E0,2.0119573E-3,0E0,1.5670136E-3,8.298154E-5,3.6603736E-4,0E0,0E0,0E0,0E0,3.929637E-5,6.225916E-5,0E0,0E0,0E0,0E0],"parents":[2147483647,0,0,1,1,2,2,3,3,4,4,5,5,10,10,12,12,13,13,14,14,19,19,20,20],"right_children":[2,4,6,8,10,12,-1,-1,-1,-1,14,-1,16,18,20,-1,-1,-1,-1,22,24,-1,-1,-1,-1],"split_conditions":[3.136959E-1,2.293293E-1,4.018155E-1,1.6406061E-1,3.8406867E-1,3.259957E-1,1.3027055E-3,-3.9060367E-4,-7.8198296E-4,-2.802865E-4,3.769522E-1,9.0979935E-5,3.9285412E-1,4.7508746E-1,3.8793397E-1,7.1084156E-4,2.3071488E-4,2.7157133E-4,6.4000036E-5,3.8793397E-1,3.8459557E-1,-2.942115E-5,-1.5099034E-4,-1.3081282E-5,7.3095856E-5],"split_indices":[29,29,12,9,0,0,0,0,0,0,16,0,12,6,1,0,0,0,0,0,0,0,0,0,0],"split_type":[0,0,0,0,0,0,0,0,0,0,0,0,0,0,0,0,0,0,0,0,0,0,0,0,0],"sum_hessian":[7.9E1,5E1,2.9E1,3.4E1,1.6E1,1.8E1,1.1E1,4E0,3E1,8E0,8E0,1E0,1.7E1,4E0,4E0,1.5E1,2E0,3E0,1E0,2E0,2E0,1E0,1E0,1E0,1E0],"tree_param":{"num_deleted":"0","num_feature":"31","num_nodes":"25","size_leaf_vector":"1"}},{"base_weights":[1.8258505E-4,-5.8264308E-2,8.519071E-2,-7.412649E-2,-1.4447115E-2,6.1627757E-2,1.3322274E-3,-2.767769E-4,-7.610285E-4,-2.8432033E-4,3.5995203E-3,-1.4847616E-3,6.743275E-2,1.592543E-4,-9.626269E-3,9.0525E-5,-1.1279642E-4,7.369586E-4,2.0824767E-4,-2.8193293E-5,-1.5023544E-4],"categories":[],"categories_nodes":[],"categories_segments":[],"categories_sizes":[],"default_left":[0,0,0,0,0,0,0,0,0,0,0,0,0,0,0,0,0,0,0,0,0],"id":12,"left_children":[1,3,5,7,9,11,-1,-1,-1,-1,13,15,17,-1,19,-1,-1,-1,-1,-1,-1],"loss_changes":[4.0244046E-1,3.2290846E-2,2.9138416E-2,1.1066198E-3,3.6356715E-3,8.892946E-3,0E0,0E0,0E0,0E0,1.2944416E-3,4.1174263E-4,4.8873425E-3,0E0,1.0459937E-4,0E0,0E0,0E0,0E0,0E0,0E0],"parents":[2147483647,0,0,1,1,2,2,3,3,4,4,5,5,10,10,11,11,12,12,14,14],"right_children":[2,4,6,8,10,12,-1,-1,-1,-1,14,16,18,-1,20,-1,-1,-1,-1,-1,-1],"split_conditions":[2.9292E-1,2.293293E-1,3.9601684E-1,1.9181652E-1,3.8406867E-1,3.8108143E-1,1.3322274E-3,-2.767769E-4,-7.610285E-4,-2.8432033E-4,3.769522E-1,3.259957E-1,4.6094283E-1,1.592543E-4,3.8793397E-1,9.0525E-5,-1.1279642E-4,7.369586E-4,2.0824767E-4,-2.8193293E-5,-1.5023544E-4],"split_indices":[29,29,29,30,0,0,0,0,0,0,16,0,16,0,0,0,0,0,0,0,0],"split_type":[0,0,0,0,0,0,0,0,0,0,0,0,0,0,0,0,0,0,0,0,0],"sum_hessian":[7.9E1,4.7E1,3.2E1,3.4E1,1.3E1,2.3E1,9E0,2E0,3.2E1,7E0,6E0,2E0,2.1E1,3E0,3E0,1E0,1E0,1.8E1,3E0,2E0,1E0],"tree_param":{"num_deleted":"0","num_feature":"31","num_nodes":"21","size_leaf_vector":"1"}},{"base_weights":[1.9218438E-4,-5.33737E-2,9.124778E-2,-7.341488E-2,-8.972826E-3,6.3230805E-2,1.2800401E-3,-3.8235926E-4,-7.672068E-4,-2.7545838E-4,1.0597166E-2,9.00723E-5,6.574282E-2,2.386703E-2,-4.79213E-3,6.9689646E-4,2.2778829E-4,2.6689595E-4,6.2883795E-5,-1.1907826E-2,3.9209425E-3,-2.913311E-5,-1.4948427E-4,-1.2874901E-5,7.1689035E-5],"categories":[],"categories_nodes":[],"categories_segments":[],"categories_sizes":[],"default_left":[0,0,0,0,0,0,0,0,0,0,0,0,0,0,0,0,0,0,0,0,0,0,0,0,0],"id":13,"left_children":[1,3,5,7,9,11,-1,-1,-1,-1,13,-1,15,17,19,-1,-1,-1,-1,21,23,-1,-1,-1,-1],"loss_changes":[3.950681E-1,4.472339E-2,2.2800162E-2,1.1368394E-3,6.470961E-3,1.9958466E-3,0E0,0E0,0E0,0E0,1.9522985E-3,0E0,1.4648288E-3,8.025044E-5,3.5668776E-4,0E0,0E0,0E0,0E0,3.849677E-5,5.9980255E-5,0E0,0E0,0E0,0E0],"parents":[2147483647,0,0,1,1,2,2,3,3,4,4,5,5,10,10,12,12,13,13,14,14,19,19,20,20],"right_children":[2,4,6,8,10,12,-1,-1,-1,-1,14,-1,16,18,20,-1,-1,-1,-1,22,24,-1,-1,-1,-1],"split_conditions":[3.136959E-1,2.293293E-1,4.018155E-1,1.6406061E-1,3.8406867E-1,3.259957E-1,1.2800401E-3,-3.8235926E-4,-7.672068E-4,-2.7545838E-4,3.769522E-1,9.00723E-5,3.9285412E-1,4.7508746E-1,3.8793397E-1,6.9689646E-4,2.2778829E-4,2.6689595E-4,6.2883795E-5,3.8793397E-1,3.8459557E-1,-2.913311E-5,-1.4948427E-4,-1.2874901E-5,7.1689035E-5],"split_indices":[29,29,12,9,0,0,0,0,0,0,16,0,12,6,1,0,0,0,0,0,0,0,0,0,0],"split_type":[0,0,0,0,0,0,0,0,0,0,0,0,0,0,0,0,0,0,0,0,0,0,0,0,0],"sum_hessian":[7.9E1,5E1,2.9E1,3.4E1,1.6E1,1.8E1,1.1E1,4E0,3E1,8E0,8E0,1E0,1.7E1,4E0,4E0,1.5E1,2E0,3E0,1E0,2E0,2E0,1E0,1E0,1E0,1E0],"tree_param":{"num_deleted":"0","num_feature":"31","num_nodes":"25","size_leaf_vector":"1"}},{"base_weights":[2.037581E-4,-5.2863788E-2,9.04118E-2,-7.2713576E-2,-8.886948E-3,6.26519E-2,1.2683064E-3,-3.7930033E-4,-7.5978227E-4,-2.7300982E-4,1.0514524E-2,8.9621986E-5,6.513676E-2,2.3694307E-2,-4.768163E-3,6.9036306E-4,2.2626975E-4,2.6489413E-4,6.256938E-5,-1.1848281E-2,3.9013426E-3,-2.8987377E-5,-1.4873683E-4,-1.2810528E-5,7.1330665E-5],"categories":[],"categories_nodes":[],"categories_segments":[],"categories_sizes":[],"default_left":[0,0,0,0,0,0,0,0,0,0,0,0,0,0,0,0,0,0,0,0,0,0,0,0,0],"id":14,"left_children":[1,3,5,7,9,11,-1,-1,-1,-1,13,-1,15,17,19,-1,-1,-1,-1,21,23,-1,-1,-1,-1],"loss_changes":[3.8774905E-1,4.3873265E-2,2.2383317E-2,1.0925978E-3,6.360466E-3,1.9510537E-3,0E0,0E0,0E0,0E0,1.9257808E-3,0E0,1.4217421E-3,7.795403E-5,3.531298E-4,0E0,0E0,0E0,0E0,3.8113038E-5,5.938205E-5,0E0,0E0,0E0,0E0],"parents":[2147483647,0,0,1,1,2,2,3,3,4,4,5,5,10,10,12,12,13,13,14,14,19,19,20,20],"right_children":[2,4,6,8,10,12,-1,-1,-1,-1,14,-1,16,18,20,-1,-1,-1,-1,22,24,-1,-1,-1,-1],"split_conditions":[3.136959E-1,2.293293E-1,4.018155E-1,1.6406061E-1,3.8406867E-1,3.259957E-1,1.2683064E-3,-3.7930033E-4,-7.5978227E-4,-2.7300982E-4,3.769522E-1,8.9621986E-5,3.9285412E-1,4.7508746E-1,3.8793397E-1,6.9036306E-4,2.2626975E-4,2.6489413E-4,6.256938E-5,3.8793397E-1,3.8459557E-1,-2.8987377E-5,-1.4873683E-4,-1.2810528E-5,7.1330665E-5],"split_indices":[29,29,12,9,0,0,0,0,0,0,16,0,12,6,1,0,0,0,0,0,0,0,0,0,0],"split_type":[0,0,0,0,0,0,0,0,0,0,0,0,0,0,0,0,0,0,0,0,0,0,0,0,0],"sum_hessian":[7.9E1,5E1,2.9E1,3.4E1,1.6E1,1.8E1,1.1E1,4E0,3E1,8E0,8E0,1E0,1.7E1,4E0,4E0,1.5E1,2E0,3E0,1E0,2E0,2E0,1E0,1E0,1E0,1E0],"tree_param":{"num_deleted":"0","num_feature":"31","num_nodes":"25","size_leaf_vector":"1"}},{"base_weights":[2.1510571E-4,-5.66286E-2,8.289034E-2,-7.201899E-2,-1.41077265E-2,5.9871573E-2,1.2984634E-3,-2.6730294E-4,-7.3953747E-4,-2.7703334E-4,3.445502E-3,-1.3544062E-3,6.5499134E-2,1.5508725E-4,-9.479098E-3,8.917391E-5,-1.0949001E-4,7.1545143E-4,2.0405806E-4,-2.7725893E-5,-1.4799311E-4],"categories":[],"categories_nodes":[],"categories_segments":[],"categories_sizes":[],"default_left":[0,0,0,0,0,0,0,0,0,0,0,0,0,0,0,0,0,0,0,0,0],"id":15,"left_children":[1,3,5,7,9,11,-1,-1,-1,-1,13,15,17,-1,19,-1,-1,-1,-1,-1,-1],"loss_changes":[3.8065928E-1,3.0395791E-2,2.7894571E-2,1.0899901E-3,3.436508E-3,8.357987E-3,0E0,0E0,0E0,0E0,1.2383951E-3,3.932977E-4,4.5380294E-3,0E0,1.0168782E-4,0E0,0E0,0E0,0E0,0E0,0E0],"parents":[2147483647,0,0,1,1,2,2,3,3,4,4,5,5,10,10,11,11,12,12,14,14],"right_children":[2,4,6,8,10,12,-1,-1,-1,-1,14,16,18,-1,20,-1,-1,-1,-1,-1,-1],"split_conditions":[2.9292E-1,2.293293E-1,3.9601684E-1,1.9181652E-1,3.8406867E-1,3.8108143E-1,1.2984634E-3,-2.6730294E-4,-7.3953747E-4,-2.7703334E-4,3.769522E-1,3.259957E-1,4.6094283E-1,1.5508725E-4,3.8793397E-1,8.917391E-5,-1.0949001E-4,7.1545143E-4,2.0405806E-4,-2.7725893E-5,-1.4799311E-4],"split_indices":[29,29,29,30,0,0,0,0,0,0,16,0,16,0,0,0,0,0,0,0,0],"split_type":[0,0,0,0,0,0,0,0,0,0,0,0,0,0,0,0,0,0,0,0,0],"sum_hessian":[7.9E1,4.7E1,3.2E1,3.4E1,1.3E1,2.3E1,9E0,2E0,3.2E1,7E0,6E0,2E0,2.1E1,3E0,3E0,1E0,1E0,1.8E1,3E0,2E0,1E0],"tree_param":{"num_deleted":"0","num_feature":"31","num_nodes":"21","size_leaf_vector":"1"}},{"base_weights":[2.2412017E-4,-5.1867235E-2,8.8771954E-2,-7.132756E-2,-8.750853E-3,6.1456643E-2,1.2462353E-3,-3.712941E-4,-7.45425E-4,-2.6830655E-4,1.0301266E-2,8.872807E-5,6.388503E-2,2.3286719E-2,-4.7444403E-3,6.7681895E-4,2.2340097E-4,2.603434E-4,6.148114E-5,-1.1730462E-2,3.8230617E-3,-2.8703807E-5,-1.4725313E-4,-1.2607872E-5,6.99538E-5],"categories":[],"categories_nodes":[],"categories_segments":[],"categories_sizes":[],"default_left":[0,0,0,0,0,0,0,0,0,0,0,0,0,0,0,0,0,0,0,0,0,0,0,0,0],"id":16,"left_children":[1,3,5,7,9,11,-1,-1,-1,-1,13,-1,15,17,19,-1,-1,-1,-1,21,23,-1,-1,-1,-1],"loss_changes":[3.7361047E-1,4.2167813E-2,2.1719977E-2,1.0803491E-3,6.1321845E-3,1.8593445E-3,0E0,0E0,0E0,0E0,1.8688601E-3,0E0,1.327306E-3,7.53901E-5,3.4411007E-4,0E0,0E0,0E0,0E0,3.7336576E-5,5.7202447E-5,0E0,0E0,0E0,0E0],"parents":[2147483647,0,0,1,1,2,2,3,3,4,4,5,5,10,10,12,12,13,13,14,14,19,19,20,20],"right_children":[2,4,6,8,10,12,-1,-1,-1,-1,14,-1,16,18,20,-1,-1,-1,-1,22,24,-1,-1,-1,-1],"split_conditions":[3.136959E-1,2.293293E-1,4.018155E-1,1.6406061E-1,3.8406867E-1,3.259957E-1,1.2462353E-3,-3.712941E-4,-7.45425E-4,-2.6830655E-4,3.769522E-1,8.872807E-5,3.9285412E-1,4.7508746E-1,3.8793397E-1,6.7681895E-4,2.2340097E-4,2.603434E-4,6.148114E-5,3.8793397E-1,3.8459557E-1,-2.8703807E-5,-1.4725313E-4,-1.2607872E-5,6.99538E-5],"split_indices":[29,29,12,9,0,0,0,0,0,0,16,0,12,6,1,0,0,0,0,0,0,0,0,0,0],"split_type":[0,0,0,0,0,0,0,0,0,0,0,0,0,0,0,0,0,0,0,0,0,0,0,0,0],"sum_hessian":[7.9E1,5E1,2.9E1,3.4E1,1.6E1,1.8E1,1.1E1,4E0,3E1,8E0,8E0,1E0,1.7E1,4E0,4E0,1.5E1,2E0,3E0,1E0,2E0,2E0,1E0,1E0,1E0,1E0],"tree_param":{"num_deleted":"0","num_feature":"31","num_nodes":"25","size_leaf_vector":"1"}},{"base_weights":[2.3504384E-4,-5.556173E-2,8.1386864E-2,-7.06462E-2,-1.388187E-2,5.873483E-2,1.2761306E-3,-2.6179856E-4,-7.2547793E-4,-2.7226152E-2,3.351863E-3,-1.2877682E-3,6.424996E-2,-8.126222E-5,-2.8793825E-4,1.5246861E-4,-9.381101E-3,8.828446E-5,-1.0760099E-4,7.0158154E-4,2.0123579E-4,-2.7403432E-5,-1.4651686E-4],"categories":[],"categories_nodes":[],"categories_segments":[],"categories_sizes":[],"default_left":[0,0,0,0,0,0,0,0,0,0,0,0,0,0,0,0,0,0,0,0,0,0,0],"id":17,"left_children":[1,3,5,7,9,11,-1,-1,-1,13,15,17,19,-1,-1,-1,21,-1,-1,-1,-1,-1,-1],"loss_changes":[3.6676276E-1,2.9197782E-2,2.7059525E-2,1.0602176E-3,3.3108634E-3,8.027531E-3,0E0,0E0,0E0,5.554408E-6,1.2032425E-3,3.8246732E-4,4.3237135E-3,0E0,0E0,0E0,9.985204E-5,0E0,0E0,0E0,0E0,0E0,0E0],"parents":[2147483647,0,0,1,1,2,2,3,3,4,4,5,5,9,9,10,10,11,11,12,12,16,16],"right_children":[2,4,6,8,10,12,-1,-1,-1,14,16,18,20,-1,-1,-1,22,-1,-1,-1,-1,-1,-1],"split_conditions":[2.9292E-1,2.293293E-1,3.9601684E-1,1.9181652E-1,3.8406867E-1,3.8108143E-1,1.2761306E-3,-2.6179856E-4,-7.2547793E-4,1.5134256E-1,3.769522E-1,3.259957E-1,4.6094283E-1,-8.126222E-5,-2.8793825E-4,1.5246861E-4,3.8793397E-1,8.828446E-5,-1.0760099E-4,7.0158154E-4,2.0123579E-4,-2.7403432E-5,-1.4651686E-4],"split_indices":[29,29,29,30,0,0,0,0,0,8,16,0,16,0,0,0,0,0,0,0,0,0,0],"split_type":[0,0,0,0,0,0,0,0,0,0,0,0,0,0,0,0,0,0,0,0,0,0,0],"sum_hessian":[7.9E1,4.7E1,3.2E1,3.4E1,1.3E1,2.3E1,9E0,2E0,3.2E1,7E0,6E0,2E0,2.1E1,1E0,6E0,3E0,3E0,1E0,1E0,1.8E1,3E0,2E0,1E0],"tree_param":{"num_deleted":"0","num_feature":"31","num_nodes":"23","size_leaf_vector":"1"}},{"base_weights":[2.4246723E-4,-5.0891414E-2,8.716198E-2,-6.996794E-2,-8.6226035E-3,6.028419E-2,1.22455E-3,-3.6344715E-4,-7.313401E-4,-2.6379206E-4,1.0092067E-2,8.784309E-5,6.2657274E-2,2.2886414E-2,-4.720694E-3,6.635374E-4,2.2057017E-4,2.5587447E-4,6.0411392E-5,-1.1613836E-2,3.746013E-3,-2.842322E-5,-1.4578432E-4,-1.240775E-5,6.859794E-5],"categories":[],"categories_nodes":[],"categories_segments":[],"categories_sizes":[],"default_left":[0,0,0,0,0,0,0,0,0,0,0,0,0,0,0,0,0,0,0,0,0,0,0,0,0],"id":18,"left_children":[1,3,5,7,9,11,-1,-1,-1,-1,13,-1,15,17,19,-1,-1,-1,-1,21,23,-1,-1,-1,-1],"loss_changes":[3.5999835E-1,4.052013E-2,2.1075875E-2,1.0678321E-3,5.9154727E-3,1.7716661E-3,0E0,0E0,0E0,0E0,1.8137163E-3,0E0,1.237832E-3,7.292093E-5,3.3531667E-4,0E0,0E0,0E0,0E0,3.6575395E-5,5.5094763E-5,0E0,0E0,0E0,0E0],"parents":[2147483647,0,0,1,1,2,2,3,3,4,4,5,5,10,10,12,12,13,13,14,14,19,19,20,20],"right_children":[2,4,6,8,10,12,-1,-1,-1,-1,14,-1,16,18,20,-1,-1,-1,-1,22,24,-1,-1,-1,-1],"split_conditions":[3.136959E-1,2.293293E-1,4.018155E-1,1.6406061E-1,3.8406867E-1,3.259957E-1,1.22455E-3,-3.6344715E-4,-7.313401E-4,-2.6379206E-4,3.769522E-1,8.784309E-5,3.9285412E-1,4.7508746E-1,3.8793397E-1,6.635374E-4,2.2057017E-4,2.5587447E-4,6.0411392E-5,3.8793397E-1,3.8459557E-1,-2.842322E-5,-1.4578432E-4,-1.240775E-5,6.859794E-5],"split_indices":[29,29,12,9,0,0,0,0,0,0,16,0,12,6,1,0,0,0,0,0,0,0,0,0,0],"split_type":[0,0,0,0,0,0,0,0,0,0,0,0,0,0,0,0,0,0,0,0,0,0,0,0,0],"sum_hessian":[7.9E1,5E1,2.9E1,3.4E1,1.6E1,1.8E1,1.1E1,4E0,3E1,8E0,8E0,1E0,1.7E1,4E0,4E0,1.5E1,2E0,3E0,1E0,2E0,2E0,1E0,1E0,1E0,1E0],"tree_param":{"num_deleted":"0","num_feature":"31","num_nodes":"25","size_leaf_vector":"1"}},{"base_weights":[2.5299453E-4,-5.4517E-2,7.991078E-2,-6.9299534E-2,-1.3666597E-2,5.761959E-2,1.2541855E-3,-2.5640382E-4,-7.116856E-4,-2.6769223E-2,3.2602039E-3,-1.22269E-3,6.302447E-2,-7.9536956E-5,-2.832091E-4,1.4989465E-4,-9.284109E-3,8.74038E-5,-1.0574415E-4,6.8797753E-4,1.9845224E-4,-2.7084548E-5,-1.4505535E-4],"categories":[],"categories_nodes":[],"categories_segments":[],"categories_sizes":[],"default_left":[0,0,0,0,0,0,0,0,0,0,0,0,0,0,0,0,0,0,0,0,0,0,0],"id":19,"left_children":[1,3,5,7,9,11,-1,-1,-1,13,15,17,19,-1,-1,-1,21,-1,-1,-1,-1,-1,-1],"loss_changes":[3.5338497E-1,2.803877E-2,2.6249364E-2,1.03122E-3,3.1922709E-3,7.7099055E-3,0E0,0E0,0E0,8.310657E-6,1.1691124E-3,3.7194014E-4,4.1189864E-3,0E0,0E0,0E0,9.804958E-5,0E0,0E0,0E0,0E0,0E0,0E0],"parents":[2147483647,0,0,1,1,2,2,3,3,4,4,5,5,9,9,10,10,11,11,12,12,16,16],"right_children":[2,4,6,8,10,12,-1,-1,-1,14,16,18,20,-1,-1,-1,22,-1,-1,-1,-1,-1,-1],"split_conditions":[2.9292E-1,2.293293E-1,3.9601684E-1,1.9181652E-1,3.8406867E-1,3.8108143E-1,1.2541855E-3,-2.5640382E-4,-7.116856E-4,1.5134256E-1,3.769522E-1,3.259957E-1,4.6094283E-1,-7.9536956E-5,-2.832091E-4,1.4989465E-4,3.8793397E-1,8.74038E-5,-1.0574415E-4,6.8797753E-4,1.9845224E-4,-2.7084548E-5,-1.4505535E-4],"split_indices":[29,29,29,30,0,0,0,0,0,8,16,0,16,0,0,0,0,0,0,0,0,0,0],"split_type":[0,0,0,0,0,0,0,0,0,0,0,0,0,0,0,0,0,0,0,0,0,0,0],"sum_hessian":[7.9E1,4.7E1,3.2E1,3.4E1,1.3E1,2.3E1,9E0,2E0,3.2E1,7E0,6E0,2E0,2.1E1,1E0,6E0,3E0,3E0,1E0,1E0,1.8E1,3E0,2E0,1E0],"tree_param":{"num_deleted":"0","num_feature":"31","num_nodes":"23","size_leaf_vector":"1"}},{"base_weights":[2.6007593E-4,-4.9933992E-2,8.5581325E-2,-6.8634205E-2,-8.496261E-3,5.9134055E-2,1.2032437E-3,-3.5575678E-4,-7.1752217E-4,-2.593534E-4,9.886848E-3,8.696675E-5,6.1452985E-2,2.2493262E-2,-4.6969354E-3,6.505129E-4,2.1777669E-4,2.5148585E-4,5.9359816E-5,-1.1498381E-2,3.670156E-3,-2.814561E-5,-1.4433012E-4,-1.2210309E-5,6.726265E-5],"categories":[],"categories_nodes":[],"categories_segments":[],"categories_sizes":[],"default_left":[0,0,0,0,0,0,0,0,0,0,0,0,0,0,0,0,0,0,0,0,0,0,0,0,0],"id":20,"left_children":[1,3,5,7,9,11,-1,-1,-1,-1,13,-1,15,17,19,-1,-1,-1,-1,21,23,-1,-1,-1,-1],"loss_changes":[3.4688303E-1,3.893648E-2,2.0450503E-2,1.0550618E-3,5.706355E-3,1.6878098E-3,0E0,0E0,0E0,0E0,1.7602923E-3,0E0,1.1530891E-3,7.054303E-5,3.2674248E-4,0E0,0E0,0E0,0E0,3.5828823E-5,5.3056978E-5,0E0,0E0,0E0,0E0],"parents":[2147483647,0,0,1,1,2,2,3,3,4,4,5,5,10,10,12,12,13,13,14,14,19,19,20,20],"right_children":[2,4,6,8,10,12,-1,-1,-1,-1,14,-1,16,18,20,-1,-1,-1,-1,22,24,-1,-1,-1,-1],"split_conditions":[3.136959E-1,2.293293E-1,4.018155E-1,1.6406061E-1,3.8406867E-1,3.259957E-1,1.2032437E-3,-3.5575678E-4,-7.1752217E-4,-2.593534E-4,3.769522E-1,8.696675E-5,3.9285412E-1,4.7508746E-1,3.8793397E-1,6.505129E-4,2.1777669E-4,2.5148585E-4,5.9359816E-5,3.8793397E-1,3.8459557E-1,-2.814561E-5,-1.4433012E-4,-1.2210309E-5,6.726265E-5],"split_indices":[29,29,12,9,0,0,0,0,0,0,16,0,12,6,1,0,0,0,0,0,0,0,0,0,0],"split_type":[0,0,0,0,0,0,0,0,0,0,0,0,0,0,0,0,0,0,0,0,0,0,0,0,0],"sum_hessian":[7.9E1,5E1,2.9E1,3.4E1,1.6E1,1.8E1,1.1E1,4E0,3E1,8E0,8E0,1E0,1.7E1,4E0,4E0,1.5E1,2E0,3E0,1E0,2E0,2E0,1E0,1E0,1E0,1E0],"tree_param":{"num_deleted":"0","num_feature":"31","num_nodes":"25","size_leaf_vector":"1"}},{"base_weights":[2.7021318E-4,-5.3491976E-2,7.846157E-2,-6.797853E-2,-1.3454734E-2,5.6525435E-2,1.2326214E-3,-3.5291078E-4,-7.105784E-4,-2.6319949E-2,3.1704733E-3,-1.1591216E-3,6.1822172E-2,-7.7842546E-5,-2.785587E-4,1.4736458E-4,-9.1881305E-3,8.653194E-5,-1.03918755E-4,6.746342E-4,1.9570686E-4,-2.676944E-5,-1.4360844E-4],"categories":[],"categories_nodes":[],"categories_segments":[],"categories_sizes":[],"default_left":[0,0,0,0,0,0,0,0,0,0,0,0,0,0,0,0,0,0,0,0,0,0,0],"id":21,"left_children":[1,3,5,7,9,11,-1,-1,-1,13,15,17,19,-1,-1,-1,21,-1,-1,-1,-1,-1,-1],"loss_changes":[3.4049615E-1,2.6925445E-2,2.5463328E-2,1.0152012E-3,3.077863E-3,7.404618E-3,0E0,0E0,0E0,1.0917429E-5,1.1359765E-3,3.6170703E-4,3.9234236E-3,0E0,0E0,0E0,9.6278876E-5,0E0,0E0,0E0,0E0,0E0,0E0],"parents":[2147483647,0,0,1,1,2,2,3,3,4,4,5,5,9,9,10,10,11,11,12,12,16,16],"right_children":[2,4,6,8,10,12,-1,-1,-1,14,16,18,20,-1,-1,-1,22,-1,-1,-1,-1,-1,-1],"split_conditions":[2.9292E-1,2.293293E-1,3.9601684E-1,1.6406061E-1,3.8406867E-1,3.8108143E-1,1.2326214E-3,-3.5291078E-4,-7.105784E-4,1.5134256E-1,3.769522E-1,3.259957E-1,4.6094283E-1,-7.7842546E-5,-2.785587E-4,1.4736458E-4,3.8793397E-1,8.653194E-5,-1.03918755E-4,6.746342E-4,1.9570686E-4,-2.676944E-5,-1.4360844E-4],"split_indices":[29,29,29,9,0,0,0,0,0,8,16,0,16,0,0,0,0,0,0,0,0,0,0],"split_type":[0,0,0,0,0,0,0,0,0,0,0,0,0,0,0,0,0,0,0,0,0,0,0],"sum_hessian":[7.9E1,4.7E1,3.2E1,3.4E1,1.3E1,2.3E1,9E0,4E0,3E1,7E0,6E0,2E0,2.1E1,1E0,6E0,3E0,3E0,1E0,1E0,1.8E1,3E0,2E0,1E0],"tree_param":{"num_deleted":"0","num_feature":"31","num_nodes":"23","size_leaf_vector":"1"}},{"base_weights":[2.7554334E-4,-4.899686E-2,8.402944E-2,-6.732913E-2,-8.37178E-3,5.8005854E-2,1.18231E-3,-2.47572E-4,-6.915903E-4,-2.549891E-4,9.68555E-3,8.609921E-5,6.0271744E-2,2.2107154E-2,-4.6731653E-3,6.2392344E-4,1.2110784E-4,2.4717636E-4,5.8326124E-5,-1.13841E-2,3.5954912E-3,-2.787113E-5,-1.4289036E-4,-1.2015402E-5,6.594777E-5],"categories":[],"categories_nodes":[],"categories_segments":[],"categories_sizes":[],"default_left":[0,0,0,0,0,0,0,0,0,0,0,0,0,0,0,0,0,0,0,0,0,0,0,0,0],"id":22,"left_children":[1,3,5,7,9,11,-1,-1,-1,-1,13,-1,15,17,19,-1,-1,-1,-1,21,23,-1,-1,-1,-1],"loss_changes":[3.3425763E-1,3.7418574E-2,1.984334E-2,1.0144114E-3,5.504566E-3,1.607649E-3,0E0,0E0,0E0,0E0,1.708535E-3,0E0,1.0827258E-3,6.825337E-5,3.1838348E-4,0E0,0E0,0E0,0E0,3.509593E-5,5.1086892E-5,0E0,0E0,0E0,0E0],"parents":[2147483647,0,0,1,1,2,2,3,3,4,4,5,5,10,10,12,12,13,13,14,14,19,19,20,20],"right_children":[2,4,6,8,10,12,-1,-1,-1,-1,14,-1,16,18,20,-1,-1,-1,-1,22,24,-1,-1,-1,-1],"split_conditions":[3.136959E-1,2.293293E-1,4.018155E-1,1.9181652E-1,3.8406867E-1,3.259957E-1,1.18231E-3,-2.47572E-4,-6.915903E-4,-2.549891E-4,3.769522E-1,8.609921E-5,3.9601684E-1,4.7508746E-1,3.8793397E-1,6.2392344E-4,1.2110784E-4,2.4717636E-4,5.8326124E-5,3.8793397E-1,3.8459557E-1,-2.787113E-5,-1.4289036E-4,-1.2015402E-5,6.594777E-5],"split_indices":[29,29,12,30,0,0,0,0,0,0,16,0,12,6,1,0,0,0,0,0,0,0,0,0,0],"split_type":[0,0,0,0,0,0,0,0,0,0,0,0,0,0,0,0,0,0,0,0,0,0,0,0,0],"sum_hessian":[7.9E1,5E1,2.9E1,3.4E1,1.6E1,1.8E1,1.1E1,2E0,3.2E1,8E0,8E0,1E0,1.7E1,4E0,4E0,1.6E1,1E0,3E0,1E0,2E0,2E0,1E0,1E0,1E0,1E0],"tree_param":{"num_deleted":"0","num_feature":"31","num_nodes":"25","size_leaf_vector":"1"}},{"base_weights":[2.8538928E-4,-5.248626E-2,7.70355E-2,-6.668267E-2,-1.3246216E-2,5.5446927E-2,1.2114453E-3,-3.4544274E-4,-6.971522E-4,-2.5878182E-2,3.082633E-3,-1.0970334E-3,6.063715E-2,-7.617839E-5,-2.7398538E-4,1.4487757E-4,-9.0931505E-3,8.566871E-5,-1.0212421E-4,6.616488E-4,1.9221156E-4,-2.6458103E-5,-1.4217585E-4],"categories":[],"categories_nodes":[],"categories_segments":[],"categories_sizes":[],"default_left":[0,0,0,0,0,0,0,0,0,0,0,0,0,0,0,0,0,0,0,0,0,0,0],"id":23,"left_children":[1,3,5,7,9,11,-1,-1,-1,13,15,17,19,-1,-1,-1,21,-1,-1,-1,-1,-1,-1],"loss_changes":[3.280617E-1,2.5855958E-2,2.4707198E-2,1.0028929E-3,2.9674894E-3,7.1099475E-3,0E0,0E0,0E0,1.3380311E-5,1.1038036E-3,3.5175923E-4,3.764838E-3,0E0,0E0,0E0,9.4538875E-5,0E0,0E0,0E0,0E0,0E0,0E0],"parents":[2147483647,0,0,1,1,2,2,3,3,4,4,5,5,9,9,10,10,11,11,12,12,16,16],"right_children":[2,4,6,8,10,12,-1,-1,-1,14,16,18,20,-1,-1,-1,22,-1,-1,-1,-1,-1,-1],"split_conditions":[2.9292E-1,2.293293E-1,3.9601684E-1,1.6406061E-1,3.8406867E-1,3.8108143E-1,1.2114453E-3,-3.4544274E-4,-6.971522E-4,1.5134256E-1,3.769522E-1,3.259957E-1,4.6094283E-1,-7.617839E-5,-2.7398538E-4,1.4487757E-4,3.8793397E-1,8.566871E-5,-1.0212421E-4,6.616488E-4,1.9221156E-4,-2.6458103E-5,-1.4217585E-4],"split_indices":[29,29,29,9,0,0,0,0,0,8,16,0,16,0,0,0,0,0,0,0,0,0,0],"split_type":[0,0,0,0,0,0,0,0,0,0,0,0,0,0,0,0,0,0,0,0,0,0,0],"sum_hessian":[7.9E1,4.7E1,3.2E1,3.4E1,1.3E1,2.3E1,9E0,4E0,3E1,7E0,6E0,2E0,2.1E1,1E0,6E0,3E0,3E0,1E0,1E0,1.8E1,3E0,2E0,1E0],"tree_param":{"num_deleted":"0","num_feature":"31","num_nodes":"23","size_leaf_vector":"1"}},{"base_weights":[2.9044077E-4,-4.8075132E-2,8.250223E-2,-6.6045634E-2,-8.249095E-3,5.689352E-2,1.1617418E-3,-2.4244626E-4,-6.7844335E-4,-2.5069795E-4,9.488172E-3,8.52403E-5,5.9107155E-2,2.172793E-2,-4.649222E-3,6.1177684E-4,1.1954114E-4,2.4294405E-4,5.7310164E-5,-1.127096E-2,3.522257E-3,-2.7599483E-5,-1.4146492E-4,-1.1823028E-5,6.465688E-5],"categories":[],"categories_nodes":[],"categories_segments":[],"categories_sizes":[],"default_left":[0,0,0,0,0,0,0,0,0,0,0,0,0,0,0,0,0,0,0,0,0,0,0,0,0],"id":24,"left_children":[1,3,5,7,9,11,-1,-1,-1,-1,13,-1,15,17,19,-1,-1,-1,-1,21,23,-1,-1,-1,-1],"loss_changes":[3.2206395E-1,3.5955578E-2,1.9259304E-2,9.867102E-4,5.309872E-3,1.530543E-3,0E0,0E0,0E0,0E0,1.6583627E-3,0E0,1.0260493E-3,6.6046836E-5,3.102462E-4,0E0,0E0,0E0,0E0,3.4377474E-5,4.918704E-5,0E0,0E0,0E0,0E0],"parents":[2147483647,0,0,1,1,2,2,3,3,4,4,5,5,10,10,12,12,13,13,14,14,19,19,20,20],"right_children":[2,4,6,8,10,12,-1,-1,-1,-1,14,-1,16,18,20,-1,-1,-1,-1,22,24,-1,-1,-1,-1],"split_conditions":[3.136959E-1,2.293293E-1,4.018155E-1,1.9181652E-1,3.8406867E-1,3.259957E-1,1.1617418E-3,-2.4244626E-4,-6.7844335E-4,-2.5069795E-4,3.769522E-1,8.52403E-5,3.9601684E-1,4.7508746E-1,3.8793397E-1,6.1177684E-4,1.1954114E-4,2.4294405E-4,5.7310164E-5,3.8793397E-1,3.8459557E-1,-2.7599483E-5,-1.4146492E-4,-1.1823028E-5,6.465688E-5],"split_indices":[29,29,12,30,0,0,0,0,0,0,16,0,12,6,1,0,0,0,0,0,0,0,0,0,0],"split_type":[0,0,0,0,0,0,0,0,0,0,0,0,0,0,0,0,0,0,0,0,0,0,0,0,0],"sum_hessian":[7.9E1,5E1,2.9E1,3.4E1,1.6E1,1.8E1,1.1E1,2E0,3.2E1,8E0,8E0,1E0,1.7E1,4E0,4E0,1.6E1,1E0,3E0,1E0,2E0,2E0,1E0,1E0,1E0,1E0],"tree_param":{"num_deleted":"0","num_feature":"31","num_nodes":"25","size_leaf_vector":"1"}},{"base_weights":[2.9992015E-4,-5.1499497E-2,7.563543E-2,-6.5411486E-2,-1.3040995E-2,5.4388866E-2,1.1906365E-3,-3.3812365E-4,-6.8398064E-4,-2.544382E-2,2.996662E-3,-1.0363957E-3,5.9474636E-2,-1.11121684E-4,-2.8369008E-4,1.4243304E-4,-8.9991465E-3,8.481413E-5,-1.0036006E-4,6.489105E-4,1.887799E-4,-2.6150245E-5,-1.4075756E-4],"categories":[],"categories_nodes":[],"categories_segments":[],"categories_sizes":[],"default_left":[0,0,0,0,0,0,0,0,0,0,0,0,0,0,0,0,0,0,0,0,0,0,0],"id":25,"left_children":[1,3,5,7,9,11,-1,-1,-1,13,15,17,19,-1,-1,-1,21,-1,-1,-1,-1,-1,-1],"loss_changes":[3.1608206E-1,2.4828613E-2,2.3973405E-2,9.903759E-4,2.8610185E-3,6.8267584E-3,0E0,0E0,0E0,2.0141248E-5,1.0725656E-3,3.4208925E-4,3.6125332E-3,0E0,0E0,0E0,9.2830334E-5,0E0,0E0,0E0,0E0,0E0,0E0],"parents":[2147483647,0,0,1,1,2,2,3,3,4,4,5,5,9,9,10,10,11,11,12,12,16,16],"right_children":[2,4,6,8,10,12,-1,-1,-1,14,16,18,20,-1,-1,-1,22,-1,-1,-1,-1,-1,-1],"split_conditions":[2.9292E-1,2.293293E-1,3.9601684E-1,1.6406061E-1,3.8406867E-1,3.8108143E-1,1.1906365E-3,-3.3812365E-4,-6.8398064E-4,1.7845684E-1,3.769522E-1,3.259957E-1,4.6094283E-1,-1.11121684E-4,-2.8369008E-4,1.4243304E-4,3.8793397E-1,8.481413E-5,-1.0036006E-4,6.489105E-4,1.887799E-4,-2.6150245E-5,-1.4075756E-4],"split_indices":[29,29,29,9,0,0,0,0,0,5,16,0,16,0,0,0,0,0,0,0,0,0,0],"split_type":[0,0,0,0,0,0,0,0,0,0,0,0,0,0,0,0,0,0,0,0,0,0,0],"sum_hessian":[7.9E1,4.7E1,3.2E1,3.4E1,1.3E1,2.3E1,9E0,4E0,3E1,7E0,6E0,2E0,2.1E1,2E0,5E0,3E0,3E0,1E0,1E0,1.8E1,3E0,2E0,1E0],"tree_param":{"num_deleted":"0","num_feature":"31","num_nodes":"23","size_leaf_vector":"1"}},{"base_weights":[3.0406303E-4,-4.717176E-2,8.1002824E-2,-6.478657E-2,-8.131165E-3,5.580241E-2,1.1415324E-3,-2.3742294E-4,-6.6554634E-4,-2.46535E-2,9.294633E-3,8.439004E-5,5.7964876E-2,-1.4775917E-4,-2.9600383E-4,2.1355461E-2,-4.625124E-3,6.1318756E-4,2.0755907E-4,2.3878753E-4,5.6311488E-5,-1.1158973E-2,3.4504335E-3,-2.7330816E-5,-1.4005377E-4,-1.1633188E-5,6.3389685E-5],"categories":[],"categories_nodes":[],"categories_segments":[],"categories_sizes":[],"default_left":[0,0,0,0,0,0,0,0,0,0,0,0,0,0,0,0,0,0,0,0,0,0,0,0,0,0,0],"id":26,"left_children":[1,3,5,7,9,11,-1,-1,-1,13,15,-1,17,-1,-1,19,21,-1,-1,-1,-1,23,25,-1,-1,-1,-1],"loss_changes":[3.1032026E-1,3.4545533E-2,1.869212E-2,9.59754E-4,5.1236977E-3,1.4568456E-3,0E0,0E0,0E0,2.396293E-6,1.6097261E-3,0E0,9.735748E-4,0E0,0E0,6.392016E-5,3.0232567E-4,0E0,0E0,0E0,0E0,3.3672637E-5,4.7355203E-5,0E0,0E0,0E0,0E0],"parents":[2147483647,0,0,1,1,2,2,3,3,4,4,5,5,9,9,10,10,12,12,15,15,16,16,21,21,22,22],"right_children":[2,4,6,8,10,12,-1,-1,-1,14,16,-1,18,-1,-1,20,22,-1,-1,-1,-1,24,26,-1,-1,-1,-1],"split_conditions":[3.136959E-1,2.293293E-1,4.018155E-1,1.9181652E-1,3.8406867E-1,3.259957E-1,1.1415324E-3,-2.3742294E-4,-6.6554634E-4,2.403695E-1,3.769522E-1,8.439004E-5,3.9285412E-1,-1.4775917E-4,-2.9600383E-4,4.7508746E-1,3.8793397E-1,6.1318756E-4,2.0755907E-4,2.3878753E-4,5.6311488E-5,3.8793397E-1,3.8459557E-1,-2.7330816E-5,-1.4005377E-4,-1.1633188E-5,6.3389685E-5],"split_indices":[29,29,12,30,0,0,0,0,0,28,16,0,12,0,0,6,1,0,0,0,0,0,0,0,0,0,0],"split_type":[0,0,0,0,0,0,0,0,0,0,0,0,0,0,0,0,0,0,0,0,0,0,0,0,0,0,0],"sum_hessian":[7.9E1,5E1,2.9E1,3.4E1,1.6E1,1.8E1,1.1E1,2E0,3.2E1,8E0,8E0,1E0,1.7E1,4E0,4E0,4E0,4E0,1.5E1,2E0,3E0,1E0,2E0,2E0,1E0,1E0,1E0,1E0],"tree_param":{"num_deleted":"0","num_feature":"31","num_nodes":"27","size_leaf_vector":"1"}},{"base_weights":[3.1201672E-4,-4.672293E-2,8.026103E-2,-6.4164504E-2,-8.065402E-3,5.5292025E-2,1.1310686E-3,-3.309504E-4,-6.710589E-4,-2.4456274E-2,9.221626E-3,8.396804E-5,5.7430826E-2,-1.4657709E-4,-2.9363582E-4,2.120093E-2,-4.602003E-3,5.943309E-4,1.16961746E-4,2.3699671E-4,5.6029854E-5,-1.1103183E-2,3.433178E-3,-2.7194172E-5,-1.3935356E-4,-1.1575073E-5,6.307274E-5],"categories":[],"categories_nodes":[],"categories_segments":[],"categories_sizes":[],"default_left":[0,0,0,0,0,0,0,0,0,0,0,0,0,0,0,0,0,0,0,0,0,0,0,0,0,0,0],"id":27,"left_children":[1,3,5,7,9,11,-1,-1,-1,13,15,-1,17,-1,-1,19,21,-1,-1,-1,-1,23,25,-1,-1,-1,-1],"loss_changes":[3.0458185E-1,3.3869132E-2,1.8349916E-2,9.77695E-4,5.0424673E-3,1.4234595E-3,0E0,0E0,0E0,2.35904E-6,1.5879439E-3,0E0,9.531677E-4,0E0,0E0,6.208732E-5,2.9931E-4,0E0,0E0,0E0,0E0,3.3336808E-5,4.6882928E-5,0E0,0E0,0E0,0E0],"parents":[2147483647,0,0,1,1,2,2,3,3,4,4,5,5,9,9,10,10,12,12,15,15,16,16,21,21,22,22],"right_children":[2,4,6,8,10,12,-1,-1,-1,14,16,-1,18,-1,-1,20,22,-1,-1,-1,-1,24,26,-1,-1,-1,-1],"split_conditions":[3.136959E-1,2.293293E-1,4.018155E-1,1.6406061E-1,3.8406867E-1,3.259957E-1,1.1310686E-3,-3.309504E-4,-6.710589E-4,2.403695E-1,3.769522E-1,8.396804E-5,3.9601684E-1,-1.4657709E-4,-2.9363582E-4,4.7508746E-1,3.8793397E-1,5.943309E-4,1.16961746E-4,2.3699671E-4,5.6029854E-5,3.8793397E-1,3.8459557E-1,-2.7194172E-5,-1.3935356E-4,-1.1575073E-5,6.307274E-5],"split_indices":[29,29,12,9,0,0,0,0,0,28,16,0,12,0,0,6,1,0,0,0,0,0,0,0,0,0,0],"split_type":[0,0,0,0,0,0,0,0,0,0,0,0,0,0,0,0,0,0,0,0,0,0,0,0,0,0,0],"sum_hessian":[7.9E1,5E1,2.9E1,3.4E1,1.6E1,1.8E1,1.1E1,4E0,3E1,8E0,8E0,1E0,1.7E1,4E0,4E0,4E0,4E0,1.6E1,1E0,3E0,1E0,2E0,2E0,1E0,1E0,1E0,1E0],"tree_param":{"num_deleted":"0","num_feature":"31","num_nodes":"27","size_leaf_vector":"1"}},{"base_weights":[3.1717663E-4,-5.006114E-2,7.358512E-2,-6.3551486E-2,-1.275948E-2,5.2824005E-2,1.1605328E-3,-3.2830276E-4,-6.645647E-4,-2.483354E-2,2.8622278E-3,-9.892285E-4,5.776108E-2,-1.0841861E-4,-2.7690455E-4,1.3870515E-4,-8.861616E-3,8.3548126E-5,-9.8386554E-5,6.300268E-2,1.8423192E-4,-2.571702E-5,-1.3865679E-4,6.566876E-4,2.6894003E-4],"categories":[],"categories_nodes":[],"categories_segments":[],"categories_sizes":[],"default_left":[0,0,0,0,0,0,0,0,0,0,0,0,0,0,0,0,0,0,0,0,0,0,0,0,0],"id":28,"left_children":[1,3,5,7,9,11,-1,-1,-1,13,15,17,19,-1,-1,-1,21,-1,-1,23,-1,-1,-1,-1,-1],"loss_changes":[2.98973E-1,2.3343317E-2,2.2965252E-2,9.417832E-4,2.7117236E-3,6.433457E-3,0E0,0E0,0E0,1.9568019E-5,1.0263313E-3,3.3026835E-4,3.3755526E-3,0E0,0E0,0E0,9.024213E-5,0E0,0E0,6.300211E-5,0E0,0E0,0E0,0E0,0E0],"parents":[2147483647,0,0,1,1,2,2,3,3,4,4,5,5,9,9,10,10,11,11,12,12,16,16,19,19],"right_children":[2,4,6,8,10,12,-1,-1,-1,14,16,18,20,-1,-1,-1,22,-1,-1,24,-1,-1,-1,-1,-1],"split_conditions":[2.9292E-1,2.293293E-1,3.9601684E-1,1.6406061E-1,3.8406867E-1,3.8108143E-1,1.1605328E-3,-3.2830276E-4,-6.645647E-4,1.7845684E-1,3.769522E-1,3.259957E-1,4.6094283E-1,-1.0841861E-4,-2.7690455E-4,1.3870515E-4,3.8793397E-1,8.3548126E-5,-9.8386554E-5,4.1780564E-1,1.8423192E-4,-2.571702E-5,-1.3865679E-4,6.566876E-4,2.6894003E-4],"split_indices":[29,29,29,9,0,0,0,0,0,5,16,0,16,0,0,0,0,0,0,8,0,0,0,0,0],"split_type":[0,0,0,0,0,0,0,0,0,0,0,0,0,0,0,0,0,0,0,0,0,0,0,0,0],"sum_hessian":[7.9E1,4.7E1,3.2E1,3.4E1,1.3E1,2.3E1,9E0,4E0,3E1,7E0,6E0,2E0,2.1E1,2E0,5E0,3E0,3E0,1E0,1E0,1.8E1,3E0,2E0,1E0,1.6E1,2E0],"tree_param":{"num_deleted":"0","num_feature":"31","num_nodes":"25","size_leaf_vector":"1"}},{"base_weights":[3.2464843E-4,-4.5851417E-2,7.8813136E-2,-6.2944345E-2,-7.962951E-3,5.4253038E-2,1.111322E-3,-2.291905E-4,-6.46756E-2,-2.4071772E-2,9.03064E-3,8.313045E-5,5.634342E-2,-1.9011616E-4,-6.5508485E-4,-1.5737004E-4,-3.0555978E-4,2.0832974E-2,-4.5778216E-3,5.8299437E-4,1.1545568E-4,2.3288406E-4,5.5056214E-5,-1.0992874E-2,3.3631723E-3,-2.6929676E-5,-1.3796343E-4,-1.1388659E-5,6.183624E-5],"categories":[],"categories_nodes":[],"categories_segments":[],"categories_sizes":[],"default_left":[0,0,0,0,0,0,0,0,0,0,0,0,0,0,0,0,0,0,0,0,0,0,0,0,0,0,0,0,0],"id":29,"left_children":[1,3,5,7,9,11,-1,-1,13,15,17,-1,19,-1,-1,-1,-1,21,23,-1,-1,-1,-1,25,27,-1,-1,-1,-1],"loss_changes":[2.9355684E-1,3.2527655E-2,1.7783523E-2,9.429753E-4,4.8710774E-3,1.3562292E-3,0E0,0E0,9.670854E-6,5.5395067E-6,1.540874E-3,0E0,9.0415776E-4,0E0,0E0,0E0,0E0,5.9959246E-5,2.9168042E-4,0E0,0E0,0E0,0E0,3.265252E-5,4.513567E-5,0E0,0E0,0E0,0E0],"parents":[2147483647,0,0,1,1,2,2,3,3,4,4,5,5,8,8,9,9,10,10,12,12,17,17,18,18,23,23,24,24],"right_children":[2,4,6,8,10,12,-1,-1,14,16,18,-1,20,-1,-1,-1,-1,22,24,-1,-1,-1,-1,26,28,-1,-1,-1,-1],"split_conditions":[3.136959E-1,2.293293E-1,4.018155E-1,1.9181652E-1,3.8406867E-1,3.259957E-1,1.111322E-3,-2.291905E-4,1.5151924E-1,2.4469726E-1,3.769522E-1,8.313045E-5,3.9601684E-1,-1.9011616E-4,-6.5508485E-4,-1.5737004E-4,-3.0555978E-4,4.7508746E-1,3.8793397E-1,5.8299437E-4,1.1545568E-4,2.3288406E-4,5.5056214E-5,3.8793397E-1,3.8459557E-1,-2.6929676E-5,-1.3796343E-4,-1.1388659E-5,6.183624E-5],"split_indices":[29,29,12,30,0,0,0,0,5,28,16,0,12,0,0,0,0,6,1,0,0,0,0,0,0,0,0,0,0],"split_type":[0,0,0,0,0,0,0,0,0,0,0,0,0,0,0,0,0,0,0,0,0,0,0,0,0,0,0,0,0],"sum_hessian":[7.9E1,5E1,2.9E1,3.4E1,1.6E1,1.8E1,1.1E1,2E0,3.2E1,8E0,8E0,1E0,1.7E1,1E0,3.1E1,5E0,3E0,4E0,4E0,1.6E1,1E0,3E0,1E0,2E0,2E0,1E0,1E0,1E0,1E0],"tree_param":{"num_deleted":"0","num_feature":"31","num_nodes":"29","size_leaf_vector":"1"}},{"base_weights":[3.2801443E-4,-4.5419645E-2,7.80881E-2,-6.2345598E-2,-7.90035E-3,5.3751644E-2,1.1011348E-3,-2.2766256E-4,-6.405446E-4,-2.3882497E-2,8.959615E-3,8.2714854E-5,5.5818792E-2,-1.5605874E-4,-3.0326805E-4,2.068224E-2,-4.5549334E-3,5.904149E-4,2.0024786E-4,2.311375E-4,5.478099E-5,-1.093791E-2,3.3463538E-3,-2.6794969E-5,-1.3727367E-4,-1.13317365E-5,6.152704E-5],"categories":[],"categories_nodes":[],"categories_segments":[],"categories_sizes":[],"default_left":[0,0,0,0,0,0,0,0,0,0,0,0,0,0,0,0,0,0,0,0,0,0,0,0,0,0,0],"id":30,"left_children":[1,3,5,7,9,11,-1,-1,-1,13,15,-1,17,-1,-1,19,21,-1,-1,-1,-1,23,25,-1,-1,-1,-1],"loss_changes":[2.8813407E-1,3.189499E-2,1.7462745E-2,9.0897083E-4,4.794771E-3,1.3245642E-3,0E0,0E0,0E0,6.7581423E-6,1.52004E-3,0E0,8.9406595E-4,0E0,0E0,5.822559E-5,2.8877074E-4,0E0,0E0,0E0,0E0,3.232708E-5,4.4685457E-5,0E0,0E0,0E0,0E0],"parents":[2147483647,0,0,1,1,2,2,3,3,4,4,5,5,9,9,10,10,12,12,15,15,16,16,21,21,22,22],"right_children":[2,4,6,8,10,12,-1,-1,-1,14,16,-1,18,-1,-1,20,22,-1,-1,-1,-1,24,26,-1,-1,-1,-1],"split_conditions":[3.136959E-1,2.293293E-1,4.018155E-1,1.9181652E-1,3.8406867E-1,3.259957E-1,1.1011348E-3,-2.2766256E-4,-6.405446E-4,2.4469726E-1,3.769522E-1,8.2714854E-5,3.9285412E-1,-1.5605874E-4,-3.0326805E-4,4.7508746E-1,3.8793397E-1,5.904149E-4,2.0024786E-4,2.311375E-4,5.478099E-5,3.8793397E-1,3.8459557E-1,-2.6794969E-5,-1.3727367E-4,-1.13317365E-5,6.152704E-5],"split_indices":[29,29,12,30,0,0,0,0,0,28,16,0,12,0,0,6,1,0,0,0,0,0,0,0,0,0,0],"split_type":[0,0,0,0,0,0,0,0,0,0,0,0,0,0,0,0,0,0,0,0,0,0,0,0,0,0,0],"sum_hessian":[7.9E1,5E1,2.9E1,3.4E1,1.6E1,1.8E1,1.1E1,2E0,3.2E1,8E0,8E0,1E0,1.7E1,5E0,3E0,4E0,4E0,1.5E1,2E0,3E0,1E0,2E0,2E0,1E0,1E0,1E0,1E0],"tree_param":{"num_deleted":"0","num_feature":"31","num_nodes":"27","size_leaf_vector":"1"}},{"base_weights":[3.3496955E-4,-4.866681E-2,7.160013E-2,-6.174695E-2,-1.249025E-2,3.9603695E-2,9.606362E-2,-3.1791886E-4,-6.458657E-4,-2.4248363E-2,2.731915E-3,4.5762915E-2,-2.3405552E-3,5.664619E-4,1.1599779E-3,-1.05606465E-4,-2.705083E-4,1.3507024E-4,-8.726172E-3,8.230135E-5,4.801696E-2,-9.632766E-5,6.121933E-5,-2.5290747E-5,-1.3658732E-4,5.012042E-4,1.13877206E-4],"categories":[],"categories_nodes":[],"categories_segments":[],"categories_sizes":[],"default_left":[0,0,0,0,0,0,0,0,0,0,0,0,0,0,0,0,0,0,0,0,0,0,0,0,0,0,0],"id":31,"left_children":[1,3,5,7,9,11,13,-1,-1,15,17,19,21,-1,-1,-1,-1,-1,23,-1,25,-1,-1,-1,-1,-1,-1],"loss_changes":[2.828541E-1,2.1942109E-2,2.2026092E-2,9.238124E-4,2.5720196E-3,4.2406116E-3,7.5727403E-3,0E0,0E0,2.1200627E-5,9.820997E-4,7.892251E-4,2.441019E-4,0E0,0E0,0E0,0E0,0E0,8.772625E-5,0E0,4.3086708E-4,0E0,0E0,0E0,0E0,0E0,0E0],"parents":[2147483647,0,0,1,1,2,2,3,3,4,4,5,5,6,6,9,9,10,10,11,11,12,12,18,18,20,20],"right_children":[2,4,6,8,10,12,14,-1,-1,16,18,20,22,-1,-1,-1,-1,-1,24,-1,26,-1,-1,-1,-1,-1,-1],"split_conditions":[2.9292E-1,2.293293E-1,3.4987423E-1,1.6406061E-1,3.8406867E-1,4.1227046E-1,3.8872495E-1,-3.1791886E-4,-6.458657E-4,1.7845684E-1,3.769522E-1,3.259957E-1,3.8108143E-1,5.664619E-4,1.1599779E-3,-1.05606465E-4,-2.705083E-4,1.3507024E-4,3.8793397E-1,8.230135E-5,4.1227046E-1,-9.632766E-5,6.121933E-5,-2.5290747E-5,-1.3658732E-4,5.012042E-4,1.13877206E-4],"split_indices":[29,29,30,9,0,13,13,0,0,5,16,0,0,0,0,0,0,0,0,0,14,0,0,0,0,0,0],"split_type":[0,0,0,0,0,0,0,0,0,0,0,0,0,0,0,0,0,0,0,0,0,0,0,0,0,0,0],"sum_hessian":[7.9E1,4.7E1,3.2E1,3.4E1,1.3E1,1.5E1,1.7E1,4E0,3E1,7E0,6E0,1.3E1,2E0,7E0,1E1,2E0,5E0,3E0,3E0,1E0,1.2E1,1E0,1E0,2E0,1E0,1.1E1,1E0],"tree_param":{"num_deleted":"0","num_feature":"31","num_nodes":"27","size_leaf_vector":"1"}},{"base_weights":[3.4439508E-4,-4.8208613E-2,7.095651E-2,-6.115702E-2,-1.2394121E-2,5.081678E-2,1.1219622E-3,-3.153755E-4,-6.3961546E-4,-2.4052886E-2,2.7007717E-3,-9.3041855E-4,5.5563364E-2,-1.0490234E-4,-2.6825396E-4,1.3405725E-4,-8.679375E-3,8.1889775E-5,-9.584605E-5,6.0586978E-2,1.781036E-4,-2.5122064E-5,-1.359044E-4,6.320519E-4,2.5554805E-4],"categories":[],"categories_nodes":[],"categories_segments":[],"categories_sizes":[],"default_left":[0,0,0,0,0,0,0,0,0,0,0,0,0,0,0,0,0,0,0,0,0,0,0,0,0],"id":32,"left_children":[1,3,5,7,9,11,-1,-1,-1,13,15,17,19,-1,-1,-1,21,-1,-1,23,-1,-1,-1,-1,-1],"loss_changes":[2.776952E-1,2.1501563E-2,2.1706909E-2,8.9021027E-4,2.528791E-3,5.94664E-3,0E0,0E0,0E0,1.9415747E-5,9.691209E-4,3.1525103E-4,3.0933619E-3,0E0,0E0,0E0,8.700747E-5,0E0,0E0,1.2752414E-4,0E0,0E0,0E0,0E0,0E0],"parents":[2147483647,0,0,1,1,2,2,3,3,4,4,5,5,9,9,10,10,11,11,12,12,16,16,19,19],"right_children":[2,4,6,8,10,12,-1,-1,-1,14,16,18,20,-1,-1,-1,22,-1,-1,24,-1,-1,-1,-1,-1],"split_conditions":[2.9292E-1,2.293293E-1,3.9601684E-1,1.6406061E-1,3.8406867E-1,3.8108143E-1,1.1219622E-3,-3.153755E-4,-6.3961546E-4,1.7845684E-1,3.769522E-1,3.259957E-1,4.6094283E-1,-1.0490234E-4,-2.6825396E-4,1.3405725E-4,3.8793397E-1,8.1889775E-5,-9.584605E-5,4.1780564E-1,1.781036E-4,-2.5122064E-5,-1.359044E-4,6.320519E-4,2.5554805E-4],"split_indices":[29,29,29,9,0,0,0,0,0,5,16,0,16,0,0,0,0,0,0,8,0,0,0,0,0],"split_type":[0,0,0,0,0,0,0,0,0,0,0,0,0,0,0,0,0,0,0,0,0,0,0,0,0],"sum_hessian":[7.9E1,4.7E1,3.2E1,3.4E1,1.3E1,2.3E1,9E0,4E0,3E1,7E0,6E0,2E0,2.1E1,2E0,5E0,3E0,3E0,1E0,1E0,1.8E1,3E0,2E0,1E0,1.6E1,2E0],"tree_param":{"num_deleted":"0","num_feature":"31","num_nodes":"25","size_leaf_vector":"1"}},{"base_weights":[3.5118405E-4,-4.4152856E-2,7.599635E-2,-6.0572736E-2,-7.7499896E-3,5.2264225E-2,1.0723916E-3,-2.1974891E-4,-6.224609E-2,-2.3327267E-2,8.688397E-3,8.148029E-5,5.426246E-2,-1.8279649E-4,-6.3048804E-4,-1.5194046E-4,-2.9695278E-4,2.0144474E-2,-4.50536E-3,5.737635E-4,1.9567528E-4,2.2522516E-4,5.316153E-5,-1.0775586E-2,3.2666523E-3,-2.6408881E-5,-1.3522491E-4,-1.1022985E-5,6.002277E-5],"categories":[],"categories_nodes":[],"categories_segments":[],"categories_sizes":[],"default_left":[0,0,0,0,0,0,0,0,0,0,0,0,0,0,0,0,0,0,0,0,0,0,0,0,0,0,0,0,0],"id":33,"left_children":[1,3,5,7,9,11,-1,-1,13,15,17,-1,19,-1,-1,-1,-1,21,23,-1,-1,-1,-1,25,27,-1,-1,-1,-1],"loss_changes":[2.7267668E-1,3.0014828E-2,1.6638964E-2,8.9272857E-4,4.5557865E-3,1.2327991E-3,0E0,0E0,1.2144446E-5,1.4940742E-5,1.4510965E-3,0E0,8.219406E-4,0E0,0E0,0E0,0E0,5.6578545E-5,2.7886144E-4,0E0,0E0,0E0,0E0,3.1324365E-5,4.2471733E-5,0E0,0E0,0E0,0E0],"parents":[2147483647,0,0,1,1,2,2,3,3,4,4,5,5,8,8,9,9,10,10,12,12,17,17,18,18,23,23,24,24],"right_children":[2,4,6,8,10,12,-1,-1,14,16,18,-1,20,-1,-1,-1,-1,22,24,-1,-1,-1,-1,26,28,-1,-1,-1,-1],"split_conditions":[3.136959E-1,2.293293E-1,4.018155E-1,1.9181652E-1,3.8406867E-1,3.259957E-1,1.0723916E-3,-2.1974891E-4,1.5151924E-1,2.4469726E-1,3.769522E-1,8.148029E-5,3.9285412E-1,-1.8279649E-4,-6.3048804E-4,-1.5194046E-4,-2.9695278E-4,4.7508746E-1,3.8793397E-1,5.737635E-4,1.9567528E-4,2.2522516E-4,5.316153E-5,3.8793397E-1,3.8459557E-1,-2.6408881E-5,-1.3522491E-4,-1.1022985E-5,6.002277E-5],"split_indices":[29,29,12,30,0,0,0,0,5,28,16,0,12,0,0,0,0,6,1,0,0,0,0,0,0,0,0,0,0],"split_type":[0,0,0,0,0,0,0,0,0,0,0,0,0,0,0,0,0,0,0,0,0,0,0,0,0,0,0,0,0],"sum_hessian":[7.9E1,5E1,2.9E1,3.4E1,1.6E1,1.8E1,1.1E1,2E0,3.2E1,8E0,8E0,1E0,1.7E1,1E0,3.1E1,5E0,3E0,4E0,4E0,1.5E1,2E0,3E0,1E0,2E0,2E0,1E0,1E0,1E0,1E0],"tree_param":{"num_deleted":"0","num_feature":"31","num_nodes":"29","size_leaf_vector":"1"}},{"base_weights":[3.552627E-4,-4.3737136E-2,7.53005E-2,-5.9996527E-2,-7.6891473E-3,5.1786374E-2,1.0625615E-3,-2.1828388E-4,-6.164828E-4,-2.3143876E-2,8.619931E-3,8.1072896E-5,5.3762585E-2,-1.5067436E-4,-2.9472567E-4,1.999871E-2,-4.4828355E-3,5.5614044E-4,1.1143893E-4,2.2353604E-4,5.2895695E-5,-1.0721713E-2,3.2503207E-3,-2.6276855E-5,-1.3454884E-4,-1.096785E-5,5.972266E-5],"categories":[],"categories_nodes":[],"categories_segments":[],"categories_sizes":[],"default_left":[0,0,0,0,0,0,0,0,0,0,0,0,0,0,0,0,0,0,0,0,0,0,0,0,0,0,0],"id":34,"left_children":[1,3,5,7,9,11,-1,-1,-1,13,15,-1,17,-1,-1,19,21,-1,-1,-1,-1,23,25,-1,-1,-1,-1],"loss_changes":[2.6765466E-1,2.9430702E-2,1.633422E-2,8.608848E-4,4.484389E-3,1.2041926E-3,0E0,0E0,0E0,1.5943777E-5,1.4314924E-3,0E0,8.005649E-4,0E0,0E0,5.495106E-5,2.7608007E-4,0E0,0E0,0E0,0E0,3.1011907E-5,4.2048046E-5,0E0,0E0,0E0,0E0],"parents":[2147483647,0,0,1,1,2,2,3,3,4,4,5,5,9,9,10,10,12,12,15,15,16,16,21,21,22,22],"right_children":[2,4,6,8,10,12,-1,-1,-1,14,16,-1,18,-1,-1,20,22,-1,-1,-1,-1,24,26,-1,-1,-1,-1],"split_conditions":[3.136959E-1,2.293293E-1,4.018155E-1,1.9181652E-1,3.8406867E-1,3.259957E-1,1.0625615E-3,-2.1828388E-4,-6.164828E-4,2.4469726E-1,3.769522E-1,8.1072896E-5,3.9601684E-1,-1.5067436E-4,-2.9472567E-4,4.7508746E-1,3.8793397E-1,5.5614044E-4,1.1143893E-4,2.2353604E-4,5.2895695E-5,3.8793397E-1,3.8459557E-1,-2.6276855E-5,-1.3454884E-4,-1.096785E-5,5.972266E-5],"split_indices":[29,29,12,30,0,0,0,0,0,28,16,0,12,0,0,6,1,0,0,0,0,0,0,0,0,0,0],"split_type":[0,0,0,0,0,0,0,0,0,0,0,0,0,0,0,0,0,0,0,0,0,0,0,0,0,0,0],"sum_hessian":[7.9E1,5E1,2.9E1,3.4E1,1.6E1,1.8E1,1.1E1,2E0,3.2E1,8E0,8E0,1E0,1.7E1,5E0,3E0,4E0,4E0,1.6E1,1E0,3E0,1E0,2E0,2E0,1E0,1E0,1E0,1E0],"tree_param":{"num_deleted":"0","num_feature":"31","num_nodes":"27","size_leaf_vector":"1"}},{"base_weights":[3.6039817E-4,-4.6866063E-2,6.904251E-2,-5.9420418E-2,-1.2132594E-2,4.9364492E-2,1.093655E-3,-3.053901E-4,-6.216192E-4,-2.3485823E-2,2.575751E-3,-8.790791E-4,5.3972047E-2,-1.2430843E-4,-2.763264E-4,1.3054289E-4,-8.546725E-3,8.066758E-5,-9.385377E-5,5.8834556E-2,1.7382114E-4,-2.4705629E-5,-1.3387605E-4,6.140959E-4,2.463117E-4],"categories":[],"categories_nodes":[],"categories_segments":[],"categories_sizes":[],"default_left":[0,0,0,0,0,0,0,0,0,0,0,0,0,0,0,0,0,0,0,0,0,0,0,0,0],"id":35,"left_children":[1,3,5,7,9,11,-1,-1,-1,13,15,17,19,-1,-1,-1,21,-1,-1,23,-1,-1,-1,-1,-1],"loss_changes":[2.627248E-1,2.0209767E-2,2.0785958E-2,8.728877E-4,2.3983144E-3,5.603444E-3,0E0,0E0,0E0,2.3247208E-5,9.274024E-4,3.0399743E-4,2.891548E-3,0E0,0E0,0E0,8.4581E-5,0E0,0E0,1.6083568E-4,0E0,0E0,0E0,0E0,0E0],"parents":[2147483647,0,0,1,1,2,2,3,3,4,4,5,5,9,9,10,10,11,11,12,12,16,16,19,19],"right_children":[2,4,6,8,10,12,-1,-1,-1,14,16,18,20,-1,-1,-1,22,-1,-1,24,-1,-1,-1,-1,-1],"split_conditions":[2.9292E-1,2.293293E-1,3.9601684E-1,1.6406061E-1,3.8406867E-1,3.8108143E-1,1.093655E-3,-3.053901E-4,-6.216192E-4,2.3533511E-1,3.769522E-1,3.259957E-1,4.6094283E-1,-1.2430843E-4,-2.763264E-4,1.3054289E-4,3.8793397E-1,8.066758E-5,-9.385377E-5,4.1780564E-1,1.7382114E-4,-2.4705629E-5,-1.3387605E-4,6.140959E-4,2.463117E-4],"split_indices":[29,29,29,9,0,0,0,0,0,28,16,0,16,0,0,0,0,0,0,8,0,0,0,0,0],"split_type":[0,0,0,0,0,0,0,0,0,0,0,0,0,0,0,0,0,0,0,0,0,0,0,0,0],"sum_hessian":[7.9E1,4.7E1,3.2E1,3.4E1,1.3E1,2.3E1,9E0,4E0,3E1,7E0,6E0,2E0,2.1E1,3E0,4E0,3E0,3E0,1E0,1E0,1.8E1,3E0,2E0,1E0,1.6E1,2E0],"tree_param":{"num_deleted":"0","num_feature":"31","num_nodes":"25","size_leaf_vector":"1"}},{"base_weights":[3.6627892E-4,-4.292075E-2,7.394202E-2,-5.8852702E-2,-7.594916E-3,5.081403E-2,1.043995E-1,-3.0294704E-4,-6.156036E-2,-2.278725E-2,8.441299E-3,8.026421E-5,5.2745204E-2,1.0827652E-3,3.0876143E-4,-6.240565E-4,-1.8100806E-4,-1.481802E-4,-2.9044284E-4,1.9652862E-2,-4.458523E-3,5.575735E-4,1.9098679E-4,2.1967149E-4,5.1978528E-5,-1.061524E-2,3.1843681E-3,-2.6021897E-5,-1.3320669E-4,-1.0789484E-5,5.8555004E-5],"categories":[],"categories_nodes":[],"categories_segments":[],"categories_sizes":[],"default_left":[0,0,0,0,0,0,0,0,0,0,0,0,0,0,0,0,0,0,0,0,0,0,0,0,0,0,0,0,0,0,0],"id":36,"left_children":[1,3,5,7,9,11,13,-1,15,17,19,-1,21,-1,-1,-1,-1,-1,-1,23,25,-1,-1,-1,-1,27,29,-1,-1,-1,-1],"loss_changes":[2.5796366E-1,2.8256305E-2,1.5827656E-2,8.4142387E-4,4.3340228E-3,1.146622E-3,7.7456236E-5,0E0,9.223819E-6,1.8395018E-5,1.3892673E-3,0E0,7.593781E-4,0E0,0E0,0E0,0E0,0E0,0E0,5.308329E-5,2.6907842E-4,0E0,0E0,0E0,0E0,3.037331E-5,4.0481435E-5,0E0,0E0,0E0,0E0],"parents":[2147483647,0,0,1,1,2,2,3,3,4,4,5,5,6,6,8,8,9,9,10,10,12,12,19,19,20,20,25,25,26,26],"right_children":[2,4,6,8,10,12,14,-1,16,18,20,-1,22,-1,-1,-1,-1,-1,-1,24,26,-1,-1,-1,-1,28,30,-1,-1,-1,-1],"split_conditions":[3.136959E-1,2.293293E-1,4.018155E-1,1.6406061E-1,3.8406867E-1,3.259957E-1,4.7508746E-1,-3.0294704E-4,3.6140168E-1,2.4469726E-1,3.769522E-1,8.026421E-5,3.9285412E-1,1.0827652E-3,3.0876143E-4,-6.240565E-4,-1.8100806E-4,-1.481802E-4,-2.9044284E-4,4.7508746E-1,3.8793397E-1,5.575735E-4,1.9098679E-4,2.1967149E-4,5.1978528E-5,3.8793397E-1,3.8459557E-1,-2.6021897E-5,-1.3320669E-4,-1.0789484E-5,5.8555004E-5],"split_indices":[29,29,12,9,0,0,1,0,18,28,16,0,12,0,0,0,0,0,0,6,1,0,0,0,0,0,0,0,0,0,0],"split_type":[0,0,0,0,0,0,0,0,0,0,0,0,0,0,0,0,0,0,0,0,0,0,0,0,0,0,0,0,0,0,0],"sum_hessian":[7.9E1,5E1,2.9E1,3.4E1,1.6E1,1.8E1,1.1E1,4E0,3E1,8E0,8E0,1E0,1.7E1,1E1,1E0,2.9E1,1E0,5E0,3E0,4E0,4E0,1.5E1,2E0,3E0,1E0,2E0,2E0,1E0,1E0,1E0,1E0],"tree_param":{"num_deleted":"0","num_feature":"31","num_nodes":"31","size_leaf_vector":"1"}},{"base_weights":[3.730405E-4,-4.2518724E-2,7.327661E-2,-5.544864E-2,-4.5831042E-4,5.0349515E-2,1.0347146E-1,-5.829583E-2,-2.4428565E-2,1.4287387E-2,-1.1460295E-2,7.986292E-5,5.225934E-2,1.0729217E-3,3.0721768E-4,-2.1064868E-4,-5.9913926E-2,-3.0677373E-4,-1.00369005E-4,-1.0735542E-5,1.7574286E-2,1.066716E-4,-1.614524E-2,5.405038E-4,1.0905787E-4,-1.7575853E-4,-6.0687744E-4,7.332057E-5,2.195842E-4,-2.589181E-5,-1.7973052E-4],"categories":[],"categories_nodes":[],"categories_segments":[],"categories_sizes":[],"default_left":[0,0,0,0,0,0,0,0,0,0,0,0,0,0,0,0,0,0,0,0,0,0,0,0,0,0,0,0,0,0,0],"id":37,"left_children":[1,3,5,7,9,11,13,15,17,19,21,-1,23,-1,-1,-1,25,-1,-1,-1,27,-1,29,-1,-1,-1,-1,-1,-1,-1,-1],"loss_changes":[2.5327265E-1,2.7710296E-2,1.5558645E-2,2.0203963E-3,2.2727528E-3,1.1198632E-3,3.926456E-5,8.4643066E-4,1.4174823E-4,3.2180618E-4,1.0015512E-3,0E0,7.437244E-4,0E0,0E0,0E0,1.4513731E-5,0E0,0E0,0E0,6.351608E-5,0E0,1.2691005E-4,0E0,0E0,0E0,0E0,0E0,0E0,0E0,0E0],"parents":[2147483647,0,0,1,1,2,2,3,3,4,4,5,5,6,6,7,7,8,8,9,9,10,10,12,12,16,16,20,20,22,22],"right_children":[2,4,6,8,10,12,14,16,18,20,22,-1,24,-1,-1,-1,26,-1,-1,-1,28,-1,30,-1,-1,-1,-1,-1,-1,-1,-1],"split_conditions":[3.136959E-1,3.6693674E-1,4.018155E-1,2.293293E-1,3.259957E-1,3.259957E-1,4.7508746E-1,1.9181652E-1,3.2674667E-1,3.8459557E-1,3.672002E-1,7.986292E-5,3.9601684E-1,1.0729217E-3,3.0721768E-4,-2.1064868E-4,1.5151924E-1,-3.0677373E-4,-1.00369005E-4,-1.0735542E-5,3.9601684E-1,1.066716E-4,3.672002E-1,5.405038E-4,1.0905787E-4,-1.7575853E-4,-6.0687744E-4,7.332057E-5,2.195842E-4,-2.589181E-5,-1.7973052E-4],"split_indices":[29,6,12,29,20,0,1,30,1,0,2,0,12,0,0,0,5,0,0,0,2,0,4,0,0,0,0,0,0,0,0],"split_type":[0,0,0,0,0,0,0,0,0,0,0,0,0,0,0,0,0,0,0,0,0,0,0,0,0,0,0,0,0,0,0],"sum_hessian":[7.9E1,5E1,2.9E1,3.8E1,1.2E1,1.8E1,1.1E1,3.4E1,4E0,5E0,7E0,1E0,1.7E1,1E1,1E0,2E0,3.2E1,2E0,2E0,1E0,4E0,1E0,6E0,1.6E1,1E0,1E0,3.1E1,2E0,2E0,1E0,5E0],"tree_param":{"num_deleted":"0","num_feature":"31","num_nodes":"31","size_leaf_vector":"1"}},{"base_weights":[3.804691E-4,-4.5567024E-2,6.720166E-2,-5.774125E-2,-1.1876665E-2,4.8007753E-2,1.0654685E-3,-2.0924439E-4,-5.9338496E-4,-2.2948844E-2,2.4739206E-3,-8.187592E-4,5.2483745E-2,-1.2131359E-4,-2.7013064E-4,1.2733668E-4,-8.404307E-3,7.946357E-5,-9.174496E-5,5.7199933E-2,1.6960918E-4,-2.4296145E-5,-1.3164192E-4,5.9740816E-4,2.3734917E-4],"categories":[],"categories_nodes":[],"categories_segments":[],"categories_sizes":[],"default_left":[0,0,0,0,0,0,0,0,0,0,0,0,0,0,0,0,0,0,0,0,0,0,0,0,0],"id":38,"left_children":[1,3,5,7,9,11,-1,-1,-1,13,15,17,19,-1,-1,-1,21,-1,-1,23,-1,-1,-1,-1,-1],"loss_changes":[2.4868347E-1,1.900161E-2,1.9806132E-2,8.165762E-4,2.281265E-3,5.2881017E-3,0E0,0E0,0E0,2.4011824E-5,8.882727E-4,2.9262083E-4,2.7155466E-3,0E0,0E0,0E0,8.177149E-5,0E0,0E0,1.9764528E-4,0E0,0E0,0E0,0E0,0E0],"parents":[2147483647,0,0,1,1,2,2,3,3,4,4,5,5,9,9,10,10,11,11,12,12,16,16,19,19],"right_children":[2,4,6,8,10,12,-1,-1,-1,14,16,18,20,-1,-1,-1,22,-1,-1,24,-1,-1,-1,-1,-1],"split_conditions":[2.9292E-1,2.293293E-1,3.9601684E-1,1.9181652E-1,3.8406867E-1,3.8108143E-1,1.0654685E-3,-2.0924439E-4,-5.9338496E-4,2.3533511E-1,3.769522E-1,3.259957E-1,4.6094283E-1,-1.2131359E-4,-2.7013064E-4,1.2733668E-4,3.8793397E-1,7.946357E-5,-9.174496E-5,4.1780564E-1,1.6960918E-4,-2.4296145E-5,-1.3164192E-4,5.9740816E-4,2.3734917E-4],"split_indices":[29,29,29,30,0,0,0,0,0,28,16,0,16,0,0,0,0,0,0,8,0,0,0,0,0],"split_type":[0,0,0,0,0,0,0,0,0,0,0,0,0,0,0,0,0,0,0,0,0,0,0,0,0],"sum_hessian":[7.9E1,4.7E1,3.2E1,3.4E1,1.3E1,2.3E1,9E0,2E0,3.2E1,7E0,6E0,2E0,2.1E1,3E0,4E0,3E0,3E0,1E0,1E0,1.8E1,3E0,2E0,1E0,1.6E1,2E0],"tree_param":{"num_deleted":"0","num_feature":"31","num_nodes":"25","size_leaf_vector":"1"}},{"base_weights":[3.8709678E-4,-4.1725755E-2,7.1966045E-2,-5.441238E-2,-4.5620822E-4,4.9404006E-2,1.01692095E-1,-5.718678E-2,-2.410912E-2,1.4025305E-2,-1.1260318E-2,7.90663E-5,5.1270157E-2,1.0543329E-3,3.0269445E-4,-2.9334443E-4,-5.9834354E-2,-3.0292763E-4,-9.8891E-5,-1.0560453E-5,1.7252784E-2,1.0550156E-4,-1.5883265E-2,5.30194E-4,1.07664615E-4,-6.0668157E-4,-1.7410173E-4,7.1841976E-5,2.1570444E-4,-2.5640875E-5,-1.7675779E-4],"categories":[],"categories_nodes":[],"categories_segments":[],"categories_sizes":[],"default_left":[0,0,0,0,0,0,0,0,0,0,0,0,0,0,0,0,0,0,0,0,0,0,0,0,0,0,0,0,0,0,0],"id":39,"left_children":[1,3,5,7,9,11,13,15,17,19,21,-1,23,-1,-1,-1,25,-1,-1,-1,27,-1,29,-1,-1,-1,-1,-1,-1,-1,-1],"loss_changes":[2.4415433E-1,2.6677303E-2,1.5096411E-2,1.9001365E-3,2.1919075E-3,1.0659918E-3,1.5065074E-5,8.2573295E-4,1.4008954E-4,3.1026825E-4,9.742003E-4,0E0,7.044859E-4,0E0,0E0,0E0,4.0337443E-5,0E0,0E0,0E0,6.239733E-5,0E0,1.2180151E-4,0E0,0E0,0E0,0E0,0E0,0E0,0E0,0E0],"parents":[2147483647,0,0,1,1,2,2,3,3,4,4,5,5,6,6,7,7,8,8,9,9,10,10,12,12,16,16,20,20,22,22],"right_children":[2,4,6,8,10,12,14,16,18,20,22,-1,24,-1,-1,-1,26,-1,-1,-1,28,-1,30,-1,-1,-1,-1,-1,-1,-1,-1],"split_conditions":[3.136959E-1,3.6693674E-1,4.018155E-1,2.293293E-1,3.259957E-1,3.259957E-1,4.7508746E-1,1.6406061E-1,3.2674667E-1,3.8459557E-1,3.672002E-1,7.90663E-5,3.9601684E-1,1.0543329E-3,3.0269445E-4,-2.9334443E-4,3.6140168E-1,-3.0292763E-4,-9.8891E-5,-1.0560453E-5,3.9601684E-1,1.0550156E-4,3.672002E-1,5.30194E-4,1.07664615E-4,-6.0668157E-4,-1.7410173E-4,7.1841976E-5,2.1570444E-4,-2.5640875E-5,-1.7675779E-4],"split_indices":[29,6,12,29,20,0,1,9,1,0,2,0,12,0,0,0,18,0,0,0,2,0,4,0,0,0,0,0,0,0,0],"split_type":[0,0,0,0,0,0,0,0,0,0,0,0,0,0,0,0,0,0,0,0,0,0,0,0,0,0,0,0,0,0,0],"sum_hessian":[7.9E1,5E1,2.9E1,3.8E1,1.2E1,1.8E1,1.1E1,3.4E1,4E0,5E0,7E0,1E0,1.7E1,1E1,1E0,4E0,3E1,2E0,2E0,1E0,4E0,1E0,6E0,1.6E1,1E0,2.9E1,1E0,2E0,2E0,1E0,5E0],"tree_param":{"num_deleted":"0","num_feature":"31","num_nodes":"31","size_leaf_vector":"1"}},{"base_weights":[3.929533E-4,-4.471818E-2,6.599724E-2,-5.6645595E-2,-1.1705489E-2,3.6197193E-2,8.881966E-2,-2.9099768E-4,-5.926119E-2,-2.2601543E-2,2.4193567E-3,4.184985E-2,-2.2476118E-3,5.1717396E-4,1.0772861E-3,-6.008169E-4,-1.7323121E-4,-1.1946734E-4,-2.660508E-4,1.2539893E-4,-8.306019E-3,7.867098E-5,4.3858748E-2,-9.0402515E-5,5.6688335E-5,-2.401362E-5,-1.3009994E-4,4.5728206E-4,1.0712623E-4],"categories":[],"categories_nodes":[],"categories_segments":[],"categories_sizes":[],"default_left":[0,0,0,0,0,0,0,0,0,0,0,0,0,0,0,0,0,0,0,0,0,0,0,0,0,0,0,0,0],"id":40,"left_children":[1,3,5,7,9,11,13,-1,15,17,19,21,23,-1,-1,-1,-1,-1,-1,-1,25,-1,27,-1,-1,-1,-1,-1,-1],"loss_changes":[2.3970999E-1,1.8237218E-2,1.9228578E-2,7.97227E-4,2.2093523E-3,3.571108E-3,7.056728E-3,0E0,2.5905669E-5,2.3411587E-5,8.6398254E-4,6.107092E-4,2.1256837E-4,0E0,0E0,0E0,0E0,0E0,0E0,0E0,7.985975E-5,0E0,3.1567924E-4,0E0,0E0,0E0,0E0,0E0,0E0],"parents":[2147483647,0,0,1,1,2,2,3,3,4,4,5,5,6,6,8,8,9,9,10,10,11,11,12,12,20,20,22,22],"right_children":[2,4,6,8,10,12,14,-1,16,18,20,22,24,-1,-1,-1,-1,-1,-1,-1,26,-1,28,-1,-1,-1,-1,-1,-1],"split_conditions":[2.9292E-1,2.293293E-1,3.4987423E-1,1.6406061E-1,3.8406867E-1,4.1227046E-1,3.8872495E-1,-2.9099768E-4,3.6140168E-1,2.3533511E-1,3.769522E-1,3.259957E-1,3.8108143E-1,5.1717396E-4,1.0772861E-3,-6.008169E-4,-1.7323121E-4,-1.1946734E-4,-2.660508E-4,1.2539893E-4,3.8793397E-1,7.867098E-5,4.1227046E-1,-9.0402515E-5,5.6688335E-5,-2.401362E-5,-1.3009994E-4,4.5728206E-4,1.0712623E-4],"split_indices":[29,29,30,9,0,13,13,0,18,28,16,0,0,0,0,0,0,0,0,0,0,0,14,0,0,0,0,0,0],"split_type":[0,0,0,0,0,0,0,0,0,0,0,0,0,0,0,0,0,0,0,0,0,0,0,0,0,0,0,0,0],"sum_hessian":[7.9E1,4.7E1,3.2E1,3.4E1,1.3E1,1.5E1,1.7E1,4E0,3E1,7E0,6E0,1.3E1,2E0,7E0,1E1,2.9E1,1E0,3E0,4E0,3E0,3E0,1E0,1.2E1,1E0,1E0,2E0,1E0,1.1E1,1E0],"tree_param":{"num_deleted":"0","num_feature":"31","num_nodes":"29","size_leaf_vector":"1"}},{"base_weights":[3.9807893E-4,-4.095034E-2,7.0677124E-2,-5.3405277E-2,-4.354979E-4,4.85013E-2,9.989907E-4,-5.610957E-2,-2.379418E-2,1.3807748E-2,-1.1063496E-2,7.827759E-5,5.0326068E-2,-2.0187667E-4,-5.7674907E-2,-2.991344E-4,-9.7435266E-5,-1.0387599E-5,1.6984802E-2,1.0434702E-4,-1.5625339E-2,5.319664E-2,1.8241018E-4,-1.6899109E-4,-5.842105E-4,7.075598E-5,2.1232406E-4,-2.5392621E-5,-1.7383142E-4,5.5893627E-4,2.2878459E-4],"categories":[],"categories_nodes":[],"categories_segments":[],"categories_sizes":[],"default_left":[0,0,0,0,0,0,0,0,0,0,0,0,0,0,0,0,0,0,0,0,0,0,0,0,0,0,0,0,0,0,0],"id":41,"left_children":[1,3,5,7,9,11,-1,13,15,17,19,-1,21,-1,23,-1,-1,-1,25,-1,27,29,-1,-1,-1,-1,-1,-1,-1,-1,-1],"loss_changes":[2.3536845E-1,2.571185E-2,1.4595374E-2,1.7879233E-3,2.1206655E-3,1.0162331E-3,0E0,8.0372393E-4,1.3843551E-4,3.00652E-4,9.476171E-4,0E0,6.8748E-4,0E0,1.6756356E-5,0E0,0E0,0E0,6.02199E-5,0E0,1.16878655E-4,2.9530376E-5,0E0,0E0,0E0,0E0,0E0,0E0,0E0,0E0,0E0],"parents":[2147483647,0,0,1,1,2,2,3,3,4,4,5,5,7,7,8,8,9,9,10,10,12,12,14,14,18,18,20,20,21,21],"right_children":[2,4,6,8,10,12,-1,14,16,18,20,-1,22,-1,24,-1,-1,-1,26,-1,28,30,-1,-1,-1,-1,-1,-1,-1,-1,-1],"split_conditions":[3.136959E-1,3.6693674E-1,4.018155E-1,2.293293E-1,3.259957E-1,3.259957E-1,9.989907E-4,1.9181652E-1,3.2674667E-1,3.8459557E-1,3.672002E-1,7.827759E-5,3.9285412E-1,-2.0187667E-4,1.5151924E-1,-2.991344E-4,-9.7435266E-5,-1.0387599E-5,3.9601684E-1,1.0434702E-4,3.672002E-1,4.1780564E-1,1.8241018E-4,-1.6899109E-4,-5.842105E-4,7.075598E-5,2.1232406E-4,-2.5392621E-5,-1.7383142E-4,5.5893627E-4,2.2878459E-4],"split_indices":[29,6,12,29,20,0,0,30,1,0,2,0,12,0,5,0,0,0,2,0,4,8,0,0,0,0,0,0,0,0,0],"split_type":[0,0,0,0,0,0,0,0,0,0,0,0,0,0,0,0,0,0,0,0,0,0,0,0,0,0,0,0,0,0,0],"sum_hessian":[7.9E1,5E1,2.9E1,3.8E1,1.2E1,1.8E1,1.1E1,3.4E1,4E0,5E0,7E0,1E0,1.7E1,2E0,3.2E1,2E0,2E0,1E0,4E0,1E0,6E0,1.5E1,2E0,1E0,3.1E1,2E0,2E0,1E0,5E0,1.3E1,2E0],"tree_param":{"num_deleted":"0","num_feature":"31","num_nodes":"31","size_leaf_vector":"1"}},{"base_weights":[4.0501673E-4,-4.3888897E-2,6.482025E-2,-5.557576E-2,-1.1536821E-2,4.6220012E-2,1.029788E-3,-2.0053079E-4,-5.712098E-2,-2.225939E-2,2.3656616E-3,-7.463495E-4,5.0523605E-2,-1.6814611E-4,-5.7855096E-2,-1.3345179E-4,-2.7837305E-4,1.2348987E-4,-8.2090795E-3,7.7886136E-5,-8.9081375E-5,5.5050045E-2,1.6392111E-4,-5.86282E-4,-1.69444E-4,-2.373417E-5,-1.2858033E-4,5.7516064E-2,2.272593E-4,1.6862169E-4,5.9003045E-4],"categories":[],"categories_nodes":[],"categories_segments":[],"categories_sizes":[],"default_left":[0,0,0,0,0,0,0,0,0,0,0,0,0,0,0,0,0,0,0,0,0,0,0,0,0,0,0,0,0,0,0],"id":42,"left_children":[1,3,5,7,9,11,-1,-1,13,15,17,19,21,-1,23,-1,-1,-1,25,-1,-1,27,-1,-1,-1,-1,-1,29,-1,-1,-1],"loss_changes":[2.3110111E-1,1.7507352E-2,1.8662333E-2,7.7570975E-4,2.1396428E-3,4.8886873E-3,0E0,0E0,3.6507845E-6,2.6287977E-5,8.403714E-4,2.7836373E-4,2.4964884E-3,0E0,1.8678606E-5,0E0,0E0,0E0,7.800141E-5,0E0,0E0,2.0742416E-4,0E0,0E0,0E0,0E0,0E0,3.2756478E-5,0E0,0E0,0E0],"parents":[2147483647,0,0,1,1,2,2,3,3,4,4,5,5,8,8,9,9,10,10,11,11,12,12,14,14,18,18,21,21,27,27],"right_children":[2,4,6,8,10,12,-1,-1,14,16,18,20,22,-1,24,-1,-1,-1,26,-1,-1,28,-1,-1,-1,-1,-1,30,-1,-1,-1],"split_conditions":[2.9292E-1,2.293293E-1,3.9601684E-1,1.9181652E-1,3.8406867E-1,3.8108143E-1,1.029788E-3,-2.0053079E-4,1.5151924E-1,2.4469726E-1,3.769522E-1,3.259957E-1,4.6094283E-1,-1.6814611E-4,3.6140168E-1,-1.3345179E-4,-2.7837305E-4,1.2348987E-4,3.8793397E-1,7.7886136E-5,-8.9081375E-5,4.1780564E-1,1.6392111E-4,-5.86282E-4,-1.69444E-4,-2.373417E-5,-1.2858033E-4,3.259957E-1,2.272593E-4,1.6862169E-4,5.9003045E-4],"split_indices":[29,29,29,30,0,0,0,0,5,28,16,0,16,0,18,0,0,0,0,0,0,8,0,0,0,0,0,4,0,0,0],"split_type":[0,0,0,0,0,0,0,0,0,0,0,0,0,0,0,0,0,0,0,0,0,0,0,0,0,0,0,0,0,0,0],"sum_hessian":[7.9E1,4.7E1,3.2E1,3.4E1,1.3E1,2.3E1,9E0,2E0,3.2E1,7E0,6E0,2E0,2.1E1,1E0,3.1E1,4E0,3E0,3E0,3E0,1E0,1E0,1.8E1,3E0,3E1,1E0,2E0,1E0,1.6E1,2E0,1E0,1.5E1],"tree_param":{"num_deleted":"0","num_feature":"31","num_nodes":"31","size_leaf_vector":"1"}},{"base_weights":[4.0851068E-4,-4.01945E-2,6.942001E-2,-5.241483E-2,-4.4161655E-4,4.762152E-2,9.8149285E-2,-5.5052124E-2,-2.3470825E-2,1.3552259E-2,-1.0881821E-2,7.749676E-5,4.940608E-2,1.0178196E-3,2.9094933E-4,-2.8250852E-4,-5.7599034E-2,-2.9528432E-4,-9.589607E-5,4.6886206E-3,2.0853021E-4,1.0320782E-4,-1.5385161E-2,5.2204944E-2,1.801013E-4,-5.839502E-4,-1.685968E-4,-1.0216981E-5,6.9326255E-5,-2.514705E-5,-1.711112E-4,5.482542E-4,2.2574415E-4],"categories":[],"categories_nodes":[],"categories_segments":[],"categories_sizes":[],"default_left":[0,0,0,0,0,0,0,0,0,0,0,0,0,0,0,0,0,0,0,0,0,0,0,0,0,0,0,0,0,0,0,0,0],"id":43,"left_children":[1,3,5,7,9,11,13,15,17,19,21,-1,23,-1,-1,-1,25,-1,-1,27,-1,-1,29,31,-1,-1,-1,-1,-1,-1,-1,-1,-1],"loss_changes":[2.2695628E-1,2.4752319E-2,1.4113635E-2,1.6848966E-3,2.046759E-3,9.6904486E-4,4.889071E-5,7.618889E-4,1.372688E-4,2.9049604E-4,9.2264736E-4,0E0,6.41495E-4,0E0,0E0,0E0,2.0742416E-5,0E0,0E0,5.8338992E-5,0E0,0E0,1.1246768E-4,4.686415E-6,0E0,0E0,0E0,0E0,0E0,0E0,0E0,0E0,0E0],"parents":[2147483647,0,0,1,1,2,2,3,3,4,4,5,5,6,6,7,7,8,8,9,9,10,10,12,12,16,16,19,19,22,22,23,23],"right_children":[2,4,6,8,10,12,14,16,18,20,22,-1,24,-1,-1,-1,26,-1,-1,28,-1,-1,30,32,-1,-1,-1,-1,-1,-1,-1,-1,-1],"split_conditions":[3.136959E-1,3.6693674E-1,4.018155E-1,2.293293E-1,3.259957E-1,3.259957E-1,4.7508746E-1,1.6406061E-1,3.2674667E-1,4.018155E-1,3.672002E-1,7.749676E-5,3.9285412E-1,1.0178196E-3,2.9094933E-4,-2.8250852E-4,3.6140168E-1,-2.9528432E-4,-9.589607E-5,3.8459557E-1,2.0853021E-4,1.0320782E-4,3.672002E-1,4.1780564E-1,1.801013E-4,-5.839502E-4,-1.685968E-4,-1.0216981E-5,6.9326255E-5,-2.514705E-5,-1.711112E-4,5.482542E-4,2.2574415E-4],"split_indices":[29,6,12,29,20,0,1,9,1,3,2,0,12,0,0,0,18,0,0,0,0,0,4,8,0,0,0,0,0,0,0,0,0],"split_type":[0,0,0,0,0,0,0,0,0,0,0,0,0,0,0,0,0,0,0,0,0,0,0,0,0,0,0,0,0,0,0,0,0],"sum_hessian":[7.9E1,5E1,2.9E1,3.8E1,1.2E1,1.8E1,1.1E1,3.4E1,4E0,5E0,7E0,1E0,1.7E1,1E1,1E0,4E0,3E1,2E0,2E0,3E0,2E0,1E0,6E0,1.5E1,2E0,2.9E1,1E0,1E0,2E0,1E0,5E0,1.3E1,2E0],"tree_param":{"num_deleted":"0","num_feature":"31","num_nodes":"33","size_leaf_vector":"1"}},{"base_weights":[4.1803755E-4,-4.30794E-2,6.367437E-2,-5.453118E-2,-1.1372844E-2,3.479808E-2,8.5804716E-2,-1.9630574E-4,-5.60515E-4,-2.19263E-2,2.3129412E-3,4.0239163E-2,-2.1930237E-3,1.1277945E-3,5.8386292E-2,-1.3131603E-4,-2.7438096E-4,1.2161098E-4,-8.113451E-3,7.710933E-5,4.2148188E-2,-8.7780354E-5,5.4885E-5,6.388638E-4,2.2423913E-4,-2.3458104E-5,-1.2708186E-4,4.3927896E-4,1.03958395E-4],"categories":[],"categories_nodes":[],"categories_segments":[],"categories_sizes":[],"default_left":[0,0,0,0,0,0,0,0,0,0,0,0,0,0,0,0,0,0,0,0,0,0,0,0,0,0,0,0,0],"id":44,"left_children":[1,3,5,7,9,11,13,-1,-1,15,17,19,21,-1,23,-1,-1,-1,25,-1,27,-1,-1,-1,-1,-1,-1,-1,-1],"loss_changes":[2.228621E-1,1.680845E-2,1.8102556E-2,7.567778E-4,2.072767E-3,3.3085942E-3,6.7281127E-3,0E0,0E0,2.7490547E-5,8.174337E-4,5.443599E-4,1.9992703E-4,0E0,7.431768E-4,0E0,0E0,0E0,7.619214E-5,0E0,2.7796067E-4,0E0,0E0,0E0,0E0,0E0,0E0,0E0,0E0],"parents":[2147483647,0,0,1,1,2,2,3,3,4,4,5,5,6,6,9,9,10,10,11,11,12,12,14,14,18,18,20,20],"right_children":[2,4,6,8,10,12,14,-1,-1,16,18,20,22,-1,24,-1,-1,-1,26,-1,28,-1,-1,-1,-1,-1,-1,-1,-1],"split_conditions":[2.9292E-1,2.293293E-1,3.4987423E-1,1.9181652E-1,3.8406867E-1,4.1227046E-1,4.0945897E-1,-1.9630574E-4,-5.60515E-4,2.4469726E-1,3.769522E-1,3.259957E-1,3.8108143E-1,1.1277945E-3,4.4214126E-1,-1.3131603E-4,-2.7438096E-4,1.2161098E-4,3.8793397E-1,7.710933E-5,4.1227046E-1,-8.7780354E-5,5.4885E-5,6.388638E-4,2.2423913E-4,-2.3458104E-5,-1.2708186E-4,4.3927896E-4,1.03958395E-4],"split_indices":[29,29,30,30,0,13,1,0,0,28,16,0,0,0,3,0,0,0,0,0,14,0,0,0,0,0,0,0,0],"split_type":[0,0,0,0,0,0,0,0,0,0,0,0,0,0,0,0,0,0,0,0,0,0,0,0,0,0,0,0,0],"sum_hessian":[7.9E1,4.7E1,3.2E1,3.4E1,1.3E1,1.5E1,1.7E1,2E0,3.2E1,7E0,6E0,1.3E1,2E0,7E0,1E1,4E0,3E0,3E0,3E0,1E0,1.2E1,1E0,1E0,8E0,2E0,2E0,1E0,1.1E1,1E0],"tree_param":{"num_deleted":"0","num_feature":"31","num_nodes":"29","size_leaf_vector":"1"}},{"base_weights":[4.3119266E-4,-3.944297E-2,6.82029E-2,-5.078279E-2,1.643341E-3,4.6764534E-2,9.64634E-2,-5.400748E-2,-2.3508275E-2,-1.1822924E-2,1.7080093E-2,7.6723845E-5,4.8510075E-2,1.0000919E-3,2.872981E-4,-2.7649273E-4,-5.651663E-2,-9.4381314E-5,-2.8183815E-4,-1.5153989E-4,-2.330174E-5,2.049946E-4,6.827572E-5,5.12534E-4,1.7708987E-4,-5.7300844E-4,-1.6495123E-4],"categories":[],"categories_nodes":[],"categories_segments":[],"categories_sizes":[],"default_left":[0,0,0,0,0,0,0,0,0,0,0,0,0,0,0,0,0,0,0,0,0,0,0,0,0,0,0],"id":45,"left_children":[1,3,5,7,9,11,13,15,17,19,21,-1,23,-1,-1,-1,25,-1,-1,-1,-1,-1,-1,-1,-1,-1,-1],"loss_changes":[2.1887732E-1,2.3844928E-2,1.3664708E-2,2.248466E-3,2.6964415E-3,9.243116E-4,8.7842345E-6,7.521361E-4,1.2871041E-4,1.8603553E-4,7.038133E-5,0E0,6.1330944E-4,0E0,0E0,0E0,2.7753413E-5,0E0,0E0,0E0,0E0,0E0,0E0,0E0,0E0,0E0,0E0],"parents":[2147483647,0,0,1,1,2,2,3,3,4,4,5,5,6,6,7,7,8,8,9,9,10,10,12,12,16,16],"right_children":[2,4,6,8,10,12,14,16,18,20,22,-1,24,-1,-1,-1,26,-1,-1,-1,-1,-1,-1,-1,-1,-1,-1],"split_conditions":[3.136959E-1,3.8459557E-1,4.018155E-1,2.293293E-1,3.8793397E-1,3.259957E-1,4.7508746E-1,1.6406061E-1,1.7845684E-1,3.8406867E-1,3.761616E-1,7.6723845E-5,3.9285412E-1,1.0000919E-3,2.872981E-4,-2.7649273E-4,3.6140168E-1,-9.4381314E-5,-2.8183815E-4,-1.5153989E-4,-2.330174E-5,2.049946E-4,6.827572E-5,5.12534E-4,1.7708987E-4,-5.7300844E-4,-1.6495123E-4],"split_indices":[29,8,12,29,0,0,1,9,5,0,17,0,12,0,0,0,18,0,0,0,0,0,0,0,0,0,0],"split_type":[0,0,0,0,0,0,0,0,0,0,0,0,0,0,0,0,0,0,0,0,0,0,0,0,0,0,0],"sum_hessian":[7.9E1,5E1,2.9E1,3.9E1,1.1E1,1.8E1,1.1E1,3.4E1,5E0,6E0,5E0,1E0,1.7E1,1E1,1E0,4E0,3E1,2E0,3E0,4E0,2E0,3E0,2E0,1.5E1,2E0,2.9E1,1E0],"tree_param":{"num_deleted":"0","num_feature":"31","num_nodes":"27","size_leaf_vector":"1"}},{"base_weights":[4.363982E-4,-4.2278722E-2,6.255426E-2,-5.349639E-2,-1.1214643E-2,3.417804E-2,8.430233E-2,-1.9216532E-4,-5.499164E-2,-2.1606864E-2,2.264274E-3,3.9522257E-2,-2.1543105E-3,1.1097847E-3,5.7237644E-2,-1.6170777E-4,-5.5699453E-2,-1.2928185E-4,-2.7053498E-4,1.1950321E-4,-7.987842E-3,7.6340286E-5,4.1387968E-2,-8.6583794E-5,5.4269134E-5,6.264621E-4,2.193273E-4,-5.6437333E-4,-1.6412645E-4,-2.3146371E-5,-1.2503727E-4,4.312774E-4,1.0255322E-4],"categories":[],"categories_nodes":[],"categories_segments":[],"categories_sizes":[],"default_left":[0,0,0,0,0,0,0,0,0,0,0,0,0,0,0,0,0,0,0,0,0,0,0,0,0,0,0,0,0,0,0,0,0],"id":46,"left_children":[1,3,5,7,9,11,13,-1,15,17,19,21,23,-1,25,-1,27,-1,-1,-1,29,-1,31,-1,-1,-1,-1,-1,-1,-1,-1,-1,-1],"loss_changes":[2.1491447E-1,1.6126461E-2,1.7483935E-2,7.372424E-4,2.0099862E-3,3.1918306E-3,6.643519E-3,0E0,6.0647726E-6,2.8403942E-5,7.9057465E-4,5.1696226E-4,1.9491468E-4,0E0,7.264316E-4,0E0,1.3560057E-6,0E0,0E0,0E0,7.353659E-5,0E0,2.6183948E-4,0E0,0E0,0E0,0E0,0E0,0E0,0E0,0E0,0E0,0E0],"parents":[2147483647,0,0,1,1,2,2,3,3,4,4,5,5,6,6,8,8,9,9,10,10,11,11,12,12,14,14,16,16,20,20,22,22],"right_children":[2,4,6,8,10,12,14,-1,16,18,20,22,24,-1,26,-1,28,-1,-1,-1,30,-1,32,-1,-1,-1,-1,-1,-1,-1,-1,-1,-1],"split_conditions":[2.9292E-1,2.293293E-1,3.4987423E-1,1.9181652E-1,3.8406867E-1,4.1227046E-1,4.0945897E-1,-1.9216532E-4,1.5151924E-1,2.4469726E-1,3.769522E-1,3.259957E-1,3.8108143E-1,1.1097847E-3,4.4214126E-1,-1.6170777E-4,3.6140168E-1,-1.2928185E-4,-2.7053498E-4,1.1950321E-4,3.8793397E-1,7.6340286E-5,4.1227046E-1,-8.6583794E-5,5.4269134E-5,6.264621E-4,2.193273E-4,-5.6437333E-4,-1.6412645E-4,-2.3146371E-5,-1.2503727E-4,4.312774E-4,1.0255322E-4],"split_indices":[29,29,30,30,0,13,1,0,5,28,16,0,0,0,3,0,18,0,0,0,0,0,14,0,0,0,0,0,0,0,0,0,0],"split_type":[0,0,0,0,0,0,0,0,0,0,0,0,0,0,0,0,0,0,0,0,0,0,0,0,0,0,0,0,0,0,0,0,0],"sum_hessian":[7.9E1,4.7E1,3.2E1,3.4E1,1.3E1,1.5E1,1.7E1,2E0,3.2E1,7E0,6E0,1.3E1,2E0,7E0,1E1,1E0,3.1E1,4E0,3E0,3E0,3E0,1E0,1.2E1,1E0,1E0,8E0,2E0,3E1,1E0,2E0,1E0,1.1E1,1E0],"tree_param":{"num_deleted":"0","num_feature":"31","num_nodes":"33","size_leaf_vector":"1"}},{"base_weights":[4.4481474E-4,-3.871341E-2,6.6998966E-2,-4.984558E-2,1.6199438E-3,4.591013E-2,9.480638E-4,-5.299236E-2,-2.3181776E-2,-1.1635097E-2,1.6814167E-2,7.595852E-5,4.761671E-2,-2.7131557E-4,-5.5454023E-2,-9.2890215E-5,-2.78059E-4,-1.4909616E-4,-2.2991995E-5,2.0178154E-4,6.7241286E-5,5.030386E-4,1.741299E-4,-5.6213787E-4,-1.6330584E-4],"categories":[],"categories_nodes":[],"categories_segments":[],"categories_sizes":[],"default_left":[0,0,0,0,0,0,0,0,0,0,0,0,0,0,0,0,0,0,0,0,0,0,0,0,0],"id":47,"left_children":[1,3,5,7,9,11,-1,13,15,17,19,-1,21,-1,23,-1,-1,-1,-1,-1,-1,-1,-1,-1,-1],"loss_changes":[2.1108517E-1,2.297964E-2,1.3240188E-2,2.1277368E-3,2.612435E-3,8.806549E-4,0E0,7.235706E-4,1.2716139E-4,1.7971388E-4,6.797607E-5,0E0,5.849749E-4,0E0,3.4570694E-6,0E0,0E0,0E0,0E0,0E0,0E0,0E0,0E0,0E0,0E0],"parents":[2147483647,0,0,1,1,2,2,3,3,4,4,5,5,7,7,8,8,9,9,10,10,12,12,14,14],"right_children":[2,4,6,8,10,12,-1,14,16,18,20,-1,22,-1,24,-1,-1,-1,-1,-1,-1,-1,-1,-1,-1],"split_conditions":[3.136959E-1,3.8459557E-1,4.018155E-1,2.293293E-1,3.8793397E-1,3.259957E-1,9.480638E-4,1.6406061E-1,1.7845684E-1,3.8406867E-1,3.761616E-1,7.595852E-5,3.9285412E-1,-2.7131557E-4,3.6140168E-1,-9.2890215E-5,-2.78059E-4,-1.4909616E-4,-2.2991995E-5,2.0178154E-4,6.7241286E-5,5.030386E-4,1.741299E-4,-5.6213787E-4,-1.6330584E-4],"split_indices":[29,8,12,29,0,0,0,9,5,0,17,0,12,0,18,0,0,0,0,0,0,0,0,0,0],"split_type":[0,0,0,0,0,0,0,0,0,0,0,0,0,0,0,0,0,0,0,0,0,0,0,0,0],"sum_hessian":[7.9E1,5E1,2.9E1,3.9E1,1.1E1,1.8E1,1.1E1,3.4E1,5E0,6E0,5E0,1E0,1.7E1,4E0,3E1,2E0,3E0,4E0,2E0,3E0,2E0,1.5E1,2E0,2.9E1,1E0],"tree_param":{"num_deleted":"0","num_feature":"31","num_nodes":"25","size_leaf_vector":"1"}},{"base_weights":[4.4574402E-4,-4.1500065E-2,6.1444324E-2,-5.249092E-2,-1.10586425E-2,4.3735664E-2,9.780067E-4,-1.8810605E-4,-5.396213E-4,-2.1292118E-2,2.2165647E-3,-6.5511465E-4,4.780097E-2,-1.272796E-4,-2.6674286E-4,1.1742987E-4,-7.863998E-3,7.557869E-5,-8.540541E-5,5.2052543E-2,1.5655755E-4,-2.283881E-5,-1.2302175E-4,5.439087E-2,2.1451166E-4,2.7612597E-4,5.815674E-4],"categories":[],"categories_nodes":[],"categories_segments":[],"categories_sizes":[],"default_left":[0,0,0,0,0,0,0,0,0,0,0,0,0,0,0,0,0,0,0,0,0,0,0,0,0,0,0],"id":48,"left_children":[1,3,5,7,9,11,-1,-1,-1,13,15,17,19,-1,-1,-1,21,-1,-1,23,-1,-1,-1,25,-1,-1,-1],"loss_changes":[2.0724072E-1,1.5479229E-2,1.696875E-2,7.1921945E-4,1.9491165E-3,4.3624043E-3,0E0,0E0,0E0,2.9240735E-5,7.645687E-4,2.5883692E-4,2.191767E-3,0E0,0E0,0E0,7.09655E-5,0E0,0E0,1.928173E-4,0E0,0E0,0E0,1.0848045E-4,0E0,0E0,0E0],"parents":[2147483647,0,0,1,1,2,2,3,3,4,4,5,5,9,9,10,10,11,11,12,12,16,16,19,19,23,23],"right_children":[2,4,6,8,10,12,-1,-1,-1,14,16,18,20,-1,-1,-1,22,-1,-1,24,-1,-1,-1,26,-1,-1,-1],"split_conditions":[2.9292E-1,2.293293E-1,3.9601684E-1,1.9181652E-1,3.8406867E-1,3.8108143E-1,9.780067E-4,-1.8810605E-4,-5.396213E-4,2.4469726E-1,3.769522E-1,3.259957E-1,4.6094283E-1,-1.272796E-4,-2.6674286E-4,1.1742987E-4,3.8793397E-1,7.557869E-5,-8.540541E-5,4.1780564E-1,1.5655755E-4,-2.283881E-5,-1.2302175E-4,2.4142933E-1,2.1451166E-4,2.7612597E-4,5.815674E-4],"split_indices":[29,29,29,30,0,0,0,0,0,28,16,0,16,0,0,0,0,0,0,8,0,0,0,17,0,0,0],"split_type":[0,0,0,0,0,0,0,0,0,0,0,0,0,0,0,0,0,0,0,0,0,0,0,0,0,0,0],"sum_hessian":[7.9E1,4.7E1,3.2E1,3.4E1,1.3E1,2.3E1,9E0,2E0,3.2E1,7E0,6E0,2E0,2.1E1,4E0,3E0,3E0,3E0,1E0,1E0,1.8E1,3E0,2E0,1E0,1.6E1,2E0,3E0,1.3E1],"tree_param":{"num_deleted":"0","num_feature":"31","num_nodes":"27","size_leaf_vector":"1"}},{"base_weights":[4.543718E-4,-3.799596E-2,6.5804794E-2,-4.8917446E-2,1.5753197E-3,4.5077085E-2,9.313993E-2,-5.1986806E-2,-2.285994E-2,-1.1450135E-2,1.650913E-2,7.520079E-5,4.6745803E-2,9.6587976E-4,2.760571E-4,-2.655311E-4,-5.4412022E-2,-9.142235E-5,-2.7433236E-4,-1.4668991E-4,-2.268662E-5,1.9822709E-4,6.587982E-5,4.8314533E-4,1.00387035E-4,-5.516048E-4,-1.5979126E-4],"categories":[],"categories_nodes":[],"categories_segments":[],"categories_sizes":[],"default_left":[0,0,0,0,0,0,0,0,0,0,0,0,0,0,0,0,0,0,0,0,0,0,0,0,0,0,0],"id":49,"left_children":[1,3,5,7,9,11,13,15,17,19,21,-1,23,-1,-1,-1,25,-1,-1,-1,-1,-1,-1,-1,-1,-1,-1],"loss_changes":[2.0351997E-1,2.2118099E-2,1.2799352E-2,2.0107701E-3,2.523268E-3,8.392334E-4,4.5202672E-5,7.140711E-4,1.2560957E-4,1.73598E-4,6.665534E-5,0E0,5.5148825E-4,0E0,0E0,0E0,1.0311604E-5,0E0,0E0,0E0,0E0,0E0,0E0,0E0,0E0,0E0,0E0],"parents":[2147483647,0,0,1,1,2,2,3,3,4,4,5,5,6,6,7,7,8,8,9,9,10,10,12,12,16,16],"right_children":[2,4,6,8,10,12,14,16,18,20,22,-1,24,-1,-1,-1,26,-1,-1,-1,-1,-1,-1,-1,-1,-1,-1],"split_conditions":[3.136959E-1,3.8459557E-1,4.018155E-1,2.293293E-1,3.8793397E-1,3.259957E-1,4.7508746E-1,1.6406061E-1,1.7845684E-1,3.8406867E-1,3.761616E-1,7.520079E-5,3.9601684E-1,9.6587976E-4,2.760571E-4,-2.655311E-4,3.6140168E-1,-9.142235E-5,-2.7433236E-4,-1.4668991E-4,-2.268662E-5,1.9822709E-4,6.587982E-5,4.8314533E-4,1.00387035E-4,-5.516048E-4,-1.5979126E-4],"split_indices":[29,8,12,29,0,0,1,9,5,0,17,0,12,0,0,0,18,0,0,0,0,0,0,0,0,0,0],"split_type":[0,0,0,0,0,0,0,0,0,0,0,0,0,0,0,0,0,0,0,0,0,0,0,0,0,0,0],"sum_hessian":[7.9E1,5E1,2.9E1,3.9E1,1.1E1,1.8E1,1.1E1,3.4E1,5E0,6E0,5E0,1E0,1.7E1,1E1,1E0,4E0,3E1,2E0,3E0,4E0,2E0,3E0,2E0,1.6E1,1E0,2.9E1,1E0],"tree_param":{"num_deleted":"0","num_feature":"31","num_nodes":"27","size_leaf_vector":"1"}},{"base_weights":[4.579857E-4,-3.7640467E-2,6.521009E-2,-4.8461836E-2,1.5674593E-3,4.4660978E-2,9.2312016E-2,-5.1494844E-2,-2.2692299E-2,-1.1359834E-2,1.6388059E-2,7.4824835E-5,4.6310756E-2,9.570989E-4,2.7467683E-4,-1.8412813E-4,-5.2941855E-2,-9.0812784E-5,-2.7227486E-4,-1.4551642E-4,-2.2535423E-5,1.9674047E-4,6.544054E-5,4.8912473E-2,1.6998022E-4,-1.5551693E-4,-5.36243E-4,5.1402956E-2,2.098605E-4,1.5181034E-4,5.3021486E-4],"categories":[],"categories_nodes":[],"categories_segments":[],"categories_sizes":[],"default_left":[0,0,0,0,0,0,0,0,0,0,0,0,0,0,0,0,0,0,0,0,0,0,0,0,0,0,0,0,0,0,0],"id":50,"left_children":[1,3,5,7,9,11,13,15,17,19,21,-1,23,-1,-1,-1,25,-1,-1,-1,-1,-1,-1,27,-1,-1,-1,29,-1,-1,-1],"loss_changes":[1.9981095E-1,2.1714404E-2,1.258488E-2,1.9578412E-3,2.4852485E-3,8.1886724E-4,1.5057623E-5,7.006377E-4,1.2311107E-4,1.7066603E-4,6.533589E-5,0E0,5.4132566E-4,0E0,0E0,0E0,8.113682E-6,0E0,0E0,0E0,0E0,0E0,0E0,3.4056604E-5,0E0,0E0,0E0,1.5847385E-5,0E0,0E0,0E0],"parents":[2147483647,0,0,1,1,2,2,3,3,4,4,5,5,6,6,7,7,8,8,9,9,10,10,12,12,16,16,23,23,27,27],"right_children":[2,4,6,8,10,12,14,16,18,20,22,-1,24,-1,-1,-1,26,-1,-1,-1,-1,-1,-1,28,-1,-1,-1,30,-1,-1,-1],"split_conditions":[3.136959E-1,3.8459557E-1,4.018155E-1,2.293293E-1,3.8793397E-1,3.259957E-1,4.7508746E-1,1.9181652E-1,1.7845684E-1,3.8406867E-1,3.761616E-1,7.4824835E-5,3.9285412E-1,9.570989E-4,2.7467683E-4,-1.8412813E-4,1.5151924E-1,-9.0812784E-5,-2.7227486E-4,-1.4551642E-4,-2.2535423E-5,1.9674047E-4,6.544054E-5,4.1780564E-1,1.6998022E-4,-1.5551693E-4,-5.36243E-4,3.259957E-1,2.098605E-4,1.5181034E-4,5.3021486E-4],"split_indices":[29,8,12,29,0,0,1,30,5,0,17,0,12,0,0,0,5,0,0,0,0,0,0,8,0,0,0,4,0,0,0],"split_type":[0,0,0,0,0,0,0,0,0,0,0,0,0,0,0,0,0,0,0,0,0,0,0,0,0,0,0,0,0,0,0],"sum_hessian":[7.9E1,5E1,2.9E1,3.9E1,1.1E1,1.8E1,1.1E1,3.4E1,5E0,6E0,5E0,1E0,1.7E1,1E1,1E0,2E0,3.2E1,2E0,3E0,4E0,2E0,3E0,2E0,1.5E1,2E0,1E0,3.1E1,1.3E1,2E0,1E0,1.2E1],"tree_param":{"num_deleted":"0","num_feature":"31","num_nodes":"31","size_leaf_vector":"1"}},{"base_weights":[4.6870168E-4,-4.035036E-2,5.982768E-2,-5.1004916E-2,-1.08317975E-2,4.256275E-2,9.5280743E-4,-2.605826E-4,-5.3383254E-2,-2.083666E-2,2.149731E-3,-6.0444075E-4,4.6514515E-2,-5.412062E-2,-1.5631109E-4,-1.243635E-4,-2.6127882E-4,1.1424601E-4,-7.662572E-3,7.445067E-5,-8.351728E-5,5.0643202E-2,1.5274629E-4,-1.5907429E-4,-5.4889783E-2,-2.238522E-5,-1.19673605E-4,5.2922495E-2,2.0846137E-4,-5.571244E-4,-1.5927725E-4,2.674008E-4,5.6623004E-4],"categories":[],"categories_nodes":[],"categories_segments":[],"categories_sizes":[],"default_left":[0,0,0,0,0,0,0,0,0,0,0,0,0,0,0,0,0,0,0,0,0,0,0,0,0,0,0,0,0,0,0,0,0],"id":51,"left_children":[1,3,5,7,9,11,-1,-1,13,15,17,19,21,23,-1,-1,-1,-1,25,-1,-1,27,-1,-1,29,-1,-1,31,-1,-1,-1,-1,-1],"loss_changes":[1.962523E-1,1.4543876E-2,1.6143717E-2,6.8552047E-4,1.8630911E-3,4.12219E-3,0E0,0E0,1.6987324E-5,3.064773E-5,7.245967E-4,2.4926473E-4,2.0640008E-3,8.612871E-6,0E0,0E0,0E0,0E0,6.660835E-5,0E0,0E0,1.8717721E-4,0E0,0E0,4.2147934E-5,0E0,0E0,1.3300031E-4,0E0,0E0,0E0,0E0,0E0],"parents":[2147483647,0,0,1,1,2,2,3,3,4,4,5,5,8,8,9,9,10,10,11,11,12,12,13,13,18,18,21,21,24,24,27,27],"right_children":[2,4,6,8,10,12,-1,-1,14,16,18,20,22,24,-1,-1,-1,-1,26,-1,-1,28,-1,-1,30,-1,-1,32,-1,-1,-1,-1,-1],"split_conditions":[2.9292E-1,2.293293E-1,3.9601684E-1,1.6406061E-1,3.8406867E-1,3.8108143E-1,9.5280743E-4,-2.605826E-4,3.6140168E-1,2.4469726E-1,3.769522E-1,3.259957E-1,4.6094283E-1,1.5134256E-1,-1.5631109E-4,-1.243635E-4,-2.6127882E-4,1.1424601E-4,3.8793397E-1,7.445067E-5,-8.351728E-5,4.1780564E-1,1.5274629E-4,-1.5907429E-4,3.6140168E-1,-2.238522E-5,-1.19673605E-4,2.4142933E-1,2.0846137E-4,-5.571244E-4,-1.5927725E-4,2.674008E-4,5.6623004E-4],"split_indices":[29,29,29,9,0,0,0,0,18,28,16,0,16,10,0,0,0,0,0,0,0,8,0,0,17,0,0,17,0,0,0,0,0],"split_type":[0,0,0,0,0,0,0,0,0,0,0,0,0,0,0,0,0,0,0,0,0,0,0,0,0,0,0,0,0,0,0,0,0],"sum_hessian":[7.9E1,4.7E1,3.2E1,3.4E1,1.3E1,2.3E1,9E0,4E0,3E1,7E0,6E0,2E0,2.1E1,2.9E1,1E0,4E0,3E0,3E0,3E0,1E0,1E0,1.8E1,3E0,1E0,2.8E1,2E0,1E0,1.6E1,2E0,2.7E1,1E0,3E0,1.3E1],"tree_param":{"num_deleted":"0","num_feature":"31","num_nodes":"33","size_leaf_vector":"1"}},{"base_weights":[4.6942272E-4,-3.695265E-2,6.40713E-2,-4.7571927E-2,1.5243428E-3,4.3871664E-2,9.0714765E-4,-5.0531793E-2,-2.2377396E-2,-1.1179058E-2,1.609092E-2,7.407844E-5,4.5485884E-2,-2.5849795E-4,-5.2882705E-2,-8.937831E-5,-2.6862722E-4,-1.4316519E-4,-2.2236009E-5,1.9327804E-4,6.4114334E-5,4.7005387E-4,9.8271514E-5,-5.36086E-4,-1.5552953E-4],"categories":[],"categories_nodes":[],"categories_segments":[],"categories_sizes":[],"default_left":[0,0,0,0,0,0,0,0,0,0,0,0,0,0,0,0,0,0,0,0,0,0,0,0,0],"id":52,"left_children":[1,3,5,7,9,11,-1,13,15,17,19,-1,21,-1,23,-1,-1,-1,-1,-1,-1,-1,-1,-1,-1],"loss_changes":[1.927767E-1,2.0911008E-2,1.2165844E-2,1.8521249E-3,2.4004218E-3,7.8139827E-4,0E0,6.638691E-4,1.2159045E-4,1.6484765E-4,6.4069405E-5,0E0,5.133748E-4,0E0,6.251037E-6,0E0,0E0,0E0,0E0,0E0,0E0,0E0,0E0,0E0,0E0],"parents":[2147483647,0,0,1,1,2,2,3,3,4,4,5,5,7,7,8,8,9,9,10,10,12,12,14,14],"right_children":[2,4,6,8,10,12,-1,14,16,18,20,-1,22,-1,24,-1,-1,-1,-1,-1,-1,-1,-1,-1,-1],"split_conditions":[3.136959E-1,3.8459557E-1,4.018155E-1,2.293293E-1,3.8793397E-1,3.259957E-1,9.0714765E-4,1.6406061E-1,1.7845684E-1,3.8406867E-1,3.761616E-1,7.407844E-5,3.9601684E-1,-2.5849795E-4,3.6140168E-1,-8.937831E-5,-2.6862722E-4,-1.4316519E-4,-2.2236009E-5,1.9327804E-4,6.4114334E-5,4.7005387E-4,9.8271514E-5,-5.36086E-4,-1.5552953E-4],"split_indices":[29,8,12,29,0,0,0,9,5,0,17,0,12,0,18,0,0,0,0,0,0,0,0,0,0],"split_type":[0,0,0,0,0,0,0,0,0,0,0,0,0,0,0,0,0,0,0,0,0,0,0,0,0],"sum_hessian":[7.9E1,5E1,2.9E1,3.9E1,1.1E1,1.8E1,1.1E1,3.4E1,5E0,6E0,5E0,1E0,1.7E1,4E0,3E1,2E0,3E0,4E0,2E0,3E0,2E0,1.6E1,1E0,2.9E1,1E0],"tree_param":{"num_deleted":"0","num_feature":"31","num_nodes":"25","size_leaf_vector":"1"}},{"base_weights":[4.6889874E-4,-3.6606967E-2,6.348224E-2,-4.7128912E-2,1.5167706E-3,4.346677E-2,8.9883216E-2,-4.9218986E-2,-1.60135E-4,-1.1090894E-2,1.5972918E-2,7.3708E-5,4.5062613E-2,1.0531754E-3,5.689596E-4,-2.175651E-2,-5.1888485E-2,-1.4201984E-4,-2.2087794E-5,1.9182853E-4,6.3686966E-5,4.758417E-2,1.6593435E-4,-2.4306156E-4,-5.7789606E-5,-1.5214391E-4,-5.25591E-2,5.0011806E-2,2.0393798E-4,-5.3256154E-2,-1.547519E-4,1.4736413E-4,5.1591726E-4,-5.399269E-4,-1.5580043E-4],"categories":[],"categories_nodes":[],"categories_segments":[],"categories_sizes":[],"default_left":[0,0,0,0,0,0,0,0,0,0,0,0,0,0,0,0,0,0,0,0,0,0,0,0,0,0,0,0,0,0,0,0,0,0,0],"id":53,"left_children":[1,3,5,7,9,11,13,15,-1,17,19,-1,21,-1,-1,23,25,-1,-1,-1,-1,27,-1,-1,-1,-1,29,31,-1,33,-1,-1,-1,-1,-1],"loss_changes":[1.8922582E-1,2.0529412E-2,1.1945911E-2,1.8131733E-3,2.364253E-3,7.6231733E-4,1.17488205E-4,1.5835911E-3,0E0,1.620623E-4,6.2803854E-5,0E0,5.025752E-4,0E0,0E0,6.32212E-5,