{"learner":{"attributes":{"scikit_learn":"{\"_estimator_type\": \"regressor\"}"},"feature_names":[],"feature_types":[],"gradient_booster":{"model":{"gbtree_model_param":{"num_parallel_tree":"1","num_trees":"1000"},"iteration_indptr":[0,1,2,3,4,5,6,7,8,9,10,11,12,13,14,15,16,17,18,19,20,21,22,23,24,25,26,27,28,29,30,31,32,33,34,35,36,37,38,39,40,41,42,43,44,45,46,47,48,49,50,51,52,53,54,55,56,57,58,59,60,61,62,63,64,65,66,67,68,69,70,71,72,73,74,75,76,77,78,79,80,81,82,83,84,85,86,87,88,89,90,91,92,93,94,95,96,97,98,99,100,101,102,103,104,105,106,107,108,109,110,111,112,113,114,115,116,117,118,119,120,121,122,123,124,125,126,127,128,129,130,131,132,133,134,135,136,137,138,139,140,141,142,143,144,145,146,147,148,149,150,151,152,153,154,155,156,157,158,159,160,161,162,163,164,165,166,167,168,169,170,171,172,173,174,175,176,177,178,179,180,181,182,183,184,185,186,187,188,189,190,191,192,193,194,195,196,197,198,199,200,201,202,203,204,205,206,207,208,209,210,211,212,213,214,215,216,217,218,219,220,221,222,223,224,225,226,227,228,229,230,231,232,233,234,235,236,237,238,239,240,241,242,243,244,245,246,247,248,249,250,251,252,253,254,255,256,257,258,259,260,261,262,263,264,265,266,267,268,269,270,271,272,273,274,275,276,277,278,279,280,281,282,283,284,285,286,287,288,289,290,291,292,293,294,295,296,297,298,299,300,301,302,303,304,305,306,307,308,309,310,311,312,313,314,315,316,317,318,319,320,321,322,323,324,325,326,327,328,329,330,331,332,333,334,335,336,337,338,339,340,341,342,343,344,345,346,347,348,349,350,351,352,353,354,355,356,357,358,359,360,361,362,363,364,365,366,367,368,369,370,371,372,373,374,375,376,377,378,379,380,381,382,383,384,385,386,387,388,389,390,391,392,393,394,395,396,397,398,399,400,401,402,403,404,405,406,407,408,409,410,411,412,413,414,415,416,417,418,419,420,421,422,423,424,425,426,427,428,429,430,431,432,433,434,435,436,437,438,439,440,441,442,443,444,445,446,447,448,449,450,451,452,453,454,455,456,457,458,459,460,461,462,463,464,465,466,467,468,469,470,471,472,473,474,475,476,477,478,479,480,481,482,483,484,485,486,487,488,489,490,491,492,493,494,495,496,497,498,499,500,501,502,503,504,505,506,507,508,509,510,511,512,513,514,515,516,517,518,519,520,521,522,523,524,525,526,527,528,529,530,531,532,533,534,535,536,537,538,539,540,541,542,543,544,545,546,547,548,549,550,551,552,553,554,555,556,557,558,559,560,561,562,563,564,565,566,567,568,569,570,571,572,573,574,575,576,577,578,579,580,581,582,583,584,585,586,587,588,589,590,591,592,593,594,595,596,597,598,599,600,601,602,603,604,605,606,607,608,609,610,611,612,613,614,615,616,617,618,619,620,621,622,623,624,625,626,627,628,629,630,631,632,633,634,635,636,637,638,639,640,641,642,643,644,645,646,647,648,649,650,651,652,653,654,655,656,657,658,659,660,661,662,663,664,665,666,667,668,669,670,671,672,673,674,675,676,677,678,679,680,681,682,683,684,685,686,687,688,689,690,691,692,693,694,695,696,697,698,699,700,701,702,703,704,705,706,707,708,709,710,711,712,713,714,715,716,717,718,719,720,721,722,723,724,725,726,727,728,729,730,731,732,733,734,735,736,737,738,739,740,741,742,743,744,745,746,747,748,749,750,751,752,753,754,755,756,757,758,759,760,761,762,763,764,765,766,767,768,769,770,771,772,773,774,775,776,777,778,779,780,781,782,783,784,785,786,787,788,789,790,791,792,793,794,795,796,797,798,799,800,801,802,803,804,805,806,807,808,809,810,811,812,813,814,815,816,817,818,819,820,821,822,823,824,825,826,827,828,829,830,831,832,833,834,835,836,837,838,839,840,841,842,843,844,845,846,847,848,849,850,851,852,853,854,855,856,857,858,859,860,861,862,863,864,865,866,867,868,869,870,871,872,873,874,875,876,877,878,879,880,881,882,883,884,885,886,887,888,889,890,891,892,893,894,895,896,897,898,899,900,901,902,903,904,905,906,907,908,909,910,911,912,913,914,915,916,917,918,919,920,921,922,923,924,925,926,927,928,929,930,931,932,933,934,935,936,937,938,939,940,941,942,943,944,945,946,947,948,949,950,951,952,953,954,955,956,957,958,959,960,961,962,963,964,965,966,967,968,969,970,971,972,973,974,975,976,977,978,979,980,981,982,983,984,985,986,987,988,989,990,991,992,993,994,995,996,997,998,999,1000],"tree_info":[0,0,0,0,0,0,0,0,0,0,0,0,0,0,0,0,0,0,0,0,0,0,0,0,0,0,0,0,0,0,0,0,0,0,0,0,0,0,0,0,0,0,0,0,0,0,0,0,0,0,0,0,0,0,0,0,0,0,0,0,0,0,0,0,0,0,0,0,0,0,0,0,0,0,0,0,0,0,0,0,0,0,0,0,0,0,0,0,0,0,0,0,0,0,0,0,0,0,0,0,0,0,0,0,0,0,0,0,0,0,0,0,0,0,0,0,0,0,0,0,0,0,0,0,0,0,0,0,0,0,0,0,0,0,0,0,0,0,0,0,0,0,0,0,0,0,0,0,0,0,0,0,0,0,0,0,0,0,0,0,0,0,0,0,0,0,0,0,0,0,0,0,0,0,0,0,0,0,0,0,0,0,0,0,0,0,0,0,0,0,0,0,0,0,0,0,0,0,0,0,0,0,0,0,0,0,0,0,0,0,0,0,0,0,0,0,0,0,0,0,0,0,0,0,0,0,0,0,0,0,0,0,0,0,0,0,0,0,0,0,0,0,0,0,0,0,0,0,0,0,0,0,0,0,0,0,0,0,0,0,0,0,0,0,0,0,0,0,0,0,0,0,0,0,0,0,0,0,0,0,0,0,0,0,0,0,0,0,0,0,0,0,0,0,0,0,0,0,0,0,0,0,0,0,0,0,0,0,0,0,0,0,0,0,0,0,0,0,0,0,0,0,0,0,0,0,0,0,0,0,0,0,0,0,0,0,0,0,0,0,0,0,0,0,0,0,0,0,0,0,0,0,0,0,0,0,0,0,0,0,0,0,0,0,0,0,0,0,0,0,0,0,0,0,0,0,0,0,0,0,0,0,0,0,0,0,0,0,0,0,0,0,0,0,0,0,0,0,0,0,0,0,0,0,0,0,0,0,0,0,0,0,0,0,0,0,0,0,0,0,0,0,0,0,0,0,0,0,0,0,0,0,0,0,0,0,0,0,0,0,0,0,0,0,0,0,0,0,0,0,0,0,0,0,0,0,0,0,0,0,0,0,0,0,0,0,0,0,0,0,0,0,0,0,0,0,0,0,0,0,0,0,0,0,0,0,0,0,0,0,0,0,0,0,0,0,0,0,0,0,0,0,0,0,0,0,0,0,0,0,0,0,0,0,0,0,0,0,0,0,0,0,0,0,0,0,0,0,0,0,0,0,0,0,0,0,0,0,0,0,0,0,0,0,0,0,0,0,0,0,0,0,0,0,0,0,0,0,0,0,0,0,0,0,0,0,0,0,0,0,0,0,0,0,0,0,0,0,0,0,0,0,0,0,0,0,0,0,0,0,0,0,0,0,0,0,0,0,0,0,0,0,0,0,0,0,0,0,0,0,0,0,0,0,0,0,0,0,0,0,0,0,0,0,0,0,0,0,0,0,0,0,0,0,0,0,0,0,0,0,0,0,0,0,0,0,0,0,0,0,0,0,0,0,0,0,0,0,0,0,0,0,0,0,0,0,0,0,0,0,0,0,0,0,0,0,0,0,0,0,0,0,0,0,0,0,0,0,0,0,0,0,0,0,0,0,0,0,0,0,0,0,0,0,0,0,0,0,0,0,0,0,0,0,0,0,0,0,0,0,0,0,0,0,0,0,0,0,0,0,0,0,0,0,0,0,0,0,0,0,0,0,0,0,0,0,0,0,0,0,0,0,0,0,0,0,0,0,0,0,0,0,0,0,0,0,0,0,0,0,0,0,0,0,0,0,0,0,0,0,0,0,0,0,0,0,0,0,0,0,0,0,0,0,0,0,0,0,0,0,0,0,0,0,0,0,0,0,0,0,0,0,0,0,0,0,0,0,0,0,0,0,0,0,0,0,0,0,0,0,0,0,0,0,0,0,0,0,0,0,0,0,0,0,0,0,0,0,0,0,0,0,0,0,0,0,0,0,0,0,0,0,0,0,0,0,0,0,0,0,0,0,0,0,0,0,0,0,0,0,0,0,0,0,0,0,0,0,0,0,0,0,0,0,0,0,0,0,0,0,0,0,0,0,0,0,0,0,0,0,0,0,0,0,0,0,0,0,0,0,0,0,0,0,0,0,0,0,0,0,0,0,0,0,0,0,0,0,0,0,0,0,0,0,0,0,0,0,0,0,0,0,0,0,0,0,0,0,0,0,0,0,0,0,0,0,0,0,0,0,0,0,0,0,0,0,0,0,0,0,0,0,0,0,0,0,0,0,0,0,0,0,0,0,0,0,0,0,0,0],"trees":[{"base_weights":[7.4111597E-9,-5.291187E-2,1.2661056E-1,-1.0707601E-1,-1.6149208E-2,6.399996E-2,1.8269631E-1,-1.1823773E-3,-7.582768E-2,-3.3505447E-2,-2.214994E-3,4.9099664E-4,8.591052E-2,4.970286E-4,1.8567097E-3,-3.112714E-4,-7.9712603E-4,1.8469408E-2,-3.710601E-2,5.174377E-3,-1.2988015E-2,2.4134167E-4,9.0092985E-4,2.9383443E-4,-1.679331E-5,-4.4872917E-2,-1.0545394E-2,-1.2339371E-2,1.7232647E-2,5.065277E-3,-1.6689587E-2,-4.6690848E-2,2.8766692E-6,-1.7041048E-2,8.126263E-5,-1.680129E-2,7.84792E-4,2.0907968E-2,-6.888171E-5,2.2931099E-5,6.690889E-5,-9.017247E-3,-2.7973948E-2,-1.3844784E-4,-4.894508E-4,-2.0166168E-2,-6.152168E-5,-2.9671788E-5,-1.8159658E-2,-5.0556882E-5,4.416848E-5,2.9297546E-3,2.5158376E-2,-9.994157E-3,3.759265E-6,-3.6651094E-4,-1.44726E-4,-4.6104564E-5,-2.2902481E-4,-1.9435579E-4,-4.614107E-5,-1.6554071E-5,5.009944E-5,1.0864992E-4,2.8715614E-4,-1.235269E-5,-1.08301145E-4],"categories":[],"categories_nodes":[],"categories_segments":[],"categories_sizes":[],"default_left":[0,0,0,0,0,0,0,0,0,0,0,0,0,0,0,0,0,0,0,0,0,0,0,0,0,0,0,0,0,0,0,0,0,0,0,0,0,0,0,0,0,0,0,0,0,0,0,0,0,0,0,0,0,0,0,0,0,0,0,0,0,0,0,0,0,0,0],"id":0,"left_children":[1,3,5,7,9,11,13,-1,15,17,19,-1,21,-1,-1,-1,-1,23,25,27,29,-1,-1,-1,-1,31,33,35,37,39,41,43,-1,45,-1,47,49,51,-1,-1,-1,53,55,-1,-1,57,-1,-1,59,-1,-1,61,63,65,-1,-1,-1,-1,-1,-1,-1,-1,-1,-1,-1,-1,-1],"loss_changes":[1.2728485E0,2.6509395E-1,1.8495494E-1,9.868741E-3,1.9515278E-2,4.923098E-3,2.2443533E-3,0E0,4.709661E-4,7.422317E-3,3.7290743E-3,0E0,4.094541E-4,0E0,0E0,0E0,0E0,7.090566E-4,6.5407865E-3,6.1258343E-3,1.3542227E-3,0E0,0E0,0E0,0E0,2.1480024E-3,1.230042E-3,7.158931E-4,1.6510971E-3,2.6829366E-6,1.1329912E-3,1.1734292E-3,0E0,1.1413777E-4,0E0,1.1524325E-4,1.07182015E-4,1.0725129E-3,0E0,0E0,0E0,1.0469608E-4,1.724828E-4,0E0,0E0,1.0723551E-4,0E0,0E0,4.8586633E-5,0E0,0E0,4.6445522E-5,2.9814476E-4,5.9842598E-5,0E0,0E0,0E0,0E0,0E0,0E0,0E0,0E0,0E0,0E0,0E0,0E0,0E0],"parents":[2147483647,0,0,1,1,2,2,3,3,4,4,5,5,6,6,8,8,9,9,10,10,12,12,17,17,18,18,19,19,20,20,25,25,26,26,27,27,28,28,29,29,30,30,31,31,33,33,35,35,36,36,37,37,41,41,42,42,45,45,48,48,51,51,52,52,53,53],"right_children":[2,4,6,8,10,12,14,-1,16,18,20,-1,22,-1,-1,-1,-1,24,26,28,30,-1,-1,-1,-1,32,34,36,38,40,42,44,-1,46,-1,48,50,52,-1,-1,-1,54,56,-1,-1,58,-1,-1,60,-1,-1,62,64,66,-1,-1,-1,-1,-1,-1,-1,-1,-1,-1,-1,-1,-1],"split_conditions":[2.293293E-1,1.2085252E-1,3.2362366E-1,9.685075E-2,1.7050797E-1,3.8406867E-1,3.259957E-1,-1.1823773E-3,6.487592E-2,7.526777E-2,2.0654221E-1,4.9099664E-4,3.672002E-1,4.970286E-4,1.8567097E-3,-3.112714E-4,-7.9712603E-4,6.3898966E-2,2.4450895E-1,1.7279084E-1,1.7651385E-1,2.4134167E-4,9.0092985E-4,2.9383443E-4,-1.679331E-5,3.3663863E-1,2.851478E-1,1.9038014E-1,2.9292E-1,2.4020445E-1,2.4233611E-1,4.9776744E-2,2.8766692E-6,2.3533511E-1,8.126263E-5,4.2848703E-2,1.5355362E-1,1.7563069E-1,-6.888171E-5,2.2931099E-5,6.690889E-5,3.47237E-1,2.3533511E-1,-1.3844784E-4,-4.894508E-4,1.8327153E-1,-6.152168E-5,-2.9671788E-5,3.3663863E-1,-5.0556882E-5,4.416848E-5,1.7279084E-1,1.7245096E-1,1.7624898E-1,3.759265E-6,-3.6651094E-4,-1.44726E-4,-4.6104564E-5,-2.2902481E-4,-1.9435579E-4,-4.614107E-5,-1.6554071E-5,5.009944E-5,1.0864992E-4,2.8715614E-4,-1.235269E-5,-1.08301145E-4],"split_indices":[29,29,29,29,29,0,0,0,0,15,17,0,5,0,0,0,0,0,12,16,21,0,0,0,0,1,4,21,5,1,13,0,0,2,0,4,3,6,0,0,0,0,6,0,0,1,0,0,2,0,0,0,3,16,0,0,0,0,0,0,0,0,0,0,0,0,0],"split_type":[0,0,0,0,0,0,0,0,0,0,0,0,0,0,0,0,0,0,0,0,0,0,0,0,0,0,0,0,0,0,0,0,0,0,0,0,0,0,0,0,0,0,0,0,0,0,0,0,0,0,0,0,0,0,0,0,0,0,0,0,0,0,0,0,0,0,0],"sum_hessian":[1.88E2,1.33E2,5.5E1,5.3E1,8E1,2.7E1,2.8E1,3.7E1,1.6E1,3.5E1,4.5E1,1.8E1,9E0,1E0,2.7E1,2E0,1.4E1,2E0,3.3E1,2.7E1,1.8E1,1E0,8E0,1E0,1E0,2.5E1,8E0,1.1E1,1.6E1,3E0,1.5E1,2.4E1,1E0,6E0,2E0,8E0,3E0,1.4E1,2E0,2E0,1E0,1E1,5E0,2E0,2.2E1,4E0,2E0,1E0,7E0,1E0,2E0,3E0,1.1E1,9E0,1E0,2E0,3E0,1E0,3E0,6E0,1E0,1E0,2E0,3E0,8E0,1E0,8E0],"tree_param":{"num_deleted":"0","num_feature":"31","num_nodes":"67","size_leaf_vector":"1"}},{"base_weights":[3.3844558E-6,-5.240774E-2,1.2541565E-1,-1.06047675E-1,-1.6000777E-2,6.341829E-2,1.8095051E-1,-1.1708648E-3,-7.5134605E-2,-3.318716E-2,-2.2027225E-3,4.8634512E-4,8.516565E-2,4.9454346E-4,1.8388056E-3,-3.0919624E-4,-7.896863E-4,1.837706E-2,-3.6760848E-2,5.12563E-3,-1.2886467E-2,2.4013496E-4,8.9292164E-4,2.9236524E-4,-1.6709342E-5,-4.4448234E-2,-1.0468313E-2,-1.2239024E-2,1.7081525E-2,5.037084E-3,-1.6561951E-2,-4.624906E-2,2.8622894E-6,-1.6918728E-2,8.072093E-5,-1.6663298E-2,7.753484E-4,2.0727511E-2,-6.842246E-5,2.2778213E-5,6.6574365E-5,-8.937701E-3,-2.7779417E-2,-1.3752485E-4,-4.8476916E-2,-2.0019528E-2,-6.11115E-5,-2.9523446E-5,-1.8008124E-2,-5.0304083E-5,4.387403E-5,2.9088445E-3,2.4939774E-2,-9.90628E-3,3.7404893E-6,-3.6406756E-4,-1.436406E-4,-4.938727E-4,-1.4224582E-4,-4.5874043E-5,-2.2730707E-4,-1.9268987E-4,-4.59104E-5,-1.6471296E-5,4.976546E-5,1.0783508E-4,2.846036E-4,-1.2290924E-5,-1.0733846E-4],"categories":[],"categories_nodes":[],"categories_segments":[],"categories_sizes":[],"default_left":[0,0,0,0,0,0,0,0,0,0,0,0,0,0,0,0,0,0,0,0,0,0,0,0,0,0,0,0,0,0,0,0,0,0,0,0,0,0,0,0,0,0,0,0,0,0,0,0,0,0,0,0,0,0,0,0,0,0,0,0,0,0,0,0,0,0,0,0,0],"id":1,"left_children":[1,3,5,7,9,11,13,-1,15,17,19,-1,21,-1,-1,-1,-1,23,25,27,29,-1,-1,-1,-1,31,33,35,37,39,41,43,-1,45,-1,47,49,51,-1,-1,-1,53,55,-1,57,59,-1,-1,61,-1,-1,63,65,67,-1,-1,-1,-1,-1,-1,-1,-1,-1,-1,-1,-1,-1,-1,-1],"loss_changes":[1.2488694E0,2.5998732E-1,1.8133312E-1,9.629905E-3,1.9135125E-2,4.8602372E-3,2.0797849E-3,0E0,4.401803E-4,7.3094405E-3,3.6675865E-3,0E0,3.79242E-4,0E0,0E0,0E0,0E0,7.019839E-4,6.40681E-3,6.0221413E-3,1.335101E-3,0E0,0E0,0E0,0E0,2.107773E-3,1.2129094E-3,7.038695E-4,1.6246601E-3,2.719462E-6,1.1201124E-3,1.1432618E-3,0E0,1.12242764E-4,0E0,1.1278363E-4,1.0595328E-4,1.0533077E-3,0E0,0E0,0E0,1.02916325E-4,1.7148443E-4,0E0,1.4666468E-5,1.0492117E-4,0E0,0E0,4.687207E-5,0E0,0E0,4.5878594E-5,2.911575E-4,5.8616628E-5,0E0,0E0,0E0,0E0,0E0,0E0,0E0,0E0,0E0,0E0,0E0,0E0,0E0,0E0,0E0],"parents":[2147483647,0,0,1,1,2,2,3,3,4,4,5,5,6,6,8,8,9,9,10,10,12,12,17,17,18,18,19,19,20,20,25,25,26,26,27,27,28,28,29,29,30,30,31,31,33,33,35,35,36,36,37,37,41,41,42,42,44,44,45,45,48,48,51,51,52,52,53,53],"right_children":[2,4,6,8,10,12,14,-1,16,18,20,-1,22,-1,-1,-1,-1,24,26,28,30,-1,-1,-1,-1,32,34,36,38,40,42,44,-1,46,-1,48,50,52,-1,-1,-1,54,56,-1,58,60,-1,-1,62,-1,-1,64,66,68,-1,-1,-1,-1,-1,-1,-1,-1,-1,-1,-1,-1,-1,-1,-1],"split_conditions":[2.293293E-1,1.2085252E-1,3.2362366E-1,9.685075E-2,1.7050797E-1,3.8406867E-1,3.259957E-1,-1.1708648E-3,6.487592E-2,7.526777E-2,2.0654221E-1,4.8634512E-4,3.672002E-1,4.9454346E-4,1.8388056E-3,-3.0919624E-4,-7.896863E-4,6.3898966E-2,2.4450895E-1,1.7279084E-1,1.7651385E-1,2.4013496E-4,8.9292164E-4,2.9236524E-4,-1.6709342E-5,3.3663863E-1,2.851478E-1,1.9038014E-1,2.9292E-1,2.4020445E-1,2.4233611E-1,4.9776744E-2,2.8622894E-6,2.3533511E-1,8.072093E-5,4.2848703E-2,1.5355362E-1,1.7563069E-1,-6.842246E-5,2.2778213E-5,6.6574365E-5,3.47237E-1,2.3533511E-1,-1.3752485E-4,2.4142933E-1,1.8327153E-1,-6.11115E-5,-2.9523446E-5,3.3663863E-1,-5.0304083E-5,4.387403E-5,1.7279084E-1,1.7245096E-1,1.7624898E-1,3.7404893E-6,-3.6406756E-4,-1.436406E-4,-4.938727E-4,-1.4224582E-4,-4.5874043E-5,-2.2730707E-4,-1.9268987E-4,-4.59104E-5,-1.6471296E-5,4.976546E-5,1.0783508E-4,2.846036E-4,-1.2290924E-5,-1.0733846E-4],"split_indices":[29,29,29,29,29,0,0,0,0,15,17,0,5,0,0,0,0,0,12,16,21,0,0,0,0,1,4,21,5,1,13,0,0,2,0,4,3,6,0,0,0,0,6,0,15,1,0,0,2,0,0,0,3,16,0,0,0,0,0,0,0,0,0,0,0,0,0,0,0],"split_type":[0,0,0,0,0,0,0,0,0,0,0,0,0,0,0,0,0,0,0,0,0,0,0,0,0,0,0,0,0,0,0,0,0,0,0,0,0,0,0,0,0,0,0,0,0,0,0,0,0,0,0,0,0,0,0,0,0,0,0,0,0,0,0,0,0,0,0,0,0],"sum_hessian":[1.88E2,1.33E2,5.5E1,5.3E1,8E1,2.7E1,2.8E1,3.7E1,1.6E1,3.5E1,4.5E1,1.8E1,9E0,1E0,2.7E1,2E0,1.4E1,2E0,3.3E1,2.7E1,1.8E1,1E0,8E0,1E0,1E0,2.5E1,8E0,1.1E1,1.6E1,3E0,1.5E1,2.4E1,1E0,6E0,2E0,8E0,3E0,1.4E1,2E0,2E0,1E0,1E1,5E0,2E0,2.2E1,4E0,2E0,1E0,7E0,1E0,2E0,3E0,1.1E1,9E0,1E0,2E0,3E0,2.1E1,1E0,1E0,3E0,6E0,1E0,1E0,2E0,3E0,8E0,1E0,8E0],"tree_param":{"num_deleted":"0","num_feature":"31","num_nodes":"69","size_leaf_vector":"1"}},{"base_weights":[5.9040135E-6,-5.1909562E-2,1.2423209E-1,-1.0502923E-1,-1.5855588E-2,6.284195E-2,1.7922147E-1,-1.1594642E-3,-7.44479E-2,-3.2876085E-2,-2.1905105E-3,4.8173766E-4,8.44273E-2,4.9207074E-4,1.8210743E-3,-3.0713493E-4,-7.8231585E-4,1.8285176E-2,-3.642337E-2,5.07733E-3,-1.27857225E-2,2.389343E-4,8.8498456E-4,2.9090344E-4,-1.6625821E-5,-4.4033397E-2,-1.0391805E-2,-1.2139514E-2,1.693173E-2,5.0090477E-3,-1.6435307E-2,-4.5817517E-2,2.8479844E-6,-1.6797299E-2,8.01828E-5,-1.6526459E-2,7.6599047E-4,2.054862E-2,-6.7966284E-5,2.262632E-5,6.6241475E-5,-8.858862E-3,-2.7586238E-2,-1.3660803E-4,-4.8019808E-2,-1.9873971E-2,-6.0704104E-5,-2.9375851E-5,-1.785787E-2,-5.0052553E-5,4.3581575E-5,2.888076E-3,2.4723083E-2,-9.819184E-3,3.7217885E-6,-3.6164044E-4,-1.4256324E-4,-4.891585E-4,-1.4153458E-4,-4.564464E-5,-2.2560231E-4,-1.9103827E-4,-4.568085E-5,-1.6388967E-5,4.9433656E-5,1.0702628E-4,2.8207386E-4,-1.2229457E-5,-1.0638439E-4],"categories":[],"categories_nodes":[],"categories_segments":[],"categories_sizes":[],"default_left":[0,0,0,0,0,0,0,0,0,0,0,0,0,0,0,0,0,0,0,0,0,0,0,0,0,0,0,0,0,0,0,0,0,0,0,0,0,0,0,0,0,0,0,0,0,0,0,0,0,0,0,0,0,0,0,0,0,0,0,0,0,0,0,0,0,0,0,0,0],"id":2,"left_children":[1,3,5,7,9,11,13,-1,15,17,19,-1,21,-1,-1,-1,-1,23,25,27,29,-1,-1,-1,-1,31,33,35,37,39,41,43,-1,45,-1,47,49,51,-1,-1,-1,53,55,-1,57,59,-1,-1,61,-1,-1,63,65,67,-1,-1,-1,-1,-1,-1,-1,-1,-1,-1,-1,-1,-1,-1,-1],"loss_changes":[1.225359E0,2.5496817E-1,1.7778242E-1,9.396672E-3,1.8767487E-2,4.7981218E-3,1.9204617E-3,0E0,4.1034818E-4,7.1994103E-3,3.607116E-3,0E0,3.4990162E-4,0E0,0E0,0E0,0E0,6.949818E-4,6.2778443E-3,5.920213E-3,1.3162522E-3,0E0,0E0,0E0,0E0,2.0688474E-3,1.1960163E-3,6.92048E-4,1.5986497E-3,2.7549322E-6,1.1073677E-3,1.1144653E-3,0E0,1.10378955E-4,0E0,1.10372435E-4,1.0473881E-4,1.0344479E-3,0E0,0E0,0E0,1.0116695E-4,1.7048186E-4,0E0,5.621463E-6,1.02651305E-4,0E0,0E0,4.520011E-5,0E0,0E0,4.531863E-5,2.8432533E-4,5.7414873E-5,0E0,0E0,0E0,0E0,0E0,0E0,0E0,0E0,0E0,0E0,0E0,0E0,0E0,0E0,0E0],"parents":[2147483647,0,0,1,1,2,2,3,3,4,4,5,5,6,6,8,8,9,9,10,10,12,12,17,17,18,18,19,19,20,20,25,25,26,26,27,27,28,28,29,29,30,30,31,31,33,33,35,35,36,36,37,37,41,41,42,42,44,44,45,45,48,48,51,51,52,52,53,53],"right_children":[2,4,6,8,10,12,14,-1,16,18,20,-1,22,-1,-1,-1,-1,24,26,28,30,-1,-1,-1,-1,32,34,36,38,40,42,44,-1,46,-1,48,50,52,-1,-1,-1,54,56,-1,58,60,-1,-1,62,-1,-1,64,66,68,-1,-1,-1,-1,-1,-1,-1,-1,-1,-1,-1,-1,-1,-1,-1],"split_conditions":[2.293293E-1,1.2085252E-1,3.2362366E-1,9.685075E-2,1.7050797E-1,3.8406867E-1,3.259957E-1,-1.1594642E-3,6.487592E-2,7.526777E-2,2.0654221E-1,4.8173766E-4,3.672002E-1,4.9207074E-4,1.8210743E-3,-3.0713493E-4,-7.8231585E-4,6.3898966E-2,2.4450895E-1,1.7279084E-1,1.7651385E-1,2.389343E-4,8.8498456E-4,2.9090344E-4,-1.6625821E-5,3.3663863E-1,2.851478E-1,1.9038014E-1,2.9292E-1,2.4020445E-1,2.4233611E-1,4.9776744E-2,2.8479844E-6,2.3533511E-1,8.01828E-5,4.2848703E-2,1.5355362E-1,1.7563069E-1,-6.7966284E-5,2.262632E-5,6.6241475E-5,3.47237E-1,2.3533511E-1,-1.3660803E-4,2.4142933E-1,1.8327153E-1,-6.0704104E-5,-2.9375851E-5,3.3663863E-1,-5.0052553E-5,4.3581575E-5,1.7279084E-1,1.7245096E-1,1.7624898E-1,3.7217885E-6,-3.6164044E-4,-1.4256324E-4,-4.891585E-4,-1.4153458E-4,-4.564464E-5,-2.2560231E-4,-1.9103827E-4,-4.568085E-5,-1.6388967E-5,4.9433656E-5,1.0702628E-4,2.8207386E-4,-1.2229457E-5,-1.0638439E-4],"split_indices":[29,29,29,29,29,0,0,0,0,15,17,0,5,0,0,0,0,0,12,16,21,0,0,0,0,1,4,21,5,1,13,0,0,2,0,4,3,6,0,0,0,0,6,0,15,1,0,0,2,0,0,0,3,16,0,0,0,0,0,0,0,0,0,0,0,0,0,0,0],"split_type":[0,0,0,0,0,0,0,0,0,0,0,0,0,0,0,0,0,0,0,0,0,0,0,0,0,0,0,0,0,0,0,0,0,0,0,0,0,0,0,0,0,0,0,0,0,0,0,0,0,0,0,0,0,0,0,0,0,0,0,0,0,0,0,0,0,0,0,0,0],"sum_hessian":[1.88E2,1.33E2,5.5E1,5.3E1,8E1,2.7E1,2.8E1,3.7E1,1.6E1,3.5E1,4.5E1,1.8E1,9E0,1E0,2.7E1,2E0,1.4E1,2E0,3.3E1,2.7E1,1.8E1,1E0,8E0,1E0,1E0,2.5E1,8E0,1.1E1,1.6E1,3E0,1.5E1,2.4E1,1E0,6E0,2E0,8E0,3E0,1.4E1,2E0,2E0,1E0,1E1,5E0,2E0,2.2E1,4E0,2E0,1E0,7E0,1E0,2E0,3E0,1.1E1,9E0,1E0,2E0,3E0,2.1E1,1E0,1E0,3E0,6E0,1E0,1E0,2E0,3E0,8E0,1E0,8E0],"tree_param":{"num_deleted":"0","num_feature":"31","num_nodes":"69","size_leaf_vector":"1"}},{"base_weights":[8.3800505E-6,-5.1416136E-2,1.2305975E-1,-1.0402059E-1,-1.571173E-2,6.2270872E-2,1.7750901E-1,-1.1481747E-3,-7.376751E-2,-3.2567933E-2,-2.17836E-3,4.771738E-4,8.369542E-2,1.4482014E-3,2.117499E-3,-3.0508742E-4,-7.750143E-4,1.8193752E-2,-3.6089025E-2,5.0294697E-3,-1.2685774E-2,2.377396E-4,8.771181E-4,2.8944894E-4,-1.6542674E-5,-4.3622464E-2,-1.0315861E-2,-1.2040836E-2,1.6783247E-2,4.981179E-3,-1.6309652E-2,-4.5390032E-2,2.8337538E-6,-1.6676744E-2,7.964824E-5,-1.6390763E-2,7.5671077E-4,2.0371277E-2,-6.751319E-5,2.247552E-5,6.5910295E-5,-8.780722E-3,-2.7394414E-2,-1.3569728E-4,-4.7567027E-4,-1.972948E-2,-6.0299386E-5,-2.9228999E-5,-1.7708885E-2,-4.9802286E-5,4.3291002E-5,2.8674603E-3,2.4508275E-2,-9.732857E-3,3.703162E-6,-3.5922954E-4,-1.4149405E-4,-4.541643E-5,-2.2391028E-4,-1.8940085E-4,-4.5452416E-5,-1.630701E-5,4.9104143E-5,1.0622363E-4,2.7956648E-4,-1.2168288E-5,-1.0543879E-4],"categories":[],"categories_nodes":[],"categories_segments":[],"categories_sizes":[],"default_left":[0,0,0,0,0,0,0,0,0,0,0,0,0,0,0,0,0,0,0,0,0,0,0,0,0,0,0,0,0,0,0,0,0,0,0,0,0,0,0,0,0,0,0,0,0,0,0,0,0,0,0,0,0,0,0,0,0,0,0,0,0,0,0,0,0,0,0],"id":3,"left_children":[1,3,5,7,9,11,13,-1,15,17,19,-1,21,-1,-1,-1,-1,23,25,27,29,-1,-1,-1,-1,31,33,35,37,39,41,43,-1,45,-1,47,49,51,-1,-1,-1,53,55,-1,-1,57,-1,-1,59,-1,-1,61,63,65,-1,-1,-1,-1,-1,-1,-1,-1,-1,-1,-1,-1,-1],"loss_changes":[1.2022922E0,2.500459E-1,1.7430127E-1,9.1686845E-3,1.8406877E-2,4.7367364E-3,1.7939806E-3,0E0,3.8145483E-4,7.0911124E-3,3.5476428E-3,0E0,3.2141805E-4,0E0,0E0,0E0,0E0,6.8804924E-4,6.1514564E-3,5.8200196E-3,1.297676E-3,0E0,0E0,0E0,0E0,2.0306334E-3,1.1793592E-3,6.804238E-4,1.5730597E-3,2.7892456E-6,1.0947594E-3,1.0863468E-3,0E0,1.0854553E-4,0E0,1.08009204E-4,1.03538245E-4,1.0159225E-3,0E0,0E0,0E0,9.9447556E-5,1.694751E-4,0E0,0E0,1.00423815E-4,0E0,0E0,4.3569133E-5,0E0,0E0,4.476557E-5,2.776403E-4,5.623669E-5,0E0,0E0,0E0,0E0,0E0,0E0,0E0,0E0,0E0,0E0,0E0,0E0,0E0],"parents":[2147483647,0,0,1,1,2,2,3,3,4,4,5,5,6,6,8,8,9,9,10,10,12,12,17,17,18,18,19,19,20,20,25,25,26,26,27,27,28,28,29,29,30,30,31,31,33,33,35,35,36,36,37,37,41,41,42,42,45,45,48,48,51,51,52,52,53,53],"right_children":[2,4,6,8,10,12,14,-1,16,18,20,-1,22,-1,-1,-1,-1,24,26,28,30,-1,-1,-1,-1,32,34,36,38,40,42,44,-1,46,-1,48,50,52,-1,-1,-1,54,56,-1,-1,58,-1,-1,60,-1,-1,62,64,66,-1,-1,-1,-1,-1,-1,-1,-1,-1,-1,-1,-1,-1],"split_conditions":[2.293293E-1,1.2085252E-1,3.2362366E-1,9.685075E-2,1.7050797E-1,3.8406867E-1,3.9601684E-1,-1.1481747E-3,6.487592E-2,7.526777E-2,2.0654221E-1,4.771738E-4,3.672002E-1,1.4482014E-3,2.117499E-3,-3.0508742E-4,-7.750143E-4,6.3898966E-2,2.4450895E-1,1.7279084E-1,1.7651385E-1,2.377396E-4,8.771181E-4,2.8944894E-4,-1.6542674E-5,3.3663863E-1,2.851478E-1,1.9038014E-1,2.9292E-1,2.4020445E-1,2.4233611E-1,4.9776744E-2,2.8337538E-6,2.3533511E-1,7.964824E-5,4.2848703E-2,1.5355362E-1,1.7563069E-1,-6.751319E-5,2.247552E-5,6.5910295E-5,3.47237E-1,2.3533511E-1,-1.3569728E-4,-4.7567027E-4,1.8327153E-1,-6.0299386E-5,-2.9228999E-5,3.3663863E-1,-4.9802286E-5,4.3291002E-5,1.7279084E-1,1.7245096E-1,1.7624898E-1,3.703162E-6,-3.5922954E-4,-1.4149405E-4,-4.541643E-5,-2.2391028E-4,-1.8940085E-4,-4.5452416E-5,-1.630701E-5,4.9104143E-5,1.0622363E-4,2.7956648E-4,-1.2168288E-5,-1.0543879E-4],"split_indices":[29,29,29,29,29,0,12,0,0,15,17,0,5,0,0,0,0,0,12,16,21,0,0,0,0,1,4,21,5,1,13,0,0,2,0,4,3,6,0,0,0,0,6,0,0,1,0,0,2,0,0,0,3,16,0,0,0,0,0,0,0,0,0,0,0,0,0],"split_type":[0,0,0,0,0,0,0,0,0,0,0,0,0,0,0,0,0,0,0,0,0,0,0,0,0,0,0,0,0,0,0,0,0,0,0,0,0,0,0,0,0,0,0,0,0,0,0,0,0,0,0,0,0,0,0,0,0,0,0,0,0,0,0,0,0,0,0],"sum_hessian":[1.88E2,1.33E2,5.5E1,5.3E1,8E1,2.7E1,2.8E1,3.7E1,1.6E1,3.5E1,4.5E1,1.8E1,9E0,1.7E1,1.1E1,2E0,1.4E1,2E0,3.3E1,2.7E1,1.8E1,1E0,8E0,1E0,1E0,2.5E1,8E0,1.1E1,1.6E1,3E0,1.5E1,2.4E1,1E0,6E0,2E0,8E0,3E0,1.4E1,2E0,2E0,1E0,1E1,5E0,2E0,2.2E1,4E0,2E0,1E0,7E0,1E0,2E0,3E0,1.1E1,9E0,1E0,2E0,3E0,1E0,3E0,6E0,1E0,1E0,2E0,3E0,8E0,1E0,8E0],"tree_param":{"num_deleted":"0","num_feature":"31","num_nodes":"67","size_leaf_vector":"1"}},{"base_weights":[1.8340019E-5,-5.0926298E-2,1.2192125E-1,-1.0302165E-1,-1.5567345E-2,6.170502E-2,1.7585687E-1,-1.1369952E-3,-7.309338E-2,-3.2258518E-2,-2.166266E-3,4.7265316E-4,8.2969956E-2,4.8236942E-4,1.7869198E-3,-3.030535E-4,-7.677808E-4,1.810278E-2,-3.575338E-2,4.9820496E-3,-1.2586611E-2,2.3655094E-4,8.693215E-4,2.8800167E-4,-1.6459971E-5,-4.3209642E-2,-1.0240477E-2,-1.194298E-2,1.6636068E-2,4.9534664E-3,-1.6184967E-2,-4.4960584E-2,2.8195977E-6,-1.6557068E-2,7.9117264E-5,-1.6256204E-2,7.4751675E-4,2.0195471E-2,-6.706307E-5,2.2325714E-5,6.558075E-5,-8.703268E-3,-2.7203923E-2,-1.3479267E-4,-4.7112036E-2,-1.9586053E-2,-5.9897353E-5,-2.908282E-5,-1.7561158E-2,-4.9553288E-5,4.3002416E-5,2.846986E-3,2.4295343E-2,-9.647287E-3,3.68461E-6,-3.568347E-4,-1.4043279E-4,-4.7994865E-4,-1.3844855E-4,-4.5189336E-5,-2.22231E-4,-1.8777746E-4,-4.5225173E-5,-1.6225502E-5,4.8776812E-5,1.0542691E-4,2.770815E-4,-1.2107416E-5,-1.04501545E-4],"categories":[],"categories_nodes":[],"categories_segments":[],"categories_sizes":[],"default_left":[0,0,0,0,0,0,0,0,0,0,0,0,0,0,0,0,0,0,0,0,0,0,0,0,0,0,0,0,0,0,0,0,0,0,0,0,0,0,0,0,0,0,0,0,0,0,0,0,0,0,0,0,0,0,0,0,0,0,0,0,0,0,0,0,0,0,0,0,0],"id":4,"left_children":[1,3,5,7,9,11,13,-1,15,17,19,-1,21,-1,-1,-1,-1,23,25,27,29,-1,-1,-1,-1,31,33,35,37,39,41,43,-1,45,-1,47,49,51,-1,-1,-1,53,55,-1,57,59,-1,-1,61,-1,-1,63,65,67,-1,-1,-1,-1,-1,-1,-1,-1,-1,-1,-1,-1,-1,-1,-1],"loss_changes":[1.1799556E0,2.4522921E-1,1.7102551E-1,8.946121E-3,1.804818E-2,4.6760514E-3,1.8731356E-3,0E0,3.5345554E-4,6.983444E-3,3.4891514E-3,0E0,2.937913E-4,0E0,0E0,0E0,0E0,6.81186E-4,6.0253628E-3,5.721533E-3,1.2793655E-3,0E0,0E0,0E0,0E0,1.992613E-3,1.1629355E-3,6.6899497E-4,1.5478809E-3,2.8225259E-6,1.0822848E-3,1.0582246E-3,0E0,1.0674284E-4,0E0,1.0569347E-4,1.0235169E-4,9.977296E-4,0E0,0E0,0E0,9.775738E-5,1.6846508E-4,0E0,1.1015683E-5,9.82387E-5,0E0,0E0,4.1978434E-5,0E0,0E0,4.4219356E-5,2.7110334E-4,5.508185E-5,0E0,0E0,0E0,0E0,0E0,0E0,0E0,0E0,0E0,0E0,0E0,0E0,0E0,0E0,0E0],"parents":[2147483647,0,0,1,1,2,2,3,3,4,4,5,5,6,6,8,8,9,9,10,10,12,12,17,17,18,18,19,19,20,20,25,25,26,26,27,27,28,28,29,29,30,30,31,31,33,33,35,35,36,36,37,37,41,41,42,42,44,44,45,45,48,48,51,51,52,52,53,53],"right_children":[2,4,6,8,10,12,14,-1,16,18,20,-1,22,-1,-1,-1,-1,24,26,28,30,-1,-1,-1,-1,32,34,36,38,40,42,44,-1,46,-1,48,50,52,-1,-1,-1,54,56,-1,58,60,-1,-1,62,-1,-1,64,66,68,-1,-1,-1,-1,-1,-1,-1,-1,-1,-1,-1,-1,-1,-1,-1],"split_conditions":[2.293293E-1,1.2085252E-1,3.2362366E-1,9.685075E-2,1.7050797E-1,3.8406867E-1,3.259957E-1,-1.1369952E-3,6.487592E-2,7.526777E-2,2.0654221E-1,4.7265316E-4,3.672002E-1,4.8236942E-4,1.7869198E-3,-3.030535E-4,-7.677808E-4,6.3898966E-2,2.4450895E-1,1.7279084E-1,1.7651385E-1,2.3655094E-4,8.693215E-4,2.8800167E-4,-1.6459971E-5,3.3663863E-1,2.851478E-1,1.9038014E-1,2.9292E-1,2.4020445E-1,2.4233611E-1,4.9776744E-2,2.8195977E-6,2.3533511E-1,7.9117264E-5,4.2848703E-2,1.5355362E-1,1.7563069E-1,-6.706307E-5,2.2325714E-5,6.558075E-5,3.47237E-1,2.3533511E-1,-1.3479267E-4,2.4142933E-1,1.8327153E-1,-5.9897353E-5,-2.908282E-5,3.3663863E-1,-4.9553288E-5,4.3002416E-5,1.7279084E-1,1.7245096E-1,1.7624898E-1,3.68461E-6,-3.568347E-4,-1.4043279E-4,-4.7994865E-4,-1.3844855E-4,-4.5189336E-5,-2.22231E-4,-1.8777746E-4,-4.5225173E-5,-1.6225502E-5,4.8776812E-5,1.0542691E-4,2.770815E-4,-1.2107416E-5,-1.04501545E-4],"split_indices":[29,29,29,29,29,0,0,0,0,15,17,0,5,0,0,0,0,0,12,16,21,0,0,0,0,1,4,21,5,1,13,0,0,2,0,4,3,6,0,0,0,0,6,0,15,1,0,0,2,0,0,0,3,16,0,0,0,0,0,0,0,0,0,0,0,0,0,0,0],"split_type":[0,0,0,0,0,0,0,0,0,0,0,0,0,0,0,0,0,0,0,0,0,0,0,0,0,0,0,0,0,0,0,0,0,0,0,0,0,0,0,0,0,0,0,0,0,0,0,0,0,0,0,0,0,0,0,0,0,0,0,0,0,0,0,0,0,0,0,0,0],"sum_hessian":[1.88E2,1.33E2,5.5E1,5.3E1,8E1,2.7E1,2.8E1,3.7E1,1.6E1,3.5E1,4.5E1,1.8E1,9E0,1E0,2.7E1,2E0,1.4E1,2E0,3.3E1,2.7E1,1.8E1,1E0,8E0,1E0,1E0,2.5E1,8E0,1.1E1,1.6E1,3E0,1.5E1,2.4E1,1E0,6E0,2E0,8E0,3E0,1.4E1,2E0,2E0,1E0,1E1,5E0,2E0,2.2E1,4E0,2E0,1E0,7E0,1E0,2E0,3E0,1.1E1,9E0,1E0,2E0,3E0,2.1E1,1E0,1E0,3E0,6E0,1E0,1E0,2E0,3E0,8E0,1E0,8E0],"tree_param":{"num_deleted":"0","num_feature":"31","num_nodes":"69","size_leaf_vector":"1"}},{"base_weights":[2.0644022E-5,-5.044224E-2,1.2077075E-1,-1.0203232E-1,-1.5426112E-2,6.114435E-2,1.7417656E-1,-1.1259245E-3,-7.242543E-2,-3.1956125E-2,-2.1542313E-3,4.681754E-4,8.225085E-2,1.4183724E-3,2.0817085E-3,-3.010331E-4,-7.606149E-4,1.801227E-2,-3.5425216E-2,4.935064E-3,-1.2488234E-2,2.3536816E-4,8.615943E-4,2.865617E-4,-1.6377642E-5,-4.2183977E-2,-8.186242E-3,-1.1845934E-2,1.6490176E-2,4.9259104E-3,-1.6061254E-2,-4.4792518E-2,-1.5986733E-2,-2.0661581E-2,3.4312785E-3,-1.6122757E-2,7.3840097E-4,2.0021185E-2,-6.661594E-5,2.2176902E-5,6.5252854E-5,-8.6265E-3,-2.7014762E-2,-1.3389403E-4,-4.7038738E-2,-4.496336E-5,-1.8318086E-4,-5.433865E-5,-2.3926198E-4,7.858987E-5,-2.1401893E-3,-2.8937384E-5,-1.7414667E-2,-4.9305556E-5,4.2715717E-5,2.8266571E-3,2.4084263E-2,-9.562475E-3,3.666207E-6,-3.544558E-4,-1.3937957E-4,-4.796671E-4,-1.3775632E-4,2.805516E-6,-3.4908353E-5,-1.8616789E-4,-4.4999048E-5,-1.6144364E-5,4.8451668E-5,1.04636216E-4,2.746185E-4,-1.2046844E-5,-1.03572645E-4],"categories":[],"categories_nodes":[],"categories_segments":[],"categories_sizes":[],"default_left":[0,0,0,0,0,0,0,0,0,0,0,0,0,0,0,0,0,0,0,0,0,0,0,0,0,0,0,0,0,0,0,0,0,0,0,0,0,0,0,0,0,0,0,0,0,0,0,0,0,0,0,0,0,0,0,0,0,0,0,0,0,0,0,0,0,0,0,0,0,0,0,0,0],"id":5,"left_children":[1,3,5,7,9,11,13,-1,15,17,19,-1,21,-1,-1,-1,-1,23,25,27,29,-1,-1,-1,-1,31,33,35,37,39,41,43,45,47,49,51,53,55,-1,-1,-1,57,59,-1,61,-1,-1,-1,-1,-1,63,-1,65,-1,-1,67,69,71,-1,-1,-1,-1,-1,-1,-1,-1,-1,-1,-1,-1,-1,-1,-1],"loss_changes":[1.1577443E0,2.4049506E-1,1.6767627E-1,8.728683E-3,1.7701292E-2,4.616104E-3,2.35492E-3,0E0,3.2635778E-4,6.8785027E-3,3.4316268E-3,0E0,2.6696175E-4,0E0,0E0,0E0,0E0,6.74391E-4,5.914137E-3,5.624718E-3,1.2613169E-3,0E0,0E0,0E0,0E0,1.1289939E-3,1.2303557E-3,6.577567E-4,1.5231082E-3,2.8547802E-6,1.0699434E-3,1.0631047E-3,2.478843E-5,6.883894E-5,1.4016387E-4,1.03422906E-4,1.0117879E-4,9.798626E-4,0E0,0E0,0E0,9.6096424E-5,1.674504E-4,0E0,1.8306077E-5,0E0,0E0,0E0,0E0,0E0,1.0788054E-5,0E0,4.0427316E-5,0E0,0E0,4.3679778E-5,2.6470842E-4,5.3949596E-5,0E0,0E0,0E0,0E0,0E0,0E0,0E0,0E0,0E0,0E0,0E0,0E0,0E0,0E0,0E0],"parents":[2147483647,0,0,1,1,2,2,3,3,4,4,5,5,6,6,8,8,9,9,10,10,12,12,17,17,18,18,19,19,20,20,25,25,26,26,27,27,28,28,29,29,30,30,31,31,32,32,33,33,34,34,35,35,36,36,37,37,41,41,42,42,44,44,50,50,52,52,55,55,56,56,57,57],"right_children":[2,4,6,8,10,12,14,-1,16,18,20,-1,22,-1,-1,-1,-1,24,26,28,30,-1,-1,-1,-1,32,34,36,38,40,42,44,46,48,50,52,54,56,-1,-1,-1,58,60,-1,62,-1,-1,-1,-1,-1,64,-1,66,-1,-1,68,70,72,-1,-1,-1,-1,-1,-1,-1,-1,-1,-1,-1,-1,-1,-1,-1],"split_conditions":[2.293293E-1,1.2085252E-1,3.2362366E-1,9.685075E-2,1.7050797E-1,3.8406867E-1,3.9601684E-1,-1.1259245E-3,6.487592E-2,7.526777E-2,2.0654221E-1,4.681754E-4,3.672002E-1,1.4183724E-3,2.0817085E-3,-3.010331E-4,-7.606149E-4,6.3898966E-2,2.597115E-1,1.7279084E-1,1.7651385E-1,2.3536816E-4,8.615943E-4,2.865617E-4,-1.6377642E-5,2.4450895E-1,1.6852768E-1,1.9038014E-1,2.9292E-1,2.4020445E-1,2.4233611E-1,4.9776744E-2,1.8327153E-1,2.4233611E-1,2.851478E-1,4.2848703E-2,1.5355362E-1,1.7563069E-1,-6.661594E-5,2.2176902E-5,6.5252854E-5,3.47237E-1,2.3533511E-1,-1.3389403E-4,2.4142933E-1,-4.496336E-5,-1.8318086E-4,-5.433865E-5,-2.3926198E-4,7.858987E-5,3.3663863E-1,-2.8937384E-5,3.3663863E-1,-4.9305556E-5,4.2715717E-5,1.7279084E-1,1.7245096E-1,1.7624898E-1,3.666207E-6,-3.544558E-4,-1.3937957E-4,-4.796671E-4,-1.3775632E-4,2.805516E-6,-3.4908353E-5,-1.8616789E-4,-4.4999048E-5,-1.6144364E-5,4.8451668E-5,1.04636216E-4,2.746185E-4,-1.2046844E-5,-1.03572645E-4],"split_indices":[29,29,29,29,29,0,12,0,0,15,17,0,5,0,0,0,0,0,4,16,21,0,0,0,0,12,24,21,5,1,13,0,1,0,0,4,3,6,0,0,0,0,6,0,15,0,0,0,0,0,0,0,2,0,0,0,3,16,0,0,0,0,0,0,0,0,0,0,0,0,0,0,0],"split_type":[0,0,0,0,0,0,0,0,0,0,0,0,0,0,0,0,0,0,0,0,0,0,0,0,0,0,0,0,0,0,0,0,0,0,0,0,0,0,0,0,0,0,0,0,0,0,0,0,0,0,0,0,0,0,0,0,0,0,0,0,0,0,0,0,0,0,0,0,0,0,0,0,0],"sum_hessian":[1.88E2,1.33E2,5.5E1,5.3E1,8E1,2.7E1,2.8E1,3.7E1,1.6E1,3.5E1,4.5E1,1.8E1,9E0,1.7E1,1.1E1,2E0,1.4E1,2E0,3.3E1,2.7E1,1.8E1,1E0,8E0,1E0,1E0,2.6E1,7E0,1.1E1,1.6E1,3E0,1.5E1,2.3E1,3E0,3E0,4E0,8E0,3E0,1.4E1,2E0,2E0,1E0,1E1,5E0,2E0,2.1E1,1E0,2E0,1E0,2E0,2E0,2E0,1E0,7E0,1E0,2E0,3E0,1.1E1,9E0,1E0,2E0,3E0,2E1,1E0,1E0,1E0,6E0,1E0,1E0,2E0,3E0,8E0,1E0,8E0],"tree_param":{"num_deleted":"0","num_feature":"31","num_nodes":"73","size_leaf_vector":"1"}},{"base_weights":[2.827649E-5,-4.9964562E-2,1.1965349E-1,-1.010525E-1,-1.5289091E-2,6.05888E-2,1.7255549E-1,-1.1149615E-3,-7.176363E-2,-3.1663127E-2,-2.1422538E-3,4.6374003E-4,8.153803E-2,1.4049767E-3,2.0626262E-3,-2.990262E-4,-7.535158E-4,1.7922208E-2,-3.5107035E-2,4.888511E-3,-1.239063E-2,2.3419134E-4,8.539356E-4,2.8512886E-4,-1.629576E-5,-4.1798413E-2,-8.135265E-3,-1.1749696E-2,1.6345568E-2,4.898511E-3,-1.5938502E-2,-4.4375896E-2,-1.5883904E-2,-2.0528361E-2,3.4062653E-3,-1.5990425E-2,7.2936714E-4,1.9848412E-2,-6.6171786E-5,2.2029082E-5,6.492659E-5,-8.550409E-3,-2.6826918E-2,-1.3300146E-4,-4.659641E-2,-4.4738576E-5,-1.8195967E-4,-5.4066924E-5,-2.3766687E-4,7.806594E-5,-2.1294851E-3,-2.8792694E-5,-1.726941E-2,-4.9059017E-5,4.2430907E-5,2.8064623E-3,2.3875028E-2,-9.478408E-3,3.6478787E-6,-3.520928E-4,-1.3833419E-4,-4.7509884E-4,-1.370675E-4,2.791509E-6,-3.473379E-5,-1.845721E-4,-4.477404E-5,-1.6063676E-5,4.812861E-5,1.03851446E-4,2.721775E-4,-1.1986643E-5,-1.02651946E-4],"categories":[],"categories_nodes":[],"categories_segments":[],"categories_sizes":[],"default_left":[0,0,0,0,0,0,0,0,0,0,0,0,0,0,0,0,0,0,0,0,0,0,0,0,0,0,0,0,0,0,0,0,0,0,0,0,0,0,0,0,0,0,0,0,0,0,0,0,0,0,0,0,0,0,0,0,0,0,0,0,0,0,0,0,0,0,0,0,0,0,0,0,0],"id":6,"left_children":[1,3,5,7,9,11,13,-1,15,17,19,-1,21,-1,-1,-1,-1,23,25,27,29,-1,-1,-1,-1,31,33,35,37,39,41,43,45,47,49,51,53,55,-1,-1,-1,57,59,-1,61,-1,-1,-1,-1,-1,63,-1,65,-1,-1,67,69,71,-1,-1,-1,-1,-1,-1,-1,-1,-1,-1,-1,-1,-1,-1,-1],"loss_changes":[1.1362749E0,2.3583576E-1,1.6452497E-1,8.516312E-3,1.736878E-2,4.556842E-3,2.3573637E-3,0E0,3.001094E-4,6.776817E-3,3.375052E-3,0E0,2.4095178E-4,0E0,0E0,0E0,0E0,6.6766393E-4,5.796224E-3,5.529552E-3,1.243528E-3,0E0,0E0,0E0,0E0,1.0985769E-3,1.2142075E-3,6.467068E-4,1.4987341E-3,2.8860377E-6,1.0577329E-3,1.0363683E-3,2.411683E-5,6.73763E-5,1.3841964E-4,1.0119751E-4,1.0001929E-4,9.6231606E-4,0E0,0E0,0E0,9.446376E-5,1.6643247E-4,0E0,9.75281E-6,0E0,0E0,0E0,0E0,0E0,1.0680448E-5,0E0,3.8914615E-5,0E0,0E0,4.314681E-5,2.5845505E-4,5.2839343E-5,0E0,0E0,0E0,0E0,0E0,0E0,0E0,0E0,0E0,0E0,0E0,0E0,0E0,0E0,0E0],"parents":[2147483647,0,0,1,1,2,2,3,3,4,4,5,5,6,6,8,8,9,9,10,10,12,12,17,17,18,18,19,19,20,20,25,25,26,26,27,27,28,28,29,29,30,30,31,31,32,32,33,33,34,34,35,35,36,36,37,37,41,41,42,42,44,44,50,50,52,52,55,55,56,56,57,57],"right_children":[2,4,6,8,10,12,14,-1,16,18,20,-1,22,-1,-1,-1,-1,24,26,28,30,-1,-1,-1,-1,32,34,36,38,40,42,44,46,48,50,52,54,56,-1,-1,-1,58,60,-1,62,-1,-1,-1,-1,-1,64,-1,66,-1,-1,68,70,72,-1,-1,-1,-1,-1,-1,-1,-1,-1,-1,-1,-1,-1,-1,-1],"split_conditions":[2.293293E-1,1.2085252E-1,3.2362366E-1,9.685075E-2,1.7050797E-1,3.8406867E-1,3.9601684E-1,-1.1149615E-3,6.487592E-2,7.526777E-2,2.0654221E-1,4.6374003E-4,3.672002E-1,1.4049767E-3,2.0626262E-3,-2.990262E-4,-7.535158E-4,6.3898966E-2,2.597115E-1,1.7279084E-1,1.7651385E-1,2.3419134E-4,8.539356E-4,2.8512886E-4,-1.629576E-5,2.4450895E-1,1.6852768E-1,1.9038014E-1,2.9292E-1,2.4020445E-1,2.4233611E-1,4.9776744E-2,1.8327153E-1,2.4233611E-1,2.851478E-1,4.2848703E-2,1.5355362E-1,1.7563069E-1,-6.6171786E-5,2.2029082E-5,6.492659E-5,3.47237E-1,2.3533511E-1,-1.3300146E-4,2.4142933E-1,-4.4738576E-5,-1.8195967E-4,-5.4066924E-5,-2.3766687E-4,7.806594E-5,3.3663863E-1,-2.8792694E-5,3.3663863E-1,-4.9059017E-5,4.2430907E-5,1.7279084E-1,1.7245096E-1,1.7624898E-1,3.6478787E-6,-3.520928E-4,-1.3833419E-4,-4.7509884E-4,-1.370675E-4,2.791509E-6,-3.473379E-5,-1.845721E-4,-4.477404E-5,-1.6063676E-5,4.812861E-5,1.03851446E-4,2.721775E-4,-1.1986643E-5,-1.02651946E-4],"split_indices":[29,29,29,29,29,0,12,0,0,15,17,0,5,0,0,0,0,0,4,16,21,0,0,0,0,12,24,21,5,1,13,0,1,0,0,4,3,6,0,0,0,0,6,0,15,0,0,0,0,0,0,0,2,0,0,0,3,16,0,0,0,0,0,0,0,0,0,0,0,0,0,0,0],"split_type":[0,0,0,0,0,0,0,0,0,0,0,0,0,0,0,0,0,0,0,0,0,0,0,0,0,0,0,0,0,0,0,0,0,0,0,0,0,0,0,0,0,0,0,0,0,0,0,0,0,0,0,0,0,0,0,0,0,0,0,0,0,0,0,0,0,0,0,0,0,0,0,0,0],"sum_hessian":[1.88E2,1.33E2,5.5E1,5.3E1,8E1,2.7E1,2.8E1,3.7E1,1.6E1,3.5E1,4.5E1,1.8E1,9E0,1.7E1,1.1E1,2E0,1.4E1,2E0,3.3E1,2.7E1,1.8E1,1E0,8E0,1E0,1E0,2.6E1,7E0,1.1E1,1.6E1,3E0,1.5E1,2.3E1,3E0,3E0,4E0,8E0,3E0,1.4E1,2E0,2E0,1E0,1E1,5E0,2E0,2.1E1,1E0,2E0,1E0,2E0,2E0,2E0,1E0,7E0,1E0,2E0,3E0,1.1E1,9E0,1E0,2E0,3E0,2E1,1E0,1E0,1E0,6E0,1E0,1E0,2E0,3E0,8E0,1E0,8E0],"tree_param":{"num_deleted":"0","num_feature":"31","num_nodes":"73","size_leaf_vector":"1"}},{"base_weights":[3.5750723E-5,-4.9491435E-2,1.185466E-1,-1.00082114E-1,-1.5153311E-2,6.0038336E-2,1.7094952E-1,-1.1041053E-3,-7.11079E-2,-3.1372853E-2,-2.130339E-3,4.5934672E-4,8.083146E-2,1.3917075E-3,2.0437187E-3,-2.9591282E-4,-7.467069E-4,1.7832598E-2,-3.479178E-2,4.8423787E-3,-1.22938E-2,2.330204E-4,8.4634504E-4,2.837032E-4,-1.6214251E-5,-4.141643E-2,-8.084612E-3,-1.1654265E-2,1.6202223E-2,4.871268E-3,-1.5816703E-2,-4.396319E-2,-1.5781742E-2,-2.039601E-2,3.381428E-3,-1.5859207E-2,7.20419E-4,1.967713E-2,-6.573061E-5,2.1882255E-5,6.460197E-5,-8.474994E-3,-2.6640387E-2,-1.3211473E-4,-4.615828E-2,-4.451491E-5,-1.8074662E-4,-5.379662E-5,-2.3608237E-4,7.754549E-5,-2.118836E-3,-2.8648748E-5,-1.7125389E-2,-4.8813745E-5,4.2148084E-5,2.7864128E-3,2.366761E-2,-9.395087E-3,3.6296249E-6,-3.4974545E-4,-1.3729672E-4,-4.7057416E-4,-1.3638221E-4,2.7775764E-6,-3.4560115E-5,-1.8299012E-4,-4.455015E-5,-1.5983358E-5,4.7807745E-5,3.0184077E-4,1.4700979E-4,-1.192674E-5,-1.0173946E-4],"categories":[],"categories_nodes":[],"categories_segments":[],"categories_sizes":[],"default_left":[0,0,0,0,0,0,0,0,0,0,0,0,0,0,0,0,0,0,0,0,0,0,0,0,0,0,0,0,0,0,0,0,0,0,0,0,0,0,0,0,0,0,0,0,0,0,0,0,0,0,0,0,0,0,0,0,0,0,0,0,0,0,0,0,0,0,0,0,0,0,0,0,0],"id":7,"left_children":[1,3,5,7,9,11,13,-1,15,17,19,-1,21,-1,-1,-1,-1,23,25,27,29,-1,-1,-1,-1,31,33,35,37,39,41,43,45,47,49,51,53,55,-1,-1,-1,57,59,-1,61,-1,-1,-1,-1,-1,63,-1,65,-1,-1,67,69,71,-1,-1,-1,-1,-1,-1,-1,-1,-1,-1,-1,-1,-1,-1,-1],"loss_changes":[1.1152041E0,2.3126674E-1,1.6143268E-1,8.308828E-3,1.7042525E-2,4.498303E-3,2.3589134E-3,0E0,3.0495226E-4,6.6767E-3,3.3194106E-3,0E0,2.1570176E-4,0E0,0E0,0E0,0E0,6.610037E-4,5.6806356E-3,5.436006E-3,1.2259947E-3,0E0,0E0,0E0,0E0,1.0688938E-3,1.1982713E-3,6.358429E-4,1.474753E-3,2.9162911E-6,1.0456522E-3,1.0102503E-3,2.345827E-5,6.59395E-5,1.3669723E-4,9.9016586E-5,9.887345E-5,9.4508333E-4,0E0,0E0,0E0,9.285909E-5,1.654108E-4,0E0,1.4975667E-6,0E0,0E0,0E0,0E0,0E0,1.0573932E-5,0E0,3.7439633E-5,0E0,0E0,4.2620377E-5,2.574334E-4,5.175115E-5,0E0,0E0,0E0,0E0,0E0,0E0,0E0,0E0,0E0,0E0,0E0,0E0,0E0,0E0,0E0],"parents":[2147483647,0,0,1,1,2,2,3,3,4,4,5,5,6,6,8,8,9,9,10,10,12,12,17,17,18,18,19,19,20,20,25,25,26,26,27,27,28,28,29,29,30,30,31,31,32,32,33,33,34,34,35,35,36,36,37,37,41,41,42,42,44,44,50,50,52,52,55,55,56,56,57,57],"right_children":[2,4,6,8,10,12,14,-1,16,18,20,-1,22,-1,-1,-1,-1,24,26,28,30,-1,-1,-1,-1,32,34,36,38,40,42,44,46,48,50,52,54,56,-1,-1,-1,58,60,-1,62,-1,-1,-1,-1,-1,64,-1,66,-1,-1,68,70,72,-1,-1,-1,-1,-1,-1,-1,-1,-1,-1,-1,-1,-1,-1,-1],"split_conditions":[2.293293E-1,1.2085252E-1,3.2362366E-1,9.685075E-2,1.7050797E-1,3.8406867E-1,3.9601684E-1,-1.1041053E-3,6.7244165E-2,7.526777E-2,2.0654221E-1,4.5934672E-4,3.672002E-1,1.3917075E-3,2.0437187E-3,-2.9591282E-4,-7.467069E-4,6.3898966E-2,2.597115E-1,1.7279084E-1,1.7651385E-1,2.330204E-4,8.4634504E-4,2.837032E-4,-1.6214251E-5,2.4450895E-1,1.6852768E-1,1.9038014E-1,2.9292E-1,2.4020445E-1,2.4233611E-1,4.9776744E-2,1.8327153E-1,2.4233611E-1,2.851478E-1,4.2848703E-2,1.5355362E-1,1.7563069E-1,-6.573061E-5,2.1882255E-5,6.460197E-5,3.47237E-1,2.3533511E-1,-1.3211473E-4,2.4142933E-1,-4.451491E-5,-1.8074662E-4,-5.379662E-5,-2.3608237E-4,7.754549E-5,3.3663863E-1,-2.8648748E-5,3.3663863E-1,-4.8813745E-5,4.2148084E-5,1.7279084E-1,1.9321933E-1,1.7624898E-1,3.6296249E-6,-3.4974545E-4,-1.3729672E-4,-4.7057416E-4,-1.3638221E-4,2.7775764E-6,-3.4560115E-5,-1.8299012E-4,-4.455015E-5,-1.5983358E-5,4.7807745E-5,3.0184077E-4,1.4700979E-4,-1.192674E-5,-1.0173946E-4],"split_indices":[29,29,29,29,29,0,12,0,10,15,17,0,5,0,0,0,0,0,4,16,21,0,0,0,0,12,24,21,5,1,13,0,1,0,0,4,3,6,0,0,0,0,6,0,15,0,0,0,0,0,0,0,2,0,0,0,6,16,0,0,0,0,0,0,0,0,0,0,0,0,0,0,0],"split_type":[0,0,0,0,0,0,0,0,0,0,0,0,0,0,0,0,0,0,0,0,0,0,0,0,0,0,0,0,0,0,0,0,0,0,0,0,0,0,0,0,0,0,0,0,0,0,0,0,0,0,0,0,0,0,0,0,0,0,0,0,0,0,0,0,0,0,0,0,0,0,0,0,0],"sum_hessian":[1.88E2,1.33E2,5.5E1,5.3E1,8E1,2.7E1,2.8E1,3.7E1,1.6E1,3.5E1,4.5E1,1.8E1,9E0,1.7E1,1.1E1,2E0,1.4E1,2E0,3.3E1,2.7E1,1.8E1,1E0,8E0,1E0,1E0,2.6E1,7E0,1.1E1,1.6E1,3E0,1.5E1,2.3E1,3E0,3E0,4E0,8E0,3E0,1.4E1,2E0,2E0,1E0,1E1,5E0,2E0,2.1E1,1E0,2E0,1E0,2E0,2E0,2E0,1E0,7E0,1E0,2E0,3E0,1.1E1,9E0,1E0,2E0,3E0,2E1,1E0,1E0,1E0,6E0,1E0,1E0,2E0,5E0,6E0,1E0,8E0],"tree_param":{"num_deleted":"0","num_feature":"31","num_nodes":"73","size_leaf_vector":"1"}},{"base_weights":[4.3477805E-5,-4.902224E-2,1.17449954E-1,-9.912105E-2,-1.501782E-2,5.949291E-2,1.6935848E-1,-1.0933548E-3,-7.0458144E-2,-3.1085258E-2,-2.1168285E-3,4.5499502E-4,8.0131084E-2,1.3785635E-3,2.0249847E-3,-2.9355733E-4,-7.398142E-4,1.7743433E-2,-3.44794E-2,4.7993856E-3,-1.2197732E-2,2.3185529E-4,8.38822E-4,2.822847E-4,-1.6133188E-5,-4.1037977E-2,-8.034281E-3,-1.1559629E-2,1.6064608E-2,4.8441812E-3,-1.5695851E-2,-4.355435E-2,-1.5680239E-2,-2.0264521E-2,3.3567667E-3,-1.572908E-2,7.1154535E-4,1.9512406E-2,-6.529241E-5,2.1736423E-5,6.427899E-5,-8.400246E-3,-2.6455157E-2,-1.3123397E-4,-4.572428E-4,-4.429236E-5,-1.795416E-4,-5.3527652E-5,-2.3450851E-4,7.702852E-5,-2.1082412E-3,-2.8505474E-5,-1.698258E-2,-4.8569662E-5,4.1867046E-5,2.7665086E-3,2.3468336E-2,-9.312498E-3,3.6114454E-6,-3.4741382E-4,-1.3626699E-4,2.7637184E-6,-3.4387336E-5,-1.8142165E-4,-4.432738E-5,-1.5903413E-5,4.7489055E-5,2.9932545E-4,1.4574965E-4,-1.1867135E-5,-1.0083507E-4],"categories":[],"categories_nodes":[],"categories_segments":[],"categories_sizes":[],"default_left":[0,0,0,0,0,0,0,0,0,0,0,0,0,0,0,0,0,0,0,0,0,0,0,0,0,0,0,0,0,0,0,0,0,0,0,0,0,0,0,0,0,0,0,0,0,0,0,0,0,0,0,0,0,0,0,0,0,0,0,0,0,0,0,0,0,0,0,0,0,0,0],"id":8,"left_children":[1,3,5,7,9,11,13,-1,15,17,19,-1,21,-1,-1,-1,-1,23,25,27,29,-1,-1,-1,-1,31,33,35,37,39,41,43,45,47,49,51,53,55,-1,-1,-1,57,59,-1,-1,-1,-1,-1,-1,-1,61,-1,63,-1,-1,65,67,69,-1,-1,-1,-1,-1,-1,-1,-1,-1,-1,-1,-1,-1],"loss_changes":[1.0945172E0,2.2679129E-1,1.5839839E-1,8.106291E-3,1.6724356E-2,4.440427E-3,2.359748E-3,0E0,2.9007345E-4,6.5781176E-3,3.2657392E-3,0E0,1.912415E-4,0E0,0E0,0E0,0E0,6.544103E-4,5.5673234E-3,5.345764E-3,1.2087119E-3,0E0,0E0,0E0,0E0,1.0399148E-3,1.1825453E-3,6.251609E-4,1.4516837E-3,2.9455696E-6,1.033701E-3,9.847395E-4,2.281228E-5,6.452808E-5,1.3499643E-4,9.6879434E-5,9.774054E-5,9.287596E-4,0E0,0E0,0E0,9.1281836E-5,1.6438635E-4,0E0,0E0,0E0,0E0,0E0,0E0,0E0,1.0468496E-5,0E0,3.600144E-5,0E0,0E0,4.2100404E-5,2.5359727E-4,5.0684263E-5,0E0,0E0,0E0,0E0,0E0,0E0,0E0,0E0,0E0,0E0,0E0,0E0,0E0],"parents":[2147483647,0,0,1,1,2,2,3,3,4,4,5,5,6,6,8,8,9,9,10,10,12,12,17,17,18,18,19,19,20,20,25,25,26,26,27,27,28,28,29,29,30,30,31,31,32,32,33,33,34,34,35,35,36,36,37,37,41,41,42,42,50,50,52,52,55,55,56,56,57,57],"right_children":[2,4,6,8,10,12,14,-1,16,18,20,-1,22,-1,-1,-1,-1,24,26,28,30,-1,-1,-1,-1,32,34,36,38,40,42,44,46,48,50,52,54,56,-1,-1,-1,58,60,-1,-1,-1,-1,-1,-1,-1,62,-1,64,-1,-1,66,68,70,-1,-1,-1,-1,-1,-1,-1,-1,-1,-1,-1,-1,-1],"split_conditions":[2.293293E-1,1.2085252E-1,3.2362366E-1,9.685075E-2,1.7050797E-1,3.8406867E-1,3.9601684E-1,-1.0933548E-3,6.487592E-2,7.526777E-2,2.0654221E-1,4.5499502E-4,3.672002E-1,1.3785635E-3,2.0249847E-3,-2.9355733E-4,-7.398142E-4,6.3898966E-2,2.597115E-1,1.7279084E-1,1.7651385E-1,2.3185529E-4,8.38822E-4,2.822847E-4,-1.6133188E-5,2.4450895E-1,1.6852768E-1,1.9038014E-1,2.9292E-1,2.4020445E-1,2.4233611E-1,4.9776744E-2,1.8327153E-1,2.4233611E-1,2.851478E-1,4.2848703E-2,1.5355362E-1,1.7563069E-1,-6.529241E-5,2.1736423E-5,6.427899E-5,3.47237E-1,2.3533511E-1,-1.3123397E-4,-4.572428E-4,-4.429236E-5,-1.795416E-4,-5.3527652E-5,-2.3450851E-4,7.702852E-5,3.3663863E-1,-2.8505474E-5,3.3663863E-1,-4.8569662E-5,4.1867046E-5,1.7279084E-1,1.9321933E-1,1.7624898E-1,3.6114454E-6,-3.4741382E-4,-1.3626699E-4,2.7637184E-6,-3.4387336E-5,-1.8142165E-4,-4.432738E-5,-1.5903413E-5,4.7489055E-5,2.9932545E-4,1.4574965E-4,-1.1867135E-5,-1.0083507E-4],"split_indices":[29,29,29,29,29,0,12,0,0,15,17,0,5,0,0,0,0,0,4,16,21,0,0,0,0,12,24,21,5,1,13,0,1,0,0,4,3,6,0,0,0,0,6,0,0,0,0,0,0,0,0,0,2,0,0,0,6,16,0,0,0,0,0,0,0,0,0,0,0,0,0],"split_type":[0,0,0,0,0,0,0,0,0,0,0,0,0,0,0,0,0,0,0,0,0,0,0,0,0,0,0,0,0,0,0,0,0,0,0,0,0,0,0,0,0,0,0,0,0,0,0,0,0,0,0,0,0,0,0,0,0,0,0,0,0,0,0,0,0,0,0,0,0,0,0],"sum_hessian":[1.88E2,1.33E2,5.5E1,5.3E1,8E1,2.7E1,2.8E1,3.7E1,1.6E1,3.5E1,4.5E1,1.8E1,9E0,1.7E1,1.1E1,2E0,1.4E1,2E0,3.3E1,2.7E1,1.8E1,1E0,8E0,1E0,1E0,2.6E1,7E0,1.1E1,1.6E1,3E0,1.5E1,2.3E1,3E0,3E0,4E0,8E0,3E0,1.4E1,2E0,2E0,1E0,1E1,5E0,2E0,2.1E1,1E0,2E0,1E0,2E0,2E0,2E0,1E0,7E0,1E0,2E0,3E0,1.1E1,9E0,1E0,2E0,3E0,1E0,1E0,6E0,1E0,1E0,2E0,5E0,6E0,1E0,8E0],"tree_param":{"num_deleted":"0","num_feature":"31","num_nodes":"71","size_leaf_vector":"1"}},{"base_weights":[5.1813546E-5,-4.8556432E-2,1.1636347E-1,-9.816922E-2,-1.48817785E-2,5.895247E-2,1.6778226E-1,-1.1664586E-3,-8.0697976E-2,-3.0796316E-2,-2.1034058E-3,4.5068457E-4,7.9436846E-2,1.3655437E-3,2.0064223E-3,-2.916003E-4,-8.32468E-2,1.7654717E-2,-3.4165632E-2,4.7567645E-3,-1.2102425E-2,2.3069598E-4,8.313659E-4,-2.2962487E-4,-8.457972E-4,2.8087324E-4,-1.60525E-5,-4.065768E-2,-7.984264E-3,-1.146578E-2,1.5928164E-2,4.81724E-3,-1.557594E-2,-4.314333E-2,-1.5579395E-2,-2.0133883E-2,3.332284E-3,-1.5600041E-2,7.0274994E-4,1.9349061E-2,-6.48571E-5,2.1591484E-5,6.3957574E-5,-8.326159E-3,-2.6271215E-2,-1.3035908E-4,-4.5287825E-2,-4.407093E-5,-1.7834464E-4,-5.3260028E-5,-2.3294508E-4,7.6515025E-5,-2.097696E-3,-2.8362943E-5,-1.6840972E-2,-4.832685E-5,4.1587897E-5,2.7467385E-3,2.3270747E-2,-9.2306435E-3,3.593415E-6,-3.4509765E-4,-1.3524495E-4,-4.6173777E-4,-1.3341411E-4,2.7499348E-6,-3.4215376E-5,-1.798666E-4,-4.4105724E-5,-1.5823915E-5,4.7172456E-5,1.00876874E-4,2.6544245E-4,-1.1807829E-5,-9.993874E-5],"categories":[],"categories_nodes":[],"categories_segments":[],"categories_sizes":[],"default_left":[0,0,0,0,0,0,0,0,0,0,0,0,0,0,0,0,0,0,0,0,0,0,0,0,0,0,0,0,0,0,0,0,0,0,0,0,0,0,0,0,0,0,0,0,0,0,0,0,0,0,0,0,0,0,0,0,0,0,0,0,0,0,0,0,0,0,0,0,0,0,0,0,0,0,0],"id":9,"left_children":[1,3,5,7,9,11,13,-1,15,17,19,-1,21,-1,-1,-1,23,25,27,29,31,-1,-1,-1,-1,-1,-1,33,35,37,39,41,43,45,47,49,51,53,55,57,-1,-1,-1,59,61,-1,63,-1,-1,-1,-1,-1,65,-1,67,-1,-1,69,71,73,-1,-1,-1,-1,-1,-1,-1,-1,-1,-1,-1,-1,-1,-1,-1],"loss_changes":[1.0742006E0,2.2241196E-1,1.5542108E-1,8.0186725E-3,1.6407536E-2,4.383251E-3,2.3596883E-3,0E0,1.6447157E-3,6.4800717E-3,3.2129372E-3,0E0,1.6751885E-4,0E0,0E0,0E0,3.8811564E-4,6.478823E-4,5.454384E-3,5.2570277E-3,1.1916764E-3,0E0,0E0,0E0,0E0,0E0,0E0,1.0109209E-3,1.1670256E-3,6.146572E-4,1.4289767E-3,2.9739822E-6,1.0218762E-3,9.591989E-4,2.2179156E-5,6.314204E-5,1.333169E-4,9.4784424E-5,9.662085E-5,9.127171E-4,0E0,0E0,0E0,8.973188E-5,1.6336003E-4,0E0,6.6384673E-6,0E0,0E0,0E0,0E0,0E0,1.0364097E-5,0E0,3.4599332E-5,0E0,0E0,4.158686E-5,2.5008712E-4,4.9638445E-5,0E0,0E0,0E0,0E0,0E0,0E0,0E0,0E0,0E0,0E0,0E0,0E0,0E0,0E0,0E0],"parents":[2147483647,0,0,1,1,2,2,3,3,4,4,5,5,6,6,8,8,9,9,10,10,12,12,16,16,17,17,18,18,19,19,20,20,27,27,28,28,29,29,30,30,31,31,32,32,33,33,34,34,35,35,36,36,37,37,38,38,39,39,43,43,44,44,46,46,52,52,54,54,57,57,58,58,59,59],"right_children":[2,4,6,8,10,12,14,-1,16,18,20,-1,22,-1,-1,-1,24,26,28,30,32,-1,-1,-1,-1,-1,-1,34,36,38,40,42,44,46,48,50,52,54,56,58,-1,-1,-1,60,62,-1,64,-1,-1,-1,-1,-1,66,-1,68,-1,-1,70,72,74,-1,-1,-1,-1,-1,-1,-1,-1,-1,-1,-1,-1,-1,-1,-1],"split_conditions":[2.293293E-1,1.2085252E-1,3.2362366E-1,7.0818074E-2,1.7050797E-1,3.8406867E-1,3.9601684E-1,-1.1664586E-3,6.487592E-2,7.526777E-2,2.0654221E-1,4.5068457E-4,3.672002E-1,1.3655437E-3,2.0064223E-3,-2.916003E-4,6.411712E-2,6.3898966E-2,2.597115E-1,1.7279084E-1,1.7651385E-1,2.3069598E-4,8.313659E-4,-2.2962487E-4,-8.457972E-4,2.8087324E-4,-1.60525E-5,2.4450895E-1,1.6852768E-1,1.9038014E-1,2.9292E-1,2.4020445E-1,2.4233611E-1,4.9776744E-2,1.8327153E-1,2.4233611E-1,2.851478E-1,4.2848703E-2,1.5355362E-1,1.7563069E-1,-6.48571E-5,2.1591484E-5,6.3957574E-5,3.47237E-1,2.3533511E-1,-1.3035908E-4,2.4142933E-1,-4.407093E-5,-1.7834464E-4,-5.3260028E-5,-2.3294508E-4,7.6515025E-5,3.3663863E-1,-2.8362943E-5,3.3663863E-1,-4.832685E-5,4.1587897E-5,1.7279084E-1,1.7245096E-1,1.7624898E-1,3.593415E-6,-3.4509765E-4,-1.3524495E-4,-4.6173777E-4,-1.3341411E-4,2.7499348E-6,-3.4215376E-5,-1.798666E-4,-4.4105724E-5,-1.5823915E-5,4.7172456E-5,1.00876874E-4,2.6544245E-4,-1.1807829E-5,-9.993874E-5],"split_indices":[29,29,29,29,29,0,12,0,0,15,17,0,5,0,0,0,8,0,4,16,21,0,0,0,0,0,0,12,24,21,5,1,13,0,1,0,0,4,3,6,0,0,0,0,6,0,15,0,0,0,0,0,0,0,2,0,0,0,3,16,0,0,0,0,0,0,0,0,0,0,0,0,0,0,0],"split_type":[0,0,0,0,0,0,0,0,0,0,0,0,0,0,0,0,0,0,0,0,0,0,0,0,0,0,0,0,0,0,0,0,0,0,0,0,0,0,0,0,0,0,0,0,0,0,0,0,0,0,0,0,0,0,0,0,0,0,0,0,0,0,0,0,0,0,0,0,0,0,0,0,0,0,0],"sum_hessian":[1.88E2,1.33E2,5.5E1,5.3E1,8E1,2.7E1,2.8E1,2.3E1,3E1,3.5E1,4.5E1,1.8E1,9E0,1.7E1,1.1E1,2E0,2.8E1,2E0,3.3E1,2.7E1,1.8E1,1E0,8E0,1E0,2.7E1,1E0,1E0,2.6E1,7E0,1.1E1,1.6E1,3E0,1.5E1,2.3E1,3E0,3E0,4E0,8E0,3E0,1.4E1,2E0,2E0,1E0,1E1,5E0,2E0,2.1E1,1E0,2E0,1E0,2E0,2E0,2E0,1E0,7E0,1E0,2E0,3E0,1.1E1,9E0,1E0,2E0,3E0,2E1,1E0,1E0,1E0,6E0,1E0,1E0,2E0,3E0,8E0,1E0,8E0],"tree_param":{"num_deleted":"0","num_feature":"31","num_nodes":"75","size_leaf_vector":"1"}},{"base_weights":[5.6573954E-5,-4.8099875E-2,1.15287066E-1,-9.723444E-2,-1.47496695E-2,5.8416974E-2,1.6622071E-1,-1.15528E-3,-7.9935096E-2,-3.0514024E-2,-2.0917035E-3,4.4641492E-4,7.874868E-2,1.352647E-3,1.98803E-3,-2.896563E-4,-8.245142E-2,1.7566442E-2,-3.3858947E-2,4.711828E-3,-1.2007871E-2,2.2954248E-4,8.2397595E-4,-2.2847674E-4,-8.3764136E-4,2.794689E-4,-1.5972257E-5,-4.028621E-2,-7.934567E-3,-1.1372711E-2,1.5788453E-2,4.790455E-3,-1.5456961E-2,-4.274212E-2,-1.54792E-2,-2.0004094E-2,3.3079684E-3,-1.5472074E-2,6.940365E-4,1.9182077E-2,-6.442477E-5,2.1447539E-5,6.363779E-5,-8.252728E-3,-2.608856E-2,-1.2949004E-4,-4.4861995E-4,-4.385054E-5,-1.7715564E-4,-5.2993742E-5,-2.3139208E-4,7.6004915E-5,-2.0872105E-3,-2.822116E-5,-1.6700555E-2,-4.8085225E-5,4.131064E-5,2.7271062E-3,2.306856E-2,-9.1495095E-3,3.575459E-6,-3.4279702E-4,-1.3423062E-4,2.7361511E-6,-3.404431E-5,-1.7832486E-4,-4.3885186E-5,-1.574479E-5,4.6857942E-5,2.9461905E-2,1.429304E-4,-1.1748821E-5,-9.905036E-5,3.1812335E-4,8.854873E-5],"categories":[],"categories_nodes":[],"categories_segments":[],"categories_sizes":[],"default_left":[0,0,0,0,0,0,0,0,0,0,0,0,0,0,0,0,0,0,0,0,0,0,0,0,0,0,0,0,0,0,0,0,0,0,0,0,0,0,0,0,0,0,0,0,0,0,0,0,0,0,0,0,0,0,0,0,0,0,0,0,0,0,0,0,0,0,0,0,0,0,0,0,0,0,0],"id":10,"left_children":[1,3,5,7,9,11,13,-1,15,17,19,-1,21,-1,-1,-1,23,25,27,29,31,-1,-1,-1,-1,-1,-1,33,35,37,39,41,43,45,47,49,51,53,55,57,-1,-1,-1,59,61,-1,-1,-1,-1,-1,-1,-1,63,-1,65,-1,-1,67,69,71,-1,-1,-1,-1,-1,-1,-1,-1,-1,73,-1,-1,-1,-1,-1],"loss_changes":[1.0543236E0,2.1814466E-1,1.524995E-1,7.854462E-3,1.609929E-2,4.326761E-3,2.3589134E-3,0E0,1.5876591E-3,6.3844956E-3,3.1599673E-3,0E0,1.4451146E-4,0E0,0E0,0E0,3.5522878E-4,6.4141984E-4,5.3455234E-3,5.168105E-3,1.1748855E-3,0E0,0E0,0E0,0E0,0E0,0E0,9.833276E-4,1.1517095E-3,6.0433E-4,1.4061178E-3,3.0014417E-6,1.010179E-3,9.348653E-4,2.1558546E-5,6.178068E-5,1.3165848E-4,9.273109E-5,9.55141E-5,8.963691E-4,0E0,0E0,0E0,8.8208355E-5,1.6233046E-4,0E0,0E0,0E0,0E0,0E0,0E0,0E0,1.0260688E-5,0E0,3.3232616E-5,0E0,0E0,4.1079544E-5,2.5215885E-4,4.8613234E-5,0E0,0E0,0E0,0E0,0E0,0E0,0E0,0E0,0E0,8.918345E-6,0E0,0E0,0E0,0E0,0E0],"parents":[2147483647,0,0,1,1,2,2,3,3,4,4,5,5,6,6,8,8,9,9,10,10,12,12,16,16,17,17,18,18,19,19,20,20,27,27,28,28,29,29,30,30,31,31,32,32,33,33,34,34,35,35,36,36,37,37,38,38,39,39,43,43,44,44,52,52,54,54,57,57,58,58,59,59,69,69],"right_children":[2,4,6,8,10,12,14,-1,16,18,20,-1,22,-1,-1,-1,24,26,28,30,32,-1,-1,-1,-1,-1,-1,34,36,38,40,42,44,46,48,50,52,54,56,58,-1,-1,-1,60,62,-1,-1,-1,-1,-1,-1,-1,64,-1,66,-1,-1,68,70,72,-1,-1,-1,-1,-1,-1,-1,-1,-1,74,-1,-1,-1,-1,-1],"split_conditions":[2.293293E-1,1.2085252E-1,3.2362366E-1,7.0818074E-2,1.7050797E-1,3.8406867E-1,3.9601684E-1,-1.15528E-3,6.487592E-2,7.526777E-2,2.0654221E-1,4.4641492E-4,3.672002E-1,1.352647E-3,1.98803E-3,-2.896563E-4,6.411712E-2,6.3898966E-2,2.597115E-1,1.7279084E-1,1.7651385E-1,2.2954248E-4,8.2397595E-4,-2.2847674E-4,-8.3764136E-4,2.794689E-4,-1.5972257E-5,2.4450895E-1,1.6852768E-1,1.9038014E-1,2.9292E-1,2.4020445E-1,2.4233611E-1,4.9776744E-2,1.8327153E-1,2.4233611E-1,2.851478E-1,4.2848703E-2,1.5355362E-1,1.7563069E-1,-6.442477E-5,2.1447539E-5,6.363779E-5,3.47237E-1,2.3533511E-1,-1.2949004E-4,-4.4861995E-4,-4.385054E-5,-1.7715564E-4,-5.2993742E-5,-2.3139208E-4,7.6004915E-5,3.3663863E-1,-2.822116E-5,3.3663863E-1,-4.8085225E-5,4.131064E-5,1.7279084E-1,1.9321933E-1,1.7624898E-1,3.575459E-6,-3.4279702E-4,-1.3423062E-4,2.7361511E-6,-3.404431E-5,-1.7832486E-4,-4.3885186E-5,-1.574479E-5,4.6857942E-5,1.887783E-1,1.429304E-4,-1.1748821E-5,-9.905036E-5,3.1812335E-4,8.854873E-5],"split_indices":[29,29,29,29,29,0,12,0,0,15,17,0,5,0,0,0,8,0,4,16,21,0,0,0,0,0,0,12,24,21,5,1,13,0,1,0,0,4,3,6,0,0,0,0,6,0,0,0,0,0,0,0,0,0,2,0,0,0,6,16,0,0,0,0,0,0,0,0,0,8,0,0,0,0,0],"split_type":[0,0,0,0,0,0,0,0,0,0,0,0,0,0,0,0,0,0,0,0,0,0,0,0,0,0,0,0,0,0,0,0,0,0,0,0,0,0,0,0,0,0,0,0,0,0,0,0,0,0,0,0,0,0,0,0,0,0,0,0,0,0,0,0,0,0,0,0,0,0,0,0,0,0,0],"sum_hessian":[1.88E2,1.33E2,5.5E1,5.3E1,8E1,2.7E1,2.8E1,2.3E1,3E1,3.5E1,4.5E1,1.8E1,9E0,1.7E1,1.1E1,2E0,2.8E1,2E0,3.3E1,2.7E1,1.8E1,1E0,8E0,1E0,2.7E1,1E0,1E0,2.6E1,7E0,1.1E1,1.6E1,3E0,1.5E1,2.3E1,3E0,3E0,4E0,8E0,3E0,1.4E1,2E0,2E0,1E0,1E1,5E0,2E0,2.1E1,1E0,2E0,1E0,2E0,2E0,2E0,1E0,7E0,1E0,2E0,3E0,1.1E1,9E0,1E0,2E0,3E0,1E0,1E0,6E0,1E0,1E0,2E0,5E0,6E0,1E0,8E0,4E0,1E0],"tree_param":{"num_deleted":"0","num_feature":"31","num_nodes":"75","size_leaf_vector":"1"}},{"base_weights":[6.296174E-5,-4.7645193E-2,1.1422064E-1,-9.6308604E-2,-1.4614711E-2,5.7886377E-2,1.646737E-1,-1.1442085E-3,-7.917948E-2,-3.0230423E-2,-2.0760067E-3,4.421858E-4,7.806655E-2,1.3398719E-3,1.9698066E-3,-2.8772524E-4,-8.166367E-2,1.747861E-2,-3.3550914E-2,4.6739615E-3,-1.1914065E-2,2.2839478E-4,8.1665174E-4,-2.2733434E-4,-8.295641E-4,2.7807153E-4,-1.5892387E-5,-3.991295E-2,-7.885186E-3,-1.1280417E-2,1.5660938E-2,4.763823E-3,-1.5338908E-2,-4.2338792E-2,-1.5379656E-2,-1.9875154E-2,3.2838255E-3,-1.5345181E-2,6.85405E-4,1.902897E-2,-6.399532E-5,2.1304588E-5,6.3319574E-5,-8.1799505E-3,-2.590718E-2,-1.2862678E-4,-4.4433773E-2,-4.363127E-5,-1.7597456E-4,-5.27288E-5,-2.2984951E-4,7.5498174E-5,-2.0767748E-3,-2.8080045E-5,-1.6561328E-2,-4.7844795E-5,4.1035262E-5,2.7076118E-3,2.2883674E-2,-9.069097E-3,3.5575777E-6,-3.4051167E-4,-1.332239E-4,-4.5306768E-4,-1.3050399E-4,2.722442E-6,-3.3874065E-5,-1.7679637E-4,-4.3665765E-5,-1.5666037E-5,4.6545512E-5,2.9235065E-2,1.4170527E-4,-1.169011E-5,-9.8169934E-5,3.1557836E-4,8.810602E-5],"categories":[],"categories_nodes":[],"categories_segments":[],"categories_sizes":[],"default_left":[0,0,0,0,0,0,0,0,0,0,0,0,0,0,0,0,0,0,0,0,0,0,0,0,0,0,0,0,0,0,0,0,0,0,0,0,0,0,0,0,0,0,0,0,0,0,0,0,0,0,0,0,0,0,0,0,0,0,0,0,0,0,0,0,0,0,0,0,0,0,0,0,0,0,0,0,0],"id":11,"left_children":[1,3,5,7,9,11,13,-1,15,17,19,-1,21,-1,-1,-1,23,25,27,29,31,-1,-1,-1,-1,-1,-1,33,35,37,39,41,43,45,47,49,51,53,55,57,-1,-1,-1,59,61,-1,63,-1,-1,-1,-1,-1,65,-1,67,-1,-1,69,71,73,-1,-1,-1,-1,-1,-1,-1,-1,-1,-1,-1,75,-1,-1,-1,-1,-1],"loss_changes":[1.0347838E0,2.1398085E-1,1.4963281E-1,7.693529E-3,1.579711E-2,4.2709187E-3,2.357304E-3,0E0,1.5321672E-3,6.2894523E-3,3.1103888E-3,0E0,1.2222677E-4,0E0,0E0,0E0,3.233701E-4,6.350215E-4,5.2370057E-3,5.0847926E-3,1.1583357E-3,0E0,0E0,0E0,0E0,0E0,0E0,9.557195E-4,1.1365953E-3,5.941767E-4,1.3848823E-3,3.0279043E-6,9.986053E-4,9.105094E-4,2.0949927E-5,6.0443417E-5,1.3002065E-4,9.071897E-5,9.442016E-5,8.817497E-4,0E0,0E0,0E0,8.671096E-5,1.6129948E-4,0E0,1.1477619E-5,0E0,0E0,0E0,0E0,0E0,1.0158297E-5,0E0,3.1900825E-5,0E0,0E0,4.0578394E-5,2.4981098E-4,4.7608337E-5,0E0,0E0,0E0,0E0,0E0,0E0,0E0,0E0,0E0,0E0,0E0,6.604474E-6,0E0,0E0,0E0,0E0,0E0],"parents":[2147483647,0,0,1,1,2,2,3,3,4,4,5,5,6,6,8,8,9,9,10,10,12,12,16,16,17,17,18,18,19,19,20,20,27,27,28,28,29,29,30,30,31,31,32,32,33,33,34,34,35,35,36,36,37,37,38,38,39,39,43,43,44,44,46,46,52,52,54,54,57,57,58,58,59,59,71,71],"right_children":[2,4,6,8,10,12,14,-1,16,18,20,-1,22,-1,-1,-1,24,26,28,30,32,-1,-1,-1,-1,-1,-1,34,36,38,40,42,44,46,48,50,52,54,56,58,-1,-1,-1,60,62,-1,64,-1,-1,-1,-1,-1,66,-1,68,-1,-1,70,72,74,-1,-1,-1,-1,-1,-1,-1,-1,-1,-1,-1,76,-1,-1,-1,-1,-1],"split_conditions":[2.293293E-1,1.2085252E-1,3.2362366E-1,7.0818074E-2,1.7050797E-1,3.8406867E-1,3.9601684E-1,-1.1442085E-3,6.487592E-2,7.526777E-2,2.0654221E-1,4.421858E-4,3.672002E-1,1.3398719E-3,1.9698066E-3,-2.8772524E-4,6.411712E-2,6.3898966E-2,2.597115E-1,1.7279084E-1,1.7651385E-1,2.2839478E-4,8.1665174E-4,-2.2733434E-4,-8.295641E-4,2.7807153E-4,-1.5892387E-5,2.4450895E-1,1.6852768E-1,1.9038014E-1,2.9292E-1,2.4020445E-1,2.4233611E-1,4.9776744E-2,1.8327153E-1,2.4233611E-1,2.851478E-1,4.2848703E-2,1.5355362E-1,1.7563069E-1,-6.399532E-5,2.1304588E-5,6.3319574E-5,3.47237E-1,2.3533511E-1,-1.2862678E-4,2.4142933E-1,-4.363127E-5,-1.7597456E-4,-5.27288E-5,-2.2984951E-4,7.5498174E-5,3.3663863E-1,-2.8080045E-5,3.3663863E-1,-4.7844795E-5,4.1035262E-5,1.7279084E-1,1.9321933E-1,1.7624898E-1,3.5575777E-6,-3.4051167E-4,-1.332239E-4,-4.5306768E-4,-1.3050399E-4,2.722442E-6,-3.3874065E-5,-1.7679637E-4,-4.3665765E-5,-1.5666037E-5,4.6545512E-5,1.887783E-1,1.4170527E-4,-1.169011E-5,-9.8169934E-5,3.1557836E-4,8.810602E-5],"split_indices":[29,29,29,29,29,0,12,0,0,15,17,0,5,0,0,0,8,0,4,16,21,0,0,0,0,0,0,12,24,21,5,1,13,0,1,0,0,4,3,6,0,0,0,0,6,0,15,0,0,0,0,0,0,0,2,0,0,0,6,16,0,0,0,0,0,0,0,0,0,0,0,8,0,0,0,0,0],"split_type":[0,0,0,0,0,0,0,0,0,0,0,0,0,0,0,0,0,0,0,0,0,0,0,0,0,0,0,0,0,0,0,0,0,0,0,0,0,0,0,0,0,0,0,0,0,0,0,0,0,0,0,0,0,0,0,0,0,0,0,0,0,0,0,0,0,0,0,0,0,0,0,0,0,0,0,0,0],"sum_hessian":[1.88E2,1.33E2,5.5E1,5.3E1,8E1,2.7E1,2.8E1,2.3E1,3E1,3.5E1,4.5E1,1.8E1,9E0,1.7E1,1.1E1,2E0,2.8E1,2E0,3.3E1,2.7E1,1.8E1,1E0,8E0,1E0,2.7E1,1E0,1E0,2.6E1,7E0,1.1E1,1.6E1,3E0,1.5E1,2.3E1,3E0,3E0,4E0,8E0,3E0,1.4E1,2E0,2E0,1E0,1E1,5E0,2E0,2.1E1,1E0,2E0,1E0,2E0,2E0,2E0,1E0,7E0,1E0,2E0,3E0,1.1E1,9E0,1E0,2E0,3E0,2E1,1E0,1E0,1E0,6E0,1E0,1E0,2E0,5E0,6E0,1E0,8E0,4E0,1E0],"tree_param":{"num_deleted":"0","num_feature":"31","num_nodes":"77","size_leaf_vector":"1"}},{"base_weights":[6.847943E-5,-4.719587E-2,1.1316409E-1,-9.53916E-2,-1.4482716E-2,5.7360623E-2,1.6314109E-1,-1.0524723E-3,-6.77501E-2,-2.9953338E-2,-2.0604315E-3,4.379966E-4,7.739039E-2,4.316992E-4,1.6588399E-3,-2.853141E-4,-7.107716E-4,1.739122E-2,-3.3249818E-2,4.636397E-3,-1.1820999E-2,2.2725284E-4,8.0939254E-4,2.7668118E-4,-1.5812888E-5,-3.954833E-2,-7.836115E-3,-1.1188891E-2,1.553446E-2,4.73734E-3,-1.5221771E-2,-4.1945077E-2,-1.5280765E-2,-1.9747045E-2,3.2598525E-3,-1.5219342E-2,6.76848E-4,1.8877095E-2,-6.356865E-5,2.1162528E-5,6.3003004E-5,-8.107815E-3,-2.5727062E-2,-1.2776926E-4,-4.401596E-2,-4.3413118E-5,-1.7480143E-4,-5.2465126E-5,-2.2831716E-4,7.499481E-5,-2.0663936E-3,-2.7939677E-5,-1.6423268E-2,-4.7605557E-5,4.076168E-5,2.6882514E-3,2.2700284E-2,-8.989392E-3,3.5397707E-6,-3.3824163E-4,-1.3222467E-4,-4.4875275E-2,-1.2985147E-4,2.7088074E-6,-3.3704713E-5,-1.7528092E-4,-4.3447464E-5,-1.5587731E-5,4.6235175E-5,2.9009996E-2,1.404906E-4,-1.1631622E-5,-9.729733E-5,-4.579332E-4,-1.3257167E-4,3.3714037E-4,1.3067941E-4],"categories":[],"categories_nodes":[],"categories_segments":[],"categories_sizes":[],"default_left":[0,0,0,0,0,0,0,0,0,0,0,0,0,0,0,0,0,0,0,0,0,0,0,0,0,0,0,0,0,0,0,0,0,0,0,0,0,0,0,0,0,0,0,0,0,0,0,0,0,0,0,0,0,0,0,0,0,0,0,0,0,0,0,0,0,0,0,0,0,0,0,0,0,0,0,0,0],"id":12,"left_children":[1,3,5,7,9,11,13,-1,15,17,19,-1,21,-1,-1,-1,-1,23,25,27,29,-1,-1,-1,-1,31,33,35,37,39,41,43,45,47,49,51,53,55,-1,-1,-1,57,59,-1,61,-1,-1,-1,-1,-1,63,-1,65,-1,-1,67,69,71,-1,-1,-1,73,-1,-1,-1,-1,-1,-1,-1,75,-1,-1,-1,-1,-1,-1,-1],"loss_changes":[1.0156196E0,2.0988744E-1,1.4681995E-1,7.5804293E-3,1.55049E-2,4.2157695E-3,2.3818016E-3,0E0,1.9027293E-4,6.1967894E-3,3.0615898E-3,0E0,1.0062754E-4,0E0,0E0,0E0,0E0,6.28687E-4,5.1324256E-3,5.002833E-3,1.1420222E-3,0E0,0E0,0E0,0E0,9.294562E-4,1.1216789E-3,5.8419246E-4,1.3639694E-3,3.0535884E-6,9.871561E-4,8.873008E-4,2.0353356E-5,5.9130718E-5,1.2840342E-4,8.874689E-5,9.333873E-5,8.6737145E-4,0E0,0E0,0E0,8.523901E-5,1.6026758E-4,0E0,3.926456E-6,0E0,0E0,0E0,0E0,0E0,1.0056958E-5,0E0,3.060233E-5,0E0,0E0,4.0083505E-5,2.4747662E-4,4.662352E-5,0E0,0E0,0E0,2.4735928E-6,0E0,0E0,0E0,0E0,0E0,0E0,0E0,9.379815E-6,0E0,0E0,0E0,0E0,0E0,0E0,0E0],"parents":[2147483647,0,0,1,1,2,2,3,3,4,4,5,5,6,6,8,8,9,9,10,10,12,12,17,17,18,18,19,19,20,20,25,25,26,26,27,27,28,28,29,29,30,30,31,31,32,32,33,33,34,34,35,35,36,36,37,37,41,41,42,42,44,44,50,50,52,52,55,55,56,56,57,57,61,61,69,69],"right_children":[2,4,6,8,10,12,14,-1,16,18,20,-1,22,-1,-1,-1,-1,24,26,28,30,-1,-1,-1,-1,32,34,36,38,40,42,44,46,48,50,52,54,56,-1,-1,-1,58,60,-1,62,-1,-1,-1,-1,-1,64,-1,66,-1,-1,68,70,72,-1,-1,-1,74,-1,-1,-1,-1,-1,-1,-1,76,-1,-1,-1,-1,-1,-1,-1],"split_conditions":[2.293293E-1,1.2085252E-1,3.2362366E-1,9.685075E-2,1.7050797E-1,3.8406867E-1,3.259957E-1,-1.0524723E-3,6.7244165E-2,7.526777E-2,2.0654221E-1,4.379966E-4,3.672002E-1,4.316992E-4,1.6588399E-3,-2.853141E-4,-7.107716E-4,6.3898966E-2,2.597115E-1,1.7279084E-1,1.7651385E-1,2.2725284E-4,8.0939254E-4,2.7668118E-4,-1.5812888E-5,2.4450895E-1,1.6852768E-1,1.9038014E-1,2.9292E-1,2.4020445E-1,2.4233611E-1,4.9776744E-2,1.8327153E-1,2.4233611E-1,2.851478E-1,4.2848703E-2,1.5355362E-1,1.7563069E-1,-6.356865E-5,2.1162528E-5,6.3003004E-5,3.47237E-1,2.3533511E-1,-1.2776926E-4,2.4142933E-1,-4.3413118E-5,-1.7480143E-4,-5.2465126E-5,-2.2831716E-4,7.499481E-5,3.3663863E-1,-2.7939677E-5,3.3663863E-1,-4.7605557E-5,4.076168E-5,1.7279084E-1,1.9321933E-1,1.7624898E-1,3.5397707E-6,-3.3824163E-4,-1.3222467E-4,2.4469726E-1,-1.2985147E-4,2.7088074E-6,-3.3704713E-5,-1.7528092E-4,-4.3447464E-5,-1.5587731E-5,4.6235175E-5,1.8327153E-1,1.404906E-4,-1.1631622E-5,-9.729733E-5,-4.579332E-4,-1.3257167E-4,3.3714037E-4,1.3067941E-4],"split_indices":[29,29,29,29,29,0,0,0,10,15,17,0,5,0,0,0,0,0,4,16,21,0,0,0,0,12,24,21,5,1,13,0,1,0,0,4,3,6,0,0,0,0,6,0,15,0,0,0,0,0,0,0,2,0,0,0,6,16,0,0,0,18,0,0,0,0,0,0,0,10,0,0,0,0,0,0,0],"split_type":[0,0,0,0,0,0,0,0,0,0,0,0,0,0,0,0,0,0,0,0,0,0,0,0,0,0,0,0,0,0,0,0,0,0,0,0,0,0,0,0,0,0,0,0,0,0,0,0,0,0,0,0,0,0,0,0,0,0,0,0,0,0,0,0,0,0,0,0,0,0,0,0,0,0,0,0,0],"sum_hessian":[1.88E2,1.33E2,5.5E1,5.3E1,8E1,2.7E1,2.8E1,3.7E1,1.6E1,3.5E1,4.5E1,1.8E1,9E0,1E0,2.7E1,2E0,1.4E1,2E0,3.3E1,2.7E1,1.8E1,1E0,8E0,1E0,1E0,2.6E1,7E0,1.1E1,1.6E1,3E0,1.5E1,2.3E1,3E0,3E0,4E0,8E0,3E0,1.4E1,2E0,2E0,1E0,1E1,5E0,2E0,2.1E1,1E0,2E0,1E0,2E0,2E0,2E0,1E0,7E0,1E0,2E0,3E0,1.1E1,9E0,1E0,2E0,3E0,2E1,1E0,1E0,1E0,6E0,1E0,1E0,2E0,5E0,6E0,1E0,8E0,1.9E1,1E0,3E0,2E0],"tree_param":{"num_deleted":"0","num_feature":"31","num_nodes":"77","size_leaf_vector":"1"}},{"base_weights":[6.9405585E-5,-4.6748247E-2,1.12096116E-1,-9.447563E-2,-1.4352853E-2,5.6839686E-2,1.6158177E-1,-1.123157E-3,-7.761636E-2,-2.968276E-2,-2.043517E-3,4.3384722E-4,7.672015E-2,1.3122325E-3,1.9365438E-3,-2.8248676E-4,-8.004693E-2,1.7304262E-2,-3.295565E-2,4.6015303E-3,-1.1728665E-2,2.2611655E-4,8.0219796E-4,-2.2477112E-4,-8.130024E-4,2.7529776E-4,-1.5733838E-5,-3.9192345E-2,-7.7873524E-3,-1.1098125E-2,1.5412962E-2,4.7110096E-3,-1.5105542E-2,-4.156097E-2,-1.518251E-2,-1.961977E-2,3.2360523E-3,-1.5094555E-2,6.6837296E-4,1.873092E-2,-6.3144864E-5,2.1021466E-5,6.268799E-5,-8.036313E-3,-2.5548205E-2,-1.2691751E-4,-4.3608545E-4,-4.319608E-5,-1.7363607E-4,-5.220279E-5,-2.2679508E-4,7.449483E-5,-2.0560622E-3,-2.7799979E-5,-1.6286375E-2,-4.7367514E-5,4.048998E-5,2.669029E-3,2.2523975E-2,-8.910385E-3,3.5220385E-6,-3.3598673E-4,-1.3123303E-4,2.6952475E-6,-3.353618E-5,-1.737785E-4,-4.3230204E-5,-1.5509799E-5,4.5926918E-5,2.8797865E-2,1.3928644E-4,-1.1573434E-5,-9.64324E-5,3.3461183E-4,1.2980819E-4],"categories":[],"categories_nodes":[],"categories_segments":[],"categories_sizes":[],"default_left":[0,0,0,0,0,0,0,0,0,0,0,0,0,0,0,0,0,0,0,0,0,0,0,0,0,0,0,0,0,0,0,0,0,0,0,0,0,0,0,0,0,0,0,0,0,0,0,0,0,0,0,0,0,0,0,0,0,0,0,0,0,0,0,0,0,0,0,0,0,0,0,0,0,0,0],"id":13,"left_children":[1,3,5,7,9,11,13,-1,15,17,19,-1,21,-1,-1,-1,23,25,27,29,31,-1,-1,-1,-1,-1,-1,33,35,37,39,41,43,45,47,49,51,53,55,57,-1,-1,-1,59,61,-1,-1,-1,-1,-1,-1,-1,63,-1,65,-1,-1,67,69,71,-1,-1,-1,-1,-1,-1,-1,-1,-1,73,-1,-1,-1,-1,-1],"loss_changes":[9.965127E-1,2.0582774E-1,1.4394218E-1,7.5240433E-3,1.52241215E-2,4.1612685E-3,2.824664E-3,0E0,1.4585257E-3,6.1064735E-3,3.01445E-3,0E0,7.970631E-5,0E0,0E0,0E0,2.6504695E-4,6.2241586E-4,5.031675E-3,4.9236557E-3,1.1259427E-3,0E0,0E0,0E0,0E0,0E0,0E0,9.045005E-4,1.1069588E-3,5.7437667E-4,1.3438193E-3,3.0783049E-6,9.7583164E-4,8.652173E-4,1.9768253E-5,5.784142E-5,1.2680638E-4,8.681463E-5,9.22699E-5,8.5373735E-4,0E0,0E0,0E0,8.379208E-5,1.5923195E-4,0E0,0E0,0E0,0E0,0E0,0E0,0E0,9.956619E-6,0E0,2.9336661E-5,0E0,0E0,3.959467E-5,2.4599908E-4,4.565803E-5,0E0,0E0,0E0,0E0,0E0,0E0,0E0,0E0,0E0,8.205883E-6,0E0,0E0,0E0,0E0,0E0],"parents":[2147483647,0,0,1,1,2,2,3,3,4,4,5,5,6,6,8,8,9,9,10,10,12,12,16,16,17,17,18,18,19,19,20,20,27,27,28,28,29,29,30,30,31,31,32,32,33,33,34,34,35,35,36,36,37,37,38,38,39,39,43,43,44,44,52,52,54,54,57,57,58,58,59,59,69,69],"right_children":[2,4,6,8,10,12,14,-1,16,18,20,-1,22,-1,-1,-1,24,26,28,30,32,-1,-1,-1,-1,-1,-1,34,36,38,40,42,44,46,48,50,52,54,56,58,-1,-1,-1,60,62,-1,-1,-1,-1,-1,-1,-1,64,-1,66,-1,-1,68,70,72,-1,-1,-1,-1,-1,-1,-1,-1,-1,74,-1,-1,-1,-1,-1],"split_conditions":[2.293293E-1,1.2085252E-1,3.2362366E-1,7.0818074E-2,1.7050797E-1,3.8406867E-1,3.9601684E-1,-1.123157E-3,6.487592E-2,7.526777E-2,2.0654221E-1,4.3384722E-4,3.672002E-1,1.3122325E-3,1.9365438E-3,-2.8248676E-4,6.411712E-2,6.3898966E-2,2.597115E-1,1.7279084E-1,1.7651385E-1,2.2611655E-4,8.0219796E-4,-2.2477112E-4,-8.130024E-4,2.7529776E-4,-1.5733838E-5,2.4450895E-1,1.6852768E-1,1.9038014E-1,2.9292E-1,2.4020445E-1,2.4233611E-1,4.9776744E-2,1.8327153E-1,2.4233611E-1,2.851478E-1,4.2848703E-2,1.5355362E-1,1.7563069E-1,-6.3144864E-5,2.1021466E-5,6.268799E-5,3.47237E-1,2.3533511E-1,-1.2691751E-4,-4.3608545E-4,-4.319608E-5,-1.7363607E-4,-5.220279E-5,-2.2679508E-4,7.449483E-5,3.3663863E-1,-2.7799979E-5,3.3663863E-1,-4.7367514E-5,4.048998E-5,1.7279084E-1,1.9321933E-1,1.7624898E-1,3.5220385E-6,-3.3598673E-4,-1.3123303E-4,2.6952475E-6,-3.353618E-5,-1.737785E-4,-4.3230204E-5,-1.5509799E-5,4.5926918E-5,1.8327153E-1,1.3928644E-4,-1.1573434E-5,-9.64324E-5,3.3461183E-4,1.2980819E-4],"split_indices":[29,29,29,29,29,0,12,0,0,15,17,0,5,0,0,0,8,0,4,16,21,0,0,0,0,0,0,12,24,21,5,1,13,0,1,0,0,4,3,6,0,0,0,0,6,0,0,0,0,0,0,0,0,0,2,0,0,0,6,16,0,0,0,0,0,0,0,0,0,10,0,0,0,0,0],"split_type":[0,0,0,0,0,0,0,0,0,0,0,0,0,0,0,0,0,0,0,0,0,0,0,0,0,0,0,0,0,0,0,0,0,0,0,0,0,0,0,0,0,0,0,0,0,0,0,0,0,0,0,0,0,0,0,0,0,0,0,0,0,0,0,0,0,0,0,0,0,0,0,0,0,0,0],"sum_hessian":[1.88E2,1.33E2,5.5E1,5.3E1,8E1,2.7E1,2.8E1,2.3E1,3E1,3.5E1,4.5E1,1.8E1,9E0,1.7E1,1.1E1,2E0,2.8E1,2E0,3.3E1,2.7E1,1.8E1,1E0,8E0,1E0,2.7E1,1E0,1E0,2.6E1,7E0,1.1E1,1.6E1,3E0,1.5E1,2.3E1,3E0,3E0,4E0,8E0,3E0,1.4E1,2E0,2E0,1E0,1E1,5E0,2E0,2.1E1,1E0,2E0,1E0,2E0,2E0,2E0,1E0,7E0,1E0,2E0,3E0,1.1E1,9E0,1E0,2E0,3E0,1E0,1E0,6E0,1E0,1E0,2E0,5E0,6E0,1E0,8E0,3E0,2E0],"tree_param":{"num_deleted":"0","num_feature":"31","num_nodes":"75","size_leaf_vector":"1"}},{"base_weights":[7.5820026E-5,-4.6305895E-2,1.1105928E-1,-9.357611E-2,-1.4220736E-2,5.632351E-2,1.6007799E-1,-1.1123933E-3,-7.688278E-2,-2.9406922E-2,-2.0267484E-3,4.2973712E-4,7.605577E-2,1.2998392E-3,1.9187923E-3,-2.8060356E-4,-7.928224E-2,1.721774E-2,-3.2655954E-2,4.5669214E-3,-1.1637065E-2,2.24986E-4,7.9506723E-4,-2.2364728E-4,-8.051627E-4,2.7392127E-4,-1.565516E-5,-3.8829304E-2,-7.7388957E-3,-1.1008117E-2,1.5292424E-2,4.6848245E-3,-1.499022E-2,-4.116882E-2,-1.5084889E-2,-1.9493323E-2,3.2124252E-3,-1.4970811E-2,6.5997243E-4,1.858589E-2,-6.2723855E-5,2.0881294E-5,6.237454E-5,-7.965452E-3,-2.537059E-2,-1.2607142E-4,-4.3192286E-2,-4.298009E-5,-1.7247845E-4,-5.1941795E-5,-2.252831E-4,7.399822E-5,-2.0457804E-3,-2.766095E-5,-1.6150638E-2,-4.713066E-5,4.022007E-5,2.6499443E-3,2.2349048E-2,-8.832087E-3,3.504455E-6,-3.3374678E-4,-1.3024878E-4,-4.4039328E-2,-1.2702182E-4,2.681762E-6,-3.336847E-5,-1.7228899E-4,-4.3014064E-5,-1.5432239E-5,4.5620745E-5,2.8587295E-2,1.3809258E-4,-1.1515543E-5,-9.5575284E-5,-4.494401E-4,-1.2972839E-4,3.321023E-4,1.2894283E-4],"categories":[],"categories_nodes":[],"categories_segments":[],"categories_sizes":[],"default_left":[0,0,0,0,0,0,0,0,0,0,0,0,0,0,0,0,0,0,0,0,0,0,0,0,0,0,0,0,0,0,0,0,0,0,0,0,0,0,0,0,0,0,0,0,0,0,0,0,0,0,0,0,0,0,0,0,0,0,0,0,0,0,0,0,0,0,0,0,0,0,0,0,0,0,0,0,0,0,0],"id":14,"left_children":[1,3,5,7,9,11,13,-1,15,17,19,-1,21,-1,-1,-1,23,25,27,29,31,-1,-1,-1,-1,-1,-1,33,35,37,39,41,43,45,47,49,51,53,55,57,-1,-1,-1,59,61,-1,63,-1,-1,-1,-1,-1,65,-1,67,-1,-1,69,71,73,-1,-1,-1,75,-1,-1,-1,-1,-1,-1,-1,77,-1,-1,-1,-1,-1,-1,-1],"loss_changes":[9.7803974E-1,2.019034E-1,1.4123613E-1,7.3699653E-3,1.49399955E-2,4.107408E-3,2.8125644E-3,0E0,1.4068782E-3,6.0157236E-3,2.968039E-3,0E0,5.9440732E-5,0E0,0E0,0E0,2.361685E-4,6.162071E-4,4.929442E-3,4.845744E-3,1.1100934E-3,0E0,0E0,0E0,0E0,0E0,0E0,8.7883696E-4,1.0924329E-3,5.647249E-4,1.3239686E-3,3.1022137E-6,9.6462667E-4,8.4251165E-4,1.9194791E-5,5.6574703E-5,1.2522939E-4,8.492102E-5,9.121335E-5,8.403184E-4,0E0,0E0,0E0,8.237042E-5,1.5819585E-4,0E0,8.78796E-6,0E0,0E0,0E0,0E0,0E0,9.857277E-6,0E0,2.8104056E-5,0E0,0E0,3.9111845E-5,2.445099E-4,4.4711865E-5,0E0,0E0,0E0,7.1562827E-6,0E0,0E0,0E0,0E0,0E0,0E0,0E0,7.0645474E-6,0E0,0E0,0E0,0E0,0E0,0E0,0E0],"parents":[2147483647,0,0,1,1,2,2,3,3,4,4,5,5,6,6,8,8,9,9,10,10,12,12,16,16,17,17,18,18,19,19,20,20,27,27,28,28,29,29,30,30,31,31,32,32,33,33,34,34,35,35,36,36,37,37,38,38,39,39,43,43,44,44,46,46,52,52,54,54,57,57,58,58,59,59,63,63,71,71],"right_children":[2,4,6,8,10,12,14,-1,16,18,20,-1,22,-1,-1,-1,24,26,28,30,32,-1,-1,-1,-1,-1,-1,34,36,38,40,42,44,46,48,50,52,54,56,58,-1,-1,-1,60,62,-1,64,-1,-1,-1,-1,-1,66,-1,68,-1,-1,70,72,74,-1,-1,-1,76,-1,-1,-1,-1,-1,-1,-1,78,-1,-1,-1,-1,-1,-1,-1],"split_conditions":[2.293293E-1,1.2085252E-1,3.2362366E-1,7.0818074E-2,1.7050797E-1,3.8406867E-1,3.9601684E-1,-1.1123933E-3,6.487592E-2,7.526777E-2,2.0654221E-1,4.2973712E-4,3.672002E-1,1.2998392E-3,1.9187923E-3,-2.8060356E-4,6.411712E-2,6.3898966E-2,2.597115E-1,1.7279084E-1,1.7651385E-1,2.24986E-4,7.9506723E-4,-2.2364728E-4,-8.051627E-4,2.7392127E-4,-1.565516E-5,2.4450895E-1,1.6852768E-1,1.9038014E-1,2.9292E-1,2.4020445E-1,2.4233611E-1,4.9776744E-2,1.8327153E-1,2.4233611E-1,2.851478E-1,4.2848703E-2,1.5355362E-1,1.7563069E-1,-6.2723855E-5,2.0881294E-5,6.237454E-5,3.47237E-1,2.3533511E-1,-1.2607142E-4,2.4142933E-1,-4.298009E-5,-1.7247845E-4,-5.1941795E-5,-2.252831E-4,7.399822E-5,3.3663863E-1,-2.766095E-5,3.3663863E-1,-4.713066E-5,4.022007E-5,1.7279084E-1,1.9321933E-1,1.7624898E-1,3.504455E-6,-3.3374678E-4,-1.3024878E-4,2.4469726E-1,-1.2702182E-4,2.681762E-6,-3.336847E-5,-1.7228899E-4,-4.3014064E-5,-1.5432239E-5,4.5620745E-5,1.8327153E-1,1.3809258E-4,-1.1515543E-5,-9.5575284E-5,-4.494401E-4,-1.2972839E-4,3.321023E-4,1.2894283E-4],"split_indices":[29,29,29,29,29,0,12,0,0,15,17,0,5,0,0,0,8,0,4,16,21,0,0,0,0,0,0,12,24,21,5,1,13,0,1,0,0,4,3,6,0,0,0,0,6,0,15,0,0,0,0,0,0,0,2,0,0,0,6,16,0,0,0,18,0,0,0,0,0,0,0,10,0,0,0,0,0,0,0],"split_type":[0,0,0,0,0,0,0,0,0,0,0,0,0,0,0,0,0,0,0,0,0,0,0,0,0,0,0,0,0,0,0,0,0,0,0,0,0,0,0,0,0,0,0,0,0,0,0,0,0,0,0,0,0,0,0,0,0,0,0,0,0,0,0,0,0,0,0,0,0,0,0,0,0,0,0,0,0,0,0],"sum_hessian":[1.88E2,1.33E2,5.5E1,5.3E1,8E1,2.7E1,2.8E1,2.3E1,3E1,3.5E1,4.5E1,1.8E1,9E0,1.7E1,1.1E1,2E0,2.8E1,2E0,3.3E1,2.7E1,1.8E1,1E0,8E0,1E0,2.7E1,1E0,1E0,2.6E1,7E0,1.1E1,1.6E1,3E0,1.5E1,2.3E1,3E0,3E0,4E0,8E0,3E0,1.4E1,2E0,2E0,1E0,1E1,5E0,2E0,2.1E1,1E0,2E0,1E0,2E0,2E0,2E0,1E0,7E0,1E0,2E0,3E0,1.1E1,9E0,1E0,2E0,3E0,2E1,1E0,1E0,1E0,6E0,1E0,1E0,2E0,5E0,6E0,1E0,8E0,1.9E1,1E0,3E0,2E0],"tree_param":{"num_deleted":"0","num_feature":"31","num_nodes":"79","size_leaf_vector":"1"}},{"base_weights":[8.064674E-5,-4.5869797E-2,1.1003205E-1,-9.26852E-2,-1.4093233E-2,5.5812053E-2,1.5858819E-1,-1.101733E-3,-7.6156184E-2,-2.9141283E-2,-2.0101238E-3,4.2566593E-4,7.539722E-2,1.287563E-3,1.9012033E-3,-2.7873286E-4,-7.852489E-2,1.713165E-2,-3.236709E-2,4.532564E-3,-1.1546183E-2,2.2386103E-4,7.88E-4,-2.2252902E-4,-7.973985E-4,2.725516E-4,-1.5576854E-5,-3.847982E-2,-7.690748E-3,-1.0918859E-2,1.517283E-2,4.658792E-3,-1.4875791E-2,-4.0791813E-2,-1.4987905E-2,-1.9367699E-2,3.1889617E-3,-1.48481E-2,6.516464E-4,1.8441988E-2,-6.230573E-5,2.0742118E-5,6.206267E-5,-7.895214E-3,-2.5194218E-2,-1.2523089E-4,-4.279247E-2,-4.2765216E-5,-1.7132857E-4,-5.168207E-5,-2.2378126E-4,7.3504896E-5,-2.0355533E-3,-5.236337E-5,-1.684627E-2,-4.6894995E-5,3.995195E-5,2.63099E-3,2.2175489E-2,-8.754474E-3,3.486946E-6,-3.3152182E-4,-1.292719E-4,-4.362652E-4,-1.2638673E-4,2.6683508E-6,-3.320165E-5,-1.8227348E-4,-4.2798965E-5,-1.535505E-5,4.5316567E-5,9.4851515E-5,2.5351695E-4,-1.145795E-5,-9.472572E-3,-4.1519947E-5,-1.03995946E-4],"categories":[],"categories_nodes":[],"categories_segments":[],"categories_sizes":[],"default_left":[0,0,0,0,0,0,0,0,0,0,0,0,0,0,0,0,0,0,0,0,0,0,0,0,0,0,0,0,0,0,0,0,0,0,0,0,0,0,0,0,0,0,0,0,0,0,0,0,0,0,0,0,0,0,0,0,0,0,0,0,0,0,0,0,0,0,0,0,0,0,0,0,0,0,0,0,0],"id":15,"left_children":[1,3,5,7,9,11,13,-1,15,17,19,-1,21,-1,-1,-1,23,25,27,29,31,-1,-1,-1,-1,-1,-1,33,35,37,39,41,43,45,47,49,51,53,55,57,-1,-1,-1,59,61,-1,63,-1,-1,-1,-1,-1,65,-1,67,-1,-1,69,71,73,-1,-1,-1,-1,-1,-1,-1,-1,-1,-1,-1,-1,-1,-1,75,-1,-1],"loss_changes":[9.599348E-1,1.9803655E-1,1.3858086E-1,7.218927E-3,1.46694295E-2,4.0542036E-3,2.800107E-3,0E0,1.3566613E-3,5.9281345E-3,2.922341E-3,0E0,3.982708E-5,0E0,0E0,0E0,2.0825863E-4,6.100601E-4,4.832618E-3,4.7690733E-3,1.0944712E-3,0E0,0E0,0E0,0E0,0E0,0E0,8.550696E-4,1.0780975E-3,5.552353E-4,1.3044127E-3,3.1251693E-6,9.535437E-4,8.2144886E-4,1.863268E-5,5.5331504E-5,1.2367213E-4,8.464069E-5,9.016899E-5,8.2711177E-4,0E0,0E0,0E0,8.097291E-5,1.5715905E-4,0E0,1.9147992E-6,0E0,0E0,0E0,0E0,0E0,9.75896E-6,0E0,4.3474836E-5,0E0,0E0,3.8634862E-5,2.4322048E-4,4.378421E-5,0E0,0E0,0E0,0E0,0E0,0E0,0E0,0E0,0E0,0E0,0E0,0E0,0E0,0E0,1.2115925E-6,0E0,0E0],"parents":[2147483647,0,0,1,1,2,2,3,3,4,4,5,5,6,6,8,8,9,9,10,10,12,12,16,16,17,17,18,18,19,19,20,20,27,27,28,28,29,29,30,30,31,31,32,32,33,33,34,34,35,35,36,36,37,37,38,38,39,39,43,43,44,44,46,46,52,52,54,54,57,57,58,58,59,59,74,74],"right_children":[2,4,6,8,10,12,14,-1,16,18,20,-1,22,-1,-1,-1,24,26,28,30,32,-1,-1,-1,-1,-1,-1,34,36,38,40,42,44,46,48,50,52,54,56,58,-1,-1,-1,60,62,-1,64,-1,-1,-1,-1,-1,66,-1,68,-1,-1,70,72,74,-1,-1,-1,-1,-1,-1,-1,-1,-1,-1,-1,-1,-1,-1,76,-1,-1],"split_conditions":[2.293293E-1,1.2085252E-1,3.2362366E-1,7.0818074E-2,1.7050797E-1,3.8406867E-1,3.9601684E-1,-1.101733E-3,6.487592E-2,7.526777E-2,2.0654221E-1,4.2566593E-4,3.672002E-1,1.287563E-3,1.9012033E-3,-2.7873286E-4,6.411712E-2,6.3898966E-2,2.597115E-1,1.7279084E-1,1.7651385E-1,2.2386103E-4,7.88E-4,-2.2252902E-4,-7.973985E-4,2.725516E-4,-1.5576854E-5,2.4450895E-1,1.6852768E-1,1.9038014E-1,2.9292E-1,2.4020445E-1,2.4233611E-1,4.9776744E-2,1.8327153E-1,2.4233611E-1,2.851478E-1,4.9776744E-2,1.5355362E-1,1.7563069E-1,-6.230573E-5,2.0742118E-5,6.206267E-5,3.47237E-1,2.3533511E-1,-1.2523089E-4,2.4142933E-1,-4.2765216E-5,-1.7132857E-4,-5.168207E-5,-2.2378126E-4,7.3504896E-5,3.3663863E-1,-5.236337E-5,3.3663863E-1,-4.6894995E-5,3.995195E-5,1.7279084E-1,1.7245096E-1,1.7624898E-1,3.486946E-6,-3.3152182E-4,-1.292719E-4,-4.362652E-4,-1.2638673E-4,2.6683508E-6,-3.320165E-5,-1.8227348E-4,-4.2798965E-5,-1.535505E-5,4.5316567E-5,9.4851515E-5,2.5351695E-4,-1.145795E-5,1.7554441E-1,-4.1519947E-5,-1.03995946E-4],"split_indices":[29,29,29,29,29,0,12,0,0,15,17,0,5,0,0,0,8,0,4,16,21,0,0,0,0,0,0,12,24,21,5,1,13,0,1,0,0,5,3,6,0,0,0,0,6,0,15,0,0,0,0,0,0,0,2,0,0,0,3,16,0,0,0,0,0,0,0,0,0,0,0,0,0,0,12,0,0],"split_type":[0,0,0,0,0,0,0,0,0,0,0,0,0,0,0,0,0,0,0,0,0,0,0,0,0,0,0,0,0,0,0,0,0,0,0,0,0,0,0,0,0,0,0,0,0,0,0,0,0,0,0,0,0,0,0,0,0,0,0,0,0,0,0,0,0,0,0,0,0,0,0,0,0,0,0,0,0],"sum_hessian":[1.88E2,1.33E2,5.5E1,5.3E1,8E1,2.7E1,2.8E1,2.3E1,3E1,3.5E1,4.5E1,1.8E1,9E0,1.7E1,1.1E1,2E0,2.8E1,2E0,3.3E1,2.7E1,1.8E1,1E0,8E0,1E0,2.7E1,1E0,1E0,2.6E1,7E0,1.1E1,1.6E1,3E0,1.5E1,2.3E1,3E0,3E0,4E0,8E0,3E0,1.4E1,2E0,2E0,1E0,1E1,5E0,2E0,2.1E1,1E0,2E0,1E0,2E0,2E0,2E0,2E0,6E0,1E0,2E0,3E0,1.1E1,9E0,1E0,2E0,3E0,2E1,1E0,1E0,1E0,5E0,1E0,1E0,2E0,3E0,8E0,1E0,8E0,2E0,6E0],"tree_param":{"num_deleted":"0","num_feature":"31","num_nodes":"77","size_leaf_vector":"1"}},{"base_weights":[8.432985E-5,-4.5439288E-2,1.0901434E-1,-9.18028E-2,-1.3969306E-2,5.5305272E-2,1.5711226E-1,-1.0131258E-3,-6.514548E-2,-2.8874248E-2,-2.0008888E-3,4.216333E-4,7.474443E-2,1.2754026E-3,1.8837756E-3,-2.768747E-4,-6.829405E-4,1.704599E-2,-3.207679E-2,4.488369E-3,-1.1458696E-2,2.2274173E-4,7.809955E-4,2.7118882E-4,-1.5498996E-5,-3.8128432E-2,-7.6429024E-3,-1.08333705E-2,1.5039693E-2,4.632905E-3,-1.4765427E-2,-4.041256E-2,-1.4891546E-2,-1.9242886E-2,3.1656653E-3,-1.4730447E-2,6.433949E-4,1.8282793E-2,-6.189039E-5,2.0603835E-5,6.175235E-5,-7.830217E-3,-2.5019078E-2,-1.2439604E-4,-4.2390122E-4,-4.2551383E-5,-1.7018637E-4,-5.142368E-5,-2.2228935E-4,7.3014846E-5,-2.0253758E-3,-5.201429E-5,-1.6709963E-2,-4.6660527E-5,3.9685616E-5,2.6121698E-3,2.1982769E-2,-8.682628E-3,3.4695117E-6,-3.2931168E-4,-1.2830239E-4,2.6550144E-6,-3.303565E-5,-1.8075456E-4,-4.2584983E-5,-1.5278309E-5,4.501447E-5,2.8167002E-2,1.35416E-4,-1.1400654E-5,-9.394016E-5,3.2771018E-4,1.2639313E-4],"categories":[],"categories_nodes":[],"categories_segments":[],"categories_sizes":[],"default_left":[0,0,0,0,0,0,0,0,0,0,0,0,0,0,0,0,0,0,0,0,0,0,0,0,0,0,0,0,0,0,0,0,0,0,0,0,0,0,0,0,0,0,0,0,0,0,0,0,0,0,0,0,0,0,0,0,0,0,0,0,0,0,0,0,0,0,0,0,0,0,0,0,0],"id":16,"left_children":[1,3,5,7,9,11,13,-1,15,17,19,-1,21,-1,-1,-1,-1,23,25,27,29,-1,-1,-1,-1,31,33,35,37,39,41,43,45,47,49,51,53,55,-1,-1,-1,57,59,-1,-1,-1,-1,-1,-1,-1,61,-1,63,-1,-1,65,67,69,-1,-1,-1,-1,-1,-1,-1,-1,-1,71,-1,-1,-1,-1,-1],"loss_changes":[9.4218343E-1,1.9423145E-1,1.3597542E-1,7.0892274E-3,1.43917E-2,4.00164E-3,2.786994E-3,0E0,1.1408329E-4,5.8409963E-3,2.8746417E-3,0E0,2.0835549E-5,0E0,0E0,0E0,0E0,6.0397486E-4,4.7360025E-3,4.6895402E-3,1.0794082E-3,0E0,0E0,0E0,0E0,8.312464E-4,1.0639501E-3,5.461875E-4,1.2835504E-3,3.147361E-6,9.418749E-4,8.00319E-4,1.8081686E-5,5.4110074E-5,1.2213428E-4,8.284964E-5,8.9136716E-5,8.122907E-4,0E0,0E0,0E0,7.968588E-5,1.5612063E-4,0E0,0E0,0E0,0E0,0E0,0E0,0E0,9.661627E-6,0E0,4.2042695E-5,0E0,0E0,3.816389E-5,2.4499977E-4,4.2947126E-5,0E0,0E0,0E0,0E0,0E0,0E0,0E0,0E0,0E0,1.4735386E-5,0E0,0E0,0E0,0E0,0E0],"parents":[2147483647,0,0,1,1,2,2,3,3,4,4,5,5,6,6,8,8,9,9,10,10,12,12,17,17,18,18,19,19,20,20,25,25,26,26,27,27,28,28,29,29,30,30,31,31,32,32,33,33,34,34,35,35,36,36,37,37,41,41,42,42,50,50,52,52,55,55,56,56,57,57,67,67],"right_children":[2,4,6,8,10,12,14,-1,16,18,20,-1,22,-1,-1,-1,-1,24,26,28,30,-1,-1,-1,-1,32,34,36,38,40,42,44,46,48,50,52,54,56,-1,-1,-1,58,60,-1,-1,-1,-1,-1,-1,-1,62,-1,64,-1,-1,66,68,70,-1,-1,-1,-1,-1,-1,-1,-1,-1,72,-1,-1,-1,-1,-1],"split_conditions":[2.293293E-1,1.2085252E-1,3.2362366E-1,9.685075E-2,1.7050797E-1,3.8406867E-1,3.9601684E-1,-1.0131258E-3,6.487592E-2,7.526777E-2,2.0654221E-1,4.216333E-4,3.672002E-1,1.2754026E-3,1.8837756E-3,-2.768747E-4,-6.829405E-4,6.3898966E-2,2.597115E-1,1.7279084E-1,1.7651385E-1,2.2274173E-4,7.809955E-4,2.7118882E-4,-1.5498996E-5,2.4450895E-1,1.6852768E-1,1.9038014E-1,2.9292E-1,2.4020445E-1,2.4233611E-1,4.9776744E-2,1.8327153E-1,2.4233611E-1,2.851478E-1,4.9776744E-2,1.5355362E-1,1.7563069E-1,-6.189039E-5,2.0603835E-5,6.175235E-5,3.47237E-1,2.3533511E-1,-1.2439604E-4,-4.2390122E-4,-4.2551383E-5,-1.7018637E-4,-5.142368E-5,-2.2228935E-4,7.3014846E-5,3.3663863E-1,-5.201429E-5,3.3663863E-1,-4.6660527E-5,3.9685616E-5,1.7279084E-1,1.9321933E-1,1.7624898E-1,3.4695117E-6,-3.2931168E-4,-1.2830239E-4,2.6550144E-6,-3.303565E-5,-1.8075456E-4,-4.2584983E-5,-1.5278309E-5,4.501447E-5,1.8327153E-1,1.35416E-4,-1.1400654E-5,-9.394016E-5,3.2771018E-4,1.2639313E-4],"split_indices":[29,29,29,29,29,0,12,0,0,15,17,0,5,0,0,0,0,0,4,16,21,0,0,0,0,12,24,21,5,1,13,0,1,0,0,5,3,6,0,0,0,0,6,0,0,0,0,0,0,0,0,0,2,0,0,0,6,16,0,0,0,0,0,0,0,0,0,10,0,0,0,0,0],"split_type":[0,0,0,0,0,0,0,0,0,0,0,0,0,0,0,0,0,0,0,0,0,0,0,0,0,0,0,0,0,0,0,0,0,0,0,0,0,0,0,0,0,0,0,0,0,0,0,0,0,0,0,0,0,0,0,0,0,0,0,0,0,0,0,0,0,0,0,0,0,0,0,0,0],"sum_hessian":[1.88E2,1.33E2,5.5E1,5.3E1,8E1,2.7E1,2.8E1,3.7E1,1.6E1,3.5E1,4.5E1,1.8E1,9E0,1.7E1,1.1E1,2E0,1.4E1,2E0,3.3E1,2.7E1,1.8E1,1E0,8E0,1E0,1E0,2.6E1,7E0,1.1E1,1.6E1,3E0,1.5E1,2.3E1,3E0,3E0,4E0,8E0,3E0,1.4E1,2E0,2E0,1E0,1E1,5E0,2E0,2.1E1,1E0,2E0,1E0,2E0,2E0,2E0,2E0,6E0,1E0,2E0,3E0,1.1E1,9E0,1E0,2E0,3E0,1E0,1E0,5E0,1E0,1E0,2E0,5E0,6E0,1E0,8E0,3E0,2E0],"tree_param":{"num_deleted":"0","num_feature":"31","num_nodes":"73","size_leaf_vector":"1"}},{"base_weights":[9.233989E-5,-4.500662E-2,1.0800607E-1,-9.0921305E-2,-1.3841199E-2,5.480313E-2,1.5565008E-1,-1.0814655E-3,-7.465268E-2,-2.8605957E-2,-1.985275E-3,4.1763892E-4,7.409736E-2,1.2633571E-3,1.8665077E-3,-4.913393E-4,-8.13925E-4,1.696076E-2,-3.1785198E-2,4.4533066E-3,-1.1369223E-2,2.2162803E-4,7.7405333E-4,2.698329E-4,-1.5421509E-5,-3.777533E-2,-7.5953566E-3,-1.0748564E-2,1.492208E-2,4.6071634E-3,-1.4652743E-2,-4.0031277E-2,-1.4795814E-2,-1.9118883E-2,3.1425357E-3,-1.4613737E-2,6.352179E-4,1.8141247E-2,-6.147782E-5,2.0466447E-5,6.144359E-5,-7.7611776E-3,-2.4845155E-2,-1.2356673E-4,-4.1985482E-2,-4.2338594E-5,-1.6905178E-4,-5.1166564E-5,-2.208074E-4,7.252807E-5,-2.015248E-3,-5.1667488E-5,-1.657477E-2,-4.642725E-5,3.9421073E-5,2.59348E-3,2.1812065E-2,-8.606339E-3,3.452152E-6,-3.2711626E-4,-1.2734014E-4,-4.280731E-2,-1.2363523E-4,2.6417524E-6,-3.287047E-5,-1.792483E-4,-4.237205E-5,-1.5201941E-5,4.471436E-5,2.7961018E-2,1.3425524E-4,-1.1343658E-5,-9.310517E-3,-4.369989E-4,-1.2477889E-4,3.2525236E-4,1.2555052E-4,-4.061694E-5,-1.0229938E-4],"categories":[],"categories_nodes":[],"categories_segments":[],"categories_sizes":[],"default_left":[0,0,0,0,0,0,0,0,0,0,0,0,0,0,0,0,0,0,0,0,0,0,0,0,0,0,0,0,0,0,0,0,0,0,0,0,0,0,0,0,0,0,0,0,0,0,0,0,0,0,0,0,0,0,0,0,0,0,0,0,0,0,0,0,0,0,0,0,0,0,0,0,0,0,0,0,0,0,0],"id":17,"left_children":[1,3,5,7,9,11,13,-1,15,17,19,-1,21,-1,-1,-1,-1,23,25,27,29,-1,-1,-1,-1,31,33,35,37,39,41,43,45,47,49,51,53,55,-1,-1,-1,57,59,-1,61,-1,-1,-1,-1,-1,63,-1,65,-1,-1,67,69,71,-1,-1,-1,73,-1,-1,-1,-1,-1,-1,-1,75,-1,-1,77,-1,-1,-1,-1,-1,-1],"loss_changes":[9.2468566E-1,1.9048887E-1,1.3341874E-1,7.0590675E-3,1.4122248E-2,3.949702E-3,2.7735233E-3,0E0,1.3326108E-3,5.754333E-3,2.829919E-3,0E0,2.4698675E-6,0E0,0E0,0E0,0E0,5.979503E-4,4.6396926E-3,4.6164487E-3,1.0642244E-3,0E0,0E0,0E0,0E0,8.0739707E-4,1.0499889E-3,5.372864E-4,1.2645945E-3,3.1687596E-6,9.310392E-4,7.791631E-4,1.7541985E-5,5.2910764E-5,1.2061567E-4,8.1095146E-5,8.811641E-5,7.99526E-4,0E0,0E0,0E0,7.833436E-5,1.550815E-4,0E0,6.325543E-6,0E0,0E0,0E0,0E0,0E0,9.565262E-6,0E0,4.0643965E-5,0E0,0E0,3.769865E-5,2.4343003E-4,4.205451E-5,0E0,0E0,0E0,2.321601E-5,0E0,0E0,0E0,0E0,0E0,0E0,0E0,1.3540965E-5,0E0,0E0,1.8820283E-6,0E0,0E0,0E0,0E0,0E0,0E0],"parents":[2147483647,0,0,1,1,2,2,3,3,4,4,5,5,6,6,8,8,9,9,10,10,12,12,17,17,18,18,19,19,20,20,25,25,26,26,27,27,28,28,29,29,30,30,31,31,32,32,33,33,34,34,35,35,36,36,37,37,41,41,42,42,44,44,50,50,52,52,55,55,56,56,57,57,61,61,69,69,72,72],"right_children":[2,4,6,8,10,12,14,-1,16,18,20,-1,22,-1,-1,-1,-1,24,26,28,30,-1,-1,-1,-1,32,34,36,38,40,42,44,46,48,50,52,54,56,-1,-1,-1,58,60,-1,62,-1,-1,-1,-1,-1,64,-1,66,-1,-1,68,70,72,-1,-1,-1,74,-1,-1,-1,-1,-1,-1,-1,76,-1,-1,78,-1,-1,-1,-1,-1,-1],"split_conditions":[2.293293E-1,1.2085252E-1,3.2362366E-1,7.0818074E-2,1.7050797E-1,3.8406867E-1,3.9601684E-1,-1.0814655E-3,1.2855901E-1,7.526777E-2,2.0654221E-1,4.1763892E-4,3.672002E-1,1.2633571E-3,1.8665077E-3,-4.913393E-4,-8.13925E-4,6.3898966E-2,2.597115E-1,1.7279084E-1,1.7651385E-1,2.2162803E-4,7.7405333E-4,2.698329E-4,-1.5421509E-5,2.4450895E-1,1.6852768E-1,1.9038014E-1,2.9292E-1,2.4020445E-1,2.4233611E-1,4.9776744E-2,1.8327153E-1,2.4233611E-1,2.851478E-1,4.9776744E-2,1.5355362E-1,1.7563069E-1,-6.147782E-5,2.0466447E-5,6.144359E-5,3.47237E-1,2.3533511E-1,-1.2356673E-4,2.4142933E-1,-4.2338594E-5,-1.6905178E-4,-5.1166564E-5,-2.208074E-4,7.252807E-5,3.3663863E-1,-5.1667488E-5,3.3663863E-1,-4.642725E-5,3.9421073E-5,1.7279084E-1,1.9321933E-1,1.7624898E-1,3.452152E-6,-3.2711626E-4,-1.2734014E-4,2.4469726E-1,-1.2363523E-4,2.6417524E-6,-3.287047E-5,-1.792483E-4,-4.237205E-5,-1.5201941E-5,4.471436E-5,1.8327153E-1,1.3425524E-4,-1.1343658E-5,1.7554441E-1,-4.369989E-4,-1.2477889E-4,3.2525236E-4,1.2555052E-4,-4.061694E-5,-1.0229938E-4],"split_indices":[29,29,29,29,29,0,12,0,6,15,17,0,5,0,0,0,0,0,4,16,21,0,0,0,0,12,24,21,5,1,13,0,1,0,0,5,3,6,0,0,0,0,6,0,15,0,0,0,0,0,0,0,2,0,0,0,6,16,0,0,0,18,0,0,0,0,0,0,0,10,0,0,12,0,0,0,0,0,0],"split_type":[0,0,0,0,0,0,0,0,0,0,0,0,0,0,0,0,0,0,0,0,0,0,0,0,0,0,0,0,0,0,0,0,0,0,0,0,0,0,0,0,0,0,0,0,0,0,0,0,0,0,0,0,0,0,0,0,0,0,0,0,0,0,0,0,0,0,0,0,0,0,0,0,0,0,0,0,0,0,0],"sum_hessian":[1.88E2,1.33E2,5.5E1,5.3E1,8E1,2.7E1,2.8E1,2.3E1,3E1,3.5E1,4.5E1,1.8E1,9E0,1.7E1,1.1E1,8E0,2.2E1,2E0,3.3E1,2.7E1,1.8E1,1E0,8E0,1E0,1E0,2.6E1,7E0,1.1E1,1.6E1,3E0,1.5E1,2.3E1,3E0,3E0,4E0,8E0,3E0,1.4E1,2E0,2E0,1E0,1E1,5E0,2E0,2.1E1,1E0,2E0,1E0,2E0,2E0,2E0,2E0,6E0,1E0,2E0,3E0,1.1E1,9E0,1E0,2E0,3E0,2E1,1E0,1E0,1E0,5E0,1E0,1E0,2E0,5E0,6E0,1E0,8E0,1.9E1,1E0,3E0,2E0,2E0,6E0],"tree_param":{"num_deleted":"0","num_feature":"31","num_nodes":"79","size_leaf_vector":"1"}},{"base_weights":[9.623359E-5,-4.4583667E-2,1.0700714E-1,-9.0056285E-2,-1.3718174E-2,5.4305576E-2,1.5420151E-1,-1.0711015E-3,-7.394826E-2,-2.8347557E-2,-1.97087E-3,4.1368237E-4,7.345595E-4,1.1553162E-3,1.7470191E-1,-4.8697187E-4,-8.061396E-4,1.6875958E-2,-3.1504117E-2,4.4185147E-3,-1.1283075E-2,1.7927994E-3,5.0726614E-4,2.6848374E-4,-1.5344396E-5,-3.743537E-2,-7.5481106E-3,-1.0664438E-2,1.4805392E-2,4.5815744E-3,-1.4544046E-2,-3.966468E-2,-1.4700703E-2,-1.8995687E-2,3.119573E-3,-1.4497967E-2,6.2711164E-4,1.8000804E-2,-6.1067934E-5,2.0330051E-5,6.113641E-5,-7.6972772E-3,-2.4672447E-2,-1.2274299E-4,-4.159679E-4,-4.212692E-5,-1.6792477E-4,-5.091071E-5,-2.1933534E-4,7.204458E-5,-2.0051699E-3,-2.6742442E-5,-1.5641652E-2,-4.6195088E-5,3.9158214E-5,2.5749207E-3,2.1642698E-2,-8.535703E-3,3.4348666E-6,-3.249355E-4,-1.2638506E-4,2.6285647E-6,-3.270611E-5,-1.6671598E-4,-4.216015E-5,-1.5125945E-5,4.441624E-5,2.7756542E-2,1.3310445E-4,-1.1286958E-5,-9.233292E-3,3.2281302E-4,1.2471348E-4,-4.0346138E-5,-1.0142256E-4],"categories":[],"categories_nodes":[],"categories_segments":[],"categories_sizes":[],"default_left":[0,0,0,0,0,0,0,0,0,0,0,0,0,0,0,0,0,0,0,0,0,0,0,0,0,0,0,0,0,0,0,0,0,0,0,0,0,0,0,0,0,0,0,0,0,0,0,0,0,0,0,0,0,0,0,0,0,0,0,0,0,0,0,0,0,0,0,0,0,0,0,0,0,0,0],"id":18,"left_children":[1,3,5,7,9,11,13,-1,15,17,19,-1,-1,-1,21,-1,-1,23,25,27,29,-1,-1,-1,-1,31,33,35,37,39,41,43,45,47,49,51,53,55,-1,-1,-1,57,59,-1,-1,-1,-1,-1,-1,-1,61,-1,63,-1,-1,65,67,69,-1,-1,-1,-1,-1,-1,-1,-1,-1,71,-1,-1,73,-1,-1,-1,-1],"loss_changes":[9.075801E-1,1.8683827E-1,1.309101E-1,6.9134235E-3,1.3864453E-2,3.8983896E-3,2.806127E-3,0E0,1.2921542E-3,5.670689E-3,2.7868205E-3,0E0,0E0,0E0,5.543232E-4,0E0,0E0,5.919857E-4,4.548464E-3,4.5445054E-3,1.0495835E-3,0E0,0E0,0E0,0E0,7.8532845E-4,1.0362114E-3,5.2852964E-4,1.2459187E-3,3.1892487E-6,9.1963867E-4,7.59542E-4,1.7012586E-5,5.1733456E-5,1.19116085E-4,7.987418E-5,8.7107626E-5,7.869634E-4,0E0,0E0,0E0,7.708924E-5,1.5404215E-4,0E0,0E0,0E0,0E0,0E0,0E0,0E0,9.4698635E-6,0E0,2.385443E-5,0E0,0E0,3.7239086E-5,2.418533E-4,4.1249034E-5,0E0,0E0,0E0,0E0,0E0,0E0,0E0,0E0,0E0,1.2379605E-5,0E0,0E0,1.6085687E-6,0E0,0E0,0E0,0E0],"parents":[2147483647,0,0,1,1,2,2,3,3,4,4,5,5,6,6,8,8,9,9,10,10,14,14,17,17,18,18,19,19,20,20,25,25,26,26,27,27,28,28,29,29,30,30,31,31,32,32,33,33,34,34,35,35,36,36,37,37,41,41,42,42,50,50,52,52,55,55,56,56,57,57,67,67,70,70],"right_children":[2,4,6,8,10,12,14,-1,16,18,20,-1,-1,-1,22,-1,-1,24,26,28,30,-1,-1,-1,-1,32,34,36,38,40,42,44,46,48,50,52,54,56,-1,-1,-1,58,60,-1,-1,-1,-1,-1,-1,-1,62,-1,64,-1,-1,66,68,70,-1,-1,-1,-1,-1,-1,-1,-1,-1,72,-1,-1,74,-1,-1,-1,-1],"split_conditions":[2.293293E-1,1.2085252E-1,3.2362366E-1,7.0818074E-2,1.7050797E-1,3.8406867E-1,3.8406867E-1,-1.0711015E-3,1.2855901E-1,7.526777E-2,2.0654221E-1,4.1368237E-4,7.345595E-4,1.1553162E-3,4.6094283E-1,-4.8697187E-4,-8.061396E-4,6.3898966E-2,2.597115E-1,1.7279084E-1,1.7651385E-1,1.7927994E-3,5.0726614E-4,2.6848374E-4,-1.5344396E-5,2.4450895E-1,1.6852768E-1,1.9038014E-1,2.9292E-1,2.4020445E-1,2.4233611E-1,4.9776744E-2,1.8327153E-1,2.4233611E-1,2.851478E-1,4.2848703E-2,1.5355362E-1,1.7563069E-1,-6.1067934E-5,2.0330051E-5,6.113641E-5,3.47237E-1,2.3533511E-1,-1.2274299E-4,-4.159679E-4,-4.212692E-5,-1.6792477E-4,-5.091071E-5,-2.1933534E-4,7.204458E-5,3.3663863E-1,-2.6742442E-5,3.3663863E-1,-4.6195088E-5,3.9158214E-5,1.7279084E-1,1.9321933E-1,1.7624898E-1,3.4348666E-6,-3.249355E-4,-1.2638506E-4,2.6285647E-6,-3.270611E-5,-1.6671598E-4,-4.216015E-5,-1.5125945E-5,4.441624E-5,1.8327153E-1,1.3310445E-4,-1.1286958E-5,1.7554441E-1,3.2281302E-4,1.2471348E-4,-4.0346138E-5,-1.0142256E-4],"split_indices":[29,29,29,29,29,0,13,0,6,15,17,0,0,0,16,0,0,0,4,16,21,0,0,0,0,12,24,21,5,1,13,0,1,0,0,4,3,6,0,0,0,0,6,0,0,0,0,0,0,0,0,0,2,0,0,0,6,16,0,0,0,0,0,0,0,0,0,10,0,0,12,0,0,0,0],"split_type":[0,0,0,0,0,0,0,0,0,0,0,0,0,0,0,0,0,0,0,0,0,0,0,0,0,0,0,0,0,0,0,0,0,0,0,0,0,0,0,0,0,0,0,0,0,0,0,0,0,0,0,0,0,0,0,0,0,0,0,0,0,0,0,0,0,0,0,0,0,0,0,0,0,0,0],"sum_hessian":[1.88E2,1.33E2,5.5E1,5.3E1,8E1,2.7E1,2.8E1,2.3E1,3E1,3.5E1,4.5E1,1.8E1,9E0,1.2E1,1.6E1,8E0,2.2E1,2E0,3.3E1,2.7E1,1.8E1,1.5E1,1E0,1E0,1E0,2.6E1,7E0,1.1E1,1.6E1,3E0,1.5E1,2.3E1,3E0,3E0,4E0,8E0,3E0,1.4E1,2E0,2E0,1E0,1E1,5E0,2E0,2.1E1,1E0,2E0,1E0,2E0,2E0,2E0,1E0,7E0,1E0,2E0,3E0,1.1E1,9E0,1E0,2E0,3E0,1E0,1E0,6E0,1E0,1E0,2E0,5E0,6E0,1E0,8E0,3E0,2E0,2E0,6E0],"tree_param":{"num_deleted":"0","num_feature":"31","num_nodes":"75","size_leaf_vector":"1"}},{"base_weights":[1.0215968E-4,-4.416247E-2,1.0601927E-1,-8.9199506E-2,-1.3592563E-2,5.3803526E-2,1.5277864E-1,-1.0608368E-3,-7.325049E-2,-2.8084192E-2,-1.955798E-3,4.0976325E-4,7.2794855E-2,1.2391034E-3,1.8334953E-3,-4.8264323E-4,-7.984287E-4,1.6791577E-2,-3.1217813E-2,4.3852655E-3,-1.1197586E-2,2.1684713E-4,7.6064345E-4,2.671413E-4,-1.5267655E-5,-3.708875E-2,-7.5011645E-3,-1.0578017E-2,1.4689625E-2,4.556127E-3,-1.4436165E-2,-3.9290477E-2,-1.4606211E-2,-1.8873293E-2,3.0967712E-3,-1.4379169E-2,6.190799E-4,1.786146E-2,-6.0660837E-5,2.019455E-5,6.0830713E-5,-7.6339096E-3,-2.4500938E-2,-1.2192473E-4,-4.119973E-2,-4.1916293E-5,-1.6680529E-4,-5.0656123E-5,-2.1787315E-4,7.156427E-5,-1.9951414E-3,-5.06782E-5,-1.631558E-2,-4.596412E-5,3.8897146E-5,2.5564916E-3,2.147466E-2,-8.465653E-3,3.4176558E-6,-3.2276928E-4,-1.2543712E-4,-4.2009838E-2,-1.2093723E-4,2.6154516E-6,-3.254257E-5,-1.763653E-4,-4.1949377E-5,-1.5050321E-5,4.41201E-5,2.7553564E-2,1.3196362E-4,-1.1230558E-5,-9.156714E-3,-4.288958E-4,-1.2207516E-4,3.2039187E-4,1.238821E-4,-4.007712E-5,-1.0055327E-4],"categories":[],"categories_nodes":[],"categories_segments":[],"categories_sizes":[],"default_left":[0,0,0,0,0,0,0,0,0,0,0,0,0,0,0,0,0,0,0,0,0,0,0,0,0,0,0,0,0,0,0,0,0,0,0,0,0,0,0,0,0,0,0,0,0,0,0,0,0,0,0,0,0,0,0,0,0,0,0,0,0,0,0,0,0,0,0,0,0,0,0,0,0,0,0,0,0,0,0],"id":19,"left_children":[1,3,5,7,9,11,13,-1,15,17,19,-1,21,-1,-1,-1,-1,23,25,27,29,-1,-1,-1,-1,31,33,35,37,39,41,43,45,47,49,51,53,55,-1,-1,-1,57,59,-1,61,-1,-1,-1,-1,-1,63,-1,65,-1,-1,67,69,71,-1,-1,-1,73,-1,-1,-1,-1,-1,-1,-1,75,-1,-1,77,-1,-1,-1,-1,-1,-1],"loss_changes":[8.9078623E-1,1.8327585E-1,1.2850821E-1,6.77076E-3,1.3604565E-2,3.838092E-3,2.874434E-3,0E0,1.2527108E-3,5.5866465E-3,2.7448311E-3,0E0,2.1602958E-5,0E0,0E0,0E0,0E0,5.8608036E-4,4.4559166E-3,4.4726245E-3,1.0351464E-3,0E0,0E0,0E0,0E0,7.626265E-4,1.022615E-3,5.1964424E-4,1.2275211E-3,3.2089374E-6,9.083727E-4,7.3935837E-4,1.6494014E-5,5.0577335E-5,1.17635136E-4,7.959083E-5,8.611062E-5,7.745987E-4,0E0,0E0,0E0,7.58642E-5,1.5300303E-4,0E0,1.0684133E-5,0E0,0E0,0E0,0E0,0E0,9.375425E-6,0E0,3.8091443E-5,0E0,0E0,3.6785153E-5,2.4026912E-4,4.0458224E-5,0E0,0E0,0E0,2.7008355E-5,0E0,0E0,0E0,0E0,0E0,0E0,0E0,1.1248048E-5,0E0,0E0,1.3438985E-6,0E0,0E0,0E0,0E0,0E0,0E0],"parents":[2147483647,0,0,1,1,2,2,3,3,4,4,5,5,6,6,8,8,9,9,10,10,12,12,17,17,18,18,19,19,20,20,25,25,26,26,27,27,28,28,29,29,30,30,31,31,32,32,33,33,34,34,35,35,36,36,37,37,41,41,42,42,44,44,50,50,52,52,55,55,56,56,57,57,61,61,69,69,72,72],"right_children":[2,4,6,8,10,12,14,-1,16,18,20,-1,22,-1,-1,-1,-1,24,26,28,30,-1,-1,-1,-1,32,34,36,38,40,42,44,46,48,50,52,54,56,-1,-1,-1,58,60,-1,62,-1,-1,-1,-1,-1,64,-1,66,-1,-1,68,70,72,-1,-1,-1,74,-1,-1,-1,-1,-1,-1,-1,76,-1,-1,78,-1,-1,-1,-1,-1,-1],"split_conditions":[2.293293E-1,1.2085252E-1,3.2362366E-1,7.0818074E-2,1.7050797E-1,3.8406867E-1,3.9601684E-1,-1.0608368E-3,1.2855901E-1,7.526777E-2,2.0654221E-1,4.0976325E-4,3.672002E-1,1.2391034E-3,1.8334953E-3,-4.8264323E-4,-7.984287E-4,6.3898966E-2,2.597115E-1,1.7279084E-1,1.7651385E-1,2.1684713E-4,7.6064345E-4,2.671413E-4,-1.5267655E-5,2.4450895E-1,1.6852768E-1,1.9038014E-1,2.9292E-1,2.4020445E-1,2.4233611E-1,4.9776744E-2,1.8327153E-1,2.4233611E-1,2.851478E-1,4.9776744E-2,1.5355362E-1,1.7563069E-1,-6.0660837E-5,2.019455E-5,6.0830713E-5,3.47237E-1,2.3533511E-1,-1.2192473E-4,2.4142933E-1,-4.1916293E-5,-1.6680529E-4,-5.0656123E-5,-2.1787315E-4,7.156427E-5,3.3663863E-1,-5.06782E-5,3.3663863E-1,-4.596412E-5,3.8897146E-5,1.7279084E-1,1.9321933E-1,1.7624898E-1,3.4176558E-6,-3.2276928E-4,-1.2543712E-4,2.4469726E-1,-1.2093723E-4,2.6154516E-6,-3.254257E-5,-1.763653E-4,-4.1949377E-5,-1.5050321E-5,4.41201E-5,1.8327153E-1,1.3196362E-4,-1.1230558E-5,1.7554441E-1,-4.288958E-4,-1.2207516E-4,3.2039187E-4,1.238821E-4,-4.007712E-5,-1.0055327E-4],"split_indices":[29,29,29,29,29,0,12,0,6,15,17,0,5,0,0,0,0,0,4,16,21,0,0,0,0,12,24,21,5,1,13,0,1,0,0,5,3,6,0,0,0,0,6,0,15,0,0,0,0,0,0,0,2,0,0,0,6,16,0,0,0,18,0,0,0,0,0,0,0,10,0,0,12,0,0,0,0,0,0],"split_type":[0,0,0,0,0,0,0,0,0,0,0,0,0,0,0,0,0,0,0,0,0,0,0,0,0,0,0,0,0,0,0,0,0,0,0,0,0,0,0,0,0,0,0,0,0,0,0,0,0,0,0,0,0,0,0,0,0,0,0,0,0,0,0,0,0,0,0,0,0,0,0,0,0,0,0,0,0,0,0],"sum_hessian":[1.88E2,1.33E2,5.5E1,5.3E1,8E1,2.7E1,2.8E1,2.3E1,3E1,3.5E1,4.5E1,1.8E1,9E0,1.7E1,1.1E1,8E0,2.2E1,2E0,3.3E1,2.7E1,1.8E1,1E0,8E0,1E0,1E0,2.6E1,7E0,1.1E1,1.6E1,3E0,1.5E1,2.3E1,3E0,3E0,4E0,8E0,3E0,1.4E1,2E0,2E0,1E0,1E1,5E0,2E0,2.1E1,1E0,2E0,1E0,2E0,2E0,2E0,2E0,6E0,1E0,2E0,3E0,1.1E1,9E0,1E0,2E0,3E0,2E1,1E0,1E0,1E0,5E0,1E0,1E0,2E0,5E0,6E0,1E0,8E0,1.9E1,1E0,3E0,2E0,2E0,6E0],"tree_param":{"num_deleted":"0","num_feature":"31","num_nodes":"79","size_leaf_vector":"1"}},{"base_weights":[1.0586613E-4,-4.374746E-2,1.0503872E-1,-8.835088E-2,-1.3471754E-2,5.3315032E-2,1.513568E-1,-1.0506704E-3,-7.2559305E-2,-2.7830504E-2,-1.9416086E-3,4.0588123E-4,7.2164655E-2,1.1327566E-3,1.7157432E-1,-2.6528916E-4,-7.481902E-2,1.670762E-2,-3.0941794E-2,4.351006E-3,-1.1112746E-2,2.1576292E-4,7.538822E-4,1.7606603E-3,4.985343E-4,-2.106969E-4,-7.5986143E-4,2.6580557E-4,-1.5191286E-5,-3.6754996E-2,-7.454518E-3,-1.0495238E-2,1.4574766E-2,4.5308247E-3,-1.4329092E-2,-3.8930647E-2,-1.451233E-2,-1.8751696E-2,3.0741275E-3,-1.42652625E-2,6.111264E-4,1.7723197E-2,-6.025642E-5,2.0059942E-5,6.0526578E-5,-7.5710635E-3,-2.4330629E-2,-1.21111916E-4,-4.081827E-2,-4.170671E-5,-1.6569326E-4,-5.040288E-5,-2.1642068E-4,7.108713E-5,-1.9851674E-3,-5.0340346E-5,-1.618361E-2,-4.5734272E-5,3.8637863E-5,2.538193E-3,2.1307932E-2,-8.396181E-3,3.4005939E-6,-3.2061743E-4,-1.2449634E-4,-4.1615974E-2,-1.2033254E-4,2.6023388E-6,-3.237985E-5,-1.7489554E-4,-4.173964E-5,-1.497507E-5,4.3825952E-5,2.7352072E-2,1.3083249E-4,-1.117438E-5,-9.080771E-3,-4.2482122E-4,-1.214648E-4,3.1798895E-4,1.2305618E-4,-3.980989E-5,-9.969138E-5],"categories":[],"categories_nodes":[],"categories_segments":[],"categories_sizes":[],"default_left":[0,0,0,0,0,0,0,0,0,0,0,0,0,0,0,0,0,0,0,0,0,0,0,0,0,0,0,0,0,0,0,0,0,0,0,0,0,0,0,0,0,0,0,0,0,0,0,0,0,0,0,0,0,0,0,0,0,0,0,0,0,0,0,0,0,0,0,0,0,0,0,0,0,0,0,0,0,0,0,0,0,0,0],"id":20,"left_children":[1,3,5,7,9,11,13,-1,15,17,19,-1,21,-1,23,-1,25,27,29,31,33,-1,-1,-1,-1,-1,-1,-1,-1,35,37,39,41,43,45,47,49,51,53,55,57,59,-1,-1,-1,61,63,-1,65,-1,-1,-1,-1,-1,67,-1,69,-1,-1,71,73,75,-1,-1,-1,77,-1,-1,-1,-1,-1,-1,-1,79,-1,-1,81,-1,-1,-1,-1,-1,-1],"loss_changes":[8.743079E-1,1.7976332E-1,1.260919E-1,6.6310465E-3,1.33562E-2,3.7880987E-3,2.8921366E-3,0E0,1.2396127E-3,5.505519E-3,2.7030315E-3,0E0,4.1536987E-6,0E0,5.169511E-4,0E0,2.182424E-4,5.80234E-4,4.368242E-3,4.40293E-3,1.0209102E-3,0E0,0E0,0E0,0E0,0E0,0E0,0E0,0E0,7.416159E-4,1.009197E-3,5.1117316E-4,1.2093957E-3,3.2278913E-6,8.9724176E-4,7.206425E-4,1.5985745E-5,4.9442053E-5,1.1617278E-4,7.790944E-5,8.512511E-5,7.6242955E-4,0E0,0E0,0E0,7.465889E-5,1.5196344E-4,0E0,4.3846667E-6,0E0,0E0,0E0,0E0,0E0,9.281869E-6,0E0,3.6786892E-5,0E0,0E0,3.6336787E-5,2.3867982E-4,3.9682316E-5,0E0,0E0,0E0,2.0015985E-5,0E0,0E0,0E0,0E0,0E0,0E0,0E0,1.0148622E-5,0E0,0E0,1.0872609E-6,0E0,0E0,0E0,0E0,0E0,0E0],"parents":[2147483647,0,0,1,1,2,2,3,3,4,4,5,5,6,6,8,8,9,9,10,10,12,12,14,14,16,16,17,17,18,18,19,19,20,20,29,29,30,30,31,31,32,32,33,33,34,34,35,35,36,36,37,37,38,38,39,39,40,40,41,41,45,45,46,46,48,48,54,54,56,56,59,59,60,60,61,61,65,65,73,73,76,76],"right_children":[2,4,6,8,10,12,14,-1,16,18,20,-1,22,-1,24,-1,26,28,30,32,34,-1,-1,-1,-1,-1,-1,-1,-1,36,38,40,42,44,46,48,50,52,54,56,58,60,-1,-1,-1,62,64,-1,66,-1,-1,-1,-1,-1,68,-1,70,-1,-1,72,74,76,-1,-1,-1,78,-1,-1,-1,-1,-1,-1,-1,80,-1,-1,82,-1,-1,-1,-1,-1,-1],"split_conditions":[2.293293E-1,1.2085252E-1,3.2362366E-1,7.0818074E-2,1.7050797E-1,3.8406867E-1,3.8406867E-1,-1.0506704E-3,6.487592E-2,7.526777E-2,2.0654221E-1,4.0588123E-4,3.672002E-1,1.1327566E-3,4.6094283E-1,-2.6528916E-4,6.411712E-2,6.3898966E-2,2.597115E-1,1.7279084E-1,1.7651385E-1,2.1576292E-4,7.538822E-4,1.7606603E-3,4.985343E-4,-2.106969E-4,-7.5986143E-4,2.6580557E-4,-1.5191286E-5,2.4450895E-1,1.6852768E-1,1.9038014E-1,2.9292E-1,2.4020445E-1,2.4233611E-1,4.9776744E-2,1.8327153E-1,2.4233611E-1,2.851478E-1,4.9776744E-2,1.5355362E-1,1.7563069E-1,-6.025642E-5,2.0059942E-5,6.0526578E-5,3.47237E-1,2.3533511E-1,-1.21111916E-4,2.4142933E-1,-4.170671E-5,-1.6569326E-4,-5.040288E-5,-2.1642068E-4,7.108713E-5,3.3663863E-1,-5.0340346E-5,3.3663863E-1,-4.5734272E-5,3.8637863E-5,1.7279084E-1,1.9321933E-1,1.7624898E-1,3.4005939E-6,-3.2061743E-4,-1.2449634E-4,2.4469726E-1,-1.2033254E-4,2.6023388E-6,-3.237985E-5,-1.7489554E-4,-4.173964E-5,-1.497507E-5,4.3825952E-5,1.8327153E-1,1.3083249E-4,-1.117438E-5,1.7554441E-1,-4.2482122E-4,-1.214648E-4,3.1798895E-4,1.2305618E-4,-3.980989E-5,-9.969138E-5],"split_indices":[29,29,29,29,29,0,13,0,0,15,17,0,5,0,16,0,8,0,4,16,21,0,0,0,0,0,0,0,0,12,24,21,5,1,13,0,1,0,0,5,3,6,0,0,0,0,6,0,15,0,0,0,0,0,0,0,2,0,0,0,6,16,0,0,0,18,0,0,0,0,0,0,0,10,0,0,12,0,0,0,0,0,0],"split_type":[0,0,0,0,0,0,0,0,0,0,0,0,0,0,0,0,0,0,0,0,0,0,0,0,0,0,0,0,0,0,0,0,0,0,0,0,0,0,0,0,0,0,0,0,0,0,0,0,0,0,0,0,0,0,0,0,0,0,0,0,0,0,0,0,0,0,0,0,0,0,0,0,0,0,0,0,0,0,0,0,0,0,0],"sum_hessian":[1.88E2,1.33E2,5.5E1,5.3E1,8E1,2.7E1,2.8E1,2.3E1,3E1,3.5E1,4.5E1,1.8E1,9E0,1.2E1,1.6E1,2E0,2.8E1,2E0,3.3E1,2.7E1,1.8E1,1E0,8E0,1.5E1,1E0,1E0,2.7E1,1E0,1E0,2.6E1,7E0,1.1E1,1.6E1,3E0,1.5E1,2.3E1,3E0,3E0,4E0,8E0,3E0,1.4E1,2E0,2E0,1E0,1E1,5E0,2E0,2.1E1,1E0,2E0,1E0,2E0,2E0,2E0,2E0,6E0,1E0,2E0,3E0,1.1E1,9E0,1E0,2E0,3E0,2E1,1E0,1E0,1E0,5E0,1E0,1E0,2E0,5E0,6E0,1E0,8E0,1.9E1,1E0,3E0,2E0,2E0,6E0],"tree_param":{"num_deleted":"0","num_feature":"31","num_nodes":"83","size_leaf_vector":"1"}},{"base_weights":[1.11501606E-4,-4.333612E-2,1.04073465E-1,-8.7509714E-2,-1.3352044E-2,5.2831013E-2,1.4996019E-1,-9.6599443E-4,-6.2043864E-2,-2.7579147E-2,-1.9275274E-3,4.0203606E-4,7.1539974E-4,1.2153105E-3,1.801072E-3,-2.6352057E-4,-6.5045967E-4,1.6624078E-2,-3.0668281E-2,4.3170103E-3,-1.1028555E-2,2.6447652E-4,-1.5115365E-5,-3.6424305E-2,-7.4081644E-3,-1.0413126E-2,1.4460811E-2,4.505664E-3,-1.4222825E-2,-3.8574167E-2,-1.441906E-2,-1.8630885E-2,3.0516447E-3,-1.4152275E-2,6.0324E-4,1.7586013E-2,-5.9854687E-5,1.992623E-5,6.0223934E-5,-7.508741E-3,-2.4161508E-2,-1.20304474E-4,-4.044039E-4,-4.149817E-5,-1.6458868E-4,-5.01509E-5,-2.1497786E-4,7.0613176E-5,-1.9752432E-3,-5.000477E-5,-1.6052721E-2,-4.550561E-5,3.8380276E-5,2.5200248E-3,2.1142509E-2,-8.327288E-3,3.3836066E-6,-3.1848002E-4,-1.2356258E-4,2.5893003E-6,-3.2217948E-5,-1.734381E-4,-4.153095E-5,-1.4900193E-5,4.3533793E-5,2.715206E-2,1.2971107E-4,-1.1118501E-5,-9.005464E-5,2.9329158E-4,8.133277E-5],"categories":[],"categories_nodes":[],"categories_segments":[],"categories_sizes":[],"default_left":[0,0,0,0,0,0,0,0,0,0,0,0,0,0,0,0,0,0,0,0,0,0,0,0,0,0,0,0,0,0,0,0,0,0,0,0,0,0,0,0,0,0,0,0,0,0,0,0,0,0,0,0,0,0,0,0,0,0,0,0,0,0,0,0,0,0,0,0,0,0,0],"id":21,"left_children":[1,3,5,7,9,11,13,-1,15,17,19,-1,-1,-1,-1,-1,-1,21,23,25,27,-1,-1,29,31,33,35,37,39,41,43,45,47,49,51,53,-1,-1,-1,55,57,-1,-1,-1,-1,-1,-1,-1,59,-1,61,-1,-1,63,65,67,-1,-1,-1,-1,-1,-1,-1,-1,-1,69,-1,-1,-1,-1,-1],"loss_changes":[8.582043E-1,1.7631519E-1,1.2375295E-1,6.5063834E-3,1.31124E-2,3.7387162E-3,2.9659271E-3,0E0,1.07467175E-4,5.425619E-3,2.661869E-3,0E0,0E0,0E0,0E0,0E0,0E0,5.744464E-4,4.282281E-3,4.3343306E-3,1.0068726E-3,0E0,0E0,7.211156E-4,9.959548E-4,5.028392E-4,1.191539E-3,3.246052E-6,8.86244E-4,7.023625E-4,1.5487836E-5,4.832726E-5,1.14728704E-4,7.626123E-5,8.4151E-5,7.504523E-4,0E0,0E0,0E0,7.347303E-5,1.5092385E-4,0E0,0E0,0E0,0E0,0E0,0E0,0E0,9.189257E-6,0E0,3.5513774E-5,0E0,0E0,3.5893943E-5,2.3708539E-4,3.892067E-5,0E0,0E0,0E0,0E0,0E0,0E0,0E0,0E0,0E0,9.892508E-6,0E0,0E0,0E0,0E0,0E0],"parents":[2147483647,0,0,1,1,2,2,3,3,4,4,5,5,6,6,8,8,9,9,10,10,17,17,18,18,19,19,20,20,23,23,24,24,25,25,26,26,27,27,28,28,29,29,30,30,31,31,