{"learner":{"attributes":{"scikit_learn":"{\"_estimator_type\": \"regressor\"}"},"feature_names":[],"feature_types":[],"gradient_booster":{"model":{"gbtree_model_param":{"num_parallel_tree":"1","num_trees":"1000"},"iteration_indptr":[0,1,2,3,4,5,6,7,8,9,10,11,12,13,14,15,16,17,18,19,20,21,22,23,24,25,26,27,28,29,30,31,32,33,34,35,36,37,38,39,40,41,42,43,44,45,46,47,48,49,50,51,52,53,54,55,56,57,58,59,60,61,62,63,64,65,66,67,68,69,70,71,72,73,74,75,76,77,78,79,80,81,82,83,84,85,86,87,88,89,90,91,92,93,94,95,96,97,98,99,100,101,102,103,104,105,106,107,108,109,110,111,112,113,114,115,116,117,118,119,120,121,122,123,124,125,126,127,128,129,130,131,132,133,134,135,136,137,138,139,140,141,142,143,144,145,146,147,148,149,150,151,152,153,154,155,156,157,158,159,160,161,162,163,164,165,166,167,168,169,170,171,172,173,174,175,176,177,178,179,180,181,182,183,184,185,186,187,188,189,190,191,192,193,194,195,196,197,198,199,200,201,202,203,204,205,206,207,208,209,210,211,212,213,214,215,216,217,218,219,220,221,222,223,224,225,226,227,228,229,230,231,232,233,234,235,236,237,238,239,240,241,242,243,244,245,246,247,248,249,250,251,252,253,254,255,256,257,258,259,260,261,262,263,264,265,266,267,268,269,270,271,272,273,274,275,276,277,278,279,280,281,282,283,284,285,286,287,288,289,290,291,292,293,294,295,296,297,298,299,300,301,302,303,304,305,306,307,308,309,310,311,312,313,314,315,316,317,318,319,320,321,322,323,324,325,326,327,328,329,330,331,332,333,334,335,336,337,338,339,340,341,342,343,344,345,346,347,348,349,350,351,352,353,354,355,356,357,358,359,360,361,362,363,364,365,366,367,368,369,370,371,372,373,374,375,376,377,378,379,380,381,382,383,384,385,386,387,388,389,390,391,392,393,394,395,396,397,398,399,400,401,402,403,404,405,406,407,408,409,410,411,412,413,414,415,416,417,418,419,420,421,422,423,424,425,426,427,428,429,430,431,432,433,434,435,436,437,438,439,440,441,442,443,444,445,446,447,448,449,450,451,452,453,454,455,456,457,458,459,460,461,462,463,464,465,466,467,468,469,470,471,472,473,474,475,476,477,478,479,480,481,482,483,484,485,486,487,488,489,490,491,492,493,494,495,496,497,498,499,500,501,502,503,504,505,506,507,508,509,510,511,512,513,514,515,516,517,518,519,520,521,522,523,524,525,526,527,528,529,530,531,532,533,534,535,536,537,538,539,540,541,542,543,544,545,546,547,548,549,550,551,552,553,554,555,556,557,558,559,560,561,562,563,564,565,566,567,568,569,570,571,572,573,574,575,576,577,578,579,580,581,582,583,584,585,586,587,588,589,590,591,592,593,594,595,596,597,598,599,600,601,602,603,604,605,606,607,608,609,610,611,612,613,614,615,616,617,618,619,620,621,622,623,624,625,626,627,628,629,630,631,632,633,634,635,636,637,638,639,640,641,642,643,644,645,646,647,648,649,650,651,652,653,654,655,656,657,658,659,660,661,662,663,664,665,666,667,668,669,670,671,672,673,674,675,676,677,678,679,680,681,682,683,684,685,686,687,688,689,690,691,692,693,694,695,696,697,698,699,700,701,702,703,704,705,706,707,708,709,710,711,712,713,714,715,716,717,718,719,720,721,722,723,724,725,726,727,728,729,730,731,732,733,734,735,736,737,738,739,740,741,742,743,744,745,746,747,748,749,750,751,752,753,754,755,756,757,758,759,760,761,762,763,764,765,766,767,768,769,770,771,772,773,774,775,776,777,778,779,780,781,782,783,784,785,786,787,788,789,790,791,792,793,794,795,796,797,798,799,800,801,802,803,804,805,806,807,808,809,810,811,812,813,814,815,816,817,818,819,820,821,822,823,824,825,826,827,828,829,830,831,832,833,834,835,836,837,838,839,840,841,842,843,844,845,846,847,848,849,850,851,852,853,854,855,856,857,858,859,860,861,862,863,864,865,866,867,868,869,870,871,872,873,874,875,876,877,878,879,880,881,882,883,884,885,886,887,888,889,890,891,892,893,894,895,896,897,898,899,900,901,902,903,904,905,906,907,908,909,910,911,912,913,914,915,916,917,918,919,920,921,922,923,924,925,926,927,928,929,930,931,932,933,934,935,936,937,938,939,940,941,942,943,944,945,946,947,948,949,950,951,952,953,954,955,956,957,958,959,960,961,962,963,964,965,966,967,968,969,970,971,972,973,974,975,976,977,978,979,980,981,982,983,984,985,986,987,988,989,990,991,992,993,994,995,996,997,998,999,1000],"tree_info":[0,0,0,0,0,0,0,0,0,0,0,0,0,0,0,0,0,0,0,0,0,0,0,0,0,0,0,0,0,0,0,0,0,0,0,0,0,0,0,0,0,0,0,0,0,0,0,0,0,0,0,0,0,0,0,0,0,0,0,0,0,0,0,0,0,0,0,0,0,0,0,0,0,0,0,0,0,0,0,0,0,0,0,0,0,0,0,0,0,0,0,0,0,0,0,0,0,0,0,0,0,0,0,0,0,0,0,0,0,0,0,0,0,0,0,0,0,0,0,0,0,0,0,0,0,0,0,0,0,0,0,0,0,0,0,0,0,0,0,0,0,0,0,0,0,0,0,0,0,0,0,0,0,0,0,0,0,0,0,0,0,0,0,0,0,0,0,0,0,0,0,0,0,0,0,0,0,0,0,0,0,0,0,0,0,0,0,0,0,0,0,0,0,0,0,0,0,0,0,0,0,0,0,0,0,0,0,0,0,0,0,0,0,0,0,0,0,0,0,0,0,0,0,0,0,0,0,0,0,0,0,0,0,0,0,0,0,0,0,0,0,0,0,0,0,0,0,0,0,0,0,0,0,0,0,0,0,0,0,0,0,0,0,0,0,0,0,0,0,0,0,0,0,0,0,0,0,0,0,0,0,0,0,0,0,0,0,0,0,0,0,0,0,0,0,0,0,0,0,0,0,0,0,0,0,0,0,0,0,0,0,0,0,0,0,0,0,0,0,0,0,0,0,0,0,0,0,0,0,0,0,0,0,0,0,0,0,0,0,0,0,0,0,0,0,0,0,0,0,0,0,0,0,0,0,0,0,0,0,0,0,0,0,0,0,0,0,0,0,0,0,0,0,0,0,0,0,0,0,0,0,0,0,0,0,0,0,0,0,0,0,0,0,0,0,0,0,0,0,0,0,0,0,0,0,0,0,0,0,0,0,0,0,0,0,0,0,0,0,0,0,0,0,0,0,0,0,0,0,0,0,0,0,0,0,0,0,0,0,0,0,0,0,0,0,0,0,0,0,0,0,0,0,0,0,0,0,0,0,0,0,0,0,0,0,0,0,0,0,0,0,0,0,0,0,0,0,0,0,0,0,0,0,0,0,0,0,0,0,0,0,0,0,0,0,0,0,0,0,0,0,0,0,0,0,0,0,0,0,0,0,0,0,0,0,0,0,0,0,0,0,0,0,0,0,0,0,0,0,0,0,0,0,0,0,0,0,0,0,0,0,0,0,0,0,0,0,0,0,0,0,0,0,0,0,0,0,0,0,0,0,0,0,0,0,0,0,0,0,0,0,0,0,0,0,0,0,0,0,0,0,0,0,0,0,0,0,0,0,0,0,0,0,0,0,0,0,0,0,0,0,0,0,0,0,0,0,0,0,0,0,0,0,0,0,0,0,0,0,0,0,0,0,0,0,0,0,0,0,0,0,0,0,0,0,0,0,0,0,0,0,0,0,0,0,0,0,0,0,0,0,0,0,0,0,0,0,0,0,0,0,0,0,0,0,0,0,0,0,0,0,0,0,0,0,0,0,0,0,0,0,0,0,0,0,0,0,0,0,0,0,0,0,0,0,0,0,0,0,0,0,0,0,0,0,0,0,0,0,0,0,0,0,0,0,0,0,0,0,0,0,0,0,0,0,0,0,0,0,0,0,0,0,0,0,0,0,0,0,0,0,0,0,0,0,0,0,0,0,0,0,0,0,0,0,0,0,0,0,0,0,0,0,0,0,0,0,0,0,0,0,0,0,0,0,0,0,0,0,0,0,0,0,0,0,0,0,0,0,0,0,0,0,0,0,0,0,0,0,0,0,0,0,0,0,0,0,0,0,0,0,0,0,0,0,0,0,0,0,0,0,0,0,0,0,0,0,0,0,0,0,0,0,0,0,0,0,0,0,0,0,0,0,0,0,0,0,0,0,0,0,0,0,0,0,0,0,0,0,0,0,0,0,0,0,0,0,0,0,0,0,0,0,0,0,0,0,0,0,0,0,0,0,0,0,0,0,0,0,0,0,0,0,0,0,0,0,0,0,0,0,0,0,0,0,0,0,0,0,0,0,0,0,0,0,0,0,0,0,0,0,0,0,0,0,0,0,0,0,0,0,0,0,0,0,0,0,0,0,0,0,0,0,0,0,0,0,0,0,0,0,0,0,0,0,0,0,0,0,0,0,0,0,0,0,0,0,0,0,0,0,0,0,0,0,0,0,0,0,0,0,0,0,0,0,0,0,0,0,0,0,0,0,0,0,0,0,0,0,0],"trees":[{"base_weights":[1.0244549E-9,-5.078868E-2,6.3485846E-2,-7.026782E-2,-1.4571981E-2,3.3628862E-2,1.1372291E-1,-7.518647E-2,-3.1621012E-4,-1.9395405E-2,8.8332E-4,3.9081E-2,-1.7563107E-4,1.1863984E-3,2.7359865E-4,-2.8669168E-4,-8.022659E-2,-1.0837444E-2,-3.0920655E-4,-4.79386E-3,1.179602E-4,1.1072032E-4,3.988752E-4,-8.193298E-4,-2.2196214E-4,-1.608629E-2,5.022342E-3,-6.879866E-6,-5.9331556E-5,-2.8951317E-5,-1.7802292E-4,1.4008208E-5,6.132692E-5],"categories":[],"categories_nodes":[],"categories_segments":[],"categories_sizes":[],"default_left":[0,0,0,0,0,0,0,0,0,0,0,0,0,0,0,0,0,0,0,0,0,0,0,0,0,0,0,0,0,0,0,0,0],"id":0,"left_children":[1,3,5,7,9,11,13,15,-1,17,19,21,-1,-1,-1,-1,23,25,-1,27,-1,-1,-1,-1,-1,29,31,-1,-1,-1,-1,-1,-1],"loss_changes":[2.6117334E-1,3.0722208E-2,5.0173014E-2,3.1351447E-3,1.2844393E-3,7.3849186E-3,2.2743642E-3,3.5612881E-3,0E0,9.4712386E-4,3.6631527E-4,5.5342913E-5,0E0,0E0,0E0,0E0,3.5989285E-4,8.3000073E-4,0E0,1.46292805E-5,0E0,0E0,0E0,0E0,0E0,1.0691269E-4,3.472669E-6,0E0,0E0,0E0,0E0,0E0,0E0],"parents":[2147483647,0,0,1,1,2,2,3,3,4,4,5,5,6,6,7,7,9,9,10,10,11,11,16,16,17,17,19,19,25,25,26,26],"right_children":[2,4,6,8,10,12,14,16,-1,18,20,22,-1,-1,-1,-1,24,26,-1,28,-1,-1,-1,-1,-1,30,32,-1,-1,-1,-1,-1,-1],"split_conditions":[1.6428107E-1,1.2492447E-1,3.184698E-1,2.1541376E-1,2.9854468E-1,3.4819186E-1,3.2278594E-1,1.1508581E-1,-3.1621012E-4,1.4331962E-1,3.6964628E-1,3.1087015E-2,-1.7563107E-4,1.1863984E-3,2.7359865E-4,-2.8669168E-4,2.1541376E-1,1.4182545E-1,-3.0920655E-4,3.5422754E-1,1.179602E-4,1.1072032E-4,3.988752E-4,-8.193298E-4,-2.2196214E-4,3.1087015E-2,6.2297076E-2,-6.879866E-6,-5.9331556E-5,-2.8951317E-5,-1.7802292E-4,1.4008208E-5,6.132692E-5],"split_indices":[29,29,20,7,12,0,1,6,0,27,0,2,0,0,0,0,6,27,0,0,0,0,0,0,0,7,0,0,0,0,0,0,0],"split_type":[0,0,0,0,0,0,0,0,0,0,0,0,0,0,0,0,0,0,0,0,0,0,0,0,0,0,0,0,0,0,0,0,0],"sum_hessian":[7.9E1,4.4E1,3.5E1,2.8E1,1.6E1,2.3E1,1.2E1,2.4E1,4E0,1.2E1,4E0,2.1E1,2E0,1.1E1,1E0,3E0,2.1E1,8E0,4E0,3E0,1E0,1E0,2E1,2E1,1E0,6E0,2E0,1E0,2E0,1E0,5E0,1E0,1E0],"tree_param":{"num_deleted":"0","num_feature":"31","num_nodes":"33","size_leaf_vector":"1"}},{"base_weights":[-2.99057E-6,-5.0325975E-2,6.290082E-2,-6.962184E-2,-1.4449147E-2,3.3306487E-2,1.1269799E-1,-7.448772E-2,-3.136804E-2,-1.9235361E-2,8.848399E-4,3.8713355E-2,-1.7446023E-4,1.175523E-3,2.7223065E-4,-2.8454146E-4,-7.947166E-2,-3.444953E-4,-9.521037E-5,-1.0743696E-2,-3.0673284E-4,-4.7624707E-3,1.1737041E-4,1.10166744E-4,3.9507638E-4,-8.1152667E-4,-2.2085231E-4,-1.5954992E-2,4.9972287E-3,-6.845444E-6,-5.8935977E-5,-2.8806551E-5,-1.765394E-4,1.3938174E-5,6.1020255E-5],"categories":[],"categories_nodes":[],"categories_segments":[],"categories_sizes":[],"default_left":[0,0,0,0,0,0,0,0,0,0,0,0,0,0,0,0,0,0,0,0,0,0,0,0,0,0,0,0,0,0,0,0,0,0,0],"id":1,"left_children":[1,3,5,7,9,11,13,15,17,19,21,23,-1,-1,-1,-1,25,-1,-1,27,-1,29,-1,-1,-1,-1,-1,31,33,-1,-1,-1,-1,-1,-1],"loss_changes":[2.5640613E-1,3.0146375E-2,4.9300134E-2,3.0614883E-3,1.26468E-3,7.26128E-3,2.1938533E-3,3.4744143E-3,8.6110085E-6,9.331065E-4,3.623261E-4,4.8734248E-5,0E0,0E0,0E0,0E0,3.3000112E-4,0E0,0E0,8.180062E-4,0E0,1.4416182E-5,0E0,0E0,0E0,0E0,0E0,1.0463351E-4,3.4380137E-6,0E0,0E0,0E0,0E0,0E0,0E0],"parents":[2147483647,0,0,1,1,2,2,3,3,4,4,5,5,6,6,7,7,8,8,9,9,10,10,11,11,16,16,19,19,21,21,27,27,28,28],"right_children":[2,4,6,8,10,12,14,16,18,20,22,24,-1,-1,-1,-1,26,-1,-1,28,-1,30,-1,-1,-1,-1,-1,32,34,-1,-1,-1,-1,-1,-1],"split_conditions":[1.6428107E-1,1.2492447E-1,3.184698E-1,2.1541376E-1,2.9854468E-1,3.4819186E-1,3.2278594E-1,1.1508581E-1,3.184698E-1,1.4331962E-1,3.6964628E-1,3.1087015E-2,-1.7446023E-4,1.175523E-3,2.7223065E-4,-2.8454146E-4,2.1541376E-1,-3.444953E-4,-9.521037E-5,1.4182545E-1,-3.0673284E-4,3.5422754E-1,1.1737041E-4,1.10166744E-4,3.9507638E-4,-8.1152667E-4,-2.2085231E-4,3.1087015E-2,6.2297076E-2,-6.845444E-6,-5.8935977E-5,-2.8806551E-5,-1.765394E-4,1.3938174E-5,6.1020255E-5],"split_indices":[29,29,20,7,12,0,1,6,3,27,0,2,0,0,0,0,6,0,0,27,0,0,0,0,0,0,0,7,0,0,0,0,0,0,0],"split_type":[0,0,0,0,0,0,0,0,0,0,0,0,0,0,0,0,0,0,0,0,0,0,0,0,0,0,0,0,0,0,0,0,0,0,0],"sum_hessian":[7.9E1,4.4E1,3.5E1,2.8E1,1.6E1,2.3E1,1.2E1,2.4E1,4E0,1.2E1,4E0,2.1E1,2E0,1.1E1,1E0,3E0,2.1E1,3E0,1E0,8E0,4E0,3E0,1E0,1E0,2E1,2E1,1E0,6E0,2E0,1E0,2E0,1E0,5E0,1E0,1E0],"tree_param":{"num_deleted":"0","num_feature":"31","num_nodes":"35","size_leaf_vector":"1"}},{"base_weights":[-7.5048765E-6,-4.9870316E-2,6.232122E-2,-6.898619E-2,-1.4327337E-2,3.2987207E-2,1.1168238E-1,-5.7046793E-2,-9.319626E-4,-1.9076636E-2,8.8630617E-4,3.834919E-2,-1.7329714E-4,1.1647474E-3,2.708695E-4,-6.408297E-2,-3.281455E-2,-1.0650749E-2,-3.0427903E-4,-4.731294E-3,1.1678353E-4,1.0961592E-4,3.913138E-4,-2.764073E-4,-6.731467E-4,-3.5125832E-4,-9.473435E-5,-1.5824782E-2,4.972244E-3,-6.8112463E-6,-5.8543086E-5,-2.8662533E-5,-1.7506829E-4,1.386851E-5,6.0715152E-5],"categories":[],"categories_nodes":[],"categories_segments":[],"categories_sizes":[],"default_left":[0,0,0,0,0,0,0,0,0,0,0,0,0,0,0,0,0,0,0,0,0,0,0,0,0,0,0,0,0,0,0,0,0,0,0],"id":2,"left_children":[1,3,5,7,9,11,13,15,-1,17,19,21,-1,-1,-1,23,25,27,-1,29,-1,-1,-1,-1,-1,-1,-1,31,33,-1,-1,-1,-1,-1,-1],"loss_changes":[2.5173882E-1,2.9586174E-2,4.8442498E-2,3.0660182E-3,1.2452281E-3,7.1397442E-3,2.1154284E-3,1.6482025E-3,0E0,9.1929873E-4,3.583807E-4,4.23491E-5,0E0,0E0,0E0,2.3700297E-5,4.4872984E-5,8.061896E-4,0E0,1.4206089E-5,0E0,0E0,0E0,0E0,0E0,0E0,0E0,1.0239892E-4,3.4036639E-6,0E0,0E0,0E0,0E0,0E0,0E0],"parents":[2147483647,0,0,1,1,2,2,3,3,4,4,5,5,6,6,7,7,9,9,10,10,11,11,15,15,16,16,17,17,19,19,27,27,28,28],"right_children":[2,4,6,8,10,12,14,16,-1,18,20,22,-1,-1,-1,24,26,28,-1,30,-1,-1,-1,-1,-1,-1,-1,32,34,-1,-1,-1,-1,-1,-1],"split_conditions":[1.6428107E-1,1.2492447E-1,3.184698E-1,1.5464666E-1,2.9854468E-1,3.4819186E-1,3.2278594E-1,1.1665685E-1,-9.319626E-4,1.4331962E-1,3.6964628E-1,3.1087015E-2,-1.7329714E-4,1.1647474E-3,2.708695E-4,1.1508581E-1,3.184698E-1,1.4182545E-1,-3.0427903E-4,3.5422754E-1,1.1678353E-4,1.0961592E-4,3.913138E-4,-2.764073E-4,-6.731467E-4,-3.5125832E-4,-9.473435E-5,3.1087015E-2,6.2297076E-2,-6.8112463E-6,-5.8543086E-5,-2.8662533E-5,-1.7506829E-4,1.386851E-5,6.0715152E-5],"split_indices":[29,29,20,22,12,0,1,22,0,27,0,2,0,0,0,6,3,27,0,0,0,0,0,0,0,0,0,7,0,0,0,0,0,0,0],"split_type":[0,0,0,0,0,0,0,0,0,0,0,0,0,0,0,0,0,0,0,0,0,0,0,0,0,0,0,0,0,0,0,0,0,0,0],"sum_hessian":[7.9E1,4.4E1,3.5E1,2.8E1,1.6E1,2.3E1,1.2E1,2.1E1,7E0,1.2E1,4E0,2.1E1,2E0,1.1E1,1E0,1.5E1,6E0,8E0,4E0,3E0,1E0,1E0,2E1,2E0,1.3E1,5E0,1E0,6E0,2E0,1E0,2E0,1E0,5E0,1E0,1E0],"tree_param":{"num_deleted":"0","num_feature":"31","num_nodes":"35","size_leaf_vector":"1"}},{"base_weights":[-1.9258912E-5,-4.9431823E-2,6.174698E-2,-6.8376586E-2,-1.4206531E-2,3.2670982E-2,1.1067598E-1,-5.653976E-2,-9.238079E-4,-1.8919207E-2,8.8773074E-4,3.798846E-2,-1.7214181E-4,1.1540706E-3,2.6951515E-4,-6.350149E-2,-3.2550115E-2,-1.0558588E-2,-3.018448E-4,-4.700318E-3,1.16199626E-4,1.09067856E-4,3.8758694E-4,-2.7456463E-4,-6.66896E-4,-3.483311E-4,-9.426065E-5,-1.5695633E-2,4.947379E-3,-6.777197E-6,-5.815277E-5,-2.8519184E-5,-1.7360933E-4,1.3799146E-5,6.041154E-5],"categories":[],"categories_nodes":[],"categories_segments":[],"categories_sizes":[],"default_left":[0,0,0,0,0,0,0,0,0,0,0,0,0,0,0,0,0,0,0,0,0,0,0,0,0,0,0,0,0,0,0,0,0,0,0],"id":3,"left_children":[1,3,5,7,9,11,13,15,-1,17,19,21,-1,-1,-1,23,25,27,-1,29,-1,-1,-1,-1,-1,-1,-1,31,33,-1,-1,-1,-1,-1,-1],"loss_changes":[2.4721454E-1,2.9058665E-2,4.7599867E-2,3.0166954E-3,1.2260797E-3,7.0202574E-3,2.0390004E-3,1.6072318E-3,0E0,9.0569444E-4,3.544787E-4,3.6168844E-5,0E0,0E0,0E0,7.584691E-6,4.12059E-5,7.9454586E-4,0E0,1.3999008E-5,0E0,0E0,0E0,0E0,0E0,0E0,0E0,1.0020845E-4,3.369736E-6,0E0,0E0,0E0,0E0,0E0,0E0],"parents":[2147483647,0,0,1,1,2,2,3,3,4,4,5,5,6,6,7,7,9,9,10,10,11,11,15,15,16,16,17,17,19,19,27,27,28,28],"right_children":[2,4,6,8,10,12,14,16,-1,18,20,22,-1,-1,-1,24,26,28,-1,30,-1,-1,-1,-1,-1,-1,-1,32,34,-1,-1,-1,-1,-1,-1],"split_conditions":[1.6428107E-1,1.2492447E-1,3.184698E-1,1.5464666E-1,2.9854468E-1,3.4819186E-1,3.2278594E-1,1.1665685E-1,-9.238079E-4,1.4331962E-1,3.6964628E-1,3.1087015E-2,-1.7214181E-4,1.1540706E-3,2.6951515E-4,1.1508581E-1,3.184698E-1,1.4182545E-1,-3.018448E-4,3.5422754E-1,1.16199626E-4,1.09067856E-4,3.8758694E-4,-2.7456463E-4,-6.66896E-4,-3.483311E-4,-9.426065E-5,3.1087015E-2,6.2297076E-2,-6.777197E-6,-5.815277E-5,-2.8519184E-5,-1.7360933E-4,1.3799146E-5,6.041154E-5],"split_indices":[29,29,20,22,12,0,1,22,0,27,0,2,0,0,0,6,3,27,0,0,0,0,0,0,0,0,0,7,0,0,0,0,0,0,0],"split_type":[0,0,0,0,0,0,0,0,0,0,0,0,0,0,0,0,0,0,0,0,0,0,0,0,0,0,0,0,0,0,0,0,0,0,0],"sum_hessian":[7.9E1,4.4E1,3.5E1,2.8E1,1.6E1,2.3E1,1.2E1,2.1E1,7E0,1.2E1,4E0,2.1E1,2E0,1.1E1,1E0,1.5E1,6E0,8E0,4E0,3E0,1E0,1E0,2E1,2E0,1.3E1,5E0,1E0,6E0,2E0,1E0,2E0,1E0,5E0,1E0,1E0],"tree_param":{"num_deleted":"0","num_feature":"31","num_nodes":"35","size_leaf_vector":"1"}},{"base_weights":[-3.0794086E-5,-4.89972E-2,6.117807E-2,-6.7772396E-2,-1.408673E-2,3.235779E-2,1.0967873E-1,-5.603727E-2,-9.157246E-4,-1.8763075E-2,8.8911055E-4,3.7631147E-2,-1.7099423E-4,1.1434917E-3,2.6816755E-4,-6.2925316E-4,-3.228784E-2,-1.0467213E-2,-2.9943007E-4,-4.6695434E-3,1.15618626E-4,1.08522545E-4,3.8389556E-4,-3.4542836E-4,-9.378932E-5,-1.55675495E-2,4.9226433E-3,-6.743297E-6,-5.7765043E-5,-2.8376578E-5,-1.7216256E-4,1.3730153E-5,6.0109494E-5],"categories":[],"categories_nodes":[],"categories_segments":[],"categories_sizes":[],"default_left":[0,0,0,0,0,0,0,0,0,0,0,0,0,0,0,0,0,0,0,0,0,0,0,0,0,0,0,0,0,0,0,0,0],"id":4,"left_children":[1,3,5,7,9,11,13,15,-1,17,19,21,-1,-1,-1,-1,23,25,-1,27,-1,-1,-1,-1,-1,29,31,-1,-1,-1,-1,-1,-1],"loss_changes":[2.4277179E-1,2.8540604E-2,4.6771944E-2,2.9681474E-3,1.2072294E-3,6.9028046E-3,1.9645393E-3,1.5671924E-3,0E0,8.9229364E-4,3.506193E-4,3.019534E-5,0E0,0E0,0E0,0E0,3.7641264E-5,7.8307465E-4,0E0,1.3794925E-5,0E0,0E0,0E0,0E0,0E0,9.806093E-5,3.3361212E-6,0E0,0E0,0E0,0E0,0E0,0E0],"parents":[2147483647,0,0,1,1,2,2,3,3,4,4,5,5,6,6,7,7,9,9,10,10,11,11,16,16,17,17,19,19,25,25,26,26],"right_children":[2,4,6,8,10,12,14,16,-1,18,20,22,-1,-1,-1,-1,24,26,-1,28,-1,-1,-1,-1,-1,30,32,-1,-1,-1,-1,-1,-1],"split_conditions":[1.6428107E-1,1.2492447E-1,3.184698E-1,1.5464666E-1,2.9854468E-1,3.4819186E-1,3.2278594E-1,1.1665685E-1,-9.157246E-4,1.4331962E-1,3.6964628E-1,3.1087015E-2,-1.7099423E-4,1.1434917E-3,2.6816755E-4,-6.2925316E-4,3.184698E-1,1.4182545E-1,-2.9943007E-4,3.5422754E-1,1.15618626E-4,1.08522545E-4,3.8389556E-4,-3.4542836E-4,-9.378932E-5,3.1087015E-2,6.2297076E-2,-6.743297E-6,-5.7765043E-5,-2.8376578E-5,-1.7216256E-4,1.3730153E-5,6.0109494E-5],"split_indices":[29,29,20,22,12,0,1,22,0,27,0,2,0,0,0,0,3,27,0,0,0,0,0,0,0,7,0,0,0,0,0,0,0],"split_type":[0,0,0,0,0,0,0,0,0,0,0,0,0,0,0,0,0,0,0,0,0,0,0,0,0,0,0,0,0,0,0,0,0],"sum_hessian":[7.9E1,4.4E1,3.5E1,2.8E1,1.6E1,2.3E1,1.2E1,2.1E1,7E0,1.2E1,4E0,2.1E1,2E0,1.1E1,1E0,1.5E1,6E0,8E0,4E0,3E0,1E0,1E0,2E1,5E0,1E0,6E0,2E0,1E0,2E0,1E0,5E0,1E0,1E0],"tree_param":{"num_deleted":"0","num_feature":"31","num_nodes":"33","size_leaf_vector":"1"}},{"base_weights":[-3.831433E-5,-4.855966E-2,6.061443E-2,-6.71631E-2,-1.3967921E-2,3.20476E-2,1.08690545E-1,-5.5525467E-2,-9.0771203E-4,-1.8608222E-2,8.904457E-4,3.7277214E-2,-1.6985429E-4,1.1330097E-3,2.6682674E-4,-6.2335394E-2,-3.202771E-2,-1.0376615E-2,-2.9703468E-4,-4.63897E-3,1.1504054E-4,1.0797992E-4,3.8023936E-4,-2.685392E-4,-6.548604E-4,-3.425498E-4,-9.3320385E-5,-1.5440519E-2,4.8980317E-3,-6.7095457E-6,-5.73799E-5,-2.823472E-5,-1.7072781E-4,1.3661534E-5,5.980894E-5],"categories":[],"categories_nodes":[],"categories_segments":[],"categories_sizes":[],"default_left":[0,0,0,0,0,0,0,0,0,0,0,0,0,0,0,0,0,0,0,0,0,0,0,0,0,0,0,0,0,0,0,0,0,0,0],"id":5,"left_children":[1,3,5,7,9,11,13,15,-1,17,19,21,-1,-1,-1,23,25,27,-1,29,-1,-1,-1,-1,-1,-1,-1,31,33,-1,-1,-1,-1,-1,-1],"loss_changes":[2.3837961E-1,2.8020516E-2,4.595849E-2,2.9274225E-3,1.188674E-3,6.787343E-3,1.8920153E-3,1.5239343E-3,0E0,8.790903E-4,3.4680223E-4,2.4415553E-5,0E0,0E0,0E0,3.0074269E-5,3.4177676E-5,7.7177223E-4,0E0,1.3593788E-5,0E0,0E0,0E0,0E0,0E0,0E0,0E0,9.5955795E-5,3.3027973E-6,0E0,0E0,0E0,0E0,0E0,0E0],"parents":[2147483647,0,0,1,1,2,2,3,3,4,4,5,5,6,6,7,7,9,9,10,10,11,11,15,15,16,16,17,17,19,19,27,27,28,28],"right_children":[2,4,6,8,10,12,14,16,-1,18,20,22,-1,-1,-1,24,26,28,-1,30,-1,-1,-1,-1,-1,-1,-1,32,34,-1,-1,-1,-1,-1,-1],"split_conditions":[1.6428107E-1,1.2492447E-1,3.184698E-1,1.5464666E-1,2.9854468E-1,3.4819186E-1,3.2278594E-1,1.1665685E-1,-9.0771203E-4,1.4331962E-1,3.6964628E-1,3.1087015E-2,-1.6985429E-4,1.1330097E-3,2.6682674E-4,1.1508581E-1,3.184698E-1,1.4182545E-1,-2.9703468E-4,3.5422754E-1,1.1504054E-4,1.0797992E-4,3.8023936E-4,-2.685392E-4,-6.548604E-4,-3.425498E-4,-9.3320385E-5,3.1087015E-2,6.2297076E-2,-6.7095457E-6,-5.73799E-5,-2.823472E-5,-1.7072781E-4,1.3661534E-5,5.980894E-5],"split_indices":[29,29,20,22,12,0,1,22,0,27,0,2,0,0,0,6,3,27,0,0,0,0,0,0,0,0,0,7,0,0,0,0,0,0,0],"split_type":[0,0,0,0,0,0,0,0,0,0,0,0,0,0,0,0,0,0,0,0,0,0,0,0,0,0,0,0,0,0,0,0,0,0,0],"sum_hessian":[7.9E1,4.4E1,3.5E1,2.8E1,1.6E1,2.3E1,1.2E1,2.1E1,7E0,1.2E1,4E0,2.1E1,2E0,1.1E1,1E0,1.5E1,6E0,8E0,4E0,3E0,1E0,1E0,2E1,2E0,1.3E1,5E0,1E0,6E0,2E0,1E0,2E0,1E0,5E0,1E0,1E0],"tree_param":{"num_deleted":"0","num_feature":"31","num_nodes":"35","size_leaf_vector":"1"}},{"base_weights":[-4.9433205E-5,-4.8132695E-2,6.0056016E-2,-6.656964E-2,-1.3850099E-2,3.1740397E-2,1.07711315E-1,-5.5032E-2,-8.997695E-4,-1.6146548E-2,1.1446535E-4,3.692664E-2,-1.6872189E-4,1.1226238E-3,2.6549265E-4,-6.1769754E-2,-3.1769704E-2,4.6114624E-4,-1.8552015E-2,1.0744005E-4,3.7661812E-4,-2.6674898E-4,-6.4877956E-4,-3.3969528E-4,-9.2853756E-5,1.3593211E-5,-6.676018E-6,-8.167001E-3,-2.3414021E-2,-1.2180796E-2,5.950987E-5,-2.7661E-4,-5.6997334E-5,-2.8093531E-5,-1.3821319E-4],"categories":[],"categories_nodes":[],"categories_segments":[],"categories_sizes":[],"default_left":[0,0,0,0,0,0,0,0,0,0,0,0,0,0,0,0,0,0,0,0,0,0,0,0,0,0,0,0,0,0,0,0,0,0,0],"id":6,"left_children":[1,3,5,7,9,11,13,15,-1,17,-1,19,-1,-1,-1,21,23,25,27,-1,-1,-1,-1,-1,-1,-1,-1,29,31,33,-1,-1,-1,-1,-1],"loss_changes":[2.3409595E-1,2.7520984E-2,4.515922E-2,2.8802752E-3,1.1723931E-3,6.673835E-3,1.8213689E-3,1.4857799E-3,0E0,6.4774323E-4,0E0,1.8835068E-5,0E0,0E0,0E0,1.469627E-5,3.081141E-5,3.948925E-6,5.1566586E-4,0E0,0E0,0E0,0E0,0E0,0E0,0E0,0E0,4.12488E-4,5.1942933E-4,3.8041384E-5,0E0,0E0,0E0,0E0,0E0],"parents":[2147483647,0,0,1,1,2,2,3,3,4,4,5,5,6,6,7,7,9,9,11,11,15,15,16,16,17,17,18,18,27,27,28,28,29,29],"right_children":[2,4,6,8,10,12,14,16,-1,18,-1,20,-1,-1,-1,22,24,26,28,-1,-1,-1,-1,-1,-1,-1,-1,30,32,34,-1,-1,-1,-1,-1],"split_conditions":[1.6428107E-1,1.2492447E-1,3.184698E-1,1.5464666E-1,3.204787E-1,3.4819186E-1,3.2278594E-1,1.1665685E-1,-8.997695E-4,1.2608176E-1,1.1446535E-4,3.1087015E-2,-1.6872189E-4,1.1226238E-3,2.6549265E-4,1.1508581E-1,3.184698E-1,6.2297076E-2,1.1508581E-1,1.0744005E-4,3.7661812E-4,-2.6674898E-4,-6.4877956E-4,-3.3969528E-4,-9.2853756E-5,1.3593211E-5,-6.676018E-6,3.0432862E-1,2.9854468E-1,5.7997845E-2,5.950987E-5,-2.7661E-4,-5.6997334E-5,-2.8093531E-5,-1.3821319E-4],"split_indices":[29,29,20,22,10,0,1,22,0,29,0,2,0,0,0,6,3,0,26,0,0,0,0,0,0,0,0,0,12,5,0,0,0,0,0],"split_type":[0,0,0,0,0,0,0,0,0,0,0,0,0,0,0,0,0,0,0,0,0,0,0,0,0,0,0,0,0,0,0,0,0,0,0],"sum_hessian":[7.9E1,4.4E1,3.5E1,2.8E1,1.6E1,2.3E1,1.2E1,2.1E1,7E0,1.5E1,1E0,2.1E1,2E0,1.1E1,1E0,1.5E1,6E0,2E0,1.3E1,1E0,2E1,2E0,1.3E1,5E0,1E0,1E0,1E0,5E0,8E0,4E0,1E0,6E0,2E0,1E0,3E0],"tree_param":{"num_deleted":"0","num_feature":"31","num_nodes":"35","size_leaf_vector":"1"}},{"base_weights":[-5.9728976E-5,-4.7708407E-2,5.950278E-2,-6.5981455E-2,-1.3730366E-2,3.1436138E-2,1.0674098E-1,-5.454295E-2,-8.918965E-4,-1.6012177E-2,1.13893E-4,3.657938E-2,-1.6759706E-4,1.112333E-3,2.6416517E-4,-6.120927E-4,-3.1513795E-2,4.5884153E-4,-1.8397953E-2,1.06902866E-4,3.7303133E-4,-3.3686444E-4,-9.2389506E-5,1.3525262E-5,-6.6426396E-6,-8.103135E-3,-2.3216948E-2,-1.2092253E-2,5.9212296E-5,-2.7423905E-4,-5.6617355E-5,-2.7953087E-5,-1.3717663E-4],"categories":[],"categories_nodes":[],"categories_segments":[],"categories_sizes":[],"default_left":[0,0,0,0,0,0,0,0,0,0,0,0,0,0,0,0,0,0,0,0,0,0,0,0,0,0,0,0,0,0,0,0,0],"id":7,"left_children":[1,3,5,7,9,11,13,15,-1,17,-1,19,-1,-1,-1,-1,21,23,25,-1,-1,-1,-1,-1,-1,27,29,31,-1,-1,-1,-1,-1],"loss_changes":[2.2988476E-1,2.7033761E-2,4.437393E-2,2.833873E-3,1.1567788E-3,6.5622516E-3,1.7525554E-3,1.4484972E-3,0E0,6.3718064E-4,0E0,1.3440847E-5,0E0,0E0,0E0,0E0,2.7540606E-5,3.909541E-6,5.064192E-4,0E0,0E0,0E0,0E0,0E0,0E0,4.0727024E-4,5.09419E-4,3.7211517E-5,0E0,0E0,0E0,0E0,0E0],"parents":[2147483647,0,0,1,1,2,2,3,3,4,4,5,5,6,6,7,7,9,9,11,11,16,16,17,17,18,18,25,25,26,26,27,27],"right_children":[2,4,6,8,10,12,14,16,-1,18,-1,20,-1,-1,-1,-1,22,24,26,-1,-1,-1,-1,-1,-1,28,30,32,-1,-1,-1,-1,-1],"split_conditions":[1.6428107E-1,1.2492447E-1,3.184698E-1,1.5464666E-1,3.204787E-1,3.4819186E-1,3.2278594E-1,1.1665685E-1,-8.918965E-4,1.2608176E-1,1.13893E-4,3.1087015E-2,-1.6759706E-4,1.112333E-3,2.6416517E-4,-6.120927E-4,3.184698E-1,6.2297076E-2,1.1508581E-1,1.06902866E-4,3.7303133E-4,-3.3686444E-4,-9.2389506E-5,1.3525262E-5,-6.6426396E-6,3.0432862E-1,2.9854468E-1,5.7997845E-2,5.9212296E-5,-2.7423905E-4,-5.6617355E-5,-2.7953087E-5,-1.3717663E-4],"split_indices":[29,29,20,22,10,0,1,22,0,29,0,2,0,0,0,0,3,0,26,0,0,0,0,0,0,0,12,5,0,0,0,0,0],"split_type":[0,0,0,0,0,0,0,0,0,0,0,0,0,0,0,0,0,0,0,0,0,0,0,0,0,0,0,0,0,0,0,0,0],"sum_hessian":[7.9E1,4.4E1,3.5E1,2.8E1,1.6E1,2.3E1,1.2E1,2.1E1,7E0,1.5E1,1E0,2.1E1,2E0,1.1E1,1E0,1.5E1,6E0,2E0,1.3E1,1E0,2E1,5E0,1E0,1E0,1E0,5E0,8E0,4E0,1E0,6E0,2E0,1E0,3E0],"tree_param":{"num_deleted":"0","num_feature":"31","num_nodes":"33","size_leaf_vector":"1"}},{"base_weights":[-6.6136105E-5,-4.7281306E-2,5.8954664E-2,-6.53883E-2,-1.3611648E-2,3.1134784E-2,1.0577946E-1,-5.4044854E-2,-8.8409235E-4,-1.5878921E-2,1.1332355E-4,3.62354E-2,-1.6647977E-4,1.1021367E-3,2.6284435E-4,-6.0635436E-2,-3.1259973E-2,-1.0986509E-2,-2.7809528E-4,1.0636836E-4,3.694786E-4,-2.6089005E-4,-6.3707144E-4,-3.3405717E-4,-9.192757E-5,-1.5157114E-2,-1.2821198E-3,1.3457611E-5,-1.7388193E-2,5.891621E-5,-4.5484602E-3,-2.7813314E-5,-1.9077554E-4,-6.60941E-6,-5.6239864E-5],"categories":[],"categories_nodes":[],"categories_segments":[],"categories_sizes":[],"default_left":[0,0,0,0,0,0,0,0,0,0,0,0,0,0,0,0,0,0,0,0,0,0,0,0,0,0,0,0,0,0,0,0,0,0,0],"id":8,"left_children":[1,3,5,7,9,11,13,15,-1,17,-1,19,-1,-1,-1,21,23,25,-1,-1,-1,-1,-1,-1,-1,27,29,-1,31,-1,33,-1,-1,-1,-1],"loss_changes":[2.2572161E-1,2.6544482E-2,4.3602347E-2,2.7949065E-3,1.1413777E-3,6.4525604E-3,1.6855747E-3,1.4081821E-3,0E0,6.283815E-4,0E0,8.229166E-6,0E0,0E0,0E0,3.580749E-5,2.4363399E-5,5.0671794E-4,0E0,0E0,0E0,0E0,0E0,0E0,0E0,3.5477336E-4,1.4395721E-4,0E0,1.4434918E-4,0E0,1.3007382E-5,0E0,0E0,0E0,0E0],"parents":[2147483647,0,0,1,1,2,2,3,3,4,4,5,5,6,6,7,7,9,9,11,11,15,15,16,16,17,17,25,25,26,26,28,28,30,30],"right_children":[2,4,6,8,10,12,14,16,-1,18,-1,20,-1,-1,-1,22,24,26,-1,-1,-1,-1,-1,-1,-1,28,30,-1,32,-1,34,-1,-1,-1,-1],"split_conditions":[1.6428107E-1,1.2492447E-1,3.184698E-1,1.5464666E-1,3.204787E-1,3.4819186E-1,3.2278594E-1,1.1665685E-1,-8.8409235E-4,2.1235447E-1,1.1332355E-4,3.1087015E-2,-1.6647977E-4,1.1021367E-3,2.6284435E-4,1.1508581E-1,3.184698E-1,3.184698E-1,-2.7809528E-4,1.0636836E-4,3.694786E-4,-2.6089005E-4,-6.3707144E-4,-3.3405717E-4,-9.192757E-5,6.2297076E-2,3.204787E-1,1.3457611E-5,3.1087015E-2,5.891621E-5,3.5422754E-1,-2.7813314E-5,-1.9077554E-4,-6.60941E-6,-5.6239864E-5],"split_indices":[29,29,20,22,10,0,1,22,0,24,0,2,0,0,0,6,3,0,0,0,0,0,0,0,0,0,0,0,7,0,0,0,0,0,0],"split_type":[0,0,0,0,0,0,0,0,0,0,0,0,0,0,0,0,0,0,0,0,0,0,0,0,0,0,0,0,0,0,0,0,0,0,0],"sum_hessian":[7.9E1,4.4E1,3.5E1,2.8E1,1.6E1,2.3E1,1.2E1,2.1E1,7E0,1.5E1,1E0,2.1E1,2E0,1.1E1,1E0,1.5E1,6E0,1.2E1,3E0,1E0,2E1,2E0,1.3E1,5E0,1E0,8E0,4E0,1E0,7E0,1E0,3E0,1E0,6E0,1E0,2E0],"tree_param":{"num_deleted":"0","num_feature":"31","num_nodes":"35","size_leaf_vector":"1"}},{"base_weights":[-7.6818E-5,-4.686587E-2,5.8411628E-2,-6.481056E-2,-1.3497519E-2,3.083633E-2,1.0482667E-1,-5.3564586E-2,-8.763566E-4,-1.5750576E-2,1.12756934E-4,3.5894677E-2,-1.6536993E-4,1.0920338E-3,2.6153013E-4,-6.0085207E-2,-3.1008232E-2,-1.0892724E-2,-2.7600952E-4,1.0583654E-4,3.659598E-4,-2.5915078E-4,-6.3115574E-4,-3.3127336E-4,-9.146795E-5,-1.5028331E-2,-1.2700856E-3,1.3390332E-5,-1.724163E-2,5.8621616E-5,-4.5186877E-3,-2.7674212E-5,-1.8914028E-4,-6.5763293E-6,-5.586495E-5],"categories":[],"categories_nodes":[],"categories_segments":[],"categories_sizes":[],"default_left":[0,0,0,0,0,0,0,0,0,0,0,0,0,0,0,0,0,0,0,0,0,0,0,0,0,0,0,0,0,0,0,0,0,0,0],"id":9,"left_children":[1,3,5,7,9,11,13,15,-1,17,-1,19,-1,-1,-1,21,23,25,-1,-1,-1,-1,-1,-1,-1,27,29,-1,31,-1,33,-1,-1,-1,-1],"loss_changes":[2.21667E-1,2.6070528E-2,4.2844236E-2,2.7498528E-3,1.1264614E-3,6.3447263E-3,1.6203225E-3,1.3726503E-3,0E0,6.2042894E-4,0E0,3.196299E-6,0E0,0E0,0E0,2.1129847E-5,2.1278393E-5,4.982535E-4,0E0,0E0,0E0,0E0,0E0,0E0,0E0,3.4912E-4,1.4233844E-4,0E0,1.4131004E-4,0E0,1.2817589E-5,0E0,0E0,0E0,0E0],"parents":[2147483647,0,0,1,1,2,2,3,3,4,4,5,5,6,6,7,7,9,9,11,11,15,15,16,16,17,17,25,25,26,26,28,28,30,30],"right_children":[2,4,6,8,10,12,14,16,-1,18,-1,20,-1,-1,-1,22,24,26,-1,-1,-1,-1,-1,-1,-1,28,30,-1,32,-1,34,-1,-1,-1,-1],"split_conditions":[1.6428107E-1,1.2492447E-1,3.184698E-1,1.5464666E-1,3.204787E-1,3.4819186E-1,3.2278594E-1,1.1665685E-1,-8.763566E-4,2.1235447E-1,1.12756934E-4,3.1087015E-2,-1.6536993E-4,1.0920338E-3,2.6153013E-4,1.1508581E-1,3.184698E-1,3.184698E-1,-2.7600952E-4,1.0583654E-4,3.659598E-4,-2.5915078E-4,-6.3115574E-4,-3.3127336E-4,-9.146795E-5,6.2297076E-2,3.204787E-1,1.3390332E-5,3.1087015E-2,5.8621616E-5,3.5422754E-1,-2.7674212E-5,-1.8914028E-4,-6.5763293E-6,-5.586495E-5],"split_indices":[29,29,20,22,10,0,1,22,0,24,0,2,0,0,0,6,3,0,0,0,0,0,0,0,0,0,0,0,7,0,0,0,0,0,0],"split_type":[0,0,0,0,0,0,0,0,0,0,0,0,0,0,0,0,0,0,0,0,0,0,0,0,0,0,0,0,0,0,0,0,0,0,0],"sum_hessian":[7.9E1,4.4E1,3.5E1,2.8E1,1.6E1,2.3E1,1.2E1,2.1E1,7E0,1.5E1,1E0,2.1E1,2E0,1.1E1,1E0,1.5E1,6E0,1.2E1,3E0,1E0,2E1,2E0,1.3E1,5E0,1E0,8E0,4E0,1E0,7E0,1E0,3E0,1E0,6E0,1E0,2E0],"tree_param":{"num_deleted":"0","num_feature":"31","num_nodes":"35","size_leaf_vector":"1"}},{"base_weights":[-8.729911E-5,-4.6454098E-2,5.7873625E-2,-6.423795E-2,-1.33843385E-2,3.0540738E-2,1.0388252E-1,-5.3088628E-2,-8.686885E-4,-1.5623273E-2,1.1219315E-4,3.5557177E-4,-1.6426743E-4,1.0820236E-3,2.6022247E-4,-5.954E-2,-3.0758547E-2,-1.07997395E-2,-2.7393943E-4,-2.5742315E-4,-6.2529504E-4,-3.285128E-4,-9.1010625E-5,-1.4900651E-2,-1.2581497E-3,1.3323352E-5,-1.7096316E-2,5.8328507E-5,-4.4891126E-3,-2.7535854E-5,-1.8751908E-4,-6.5434724E-6,-5.5492517E-5],"categories":[],"categories_nodes":[],"categories_segments":[],"categories_sizes":[],"default_left":[0,0,0,0,0,0,0,0,0,0,0,0,0,0,0,0,0,0,0,0,0,0,0,0,0,0,0,0,0,0,0,0,0],"id":10,"left_children":[1,3,5,7,9,11,13,15,-1,17,-1,-1,-1,-1,-1,19,21,23,-1,-1,-1,-1,-1,25,27,-1,29,-1,31,-1,-1,-1,-1],"loss_changes":[2.1768546E-1,2.5605075E-2,4.2099357E-2,2.7054995E-3,1.1117442E-3,6.2387176E-3,1.5568137E-3,1.3379492E-3,0E0,6.1257253E-4,0E0,0E0,0E0,0E0,0E0,6.9625676E-6,1.8281862E-5,4.899327E-4,0E0,0E0,0E0,0E0,0E0,3.4355768E-4,1.4073812E-4,0E0,1.3833074E-4,0E0,1.2630408E-5,0E0,0E0,0E0,0E0],"parents":[2147483647,0,0,1,1,2,2,3,3,4,4,5,5,6,6,7,7,9,9,15,15,16,16,17,17,23,23,24,24,26,26,28,28],"right_children":[2,4,6,8,10,12,14,16,-1,18,-1,-1,-1,-1,-1,20,22,24,-1,-1,-1,-1,-1,26,28,-1,30,-1,32,-1,-1,-1,-1],"split_conditions":[1.6428107E-1,1.2492447E-1,3.184698E-1,1.5464666E-1,3.204787E-1,3.4819186E-1,3.2278594E-1,1.1665685E-1,-8.686885E-4,2.1235447E-1,1.1219315E-4,3.5557177E-4,-1.6426743E-4,1.0820236E-3,2.6022247E-4,1.1508581E-1,3.184698E-1,3.184698E-1,-2.7393943E-4,-2.5742315E-4,-6.2529504E-4,-3.285128E-4,-9.1010625E-5,6.2297076E-2,3.204787E-1,1.3323352E-5,3.1087015E-2,5.8328507E-5,3.5422754E-1,-2.7535854E-5,-1.8751908E-4,-6.5434724E-6,-5.5492517E-5],"split_indices":[29,29,20,22,10,0,1,22,0,24,0,0,0,0,0,6,3,0,0,0,0,0,0,0,0,0,7,0,0,0,0,0,0],"split_type":[0,0,0,0,0,0,0,0,0,0,0,0,0,0,0,0,0,0,0,0,0,0,0,0,0,0,0,0,0,0,0,0,0],"sum_hessian":[7.9E1,4.4E1,3.5E1,2.8E1,1.6E1,2.3E1,1.2E1,2.1E1,7E0,1.5E1,1E0,2.1E1,2E0,1.1E1,1E0,1.5E1,6E0,1.2E1,3E0,2E0,1.3E1,5E0,1E0,8E0,4E0,1E0,7E0,1E0,3E0,1E0,6E0,1E0,2E0],"tree_param":{"num_deleted":"0","num_feature":"31","num_nodes":"33","size_leaf_vector":"1"}},{"base_weights":[-9.898162E-5,-4.604596E-2,5.733749E-2,-6.3670434E-2,-1.3272094E-2,3.0243302E-2,1.0294695E-1,-5.2616935E-2,-8.610874E-4,-1.5497003E-2,1.11632195E-4,3.521777E-2,-1.6317231E-4,1.072105E-3,2.5892138E-4,-5.899977E-4,-3.0510893E-2,-1.0707546E-2,-2.7188484E-4,1.0352946E-4,3.590881E-4,-3.257752E-4,-9.055555E-5,-1.4774061E-2,-1.2463093E-3,1.3256743E-5,-1.6952237E-2,5.803689E-5,-4.4597313E-3,-2.7398168E-5,-1.859118E-4,-6.5107643E-6,-5.5122575E-5],"categories":[],"categories_nodes":[],"categories_segments":[],"categories_sizes":[],"default_left":[0,0,0,0,0,0,0,0,0,0,0,0,0,0,0,0,0,0,0,0,0,0,0,0,0,0,0,0,0,0,0,0,0],"id":11,"left_children":[1,3,5,7,9,11,13,15,-1,17,-1,19,-1,-1,-1,-1,21,23,-1,-1,-1,-1,-1,25,27,-1,29,-1,31,-1,-1,-1,-1],"loss_changes":[2.1376275E-1,2.5147952E-2,4.1373596E-2,2.661854E-3,1.0972237E-3,6.1333906E-3,1.494959E-3,1.3040416E-3,0E0,6.048118E-4,0E0,6.2547624E-6,0E0,0E0,0E0,0E0,1.5374739E-5,4.8175245E-4,0E0,0E0,0E0,0E0,0E0,3.380857E-4,1.3915599E-4,0E0,1.3541011E-4,0E0,1.2445933E-5,0E0,0E0,0E0,0E0],"parents":[2147483647,0,0,1,1,2,2,3,3,4,4,5,5,6,6,7,7,9,9,11,11,16,16,17,17,23,23,24,24,26,26,28,28],"right_children":[2,4,6,8,10,12,14,16,-1,18,-1,20,-1,-1,-1,-1,22,24,-1,-1,-1,-1,-1,26,28,-1,30,-1,32,-1,-1,-1,-1],"split_conditions":[1.6428107E-1,1.2492447E-1,3.184698E-1,1.5464666E-1,3.204787E-1,3.4819186E-1,3.2278594E-1,1.1665685E-1,-8.610874E-4,2.1235447E-1,1.11632195E-4,3.1087015E-2,-1.6317231E-4,1.072105E-3,2.5892138E-4,-5.899977E-4,3.184698E-1,3.184698E-1,-2.7188484E-4,1.0352946E-4,3.590881E-4,-3.257752E-4,-9.055555E-5,6.2297076E-2,3.204787E-1,1.3256743E-5,3.1087015E-2,5.803689E-5,3.5422754E-1,-2.7398168E-5,-1.859118E-4,-6.5107643E-6,-5.5122575E-5],"split_indices":[29,29,20,22,10,0,1,22,0,24,0,2,0,0,0,0,3,0,0,0,0,0,0,0,0,0,7,0,0,0,0,0,0],"split_type":[0,0,0,0,0,0,0,0,0,0,0,0,0,0,0,0,0,0,0,0,0,0,0,0,0,0,0,0,0,0,0,0,0],"sum_hessian":[7.9E1,4.4E1,3.5E1,2.8E1,1.6E1,2.3E1,1.2E1,2.1E1,7E0,1.5E1,1E0,2.1E1,2E0,1.1E1,1E0,1.5E1,6E0,1.2E1,3E0,1E0,2E1,5E0,1E0,8E0,4E0,1E0,7E0,1E0,3E0,1E0,6E0,1E0,2E0],"tree_param":{"num_deleted":"0","num_feature":"31","num_nodes":"33","size_leaf_vector":"1"}},{"base_weights":[-1.0550367E-4,-4.5635086E-2,5.6809403E-2,-6.3098125E-2,-1.3160781E-2,2.9953346E-2,1.0201987E-1,-5.213651E-2,-8.535529E-4,-1.5371755E-2,1.11074E-4,3.488662E-2,-1.6208453E-4,1.0622774E-3,2.5762676E-4,-5.8446646E-2,-3.0265264E-2,-1.0616139E-2,-2.698457E-4,1.030118E-4,3.5566822E-4,-2.5177372E-4,-6.1401015E-4,-3.230605E-4,-9.0102774E-5,-1.4648552E-2,-1.2345671E-3,1.31904335E-5,-1.6809382E-2,5.7746693E-5,-4.4305436E-3,-2.7261152E-5,-1.8431831E-4,-6.4782053E-6,-5.4755114E-5],"categories":[],"categories_nodes":[],"categories_segments":[],"categories_sizes":[],"default_left":[0,0,0,0,0,0,0,0,0,0,0,0,0,0,0,0,0,0,0,0,0,0,0,0,0,0,0,0,0,0,0,0,0,0,0],"id":12,"left_children":[1,3,5,7,9,11,13,15,-1,17,-1,19,-1,-1,-1,21,23,25,-1,-1,-1,-1,-1,-1,-1,27,29,-1,31,-1,33,-1,-1,-1,-1],"loss_changes":[2.0989744E-1,2.4689086E-2,4.0654458E-2,2.6251301E-3,1.0828977E-3,6.030949E-3,1.4347285E-3,1.2673289E-3,0E0,5.971459E-4,0E0,1.527369E-6,0E0,0E0,0E0,2.6721507E-5,1.2551434E-5,4.7371036E-4,0E0,0E0,0E0,0E0,0E0,0E0,0E0,3.3270125E-4,1.375917E-4,0E0,1.3254792E-4,0E0,1.2264143E-5,0E0,0E0,0E0,0E0],"parents":[2147483647,0,0,1,1,2,2,3,3,4,4,5,5,6,6,7,7,9,9,11,11,15,15,16,16,17,17,25,25,26,26,28,28,30,30],"right_children":[2,4,6,8,10,12,14,16,-1,18,-1,20,-1,-1,-1,22,24,26,-1,-1,-1,-1,-1,-1,-1,28,30,-1,32,-1,34,-1,-1,-1,-1],"split_conditions":[1.6428107E-1,1.2492447E-1,3.184698E-1,1.5464666E-1,3.204787E-1,3.4819186E-1,3.2278594E-1,1.1665685E-1,-8.535529E-4,2.1235447E-1,1.11074E-4,3.1087015E-2,-1.6208453E-4,1.0622774E-3,2.5762676E-4,1.1508581E-1,3.184698E-1,3.184698E-1,-2.698457E-4,1.030118E-4,3.5566822E-4,-2.5177372E-4,-6.1401015E-4,-3.230605E-4,-9.0102774E-5,6.2297076E-2,3.204787E-1,1.31904335E-5,3.1087015E-2,5.7746693E-5,3.5422754E-1,-2.7261152E-5,-1.8431831E-4,-6.4782053E-6,-5.4755114E-5],"split_indices":[29,29,20,22,10,0,1,22,0,24,0,2,0,0,0,6,3,0,0,0,0,0,0,0,0,0,0,0,7,0,0,0,0,0,0],"split_type":[0,0,0,0,0,0,0,0,0,0,0,0,0,0,0,0,0,0,0,0,0,0,0,0,0,0,0,0,0,0,0,0,0,0,0],"sum_hessian":[7.9E1,4.4E1,3.5E1,2.8E1,1.6E1,2.3E1,1.2E1,2.1E1,7E0,1.5E1,1E0,2.1E1,2E0,1.1E1,1E0,1.5E1,6E0,1.2E1,3E0,1E0,2E1,2E0,1.3E1,5E0,1E0,8E0,4E0,1E0,7E0,1E0,3E0,1E0,6E0,1E0,2E0],"tree_param":{"num_deleted":"0","num_feature":"31","num_nodes":"35","size_leaf_vector":"1"}},{"base_weights":[-1.1540381E-4,-4.5234136E-2,5.6286216E-2,-6.254067E-2,-1.30503895E-2,2.9666174E-2,1.01101205E-1,-5.1673274E-2,-8.460843E-4,-1.5247522E-2,1.1051863E-4,3.4558607E-4,-1.6100399E-4,1.0525399E-3,2.5633862E-4,-5.7916287E-2,-3.0021636E-2,-1.0525508E-2,-2.6782186E-4,-2.5009524E-4,-6.083086E-4,-3.2036833E-4,-8.965224E-5,-1.4524113E-2,-1.2229144E-3,1.3124495E-5,-1.666774E-2,5.7457983E-5,-4.4015422E-3,-2.7124881E-5,-1.8273848E-4,-6.445795E-6,-5.4390035E-5],"categories":[],"categories_nodes":[],"categories_segments":[],"categories_sizes":[],"default_left":[0,0,0,0,0,0,0,0,0,0,0,0,0,0,0,0,0,0,0,0,0,0,0,0,0,0,0,0,0,0,0,0,0],"id":13,"left_children":[1,3,5,7,9,11,13,15,-1,17,-1,-1,-1,-1,-1,19,21,23,-1,-1,-1,-1,-1,25,27,-1,29,-1,31,-1,-1,-1,-1],"loss_changes":[2.0612761E-1,2.424834E-2,3.9947875E-2,2.5827512E-3,1.068763E-3,5.930247E-3,1.3761371E-3,1.2350343E-3,0E0,5.895735E-4,0E0,0E0,0E0,0E0,0E0,1.3194978E-5,9.812415E-6,4.6580448E-4,0E0,0E0,0E0,0E0,0E0,3.274047E-4,1.3604508E-4,0E0,1.2974162E-4,0E0,1.2084936E-5,0E0,0E0,0E0,0E0],"parents":[2147483647,0,0,1,1,2,2,3,3,4,4,5,5,6,6,7,7,9,9,15,15,16,16,17,17,23,23,24,24,26,26,28,28],"right_children":[2,4,6,8,10,12,14,16,-1,18,-1,-1,-1,-1,-1,20,22,24,-1,-1,-1,-1,-1,26,28,-1,30,-1,32,-1,-1,-1,-1],"split_conditions":[1.6428107E-1,1.2492447E-1,3.184698E-1,1.5464666E-1,3.204787E-1,3.4819186E-1,3.2278594E-1,1.1665685E-1,-8.460843E-4,2.1235447E-1,1.1051863E-4,3.4558607E-4,-1.6100399E-4,1.0525399E-3,2.5633862E-4,1.1508581E-1,3.184698E-1,3.184698E-1,-2.6782186E-4,-2.5009524E-4,-6.083086E-4,-3.2036833E-4,-8.965224E-5,6.2297076E-2,3.204787E-1,1.3124495E-5,3.1087015E-2,5.7457983E-5,3.5422754E-1,-2.7124881E-5,-1.8273848E-4,-6.445795E-6,-5.4390035E-5],"split_indices":[29,29,20,22,10,0,1,22,0,24,0,0,0,0,0,6,3,0,0,0,0,0,0,0,0,0,7,0,0,0,0,0,0],"split_type":[0,0,0,0,0,0,0,0,0,0,0,0,0,0,0,0,0,0,0,0,0,0,0,0,0,0,0,0,0,0,0,0,0],"sum_hessian":[7.9E1,4.4E1,3.5E1,2.8E1,1.6E1,2.3E1,1.2E1,2.1E1,7E0,1.5E1,1E0,2.1E1,2E0,1.1E1,1E0,1.5E1,6E0,1.2E1,3E0,2E0,1.3E1,5E0,1E0,8E0,4E0,1E0,7E0,1E0,3E0,1E0,6E0,1E0,2E0],"tree_param":{"num_deleted":"0","num_feature":"31","num_nodes":"33","size_leaf_vector":"1"}},{"base_weights":[-1.2648114E-4,-4.4836726E-2,5.576484E-2,-6.198818E-2,-1.2940913E-2,2.9377203E-2,1.0019087E-1,-5.1214196E-2,-8.38681E-4,-1.5124295E-2,1.0996602E-4,3.422873E-2,-1.599306E-4,1.0428915E-3,2.5505692E-4,-5.739077E-4,-2.9779991E-2,-1.0435649E-2,-2.6581323E-4,1.4627278E-4,3.545751E-4,-3.1769855E-4,-8.920401E-5,-1.4400737E-2,-1.2113601E-3,1.3058856E-5,-1.65273E-2,5.7170688E-5,-4.3727346E-3,-2.698928E-5,-1.811722E-4,-6.4135343E-6,-5.4027438E-5],"categories":[],"categories_nodes":[],"categories_segments":[],"categories_sizes":[],"default_left":[0,0,0,0,0,0,0,0,0,0,0,0,0,0,0,0,0,0,0,0,0,0,0,0,0,0,0,0,0,0,0,0,0],"id":14,"left_children":[1,3,5,7,9,11,13,15,-1,17,-1,19,-1,-1,-1,-1,21,23,-1,-1,-1,-1,-1,25,27,-1,29,-1,31,-1,-1,-1,-1],"loss_changes":[2.0241347E-1,2.381549E-2,3.925939E-2,2.5410429E-3,1.0548164E-3,5.8301818E-3,1.3190955E-3,1.2034848E-3,0E0,5.820941E-4,0E0,1.1242926E-5,0E0,0E0,0E0,0E0,7.15442E-6,4.5803213E-4,0E0,0E0,0E0,0E0,0E0,3.2219302E-4,1.3451601E-4,0E0,1.2699096E-4,0E0,1.1908363E-5,0E0,0E0,0E0,0E0],"parents":[2147483647,0,0,1,1,2,2,3,3,4,4,5,5,6,6,7,7,9,9,11,11,16,16,17,17,23,23,24,24,26,26,28,28],"right_children":[2,4,6,8,10,12,14,16,-1,18,-1,20,-1,-1,-1,-1,22,24,-1,-1,-1,-1,-1,26,28,-1,30,-1,32,-1,-1,-1,-1],"split_conditions":[1.6428107E-1,1.2492447E-1,3.184698E-1,1.5464666E-1,3.204787E-1,3.4819186E-1,3.2278594E-1,1.1665685E-1,-8.38681E-4,2.1235447E-1,1.0996602E-4,1.1405249E-1,-1.599306E-4,1.0428915E-3,2.5505692E-4,-5.739077E-4,3.184698E-1,3.184698E-1,-2.6581323E-4,1.4627278E-4,3.545751E-4,-3.1769855E-4,-8.920401E-5,6.2297076E-2,3.204787E-1,1.3058856E-5,3.1087015E-2,5.7170688E-5,3.5422754E-1,-2.698928E-5,-1.811722E-4,-6.4135343E-6,-5.4027438E-5],"split_indices":[29,29,20,22,10,0,1,22,0,24,0,22,0,0,0,0,3,0,0,0,0,0,0,0,0,0,7,0,0,0,0,0,0],"split_type":[0,0,0,0,0,0,0,0,0,0,0,0,0,0,0,0,0,0,0,0,0,0,0,0,0,0,0,0,0,0,0,0,0],"sum_hessian":[7.9E1,4.4E1,3.5E1,2.8E1,1.6E1,2.3E1,1.2E1,2.1E1,7E0,1.5E1,1E0,2.1E1,2E0,1.1E1,1E0,1.5E1,6E0,1.2E1,3E0,2E0,1.9E1,5E0,1E0,8E0,4E0,1E0,7E0,1E0,3E0,1E0,6E0,1E0,2E0],"tree_param":{"num_deleted":"0","num_feature":"31","num_nodes":"33","size_leaf_vector":"1"}},{"base_weights":[-1.3190256E-4,-4.4436667E-2,5.5252716E-2,-6.143104E-2,-1.2832344E-2,2.9097639E-2,9.928881E-2,-5.0746642E-2,-8.3134254E-4,-1.5002066E-2,1.0941617E-4,3.390921E-2,-1.588644E-4,1.0333317E-3,2.537816E-4,-5.685274E-2,-2.9540325E-2,-1.0346553E-2,-2.6381967E-4,1.4529764E-4,3.5120666E-4,-2.446019E-4,-5.9733086E-4,-3.1505112E-4,-8.875802E-5,-1.427841E-2,-1.1999011E-3,1.2993589E-5,-1.6388051E-2,5.6884808E-5,-4.344117E-3,-2.685435E-5,-1.7961934E-4,-6.381497E-6,-5.3667223E-5],"categories":[],"categories_nodes":[],"categories_segments":[],"categories_sizes":[],"default_left":[0,0,0,0,0,0,0,0,0,0,0,0,0,0,0,0,0,0,0,0,0,0,0,0,0,0,0,0,0,0,0,0,0,0,0],"id":15,"left_children":[1,3,5,7,9,11,13,15,-1,17,-1,19,-1,-1,-1,21,23,25,-1,-1,-1,-1,-1,-1,-1,27,29,-1,31,-1,33,-1,-1,-1,-1],"loss_changes":[1.9875945E-1,2.3381002E-2,3.8574554E-2,2.505906E-3,1.0410564E-3,5.733356E-3,1.2635887E-3,1.1692867E-3,0E0,5.7470636E-4,0E0,6.2063336E-6,0E0,0E0,0E0,3.175065E-5,4.576519E-6,4.503904E-4,0E0,0E0,0E0,0E0,0E0,0E0,0E0,3.1706563E-4,1.3300423E-4,0E0,1.2429501E-4,0E0,1.1734206E-5,0E0,0E0,0E0,0E0],"parents":[2147483647,0,0,1,1,2,2,3,3,4,4,5,5,6,6,7,7,9,9,11,11,15,15,16,16,17,17,25,25,26,26,28,28,30,30],"right_children":[2,4,6,8,10,12,14,16,-1,18,-1,20,-1,-1,-1,22,24,26,-1,-1,-1,-1,-1,-1,-1,28,30,-1,32,-1,34,-1,-1,-1,-1],"split_conditions":[1.6428107E-1,1.2492447E-1,3.184698E-1,1.5464666E-1,3.204787E-1,3.4819186E-1,3.2278594E-1,1.1665685E-1,-8.3134254E-4,2.1235447E-1,1.0941617E-4,1.1405249E-1,-1.588644E-4,1.0333317E-3,2.537816E-4,1.1508581E-1,3.184698E-1,3.184698E-1,-2.6381967E-4,1.4529764E-4,3.5120666E-4,-2.446019E-4,-5.9733086E-4,-3.1505112E-4,-8.875802E-5,6.2297076E-2,3.204787E-1,1.2993589E-5,3.1087015E-2,5.6884808E-5,3.5422754E-1,-2.685435E-5,-1.7961934E-4,-6.381497E-6,-5.3667223E-5],"split_indices":[29,29,20,22,10,0,1,22,0,24,0,22,0,0,0,6,3,0,0,0,0,0,0,0,0,0,0,0,7,0,0,0,0,0,0],"split_type":[0,0,0,0,0,0,0,0,0,0,0,0,0,0,0,0,0,0,0,0,0,0,0,0,0,0,0,0,0,0,0,0,0,0,0],"sum_hessian":[7.9E1,4.4E1,3.5E1,2.8E1,1.6E1,2.3E1,1.2E1,2.1E1,7E0,1.5E1,1E0,2.1E1,2E0,1.1E1,1E0,1.5E1,6E0,1.2E1,3E0,2E0,1.9E1,2E0,1.3E1,5E0,1E0,8E0,4E0,1E0,7E0,1E0,3E0,1E0,6E0,1E0,2E0],"tree_param":{"num_deleted":"0","num_feature":"31","num_nodes":"35","size_leaf_vector":"1"}},{"base_weights":[-1.4062683E-4,-4.404626E-2,5.474532E-2,-6.0888354E-2,-1.2724668E-2,2.882073E-2,9.839492E-2,-5.02958E-2,-8.240684E-4,-1.4880823E-2,1.0886908E-4,3.3592686E-2,-1.578053E-4,1.0238595E-3,2.525127E-4,-5.6336835E-2,-2.9302606E-2,-1.0258214E-2,-2.61841E-4,2.49364E-2,3.8728226E-4,-2.4297119E-4,-5.9178425E-4,-3.1242566E-4,-8.8314264E-5,-1.4157125E-2,-1.1885315E-3,2.8186847E-4,-3.7840306E-5,1.292862E-5,-1.624998E-2,5.660042E-5,-4.3156855E-3,-2.672009E-5,-1.7807975E-4,-6.349608E-6,-5.3309403E-5],"categories":[],"categories_nodes":[],"categories_segments":[],"categories_sizes":[],"default_left":[0,0,0,0,0,0,0,0,0,0,0,0,0,0,0,0,0,0,0,0,0,0,0,0,0,0,0,0,0,0,0,0,0,0,0,0,0],"id":16,"left_children":[1,3,5,7,9,11,13,15,-1,17,-1,19,-1,-1,-1,21,23,25,-1,27,-1,-1,-1,-1,-1,29,31,-1,-1,-1,33,-1,35,-1,-1,-1,-1],"loss_changes":[1.951955E-1,2.296368E-2,3.7901722E-2,2.465412E-3,1.02748E-3,5.638158E-3,1.209572E-3,1.1392385E-3,0E0,5.674078E-4,0E0,1.2261793E-5,0E0,0E0,0E0,1.8838793E-5,2.075918E-6,4.4287834E-4,0E0,1.133556E-3,0E0,0E0,0E0,0E0,0E0,3.120203E-4,1.3150969E-4,0E0,0E0,0E0,1.2165215E-4,0E0,1.1562552E-5,0E0,0E0,0E0,0E0],"parents":[2147483647,0,0,1,1,2,2,3,3,4,4,5,5,6,6,7,7,9,9,11,11,15,15,16,16,17,17,19,19,25,25,26,26,30,30,32,32],"right_children":[2,4,6,8,10,12,14,16,-1,18,-1,20,-1,-1,-1,22,24,26,-1,28,-1,-1,-1,-1,-1,30,32,-1,-1,-1,34,-1,36,-1,-1,-1,-1],"split_conditions":[1.6428107E-1,1.2492447E-1,3.184698E-1,1.5464666E-1,3.204787E-1,3.4819186E-1,3.2278594E-1,1.1665685E-1,-8.240684E-4,2.1235447E-1,1.0886908E-4,1.9953994E-1,-1.578053E-4,1.0238595E-3,2.525127E-4,1.1508581E-1,3.184698E-1,3.184698E-1,-2.61841E-4,2.6419267E-1,3.8728226E-4,-2.4297119E-4,-5.9178425E-4,-3.1242566E-4,-8.8314264E-5,6.2297076E-2,3.204787E-1,2.8186847E-4,-3.7840306E-5,1.292862E-5,3.1087015E-2,5.660042E-5,3.5422754E-1,-2.672009E-5,-1.7807975E-4,-6.349608E-6,-5.3309403E-5],"split_indices":[29,29,20,22,10,0,1,22,0,24,0,27,0,0,0,6,3,0,0,5,0,0,0,0,0,0,0,0,0,0,7,0,0,0,0,0,0],"split_type":[0,0,0,0,0,0,0,0,0,0,0,0,0,0,0,0,0,0,0,0,0,0,0,0,0,0,0,0,0,0,0,0,0,0,0,0,0],"sum_hessian":[7.9E1,4.4E1,3.5E1,2.8E1,1.6E1,2.3E1,1.2E1,2.1E1,7E0,1.5E1,1E0,2.1E1,2E0,1.1E1,1E0,1.5E1,6E0,1.2E1,3E0,1E1,1.1E1,2E0,1.3E1,5E0,1E0,8E0,4E0,9E0,1E0,1E0,7E0,1E0,3E0,1E0,6E0,1E0,2E0],"tree_param":{"num_deleted":"0","num_feature":"31","num_nodes":"37","size_leaf_vector":"1"}},{"base_weights":[-1.4743963E-4,-4.3659296E-2,5.4246474E-2,-6.035049E-2,-1.2617884E-2,2.8552253E-2,9.750915E-2,-4.9848996E-2,-8.168578E-4,-1.4760561E-2,1.0832473E-4,3.3285458E-2,-1.5675329E-4,1.0144742E-3,2.512501E-4,-5.5825636E-2,-2.9066822E-4,-1.0170624E-2,-2.5987715E-4,2.4709217E-2,3.837322E-4,-2.4135134E-4,-5.862891E-4,-1.4036871E-2,-1.1772544E-3,2.793316E-4,-3.7651134E-5,1.28639485E-5,-1.6113078E-2,5.6317447E-5,-4.2874403E-3,-2.6586502E-5,-1.7655331E-4,-6.3178686E-6,-5.2953957E-5],"categories":[],"categories_nodes":[],"categories_segments":[],"categories_sizes":[],"default_left":[0,0,0,0,0,0,0,0,0,0,0,0,0,0,0,0,0,0,0,0,0,0,0,0,0,0,0,0,0,0,0,0,0,0,0],"id":17,"left_children":[1,3,5,7,9,11,13,15,-1,17,-1,19,-1,-1,-1,21,-1,23,-1,25,-1,-1,-1,27,29,-1,-1,-1,31,-1,33,-1,-1,-1,-1],"loss_changes":[1.9171076E-1,2.2553831E-2,3.723353E-2,2.4255663E-3,1.0140846E-3,5.545875E-3,1.1570081E-3,1.1098944E-3,0E0,5.6019984E-4,0E0,1.177378E-5,0E0,0E0,0E0,6.377697E-6,0E0,4.354926E-4,0E0,1.1149673E-3,0E0,0E0,0E0,3.0705635E-4,1.3003204E-4,0E0,0E0,0E0,1.1906191E-4,0E0,1.1393386E-5,0E0,0E0,0E0,0E0],"parents":[2147483647,0,0,1,1,2,2,3,3,4,4,5,5,6,6,7,7,9,9,11,11,15,15,17,17,19,19,23,23,24,24,28,28,30,30],"right_children":[2,4,6,8,10,12,14,16,-1,18,-1,20,-1,-1,-1,22,-1,24,-1,26,-1,-1,-1,28,30,-1,-1,-1,32,-1,34,-1,-1,-1,-1],"split_conditions":[1.6428107E-1,1.2492447E-1,3.184698E-1,1.5464666E-1,3.204787E-1,3.4819186E-1,3.2278594E-1,1.1665685E-1,-8.168578E-4,2.1235447E-1,1.0832473E-4,1.9953994E-1,-1.5675329E-4,1.0144742E-3,2.512501E-4,1.1508581E-1,-2.9066822E-4,3.184698E-1,-2.5987715E-4,2.6419267E-1,3.837322E-4,-2.4135134E-4,-5.862891E-4,6.2297076E-2,3.204787E-1,2.793316E-4,-3.7651134E-5,1.28639485E-5,3.1087015E-2,5.6317447E-5,3.5422754E-1,-2.6586502E-5,-1.7655331E-4,-6.3178686E-6,-5.2953957E-5],"split_indices":[29,29,20,22,10,0,1,22,0,24,0,27,0,0,0,6,0,0,0,5,0,0,0,0,0,0,0,0,7,0,0,0,0,0,0],"split_type":[0,0,0,0,0,0,0,0,0,0,0,0,0,0,0,0,0,0,0,0,0,0,0,0,0,0,0,0,0,0,0,0,0,0,0],"sum_hessian":[7.9E1,4.4E1,3.5E1,2.8E1,1.6E1,2.3E1,1.2E1,2.1E1,7E0,1.5E1,1E0,2.1E1,2E0,1.1E1,1E0,1.5E1,6E0,1.2E1,3E0,1E1,1.1E1,2E0,1.3E1,8E0,4E0,9E0,1E0,1E0,7E0,1E0,3E0,1E0,6E0,1E0,2E0],"tree_param":{"num_deleted":"0","num_feature":"31","num_nodes":"35","size_leaf_vector":"1"}},{"base_weights":[-1.5278673E-4,-4.327337E-2,5.3752188E-2,-5.981372E-2,-1.2511987E-2,2.8286254E-2,9.663143E-2,-4.9401343E-2,-8.0971036E-4,-1.4641276E-2,1.07783075E-4,3.2981027E-2,-1.5570821E-4,1.0051748E-3,2.4999387E-4,-5.5319106E-4,-2.8817685E-2,-1.0083782E-2,-2.579281E-4,1.4058758E-4,3.4170313E-4,-3.0739987E-4,-8.641936E-5,-1.3917646E-2,-1.1660695E-3,1.279965E-5,-1.5977344E-2,5.603589E-5,-4.2593814E-3,-2.6453585E-5,-1.7504004E-4,-6.286278E-6,-5.26009E-5],"categories":[],"categories_nodes":[],"categories_segments":[],"categories_sizes":[],"default_left":[0,0,0,0,0,0,0,0,0,0,0,0,0,0,0,0,0,0,0,0,0,0,0,0,0,0,0,0,0,0,0,0,0],"id":18,"left_children":[1,3,5,7,9,11,13,15,-1,17,-1,19,-1,-1,-1,-1,21,23,-1,-1,-1,-1,-1,25,27,-1,29,-1,31,-1,-1,-1,-1],"loss_changes":[1.8827915E-1,2.2147797E-2,3.657721E-2,2.3885593E-3,1.0008677E-3,5.4551177E-3,1.1058822E-3,1.0856353E-3,0E0,5.530799E-4,0E0,1.4698133E-5,0E0,0E0,0E0,0E0,5.8342703E-6,4.282319E-4,0E0,0E0,0E0,0E0,0E0,3.0217285E-4,1.2857115E-4,0E0,1.1652289E-4,0E0,1.1226657E-5,0E0,0E0,0E0,0E0],"parents":[2147483647,0,0,1,1,2,2,3,3,4,4,5,5,6,6,7,7,9,9,11,11,16,16,17,17,23,23,24,24,26,26,28,28],"right_children":[2,4,6,8,10,12,14,16,-1,18,-1,20,-1,-1,-1,-1,22,24,-1,-1,-1,-1,-1,26,28,-1,30,-1,32,-1,-1,-1,-1],"split_conditions":[1.6428107E-1,1.2492447E-1,3.184698E-1,1.5464666E-1,3.204787E-1,3.4819186E-1,3.2278594E-1,1.1665685E-1,-8.0971036E-4,2.1235447E-1,1.07783075E-4,1.1405249E-1,-1.5570821E-4,1.0051748E-3,2.4999387E-4,-5.5319106E-4,3.184698E-1,3.184698E-1,-2.579281E-4,1.4058758E-4,3.4170313E-4,-3.0739987E-4,-8.641936E-5,6.2297076E-2,3.204787E-1,1.279965E-5,3.1087015E-2,5.603589E-5,3.5422754E-1,-2.6453585E-5,-1.7504004E-4,-6.286278E-6,-5.26009E-5],"split_indices":[29,29,20,22,10,0,1,22,0,24,0,22,0,0,0,0,3,0,0,0,0,0,0,0,0,0,7,0,0,0,0,0,0],"split_type":[0,0,0,0,0,0,0,0,0,0,0,0,0,0,0,0,0,0,0,0,0,0,0,0,0,0,0,0,0,0,0,0,0],"sum_hessian":[7.9E1,4.4E1,3.5E1,2.8E1,1.6E1,2.3E1,1.2E1,2.1E1,7E0,1.5E1,1E0,2.1E1,2E0,1.1E1,1E0,1.5E1,6E0,1.2E1,3E0,2E0,1.9E1,5E0,1E0,8E0,4E0,1E0,7E0,1E0,3E0,1E0,6E0,1E0,2E0],"tree_param":{"num_deleted":"0","num_feature":"31","num_nodes":"33","size_leaf_vector":"1"}},{"base_weights":[-1.5771584E-4,-4.2887267E-2,5.3258605E-2,-5.927616E-2,-1.2406967E-2,2.8017003E-2,9.576167E-2,-4.8950378E-2,-8.026254E-4,-1.4522955E-2,1.07244174E-4,3.2673143E-2,-1.546702E-4,9.959608E-4,2.487439E-4,-5.4800496E-2,-2.858577E-2,-9.997677E-3,-2.5599365E-4,2.4210023E-2,3.7708238E-4,-2.3605437E-4,-5.757082E-4,-3.0483824E-4,-8.598722E-5,-1.3799434E-2,-1.15498E-3,2.7414452E-4,-3.917135E-5,1.273565E-5,-1.5842754E-2,5.5755674E-5,-4.231509E-3,-2.6321337E-5,-1.7353967E-4,-6.254837E-6,-5.2250227E-5],"categories":[],"categories_nodes":[],"categories_segments":[],"categories_sizes":[],"default_left":[0,0,0,0,0,0,0,0,0,0,0,0,0,0,0,0,0,0,0,0,0,0,0,0,0,0,0,0,0,0,0,0,0,0,0,0,0],"id":19,"left_children":[1,3,5,7,9,11,13,15,-1,17,-1,19,-1,-1,-1,21,23,25,-1,27,-1,-1,-1,-1,-1,29,31,-1,-1,-1,33,-1,35,-1,-1,-1,-1],"loss_changes":[1.8488052E-1,2.1743797E-2,3.5939477E-2,2.3554415E-3,9.878273E-4,5.36458E-3,1.0561422E-3,1.054462E-3,0E0,5.4604677E-4,0E0,2.4560839E-5,0E0,0E0,0E0,2.3745E-5,3.4333207E-6,4.2109308E-4,0E0,1.0988326E-3,0E0,0E0,0E0,0E0,0E0,2.9736757E-4,1.2712667E-4,0E0,0E0,0E0,1.14034396E-4,0E0,1.1062373E-5,0E0,0E0,0E0,0E0],"parents":[2147483647,0,0,1,1,2,2,3,3,4,4,5,5,6,6,7,7,9,9,11,11,15,15,16,16,17,17,19,19,25,25,26,26,30,30,32,32],"right_children":[2,4,6,8,10,12,14,16,-1,18,-1,20,-1,-1,-1,22,24,26,-1,28,-1,-1,-1,-1,-1,30,32,-1,-1,-1,34,-1,36,-1,-1,-1,-1],"split_conditions":[1.6428107E-1,1.2492447E-1,3.184698E-1,1.5464666E-1,3.204787E-1,3.4819186E-1,3.2278594E-1,1.1665685E-1,-8.026254E-4,2.1235447E-1,1.07244174E-4,1.9953994E-1,-1.546702E-4,9.959608E-4,2.487439E-4,1.1508581E-1,3.184698E-1,3.184698E-1,-2.5599365E-4,2.6419267E-1,3.7708238E-4,-2.3605437E-4,-5.757082E-4,-3.0483824E-4,-8.598722E-5,6.2297076E-2,3.204787E-1,2.7414452E-4,-3.917135E-5,1.273565E-5,3.1087015E-2,5.5755674E-5,3.5422754E-1,-2.6321337E-5,-1.7353967E-4,-6.254837E-6,-5.2250227E-5],"split_indices":[29,29,20,22,10,0,1,22,0,24,0,27,0,0,0,6,3,0,0,5,0,0,0,0,0,0,0,0,0,0,7,0,0,0,0,0,0],"split_type":[0,0,0,0,0,0,0,0,0,0,0,0,0,0,0,0,0,0,0,0,0,0,0,0,0,0,0,0,0,0,0,0,0,0,0,0,0],"sum_hessian":[7.9E1,4.4E1,3.5E1,2.8E1,1.6E1,2.3E1,1.2E1,2.1E1,7E0,1.5E1,1E0,2.1E1,2E0,1.1E1,1E0,1.5E1,6E0,1.2E1,3E0,1E1,1.1E1,2E0,1.3E1,5E0,1E0,8E0,4E0,9E0,1E0,1E0,7E0,1E0,3E0,1E0,6E0,1E0,2E0],"tree_param":{"num_deleted":"0","num_feature":"31","num_nodes":"37","size_leaf_vector":"1"}},{"base_weights":[-1.6416414E-4,-4.2510483E-2,5.2773293E-2,-5.8752544E-2,-1.2302819E-2,2.7755884E-2,9.4899796E-2,-4.851554E-2,-7.956024E-4,-1.4405595E-2,1.0670796E-4,3.2374226E-2,-1.5363905E-4,9.868311E-4,2.4750017E-4,-5.4303225E-2,-2.8355746E-2,-9.912308E-3,-2.5407376E-4,2.3989277E-2,3.7362575E-4,-2.3448071E-4,-5.7036243E-4,-3.0229794E-4,-8.555725E-5,-1.3682233E-2,-1.143983E-3,2.7167716E-4,-3.8975475E-5,1.2671947E-5,-1.570931E-2,5.5476874E-5,-4.2038225E-3,-2.6189759E-5,-1.720522E-4,-6.2235445E-6,-5.1901934E-5],"categories":[],"categories_nodes":[],"categories_segments":[],"categories_sizes":[],"default_left":[0,0,0,0,0,0,0,0,0,0,0,0,0,0,0,0,0,0,0,0,0,0,0,0,0,0,0,0,0,0,0,0,0,0,0,0,0],"id":20,"left_children":[1,3,5,7,9,11,13,15,-1,17,-1,19,-1,-1,-1,21,23,25,-1,27,-1,-1,-1,-1,-1,29,31,-1,-1,-1,33,-1,35,-1,-1,-1,-1],"loss_changes":[1.8157993E-1,2.1355748E-2,3.5306223E-2,2.3173392E-3,9.749613E-4,5.2767973E-3,1.007773E-3,1.0271221E-3,0E0,5.391005E-4,0E0,2.3894012E-5,0E0,0E0,0E0,1.1850148E-5,1.1050142E-6,4.1407475E-4,0E0,1.0808897E-3,0E0,0E0,0E0,0E0,0E0,2.926397E-4,1.2569867E-4,0E0,0E0,0E0,1.1159573E-4,0E0,1.0900483E-5,0E0,0E0,0E0,0E0],"parents":[2147483647,0,0,1,1,2,2,3,3,4,4,5,5,6,6,7,7,9,9,11,11,15,15,16,16,17,17,19,19,25,25,26,26,30,30,32,32],"right_children":[2,4,6,8,10,12,14,16,-1,18,-1,20,-1,-1,-1,22,24,26,-1,28,-1,-1,-1,-1,-1,30,32,-1,-1,-1,34,-1,36,-1,-1,-1,-1],"split_conditions":[1.6428107E-1,1.2492447E-1,3.184698E-1,1.5464666E-1,3.204787E-1,3.4819186E-1,3.2278594E-1,1.1665685E-1,-7.956024E-4,2.1235447E-1,1.0670796E-4,1.9953994E-1,-1.5363905E-4,9.868311E-4,2.4750017E-4,1.1508581E-1,3.184698E-1,3.184698E-1,-2.5407376E-4,2.6419267E-1,3.7362575E-4,-2.3448071E-4,-5.7036243E-4,-3.0229794E-4,-8.555725E-5,6.2297076E-2,3.204787E-1,2.7167716E-4,-3.8975475E-5,1.2671947E-5,3.1087015E-2,5.5476874E-5,3.5422754E-1,-2.6189759E-5,-1.720522E-4,-6.2235445E-6,-5.1901934E-5],"split_indices":[29,29,20,22,10,0,1,22,0,24,0,27,0,0,0,6,3,0,0,5,0,0,0,0,0,0,0,0,0,0,7,0,0,0,0,0,0],"split_type":[0,0,0,0,0,0,0,0,0,0,0,0,0,0,0,0,0,0,0,0,0,0,0,0,0,0,0,0,0,0,0,0,0,0,0,0,0],"sum_hessian":[7.9E1,4.4E1,3.5E1,2.8E1,1.6E1,2.3E1,1.2E1,2.1E1,7E0,1.5E1,1E0,2.1E1,2E0,1.1E1,1E0,1.5E1,6E0,1.2E1,3E0,1E1,1.1E1,2E0,1.3E1,5E0,1E0,8E0,4E0,9E0,1E0,1E0,7E0,1E0,3E0,1E0,6E0,1E0,2E0],"tree_param":{"num_deleted":"0","num_feature":"31","num_nodes":"37","size_leaf_vector":"1"}},{"base_weights":[-1.704841E-4,-4.213702E-2,5.229242E-2,-5.823358E-2,-1.219953E-2,2.7497185E-2,9.404575E-2,-4.8084598E-2,-7.886409E-4,-1.4289182E-2,1.0617442E-4,3.207804E-2,-1.5261474E-4,9.777851E-4,2.462627E-4,-5.3810497E-4,-2.8127592E-4,-9.827664E-3,-2.5216816E-4,2.377054E-2,3.7020078E-4,-1.356603E-2,-1.1330724E-3,2.6923206E-4,-3.878057E-5,1.2608617E-5,-1.5577E-2,5.519949E-5,-4.176315E-3,-2.6058777E-5,-1.7057748E-4,-6.192401E-6,-5.155593E-5],"categories":[],"categories_nodes":[],"categories_segments":[],"categories_sizes":[],"default_left":[0,0,0,0,0,0,0,0,0,0,0,0,0,0,0,0,0,0,0,0,0,0,0,0,0,0,0,0,0,0,0,0,0],"id":21,"left_children":[1,3,5,7,9,11,13,15,-1,17,-1,19,-1,-1,-1,-1,-1,21,-1,23,-1,25,27,-1,-1,-1,29,-1,31,-1,-1,-1,-1],"loss_changes":[1.7833836E-1,2.0974658E-2,3.468422E-2,2.279833E-3,9.6226623E-4,5.1904675E-3,9.6073E-4,1.0004193E-3,0E0,5.3223874E-4,0E0,2.3242086E-5,0E0,0E0,0E0,0E0,0E0,4.0717504E-4,0E0,1.063244E-3,0E0,2.8798822E-4,1.2428682E-4,0E0,0E0,0E0,1.0920549E-4,0E0,1.0740914E-5,0E0,0E0,0E0,0E0],"parents":[2147483647,0,0,1,1,2,2,3,3,4,4,5,5,6,6,7,7,9,9,11,11,17,17,19,19,21,21,22,22,26,26,28,28],"right_children":[2,4,6,8,10,12,14,16,-1,18,-1,20,-1,-1,-1,-1,-1,22,-1,24,-1,26,28,-1,-1,-1,30,-1,32,-1,-1,-1,-1],"split_conditions":[1.6428107E-1,1.2492447E-1,3.184698E-1,1.5464666E-1,3.204787E-1,3.4819186E-1,3.2278594E-1,1.1665685E-1,-7.886409E-4,2.1235447E-1,1.0617442E-4,1.9953994E-1,-1.5261474E-4,9.777851E-4,2.462627E-4,-5.3810497E-4,-2.8127592E-4,3.184698E-1,-2.5216816E-4,2.6419267E-1,3.7020078E-4,6.2297076E-2,3.204787E-1,2.6923206E-4,-3.878057E-5,1.2608617E-5,3.1087015E-2,5.519949E-5,3.5422754E-1,-2.6058777E-5,-1.7057748E-4,-6.192401E-6,-5.155593E-5],"split_indices":[29,29,20,22,10,0,1,22,0,24,0,27,0,0,0,0,0,0,0,5,0,0,0,0,0,0,7,0,0,0,0,0,0],"split_type":[0,0,0,0,0,0,0,0,0,0,0,0,0,0,0,0,0,0,0,0,0,0,0,0,0,0,0,0,0,0,0,0,0],"sum_hessian":[7.9E1,4.4E1,3.5E1,2.8E1,1.6E1,2.3E1,1.2E1,2.1E1,7E0,1.5E1,1E0,2.1E1,2E0,1.1E1,1E0,1.5E1,6E0,1.2E1,3E0,1E1,1.1E1,8E0,4E0,9E0,1E0,1E0,7E0,1E0,3E0,1E0,6E0,1E0,2E0],"tree_param":{"num_deleted":"0","num_feature":"31","num_nodes":"33","size_leaf_vector":"1"}},{"base_weights":[-1.7213458E-4,-4.1758772E-2,5.1815942E-2,-5.770669E-2,-1.2097097E-2,2.724088E-2,9.319945E-2,-4.7640994E-2,-7.8174024E-4,-1.4173711E-2,1.05643565E-4,3.178456E-2,-1.5159728E-4,9.6882216E-4,2.450314E-4,-5.330602E-2,-2.7886502E-2,-9.74374E-3,-2.5027685E-4,1.3421655E-4,3.2949768E-4,-2.2933008E-4,-5.600695E-4,-2.9743483E-4,-8.372307E-5,-1.345082E-2,-1.1222481E-3,1.2545585E-5,-1.5445812E-2,5.492352E-5,-4.148986E-3,-2.5928466E-5,-1.6911542E-4,-6.1614064E-6,-5.1212213E-5],"categories":[],"categories_nodes":[],"categories_segments":[],"categories_sizes":[],"default_left":[0,0,0,0,0,0,0,0,0,0,0,0,0,0,0,0,0,0,0,0,0,0,0,0,0,0,0,0,0,0,0,0,0,0,0],"id":22,"left_children":[1,3,5,7,9,11,13,15,-1,17,-1,19,-1,-1,-1,21,23,25,-1,-1,-1,-1,-1,-1,-1,27,29,-1,31,-1,33,-1,-1,-1,-1],"loss_changes":[1.7512451E-1,2.0588815E-2,3.407325E-2,2.2502318E-3,9.497404E-4,5.105559E-3,9.1498345E-4,9.7549707E-4,0E0,5.254613E-4,0E0,2.8485432E-5,0E0,0E0,0E0,2.815947E-5,4.6407804E-6,4.0039222E-4,0E0,0E0,0E0,0E0,0E0,0E0,0E0,2.834116E-4,1.22891E-4,0E0,1.0686298E-4,0E0,1.058363E-5,0E0,0E0,0E0,0E0],"parents":[2147483647,0,0,1,1,2,2,3,3,4,4,5,5,6,6,7,7,9,9,11,11,15,15,16,16,17,17,25,25,26,26,28,28,30,30],"right_children":[2,4,6,8,10,12,14,16,-1,18,-1,20,-1,-1,-1,22,24,26,-1,-1,-1,-1,-1,-1,-1,28,30,-1,32,-1,34,-1,-1,-1,-1],"split_conditions":[1.6428107E-1,1.2492447E-1,3.184698E-1,1.5464666E-1,3.204787E-1,3.4819186E-1,3.2278594E-1,1.1665685E-1,-7.8174024E-4,2.1235447E-1,1.05643565E-4,1.1405249E-1,-1.5159728E-4,9.6882216E-4,2.450314E-4,1.1508581E-1,3.184698E-1,3.184698E-1,-2.5027685E-4,1.3421655E-4,3.2949768E-4,-2.2933008E-4,-5.600695E-4,-2.9743483E-4,-8.372307E-5,6.2297076E-2,3.204787E-1,1.2545585E-5,3.1087015E-2,5.492352E-5,3.5422754E-1,-2.5928466E-5,-1.6911542E-4,-6.1614064E-6,-5.1212213E-5],"split_indices":[29,29,20,22,10,0,1,22,0,24,0,22,0,0,0,6,3,0,0,0,0,0,0,0,0,0,0,0,7,0,0,0,0,0,0],"split_type":[0,0,0,0,0,0,0,0,0,0,0,0,0,0,0,0,0,0,0,0,0,0,0,0,0,0,0,0,0,0,0,0,0,0,0],"sum_hessian":[7.9E1,4.4E1,3.5E1,2.8E1,1.6E1,2.3E1,1.2E1,2.1E1,7E0,1.5E1,1E0,2.1E1,2E0,1.1E1,1E0,1.5E1,6E0,1.2E1,3E0,2E0,1.9E1,2E0,1.3E1,5E0,1E0,8E0,4E0,1E0,7E0,1E0,3E0,1E0,6E0,1E0,2E0],"tree_param":{"num_deleted":"0","num_feature":"31","num_nodes":"35","size_leaf_vector":"1"}},{"base_weights":[-1.7986046E-4,-4.139189E-2,5.1340174E-2,-5.719694E-2,-1.1995514E-2,2.698148E-2,9.2360824E-2,-4.7217786E-2,-7.749E-4,-1.4059175E-2,1.0511532E-4,3.1487796E-2,-1.5058658E-4,9.599412E-4,2.4380624E-4,-5.2822296E-2,-2.7662082E-2,-9.660531E-3,-2.4839977E-4,2.3289748E-2,3.6378688E-4,-2.2780121E-4,-5.548688E-4,-2.9495615E-4,-8.330442E-5,-1.33365905E-2,-1.1115164E-3,2.6423406E-4,-4.0234103E-5,1.2482851E-5,-1.5315736E-2,5.4648888E-5,-4.12184E-3,-2.5798827E-5,-1.6766589E-4,-6.1306355E-6,-5.0870774E-5],"categories":[],"categories_nodes":[],"categories_segments":[],"categories_sizes":[],"default_left":[0,0,0,0,0,0,0,0,0,0,0,0,0,0,0,0,0,0,0,0,0,0,0,0,0,0,0,0,0,0,0,0,0,0,0,0,0],"id":23,"left_children":[1,3,5,7,9,11,13,15,-1,17,-1,19,-1,-1,-1,21,23,25,-1,27,-1,-1,-1,-1,-1,29,31,-1,-1,-1,33,-1,35,-1,-1,-1,-1],"loss_changes":[1.7198467E-1,2.0221397E-2,3.3479504E-2,2.2138134E-3,9.373813E-4,5.0208718E-3,8.705035E-4,9.5002353E-4,0E0,5.1876716E-4,0E0,3.485754E-5,0E0,0E0,0E0,1.6804785E-5,2.4051405E-6,3.9372325E-4,0E0,1.0478031E-3,0E0,0E0,0E0,0E0,0E0,2.7890864E-4,1.2151094E-4,0E0,0E0,0E0,1.0456692E-4,0E0,1.0428506E-5,0E0,0E0,0E0,0E0],"parents":[2147483647,0,0,1,1,2,2,3,3,4,4,5,5,6,6,7,7,9,9,11,11,15,15,16,16,17,17,19,19,25,25,26,26,30,30,32,32],"right_children":[2,4,6,8,10,12,14,16,-1,18,-1,20,-1,-1,-1,22,24,26,-1,28,-1,-1,-1,-1,-1,30,32,-1,-1,-1,34,-1,36,-1,-1,-1,-1],"split_conditions":[1.6428107E-1,1.2492447E-1,3.184698E-1,1.5464666E-1,3.204787E-1,3.4819186E-1,3.2278594E-1,1.1665685E-1,-7.749E-4,2.1235447E-1,1.0511532E-4,1.9953994E-1,-1.5058658E-4,9.599412E-4,2.4380624E-4,1.1508581E-1,3.184698E-1,3.184698E-1,-2.4839977E-4,2.6419267E-1,3.6378688E-4,-2.2780121E-4,-5.548688E-4,-2.9495615E-4,-8.330442E-5,6.2297076E-2,3.204787E-1,2.6423406E-4,-4.0234103E-5,1.2482851E-5,3.1087015E-2,5.4648888E-5,3.5422754E-1,-2.5798827E-5,-1.6766589E-4,-6.1306355E-6,-5.0870774E-5],"split_indices":[29,29,20,22,10,0,1,22,0,24,0,27,0,0,0,6,3,0,0,5,0,0,0,0,0,0,0,0,0,0,7,0,0,0,0,0,0],"split_type":[0,0,0,0,0,0,0,0,0,0,0,0,0,0,0,0,0,0,0,0,0,0,0,0,0,0,0,0,0,0,0,0,0,0,0,0,0],"sum_hessian":[7.9E1,4.4E1,3.5E1,2.8E1,1.6E1,2.3E1,1.2E1,2.1E1,7E0,1.5E1,1E0,2.1E1,2E0,1.1E1,1E0,1.5E1,6E0,1.2E1,3E0,1E1,1.1E1,2E0,1.3E1,5E0,1E0,8E0,4E0,9E0,1E0,1E0,7E0,1E0,3E0,1E0,6E0,1E0,2E0],"tree_param":{"num_deleted":"0","num_feature":"31","num_nodes":"37","size_leaf_vector":"1"}},{"base_weights":[-1.8582893E-4,-4.1028246E-2,5.0872356E-2,-5.669172E-2,-1.1894771E-2,2.6729885E-2,9.15298E-2,-4.6798375E-2,-7.681196E-4,-1.39455665E-2,1.0458976E-4,3.119964E-2,-1.4958264E-4,9.511417E-4,2.4258718E-4,-5.2342985E-2,-2.7439502E-4,-9.578028E-3,-2.4653674E-4,2.307722E-2,3.604522E-4,-2.262826E-4,-5.497164E-4,-1.3223333E-2,-1.100871E-3,2.6185598E-4,-4.0032937E-5,1.2420415E-5,-1.5186761E-2,5.4375676E-5,-4.0948726E-3,-2.5669857E-5,-1.6622872E-4,-6.1000137E-6,-5.0531624E-5],"categories":[],"categories_nodes":[],"categories_segments":[],"categories_sizes":[],"default_left":[0,0,0,0,0,0,0,0,0,0,0,0,0,0,0,0,0,0,0,0,0,0,0,0,0,0,0,0,0,0,0,0,0,0,0],"id":24,"left_children":[1,3,5,7,9,11,13,15,-1,17,-1,19,-1,-1,-1,21,-1,23,-1,25,-1,-1,-1,27,29,-1,-1,-1,31,-1,33,-1,-1,-1,-1],"loss_changes":[1.6891438E-1,1.986058E-2,3.2889977E-2,2.1779686E-3,9.2518656E-4,4.9387496E-3,8.2726777E-4,9.251572E-4,0E0,5.121557E-4,0E0,3.4049153E-5,0E0,0E0,0E0,5.8449805E-6,0E0,3.8716663E-4,0E0,1.0307706E-3,0E0,0E0,0E0,2.74478E-4,1.2014663E-4,0E0,0E0,0E0,1.0231661E-4,0E0,1.02756385E-5,0E0,0E0,0E0,0E0],"parents":[2147483647,0,0,1,1,2,2,3,3,4,4,5,5,6,6,7,7,9,9,11,11,15,15,17,17,19,19,23,23,24,24,28,28,30,30],"right_children":[2,4,6,8,10,12,14,16,-1,18,-1,20,-1,-1,-1,22,-1,24,-1,26,-1,-1,-1,28,30,-1,-1,-1,32,-1,34,-1,-1,-1,-1],"split_conditions":[1.6428107E-1,1.2492447E-1,3.184698E-1,1.5464666E-1,3.204787E-1,3.4819186E-1,3.2278594E-1,1.1665685E-1,-7.681196E-4,2.1235447E-1,1.0458976E-4,1.9953994E-1,-1.4958264E-4,9.511417E-4,2.4258718E-4,1.1508581E-1,-2.7439502E-4,3.184698E-1,-2.4653674E-4,2.6419267E-1,3.604522E-4,-2.262826E-4,-5.497164E-4,6.2297076E-2,3.204787E-1,2.6185598E-4,-4.0032937E-5,1.2420415E-5,3.1087015E-2,5.4375676E-5,3.5422754E-1,-2.5669857E-5,-1.6622872E-4,-6.1000137E-6,-5.0531624E-5],"split_indices":[29,29,20,22,10,0,1,22,0,24,0,27,0,0,0,6,0,0,0,5,0,0,0,0,0,0,0,0,7,0,0,0,0,0,0],"split_type":[0,0,0,0,0,0,0,0,0,0,0,0,0,0,0,0,0,0,0,0,0,0,0,0,0,0,0,0,0,0,0,0,0,0,0],"sum_hessian":[7.9E1,4.4E1,3.5E1,2.8E1,1.6E1,2.3E1,1.2E1,2.1E1,7E0,1.5E1,1E0,2.1E1,2E0,1.1E1,1E0,1.5E1,6E0,1.2E1,3E0,1E1,1.1E1,2E0,1.3E1,8E0,4E0,9E0,1E0,1E0,7E0,1E0,3E0,1E0,6E0,1E0,2E0],"tree_param":{"num_deleted":"0","num_feature":"31","num_nodes":"35","size_leaf_vector":"1"}},{"base_weights":[-1.9041887E-4,-4.0665567E-2,5.0408807E-2,-5.618751E-2,-1.1794865E-2,2.6480611E-2,9.070633E-2,-4.6378136E-2,-7.613985E-4,-1.383288E-2,1.040668E-4,3.0914105E-2,-1.4858546E-4,1.0559843E-3,5.573247E-4,-5.186805E-4,-2.720431E-2,-9.496231E-3,-2.446877E-4,1.2981455E-4,3.2058297E-4,-2.902116E-4,-8.151598E-5,-1.31110465E-2,-1.0903149E-3,1.2358278E-5,-1.5058884E-2,5.4103806E-5,-4.068084E-3,-2.5541483E-5,-1.6480398E-4,-6.0695406E-6,-5.019476E-5],"categories":[],"categories_nodes":[],"categories_segments":[],"categories_sizes":[],"default_left":[0,0,0,0,0,0,0,0,0,0,0,0,0,0,0,0,0,0,0,0,0,0,0,0,0,0,0,0,0,0,0,0,0],"id":25,"left_children":[1,3,5,7,9,11,13,15,-1,17,-1,19,-1,-1,-1,-1,21,23,-1,-1,-1,-1,-1,25,27,-1,29,-1,31,-1,-1,-1,-1],"loss_changes":[1.658908E-1,1.950311E-2,3.2310933E-2,2.1446496E-3,9.1315433E-4,4.8579853E-3,8.855909E-4,9.047426E-4,0E0,5.0562504E-4,0E0,3.5239384E-5,0E0,0E0,0E0,0E0,5.7420693E-6,3.807207E-4,0E0,0E0,0E0,0E0,0E0,2.701187E-4,1.1879773E-4,0E0,1.00111705E-4,0E0,1.0124975E-5,0E0,0E0,0E0,0E0],"parents":[2147483647,0,0,1,1,2,2,3,3,4,4,5,5,6,6,7,7,9,9,11,11,16,16,17,17,23,23,24,24,26,26,28,28],"right_children":[2,4,6,8,10,12,14,16,-1,18,-1,20,-1,-1,-1,-1,22,24,-1,-1,-1,-1,-1,26,28,-1,30,-1,32,-1,-1,-1,-1],"split_conditions":[1.6428107E-1,1.2492447E-1,3.184698E-1,1.5464666E-1,3.204787E-1,3.4819186E-1,2.5311434E-1,1.1665685E-1,-7.613985E-4,2.1235447E-1,1.040668E-4,1.1405249E-1,-1.4858546E-4,1.0559843E-3,5.573247E-4,-5.186805E-4,3.184698E-1,3.184698E-1,-2.446877E-4,1.2981455E-4,3.2058297E-4,-2.902116E-4,-8.151598E-5,6.2297076E-2,3.204787E-1,1.2358278E-5,3.1087015E-2,5.4103806E-5,3.5422754E-1,-2.5541483E-5,-1.6480398E-4,-6.0695406E-6,-5.019476E-5],"split_indices":[29,29,20,22,10,0,4,22,0,24,0,22,0,0,0,0,3,0,0,0,0,0,0,0,0,0,7,0,0,0,0,0,0],"split_type":[0,0,0,0,0,0,0,0,0,0,0,0,0,0,0,0,0,0,0,0,0,0,0,0,0,0,0,0,0,0,0,0,0],"sum_hessian":[7.9E1,4.4E1,3.5E1,2.8E1,1.6E1,2.3E1,1.2E1,2.1E1,7E0,1.5E1,1E0,2.1E1,2E0,7E0,5E0,1.5E1,6E0,1.2E1,3E0,2E0,1.9E1,5E0,1E0,8E0,4E0,1E0,7E0,1E0,3E0,1E0,6E0,1E0,2E0],"tree_param":{"num_deleted":"0","num_feature":"31","num_nodes":"33","size_leaf_vector":"1"}},{"base_weights":[-1.8923199E-4,-4.0302746E-2,4.9957916E-2,-5.5682592E-2,-1.1695784E-2,2.622838E-2,8.9923374E-2,-4.5954827E-2,-7.547362E-4,-1.3721101E-2,1.0354645E-4,3.0625436E-2,-1.4759492E-4,1.0467445E-3,5.5268034E-4,-5.138179E-2,-2.698537E-2,-9.415124E-3,-2.428525E-4,2.2609858E-2,3.542093E-4,-2.2131614E-4,-5.3979555E-4,-2.8779317E-4,-8.110843E-5,-1.299971E-2,-1.0798424E-3,2.5699555E-4,-4.143566E-5,1.2296512E-5,-1.4932087E-2,5.3833275E-5,-4.041467E-3,-2.5413781E-5,-1.6339133E-4,-6.039217E-6,-4.9860082E-5],"categories":[],"categories_nodes":[],"categories_segments":[],"categories_sizes":[],"default_left":[0,0,0,0,0,0,0,0,0,0,0,0,0,0,0,0,0,0,0,0,0,0,0,0,0,0,0,0,0,0,0,0,0,0,0,0,0],"id":26,"left_children":[1,3,5,7,9,11,13,15,-1,17,-1,19,-1,-1,-1,21,23,25,-1,27,-1,-1,-1,-1,-1,29,31,-1,-1,-1,33,-1,35,-1,-1,-1,-1],"loss_changes":[1.629397E-1,1.9147426E-2,3.1782486E-2,2.1147728E-3,9.012823E-4,4.777439E-3,8.604899E-4,8.78267E-4,0E0,4.9917493E-4,0E0,4.4789165E-5,0E0,0E0,0E0,2.1107495E-5,3.5949051E-6,3.743834E-4,0E0,1.0157479E-3,0E0,0E0,0E0,0E0,0E0,2.658296E-4,1.1746395E-4,0E0,0E0,0E0,9.795069E-5,0E0,9.976451E-6,0E0,0E0,0E0,0E0],"parents":[2147483647,0,0,1,1,2,2,3,3,4,4,5,5,6,6,7,7,9,9,11,11,15,15,16,16,17,17,19,19,25,25,26,26,30,30,32,32],"right_children":[2,4,6,8,10,12,14,16,-1,18,-1,20,-1,-1,-1,22,24,26,-1,28,-1,-1,-1,-1,-1,30,32,-1,-1,-1,34,-1,36,-1,-1,-1,-1],"split_conditions":[1.6428107E-1,1.2492447E-1,3.184698E-1,1.5464666E-1,3.204787E-1,3.4819186E-1,2.5311434E-1,1.1665685E-1,-7.547362E-4,2.1235447E-1,1.0354645E-4,1.9953994E-1,-1.4759492E-4,1.0467445E-3,5.5268034E-4,1.1508581E-1,3.184698E-1,3.184698E-1,-2.428525E-4,2.6419267E-1,3.542093E-4,-2.2131614E-4,-5.3979555E-4,-2.8779317E-4,-8.110843E-5,6.2297076E-2,3.204787E-1,2.5699555E-4,-4.143566E-5,1.2296512E-5,3.1087015E-2,5.3833275E-5,3.5422754E-1,-2.5413781E-5,-1.6339133E-4,-6.039217E-6,-4.9860082E-5],"split_indices":[29,29,20,22,10,0,4,22,0,24,0,27,0,0,0,6,3,0,0,5,0,0,0,0,0,0,0,0,0,0,7,0,0,0,0,0,0],"split_type":[0,0,0,0,0,0,0,0,0,0,0,0,0,0,0,0,0,0,0,0,0,0,0,0,0,0,0,0,0,0,0,0,0,0,0,0,0],"sum_hessian":[7.9E1,4.4E1,3.5E1,2.8E1,1.6E1,2.3E1,1.2E1,2.1E1,7E0,1.5E1,1E0,2.1E1,2E0,7E0,5E0,1.5E1,6E0,1.2E1,3E0,1E1,1.1E1,2E0,1.3E1,5E0,1E0,8E0,4E0,9E0,1E0,1E0,7E0,1E0,3E0,1E0,6E0,1E0,2E0],"tree_param":{"num_deleted":"0","num_feature":"31","num_nodes":"37","size_leaf_vector":"1"}},{"base_weights":[-1.8960563E-4,-3.994867E-2,4.9514487E-2,-5.519076E-2,-1.1597524E-2,2.5983684E-2,8.9147165E-2,-4.5546647E-2,-7.481323E-4,-1.3610229E-2,1.0302871E-4,3.0345077E-2,-1.4661095E-4,1.0375854E-3,5.4807466E-4,-5.0915543E-2,-2.676822E-2,-9.3347095E-3,-2.4103107E-4,2.2403352E-2,3.5096233E-4,-2.1984072E-4,-5.347832E-4,-2.8539496E-4,-8.07029E-5,-1.2889326E-2,-1.0694594E-3,2.5468256E-4,-4.1228457E-5,1.2235045E-5,-1.4806367E-2,5.3564087E-5,-4.0150285E-3,-2.5286748E-5,-1.6199084E-4,-6.009042E-6,-4.9527684E-5],"categories":[],"categories_nodes":[],"categories_segments":[],"categories_sizes":[],"default_left":[0,0,0,0,0,0,0,0,0,0,0,0,0,0,0,0,0,0,0,0,0,0,0,0,0,0,0,0,0,0,0,0,0,0,0,0,0],"id":27,"left_children":[1,3,5,7,9,11,13,15,-1,17,-1,19,-1,-1,-1,21,23,25,-1,27,-1,-1,-1,-1,-1,29,31,-1,-1,-1,33,-1,35,-1,-1,-1,-1],"loss_changes":[1.6007309E-1,1.880581E-2,3.1256832E-2,2.0805076E-3,8.895674E-4,4.6993215E-3,8.360073E-4,8.551106E-4,0E0,4.928047E-4,0E0,4.3839216E-5,0E0,0E0,0E0,1.064688E-5,1.5115365E-6,3.6815263E-4,0E0,9.993045E-4,0E0,0E0,0E0,0E0,0E0,2.6160968E-4,1.16145326E-4,0E0,0E0,0E0,9.583251E-5,0E0,9.83011E-6,0E0,0E0,0E0,0E0],"parents":[2147483647,0,0,1,1,2,2,3,3,4,4,5,5,6,6,7,7,9,9,11,11,15,15,16,16,17,17,19,19,25,25,26,26,30,30,32,32],"right_children":[2,4,6,8,10,12,14,16,-1,18,-1,20,-1,-1,-1,22,24,26,-1,28,-1,-1,-1,-1,-1,30,32,-1,-1,-1,34,-1,36,-1,-1,-1,-1],"split_conditions":[1.6428107E-1,1.2492447E-1,3.184698E-1,1.5464666E-1,3.204787E-1,3.4819186E-1,2.5311434E-1,1.1665685E-1,-7.481323E-4,2.1235447E-1,1.0302871E-4,1.9953994E-1,-1.4661095E-4,1.0375854E-3,5.4807466E-4,1.1508581E-1,3.184698E-1,3.184698E-1,-2.4103107E-4,2.6419267E-1,3.5096233E-4,-2.1984072E-4,-5.347832E-4,-2.8539496E-4,-8.07029E-5,6.2297076E-2,3.204787E-1,2.5468256E-4,-4.1228457E-5,1.2235045E-5,3.1087015E-2,5.3564087E-5,3.5422754E-1,-2.5286748E-5,-1.6199084E-4,-6.009042E-6,-4.9527684E-5],"split_indices":[29,29,20,22,10,0,4,22,0,24,0,27,0,0,0,6,3,0,0,5,0,0,0,0,0,0,0,0,0,0,7,0,0,0,0,0,0],"split_type":[0,0,0,0,0,0,0,0,0,0,0,0,0,0,0,0,0,0,0,0,0,0,0,0,0,0,0,0,0,0,0,0,0,0,0,0,0],"sum_hessian":[7.9E1,4.4E1,3.5E1,2.8E1,1.6E1,2.3E1,1.2E1,2.1E1,7E0,1.5E1,1E0,2.1E1,2E0,7E0,5E0,1.5E1,6E0,1.2E1,3E0,1E1,1.1E1,2E0,1.3E1,5E0,1E0,8E0,4E0,9E0,1E0,1E0,7E0,1E0,3E0,1E0,6E0,1E0,2E0],"tree_param":{"num_deleted":"0","num_feature":"31","num_nodes":"37","size_leaf_vector":"1"}},{"base_weights":[-1.89964E-4,-3.959771E-2,4.9074996E-2,-5.4703295E-2,-1.150008E-2,2.5741255E-2,8.837767E-2,-4.5142118E-2,-7.415862E-4,-1.3500255E-2,1.0251358E-4,3.0067282E-2,-1.4563354E-4,1.0285066E-3,5.4350734E-4,-5.0453545E-4,-2.6552833E-4,-9.254979E-3,-2.3922337E-4,2.219873E-2,3.4774514E-4,-1.2779881E-2,-1.0591596E-3,2.5239045E-4,-4.10223E-5,1.2173876E-5,-1.4681714E-2,5.3296237E-5,-3.9887615E-3,-2.5160312E-5,-1.6060234E-4,-5.9790164E-6,-4.919747E-5],"categories":[],"categories_nodes":[],"categories_segments":[],"categories_sizes":[],"default_left":[0,0,0,0,0,0,0,0,0,0,0,0,0,0,0,0,0,0,0,0,0,0,0,0,0,0,0,0,0,0,0,0,0],"id":28,"left_children":[1,3,5,7,9,11,13,15,-1,17,-1,19,-1,-1,-1,-1,-1,21,-1,23,-1,25,27,-1,-1,-1,29,-1,31,-1,-1,-1,-1],"loss_changes":[1.5725693E-1,1.847031E-2,3.0739866E-2,2.0467788E-3,8.780095E-4,4.622491E-3,8.121282E-4,8.325018E-4,0E0,4.8651313E-4,0E0,4.291162E-5,0E0,0E0,0E0,0E0,0E0,3.620271E-4,0E0,9.831325E-4,0E0,2.574575E-4,1.1484156E-4,0E0,0E0,0E0,9.3757175E-5,0E0,9.685849E-6,0E0,0E0,0E0,0E0],"parents":[2147483647,0,0,1,1,2,2,3,3,4,4,5,5,6,6,7,7,9,9,11,11,17,17,19,19,21,21,22,22,26,26,28,28],"right_children":[2,4,6,8,10,12,14,16,-1,18,-1,20,-1,-1,-1,-1,-1,22,-1,24,-1,26,28,-1,-1,-1,30,-1,32,-1,-1,-1,-1],"split_conditions":[1.6428107E-1,1.2492447E-1,3.184698E-1,1.5464666E-1,3.204787E-1,3.4819186E-1,2.5311434E-1,1.1665685E-1,-7.415862E-4,2.1235447E-1,1.0251358E-4,1.9953994E-1,-1.4563354E-4,1.0285066E-3,5.4350734E-4,-5.0453545E-4,-2.6552833E-4,3.184698E-1,-2.3922337E-4,2.6419267E-1,3.4774514E-4,6.2297076E-2,3.204787E-1,2.5239045E-4,-4.10223E-5,1.2173876E-5,3.1087015E-2,5.3296237E-5,3.5422754E-1,-2.5160312E-5,-1.6060234E-4,-5.9790164E-6,-4.919747E-5],"split_indices":[29,29,20,22,10,0,4,22,0,24,0,27,0,0,0,0,0,0,0,5,0,0,0,0,0,0,7,0,0,0,0,0,0],"split_type":[0,0,0,0,0,0,0,0,0,0,0,0,0,0,0,0,0,0,0,0,0,0,0,0,0,0,0,0,0,0,0,0,0],"sum_hessian":[7.9E1,4.4E1,3.5E1,2.8E1,1.6E1,2.3E1,1.2E1,2.1E1,7E0,1.5E1,1E0,2.1E1,2E0,7E0,5E0,1.5E1,6E0,1.2E1,3E0,1E1,1.1E1,8E0,4E0,9E0,1E0,1E0,7E0,1E0,3E0,1E0,6E0,1E0,2E0],"tree_param":{"num_deleted":"0","num_feature":"31","num_nodes":"33","size_leaf_vector":"1"}},{"base_weights":[-1.8604445E-4,-3.924226E-2,4.8639394E-2,-5.4208387E-2,-1.1403442E-2,2.5501067E-2,8.761482E-2,-4.47257E-2,-7.350974E-4,-1.3391171E-2,1.0200098E-4,2.9792018E-2,-1.4466267E-4,9.1076613E-4,2.3036629E-4,-4.9980544E-2,-2.6325243E-2,-9.175926E-3,-2.374292E-4,1.2385528E-4,3.091339E-4,-2.1501155E-4,-5.251323E-4,-2.808039E-4,-7.897176E-5,-1.267137E-2,-1.0489434E-3,1.2113004E-5,-1.4558116E-2,5.302973E-5,-3.962666E-3,-2.5034546E-5,-1.5922575E-4,-5.9491394E-6,-4.886945E-5],"categories":[],"categories_nodes":[],"categories_segments":[],"categories_sizes":[],"default_left":[0,0,0,0,0,0,0,0,0,0,0,0,0,0,0,0,0,0,0,0,0,0,0,0,0,0,0,0,0,0,0,0,0,0,0],"id":29,"left_children":[1,3,5,7,9,11,13,15,-1,17,-1,19,-1,-1,-1,21,23,25,-1,-1,-1,-1,-1,-1,-1,27,29,-1,31,-1,33,-1,-1,-1,-1],"loss_changes":[1.5446368E-1,1.81306E-2,3.0231468E-2,2.0200536E-3,8.666045E-4,4.54693E-3,8.081421E-4,8.114651E-4,0E0,4.8029912E-4,0E0,4.6541914E-5,0E0,0E0,0E0,2.4974346E-5,4.6519563E-6,3.560047E-4,0E0,0E0,0E0,0E0,0E0,0E0,0E0,2.533719E-4,1.1355252E-4,0E0,9.172317E-5,0E0,9.543663E-6,0E0,0E0,0E0,0E0],"parents":[2147483647,0,0,1,1,2,2,3,3,4,4,5,5,6,6,7,7,9,9,11,11,15,15,16,16,17,17,25,25,26,26,28,28,30,30],"right_children":[2,4,6,8,10,12,14,16,-1,18,-1,20,-1,-1,-1,22,24,26,-1,-1,-1,-1,-1,-1,-1,28,30,-1,32,-1,34,-1,-1,-1,-1],"split_conditions":[1.6428107E-1,1.2492447E-1,3.184698E-1,1.5464666E-1,3.204787E-1,3.4819186E-1,3.2278594E-1,1.1665685E-1,-7.350974E-4,2.1235447E-1,1.0200098E-4,1.1405249E-1,-1.4466267E-4,9.1076613E-4,2.3036629E-4,1.1508581E-1,3.184698E-1,3.184698E-1,-2.374292E-4,1.2385528E-4,3.091339E-4,-2.1501155E-4,-5.251323E-4,-2.808039E-4,-7.897176E-5,6.2297076E-2,3.204787E-1,1.2113004E-5,3.1087015E-2,5.302973E-5,3.5422754E-1,-2.5034546E-5,-1.5922575E-4,-5.9491394E-6,-4.886945E-5],"split_indices":[29,29,20,22,10,0,1,22,0,24,0,22,0,0,0,6,3,0,0,0,0,0,0,0,0,0,0,0,7,0,0,0,0,0,0],"split_type":[0,0,0,0,0,0,0,0,0,0,0,0,0,0,0,0,0,0,0,0,0,0,0,0,0,0,0,0,0,0,0,0,0,0,0],"sum_hessian":[7.9E1,4.4E1,3.5E1,2.8E1,1.6E1,2.3E1,1.2E1,2.1E1,7E0,1.5E1,1E0,2.1E1,2E0,1.1E1,1E0,1.5E1,6E0,1.2E1,3E0,2E0,1.9E1,2E0,1.3E1,5E0,1E0,8E0,4E0,1E0,7E0,1E0,3E0,1E0,6E0,1E0,2E0],"tree_param":{"num_deleted":"0","num_feature":"31","num_nodes":"35","size_leaf_vector":"1"}},{"base_weights":[-1.9312119E-4,-3.8897492E-2,4.8192706E-2,-5.372958E-2,-1.1307607E-2,2.5258064E-2,8.682645E-2,-4.432844E-2,-7.2866515E-4,-1.328297E-2,1.0149099E-4,2.9513774E-2,-1.4369827E-4,1.0115381E-3,5.3252245E-4,-4.9526997E-2,-2.6113389E-2,-9.09755E-3,-2.3564843E-4,2.1748604E-2,3.4172367E-4,-2.1357817E-4,-5.2025606E-4,-2.784639E-4,-7.857688E-5,-1.2563788E-2,-1.0388106E-3,2.477072E-4,-4.2362884E-5,1.2052432E-5,-1.4435573E-2,5.2764564E-5,-3.9367415E-3,-2.4909377E-5,-1.57861E-4,-5.9194117E-6,-4.854361E-5],"categories":[],"categories_nodes":[],"categories_segments":[],"categories_sizes":[],"default_left":[0,0,0,0,0,0,0,0,0,0,0,0,0,0,0,0,0,0,0,0,0,0,0,0,0,0,0,0,0,0,0,0,0,0,0,0,0],"id":30,"left_children":[1,3,5,7,9,11,13,15,-1,17,-1,19,-1,-1,-1,21,23,25,-1,27,-1,-1,-1,-1,-1,29,31,-1,-1,-1,33,-1,35,-1,-1,-1,-1],"loss_changes":[1.5169403E-1,1.7807156E-2,2.9704764E-2,1.9873008E-3,8.5535133E-4,4.4715824E-3,8.667186E-4,7.899031E-4,0E0,4.74161E-4,0E0,5.264394E-5,0E0,0E0,0E0,1.4990568E-5,2.651941E-6,3.5008427E-4,0E0,9.687594E-4,0E0,0E0,0E0,0E0,0E0,2.493523E-4,1.1227808E-4,0E0,0E0,0E0,8.973037E-5,0E0,9.403528E-6,0E0,0E0,0E0,0E0],"parents":[2147483647,0,0,1,1,2,2,3,3,4,4,5,5,6,6,7,7,9,9,11,11,15,15,16,16,17,17,19,19,25,25,26,26,30,30,32,32],"right_children":[2,4,6,8,10,12,14,16,-1,18,-1,20,-1,-1,-1,22,24,26,-1,28,-1,-1,-1,-1,-1,30,32,-1,-1,-1,34,-1,36,-1,-1,-1,-1],"split_conditions":[1.6428107E-1,1.2492447E-1,3.184698E-1,1.5464666E-1,3.204787E-1,3.4819186E-1,2.5311434E-1,1.1665685E-1,-7.2866515E-4,2.1235447E-1,1.0149099E-4,1.9953994E-1,-1.4369827E-4,1.0115381E-3,5.3252245E-4,1.1508581E-1,3.184698E-1,3.184698E-1,-2.3564843E-4,2.6419267E-1,3.4172367E-4,-2.1357817E-4,-5.2025606E-4,-2.784639E-4,-7.857688E-5,6.2297076E-2,3.204787E-1,2.477072E-4,-4.2362884E-5,1.2052432E-5,3.1087015E-2,5.2764564E-5,3.5422754E-1,-2.4909377E-5,-1.57861E-4,-5.9194117E-6,-4.854361E-5],"split_indices":[29,29,20,22,10,0,4,22,0,24,0,27,0,0,0,6,3,0,0,5,0,0,0,0,0,0,0,0,0,0,7,0,0,0,0,0,0],"split_type":[0,0,0,0,0,0,0,0,0,0,0,0,0,0,0,0,0,0,0,0,0,0,0,0,0,0,0,0,0,0,0,0,0,0,0,0,0],"sum_hessian":[7.9E1,4.4E1,3.5E1,2.8E1,1.6E1,2.3E1,1.2E1,2.1E1,7E0,1.5E1,1E0,2.1E1,2E0,7E0,5E0,1.5E1,6E0,1.2E1,3E0,1E1,1.1E1,2E0,1.3E1,5E0,1E0,8E0,4E0,9E0,1E0,1E0,7E0,1E0,3E0,1E0,6E0,1E0,2E0],"tree_param":{"num_deleted":"0","num_feature":"31","num_nodes":"37","size_leaf_vector":"1"}},{"base_weights":[-1.9342313E-4,-3.8555764E-2,4.7764875E-2,-5.3255025E-2,-1.1212564E-2,2.502229E-2,8.607697E-2,-4.393474E-2,-7.222894E-4,-1.3175644E-2,1.00983525E-4,2.9243505E-2,-1.4274033E-4,1.002687E-3,5.2808475E-4,-4.907759E-2,-2.5903265E-4,-9.019836E-3,-2.3388107E-4,2.154979E-2,3.3859114E-4,-1.4516451E-4,-5.04139E-4,-1.2457117E-2,-1.0287613E-3,2.454779E-4,-4.2151063E-5,1.1992156E-5,-1.4314061E-2,5.2500738E-5,-3.9109886E-3,-2.4784802E-5,-1.565079E-4,-5.8898327E-6,-4.8219958E-5],"categories":[],"categories_nodes":[],"categories_segments":[],"categories_sizes":[],"default_left":[0,0,0,0,0,0,0,0,0,0,0,0,0,0,0,0,0,0,0,0,0,0,0,0,0,0,0,0,0,0,0,0,0,0,0],"id":31,"left_children":[1,3,5,7,9,11,13,15,-1,17,-1,19,-1,-1,-1,21,-1,23,-1,25,-1,-1,-1,27,29,-1,-1,-1,31,-1,33,-1,-1,-1,-1],"loss_changes":[1.4902501E-1,1.7489493E-2,2.9213533E-2,1.9550622E-3,8.442474E-4,4.3984978E-3,8.427575E-4,7.6885894E-4,0E0,4.6809972E-4,0E0,5.1589683E-5,0E0,0E0,0E0,7.122755E-6,0E0,3.4426304E-4,0E0,9.5314626E-4,0E0,0E0,0E0,2.453971E-4,1.1101813E-4,0E0,0E0,0E0,8.7777385E-5,0E0,9.265415E-6,0E0,0E0,0E0,0E0],"parents":[2147483647,0,0,1,1,2,2,3,3,4,4,5,5,6,6,7,7,9,9,11,11,15,15,17,17,19,19,23,23,24,24,28,28,30,30],"right_children":[2,4,6,8,10,12,14,16,-1,18,-1,20,-1,-1,-1,22,-1,24,-1,26,-1,-1,-1,28,30,-1,-1,-1,32,-1,34,-1,-1,-1,-1],"split_conditions":[1.6428107E-1,1.2492447E-1,3.184698E-1,1.5464666E-1,3.204787E-1,3.4819186E-1,2.5311434E-1,1.1665685E-1,-7.222894E-4,2.1235447E-1,1.00983525E-4,1.9953994E-1,-1.4274033E-4,1.002687E-3,5.2808475E-4,1.1405249E-1,-2.5903265E-4,3.184698E-1,-2.3388107E-4,2.6419267E-1,3.3859114E-4,-1.4516451E-4,-5.04139E-4,6.2297076E-2,3.204787E-1,2.454779E-4,-4.2151063E-5,1.1992156E-5,3.1087015E-2,5.2500738E-5,3.5422754E-1,-2.4784802E-5,-1.565079E-4,-5.8898327E-6,-4.8219958E-5],"split_indices":[29,29,20,22,10,0,4,22,0,24,0,27,0,0,0,6,0,0,0,5,0,0,0,0,0,0,0,0,7,0,0,0,0,0,0],"split_type":[0,0,0,0,0,0,0,0,0,0,0,0,0,0,0,0,0,0,0,0,0,0,0,0,0,0,0,0,0,0,0,0,0,0,0],"sum_hessian":[7.9E1,4.4E1,3.5E1,2.8E1,1.6E1,2.3E1,1.2E1,2.1E1,7E0,1.5E1,1E0,2.1E1,2E0,7E0,5E0,1.5E1,6E0,1.2E1,3E0,1E1,1.1E1,1E0,1.4E1,8E0,4E0,9E0,1E0,1E0,7E0,1E0,3E0,1E0,6E0,1E0,2E0],"tree_param":{"num_deleted":"0","num_feature":"31","num_nodes":"35","size_leaf_vector":"1"}},{"base_weights":[-1.9154539E-4,-3.8213197E-2,4.734084E-2,-5.2778706E-2,-1.1118311E-2,2.4788702E-2,8.533395E-2,-4.3536685E-2,-7.1596936E-4,-1.3069188E-2,1.004786E-4,2.8975703E-2,-1.4178874E-4,9.939136E-4,5.23684E-4,-4.86274E-2,-2.5681244E-2,-8.942785E-3,-2.3212703E-4,1.1974166E-4,3.0077147E-4,-2.0998997E-4,-5.107438E-4,-2.7398486E-4,-7.688887E-5,-1.2351359E-2,-1.0187954E-3,1.1932179E-5,-1.4193583E-2,5.2238254E-5,-3.885407E-3,-2.46609E-5,-1.551664E-4,-5.8604032E-6,-4.789849E-5],"categories":[],"categories_nodes":[],"categories_segments":[],"categories_sizes":[],"default_left":[0,0,0,0,0,0,0,0,0,0,0,0,0,0,0,0,0,0,0,0,0,0,0,0,0,0,0,0,0,0,0,0,0,0,0],"id":32,"left_children":[1,3,5,7,9,11,13,15,-1,17,-1,19,-1,-1,-1,21,23,25,-1,-1,-1,-1,-1,-1,-1,27,29,-1,31,-1,33,-1,-1,-1,-1],"loss_changes":[1.4638983E-1,1.7172478E-2,2.87304E-2,1.9265413E-3,8.3329156E-4,4.3266164E-3,8.1937015E-4,7.5092167E-4,0E0,4.6211365E-4,0E0,5.1829964E-5,0E0,0E0,0E0,9.190291E-6,5.6168064E-6,3.3854006E-4,0E0,0E0,0E0,0E0,0E0,0E0,0E0,2.4150533E-4,1.0977253E-4,0E0,8.586375E-5,0E0,9.129297E-6,0E0,0E0,0E0,0E0],"parents":[2147483647,0,0,1,1,2,2,3,3,4,4,5,5,6,6,7,7,9,9,11,11,15,15,16,16,17,17,25,25,26,26,28,28,30,30],"right_children":[2,4,6,8,10,12,14,16,-1,18,-1,20,-1,-1,-1,22,24,26,-1,-1,-1,-1,-1,-1,-1,28,30,-1,32,-1,34,-1,-1,-1,-1],"split_conditions":[1.6428107E-1,1.2492447E-1,3.184698E-1,1.5464666E-1,3.204787E-1,3.4819186E-1,2.5311434E-1,1.1665685E-1,-7.1596936E-4,2.1235447E-1,1.004786E-4,1.1405249E-1,-1.4178874E-4,9.939136E-4,5.23684E-4,1.1508581E-1,3.184698E-1,3.184698E-1,-2.3212703E-4,1.1974166E-4,3.0077147E-4,-2.0998997E-4,-5.107438E-4,-2.7398486E-4,-7.688887E-5,6.2297076E-2,3.204787E-1,1.1932179E-5,3.1087015E-2,5.2238254E-5,3.5422754E-1,-2.46609E-5,-1.551664E-4,-5.8604032E-6,-4.789849E-5],"split_indices":[29,29,20,22,10,0,4,22,0,24,0,22,0,0,0,6,3,0,0,0,0,0,0,0,0,0,0,0,7,0,0,0,0,0,0],"split_type":[0,0,0,0,0,0,0,0,0,0,0,0,0,0,0,0,0,0,0,0,0,0,0,0,0,0,0,0,0,0,0,0,0,0,0],"sum_hessian":[7.9E1,4.4E1,3.5E1,2.8E1,1.6E1,2.3E1,1.2E1,2.1E1,7E0,1.5E1,1E0,2.1E1,2E0,7E0,5E0,1.5E1,6E0,1.2E1,3E0,2E0,1.9E1,2E0,1.3E1,5E0,1E0,8E0,4E0,1E0,7E0,1E0,3E0,1E0,6E0,1E0,2E0],"tree_param":{"num_deleted":"0","num_feature":"31","num_nodes":"35","size_leaf_vector":"1"}},{"base_weights":[-1.9328324E-4,-3.787748E-2,4.691733E-2,-5.2312564E-2,-1.1024839E-2,2.4552433E-2,8.459735E-2,-4.315003E-2,-7.097046E-4,-1.2963595E-2,9.997621E-5,2.8705066E-2,-1.408435E-4,9.852169E-4,5.1932E-4,-4.8186173E-4,-2.5474554E-2,-8.866391E-3,-2.3038605E-4,2.1112263E-2,3.3273044E-4,-2.7170163E-4,-7.6504424E-5,-1.2246501E-2,-1.008916E-3,2.4092372E-4,-4.344411E-5,1.18725E-5,-1.4074126E-2,5.1977036E-5,-3.8599968E-3,-2.4537592E-5,-1.5383642E-4,-5.831122E-6,-4.7579208E-5],"categories":[],"categories_nodes":[],"categories_segments":[],"categories_sizes":[],"default_left":[0,0,0,0,0,0,0,0,0,0,0,0,0,0,0,0,0,0,0,0,0,0,0,0,0,0,0,0,0,0,0,0,0,0,0],"id":33,"left_children":[1,3,5,7,9,11,13,15,-1,17,-1,19,-1,-1,-1,-1,21,23,-1,25,-1,-1,-1,27,29,-1,-1,-1,31,-1,33,-1,-1,-1,-1],"loss_changes":[1.4380316E-1,1.6866162E-2,2.8260484E-2,1.8952787E-3,8.22481E-4,4.2549577E-3,7.965416E-4,7.308386E-4,0E0,4.5620045E-4,0E0,6.0575083E-5,0E0,0E0,0E0,0E0,3.695488E-6,3.329129E-4,0E0,9.3916757E-4,0E0,0E0,0E0,2.3767632E-4,1.08541E-4,0E0,0E0,0E0,8.398853E-5,0E0,8.995172E-6,0E0,0E0,0E0,0E0],"parents":[2147483647,0,0,1,1,2,2,3,3,4,4,5,5,6,6,7,7,9,9,11,11,16,16,17,17,19,19,23,23,24,24,28,28,30,30],"right_children":[2,4,6,8,10,12,14,16,-1,18,-1,20,-1,-1,-1,-1,22,24,-1,26,-1,-1,-1,28,30,-1,-1,-1,32,-1,34,-1,-1,-1,-1],"split_conditions":[1.6428107E-1,1.2492447E-1,3.184698E-1,1.5464666E-1,3.204787E-1,3.4819186E-1,2.5311434E-1,1.1665685E-1,-7.097046E-4,2.1235447E-1,9.997621E-5,1.9953994E-1,-1.408435E-4,9.852169E-4,5.1932E-4,-4.8186173E-4,3.184698E-1,3.184698E-1,-2.3038605E-4,2.6419267E-1,3.3273044E-4,-2.7170163E-4,-7.6504424E-5,6.2297076E-2,3.204787E-1,2.4092372E-4,-4.344411E-5,1.18725E-5,3.1087015E-2,5.1977036E-5,3.5422754E-1,-2.4537592E-5,-1.5383642E-4,-5.831122E-6,-4.7579208E-5],"split_indices":[29,29,20,22,10,0,4,22,0,24,0,27,0,0,0,0,3,0,0,5,0,0,0,0,0,0,0,0,7,0,0,0,0,0,0],"split_type":[0,0,0,0,0,0,0,0,0,0,0,0,0,0,0,0,0,0,0,0,0,0,0,0,0,0,0,0,0,0,0,0,0,0,0],"sum_hessian":[7.9E1,4.4E1,3.5E1,2.8E1,1.6E1,2.3E1,1.2E1,2.1E1,7E0,1.5E1,1E0,2.1E1,2E0,7E0,5E0,1.5E1,6E0,1.2E1,3E0,1E1,1.1E1,5E0,1E0,8E0,4E0,9E0,1E0,1E0,7E0,1E0,3E0,1E0,6E0,1E0,2E0],"tree_param":{"num_deleted":"0","num_feature":"31","num_nodes":"35","size_leaf_vector":"1"}},{"base_weights":[-1.9065337E-4,-3.7539553E-2,4.650077E-2,-5.1842537E-2,-1.0932139E-2,2.4323134E-2,8.386711E-2,-4.2756263E-2,-7.034947E-4,-1.2858853E-2,9.947635E-5,2.8442116E-2,-1.3990454E-4,8.7211095E-4,2.1869637E-4,-4.7734432E-2,-2.5269547E-2,-8.790644E-3,-2.2865814E-4,2.0919094E-2,3.2968045E-4,-2.0537766E-4,-5.0152687E-4,-2.694374E-4,-7.612191E-5,-1.2142534E-2,-9.991139E-4,2.3875541E-4,-4.3226926E-5,1.1813118E-5,-1.3955679E-2,5.171716E-5,-3.8347505E-3,-2.4414881E-5,-1.5251778E-4,-5.8019905E-6,-4.7262012E-5],"categories":[],"categories_nodes":[],"categories_segments":[],"categories_sizes":[],"default_left":[0,0,0,0,0,0,0,0,0,0,0,0,0,0,0,0,0,0,0,0,0,0,0,0,0,0,0,0,0,0,0,0,0,0,0,0,0],"id":34,"left_children":[1,3,5,7,9,11,13,15,-1,17,-1,19,-1,-1,-1,21,23,25,-1,27,-1,-1,-1,-1,-1,29,31,-1,-1,-1,33,-1,35,-1,-1,-1,-1],"loss_changes":[1.4125548E-1,1.6558692E-2,2.7793176E-2,1.8687397E-3,8.1181386E-4,4.1854316E-3,7.87884E-4,7.0891157E-4,0E0,4.503613E-4,0E0,5.9407204E-5,0E0,0E0,0E0,2.2269785E-5,1.8323772E-6,3.2738096E-4,0E0,9.240927E-4,0E0,0E0,0E0,0E0,0E0,2.3390842E-4,1.073234E-4,0E0,0E0,0E0,8.2151266E-5,0E0,8.8629495E-6,0E0,0E0,0E0,0E0],"parents":[2147483647,0,0,1,1,2,2,3,3,4,4,5,5,6,6,7,7,9,9,11,11,15,15,16,16,17,17,19,19,25,25,26,26,30,30,32,32],"right_children":[2,4,6,8,10,12,14,16,-1,18,-1,20,-1,-1,-1,22,24,26,-1,28,-1,-1,-1,-1,-1,30,32,-1,-1,-1,34,-1,36,-1,-1,-1,-1],"split_conditions":[1.6428107E-1,1.2492447E-1,3.184698E-1,1.5464666E-1,3.204787E-1,3.4819186E-1,3.2278594E-1,1.1665685E-1,-7.034947E-4,2.1235447E-1,9.947635E-5,1.9953994E-1,-1.3990454E-4,8.7211095E-4,2.1869637E-4,1.1508581E-1,3.184698E-1,3.184698E-1,-2.2865814E-4,2.6419267E-1,3.2968045E-4,-2.0537766E-4,-5.0152687E-4,-2.694374E-4,-7.612191E-5,6.2297076E-2,3.204787E-1,2.3875541E-4,-4.3226926E-5,1.1813118E-5,3.1087015E-2,5.171716E-5,3.5422754E-1,-2.4414881E-5,-1.5251778E-4,-5.8019905E-6,-4.7262012E-5],"split_indices":[29,29,20,22,10,0,1,22,0,24,0,27,0,0,0,6,3,0,0,5,0,0,0,0,0,0,0,0,0,0,7,0,0,0,0,0,0],"split_type":[0,0,0,0,0,0,0,0,0,0,0,0,0,0,0,0,0,0,0,0,0,0,0,0,0,0,0,0,0,0,0,0,0,0,0,0,0],"sum_hessian":[7.9E1,4.4E1,3.5E1,2.8E1,1.6E1,2.3E1,1.2E1,2.1E1,7E0,1.5E1,1E0,2.1E1,2E0,1.1E1,1E0,1.5E1,6E0,1.2E1,3E0,1E1,1.1E1,2E0,1.3E1,5E0,1E0,8E0,4E0,9E0,1E0,1E0,7E0,1E0,3E0,1E0,6E0,1E0,2E0],"tree_param":{"num_deleted":"0","num_feature":"31","num_nodes":"37","size_leaf_vector":"1"}},{"base_weights":[-1.9593882E-4,-3.720975E-2,4.6076767E-2,-5.1384658E-2,-1.0840211E-2,2.4095958E-2,8.311235E-2,-4.2376537E-2,-6.9733907E-4,-1.2754962E-2,9.897895E-5,2.818157E-2,-1.3897182E-4,9.689653E-4,5.088138E-4,-4.730127E-2,-2.5066215E-4,-8.715546E-3,-2.2694322E-4,2.0727674E-2,3.2665845E-4,-2.0400844E-4,-4.9686985E-4,-1.2039459E-2,-9.893924E-4,2.3660656E-4,-4.3010787E-5,1.1754036E-5,-1.3838243E-2,5.145855E-5,-3.8096681E-3,-2.4292842E-5,-1.5121052E-4,-5.7730076E-6,-4.6946905E-5],"categories":[],"categories_nodes":[],"categories_segments":[],"categories_sizes":[],"default_left":[0,0,0,0,0,0,0,0,0,0,0,0,0,0,0,0,0,0,0,0,0,0,0,0,0,0,0,0,0,0,0,0,0,0,0],"id":35,"left_children":[1,3,5,7,9,11,13,15,-1,17,-1,19,-1,-1,-1,21,-1,23,-1,25,-1,-1,-1,27,29,-1,-1,-1,31,-1,33,-1,-1,-1,-1],"loss_changes":[1.3873284E-1,1.6263347E-2,2.7303912E-2,1.8383935E-3,8.012883E-4,4.1170493E-3,8.453876E-4,6.898083E-4,0E0,4.4459384E-4,0E0,5.827099E-5,0E0,0E0,0E0,1.3168901E-5,0E0,3.2194215E-4,0E0,9.092642E-4,0E0,0E0,0E0,2.3020152E-4,1.0611945E-4,0E0,0E0,0E0,8.03509E-5,0E0,8.732619E-6,0E0,0E0,0E0,0E0],"parents":[2147483647,0,0,1,1,2,2,3,3,4,4,5,5,6,6,7,7,9,9,11,11,15,15,17,17,19,19,23,23,24,24,28,28,30,30],"right_children":[2,4,6,8,10,12,14,16,-1,18,-1,20,-1,-1,-1,22,-1,24,-1,26,-1,-1,-1,28,30,-1,-1,-1,32,-1,34,-1,-1,-1,-1],"split_conditions":[1.6428107E-1,1.2492447E-1,3.184698E-1,1.5464666E-1,3.204787E-1,3.4819186E-1,2.5311434E-1,1.1665685E-1,-6.9733907E-4,2.1235447E-1,9.897895E-5,1.9953994E-1,-1.3897182E-4,9.689653E-4,5.088138E-4,1.1508581E-1,-2.5066215E-4,3.184698E-1,-2.2694322E-4,2.6419267E-1,3.2665845E-4,-2.0400844E-4,-4.9686985E-4,6.2297076E-2,3.204787E-1,2.3660656E-4,-4.3010787E-5,1.1754036E-5,3.1087015E-2,5.145855E-5,3.5422754E-1,-2.4292842E-5,-1.5121052E-4,-5.7730076E-6,-4.6946905E-5],"split_indices":[29,29,20,22,10,0,4,22,0,24,0,27,0,0,0,6,0,0,0,5,0,0,0,0,0,0,0,0,7,0,0,0,0,0,0],"split_type":[0,0,0,0,0,0,0,0,0,0,0,0,0,0,0,0,0,0,0,0,0,0,0,0,0,0,0,0,0,0,0,0,0,0,0],"sum_hessian":[7.9E1,4.4E1,3.5E1,2.8E1,1.6E1,2.3E1,1.2E1,2.1E1,7E0,1.5E1,1E0,2.1E1,2E0,7E0,5E0,1.5E1,6E0,1.2E1,3E0,1E1,1.1E1,2E0,1.3E1,8E0,4E0,9E0,1E0,1E0,7E0,1E0,3E0,1E0,6E0,1E0,2E0],"tree_param":{"num_deleted":"0","num_feature":"31","num_nodes":"35","size_leaf_vector":"1"}},{"base_weights":[-1.9501364E-4,-3.6880802E-2,4.5667637E-2,-5.092767E-2,-1.074904E-2,2.3870885E-2,8.2394905E-2,-4.1996025E-2,-6.912373E-4,-1.2651905E-2,9.848408E-5,2.7923403E-2,-1.3804538E-4,9.604869E-4,5.045737E-4,-4.6872064E-2,-2.4851358E-2,-8.64108E-3,-2.2524112E-4,1.1416812E-4,2.900322E-4,-2.0264836E-4,-4.922561E-4,-2.6510315E-4,-7.4487994E-5,-1.1937256E-2,-9.797483E-4,1.1695251E-5,-1.3721794E-2,5.120128E-5,-3.7847497E-3,-2.4171397E-5,-1.4991438E-4,-5.744174E-6,-4.6633875E-5],"categories":[],"categories_nodes":[],"categories_segments":[],"categories_sizes":[],"default_left":[0,0,0,0,0,0,0,0,0,0,0,0,0,0,0,0,0,0,0,0,0,0,0,0,0,0,0,0,0,0,0,0,0,0,0],"id":36,"left_children":[1,3,5,7,9,11,13,15,-1,17,-1,19,-1,-1,-1,21,23,25,-1,-1,-1,-1,-1,-1,-1,27,29,-1,31,-1,33,-1,-1,-1,-1],"loss_changes":[1.3628486E-1,1.59707E-2,2.6852429E-2,1.8101782E-3,7.909022E-4,4.0497966E-3,8.2252175E-4,6.7432225E-4,0E0,4.3889857E-4,0E0,6.1005354E-5,0E0,0E0,0E0,4.3921173E-6,4.6212226E-6,3.1659473E-4,0E0,0E0,0E0,0E0,0E0,0E0,0E0,2.2655388E-4,1.0492921E-4,0E0,7.858663E-5,0E0,8.604151E-6,0E0,0E0,0E0,0E0],"parents":[2147483647,0,0,1,1,2,2,3,3,4,4,5,5,6,6,7,7,9,9,11,11,15,15,16,16,17,17,25,25,26,26,28,28,30,30],"right_children":[2,4,6,8,10,12,14,16,-1,18,-1,20,-1,-1,-1,22,24,26,-1,-1,-1,-1,-1,-1,-1,28,30,-1,32,-1,34,-1,-1,-1,-1],"split_conditions":[1.6428107E-1,1.2492447E-1,3.184698E-1,1.5464666E-1,3.204787E-1,3.4819186E-1,2.5311434E-1,1.1665685E-1,-6.912373E-4,2.1235447E-1,9.848408E-5,1.1405249E-1,-1.3804538E-4,9.604869E-4,5.045737E-4,1.1508581E-1,3.184698E-1,3.184698E-1,-2.2524112E-4,1.1416812E-4,2.900322E-4,-2.0264836E-4,-4.922561E-4,-2.6510315E-4,-7.4487994E-5,6.2297076E-2,3.204787E-1,1.1695251E-5,3.1087015E-2,5.120128E-5,3.5422754E-1,-2.4171397E-5,-1.4991438E-4,-5.744174E-6,-4.6633875E-5],"split_indices":[29,29,20,22,10,0,4,22,0,24,0,22,0,0,0,6,3,0,0,0,0,0,0,0,0,0,0,0,7,0,0,0,0,0,0],"split_type":[0,0,0,0,0,0,0,0,0,0,0,0,0,0,0,0,0,0,0,0,0,0,0,0,0,0,0,0,0,0,0,0,0,0,0],"sum_hessian":[7.9E1,4.4E1,3.5E1,2.8E1,1.6E1,2.3E1,1.2E1,2.1E1,7E0,1.5E1,1E0,2.1E1,2E0,7E0,5E0,1.5E1,6E0,1.2E1,3E0,2E0,1.9E1,2E0,1.3E1,5E0,1E0,8E0,4E0,1E0,7E0,1E0,3E0,1E0,6E0,1E0,2E0],"tree_param":{"num_deleted":"0","num_feature":"31","num_nodes":"35","size_leaf_vector":"1"}},{"base_weights":[-1.9662296E-4,-3.655679E-2,4.525905E-2,-5.04779E-2,-1.0658624E-2,2.3643263E-2,8.168366E-2,-4.1623082E-2,-6.8518904E-4,-1.2549683E-2,9.799167E-5,2.7662538E-2,-1.3712507E-4,9.520826E-4,5.0036894E-4,-4.6446768E-4,-2.4651354E-2,-8.5672485E-3,-2.2355177E-4,2.0306306E-2,3.2100535E-4,-2.6289394E-4,-7.4115545E-5,-1.18359225E-2,-9.701848E-4,2.3221856E-4,-4.4245942E-5,1.1636764E-5,-1.3606332E-2,5.094528E-5,-3.759995E-3,-2.4050549E-5,-1.4862935E-4,-5.7154894E-6,-4.632294E-5],"categories":[],"categories_nodes":[],"categories_segments":[],"categories_sizes":[],"default_left":[0,0,0,0,0,0,0,0,0,0,0,0,0,0,0,0,0,0,0,0,0,0,0,0,0,0,0,0,0,0,0,0,0,0,0],"id":37,"left_children":[1,3,5,7,9,11,13,15,-1,17,-1,19,-1,-1,-1,-1,21,23,-1,25,-1,-1,-1,27,29,-1,-1,-1,31,-1,33,-1,-1,-1,-1],"loss_changes":[1.3387659E-1,1.5685882E-2,2.641321E-2,1.7807707E-3,7.806539E-4,3.9827563E-3,8.001998E-4,6.560832E-4,0E0,4.332736E-4,0E0,6.639026E-5,0E0,0E0,0E0,0E0,2.830755E-6,3.113373E-4,0E0,8.958932E-4,0E0,0E0,0E0,2.229648E-4,1.0375239E-4,0E0,0E0,0E0,7.685821E-5,0E0,8.477535E-6,0E0,0E0,0E0,0E0],"parents":[2147483647,0,0,1,1,2,2,3,3,4,4,5,5,6,6,7,7,9,9,11,11,16,16,17,17,19,19,23,23,24,24,28,28,30,30],"right_children":[2,4,6,8,10,12,14,16,-1,18,-1,20,-1,-1,-1,-1,22,24,-1,26,-1,-1,-1,28,30,-1,-1,-1,32,-1,34,-1,-1,-1,-1],"split_conditions":[1.6428107E-1,1.2492447E-1,3.184698E-1,1.5464666E-1,3.204787E-1,3.4819186E-1,2.5311434E-1,1.1665685E-1,-6.8518904E-4,2.1235447E-1,9.799167E-5,1.9953994E-1,-1.3712507E-4,9.520826E-4,5.0036894E-4,-4.6446768E-4,3.184698E-1,3.184698E-1,-2.2355177E-4,2.6419267E-1,3.2100535E-4,-2.6289394E-4,-7.4115545E-5,6.2297076E-2,3.204787E-1,2.3221856E-4,-4.4245942E-5,1.1636764E-5,3.1087015E-2,5.094528E-5,3.5422754E-1,-2.4050549E-5,-1.4862935E-4,-5.7154894E-6,-4.632294E-5],"split_indices":[29,29,20,22,10,0,4,22,0,24,0,27,0,0,0,0,3,0,0,5,0,0,0,0,0,0,0,0,7,0,0,0,0,0,0],"split_type":[0,0,0,0,0,0,0,0,0,0,0,0,0,0,0,0,0,0,0,0,0,0,0,0,0,0,0,0,0,0,0,0,0,0,0],"sum_hessian":[7.9E1,4.4E1,3.5E1,2.8E1,1.6E1,2.3E1,1.2E1,2.1E1,7E0,1.5E1,1E0,2.1E1,2E0,7E0,5E0,1.5E1,6E0,1.2E1,3E0,1E1,1.1E1,5E0,1E0,8E0,4E0,9E0,1E0,1E0,7E0,1E0,3E0,1E0,6E0,1E0,2E0],"tree_param":{"num_deleted":"0","num_feature":"31","num_nodes":"35","size_leaf_vector":"1"}},{"base_weights":[-1.9403166E-4,-3.6230654E-2,4.4857137E-2,-5.0024383E-2,-1.0568962E-2,2.3422325E-2,8.097855E-2,-4.124328E-2,-6.7919365E-4,-1.2448294E-2,9.7501725E-5,2.7409049E-2,-1.3621095E-4,9.437519E-4,4.9619924E-4,-4.6011332E-2,-2.4452979E-2,-8.494049E-3,-2.2187518E-4,2.012033E-2,3.1806287E-4,-1.9820087E-4,-4.8337216E-4,-2.607031E-4,-7.374495E-5,-1.1735461E-2,-9.606987E-4,2.3012857E-4,-4.4024735E-5,1.1578574E-5,-1.3491858E-2,5.0690545E-5,-3.7354007E-3,-2.3930295E-5,-1.4735543E-4,-5.686879E-6,-4.601409E-5],"categories":[],"categories_nodes":[],"categories_segments":[],"categories_sizes":[],"default_left":[0,0,0,0,0,0,0,0,0,0,0,0,0,0,0,0,0,0,0,0,0,0,0,0,0,0,0,0,0,0,0,0,0,0,0,0,0],"id":38,"left_children":[1,3,5,7,9,11,13,15,-1,17,-1,19,-1,-1,-1,21,23,25,-1,27,-1,-1,-1,-1,-1,29,31,-1,-1,-1,33,-1,35,-1,-1,-1,-1],"loss_changes":[1.3150455E-1,1.5399966E-2,2.5976501E-2,1.755774E-3,7.7054196E-4,3.917706E-3,7.784143E-4,6.36138E-4,0E0,4.277185E-4,0E0,6.51516E-5,0E0,0E0,0E0,1.6637146E-5,1.0961667E-6,3.061687E-4,0E0,8.8157505E-4,0E0,0E0,0E0,0E0,0E0,2.194338E-4,1.025888E-4,0E0,0E0,0E0,7.5165066E-5,0E0,8.352836E-6,0E0,0E0,0E0,0E0],"parents":[2147483647,0,0,1,1,2,2,3,3,4,4,5,5,6,6,7,7,9,9,11,11,15,15,16,16,17,17,19,19,25,25,26,26,30,30,32,32],"right_children":[2,4,6,8,10,12,14,16,-1,18,-1,20,-1,-1,-1,22,24,26,-1,28,-1,-1,-1,-1,-1,30,32,-1,-1,-1,34,-1,36,-1,-1,-1,-1],"split_conditions":[1.6428107E-1,1.2492447E-1,3.184698E-1,1.5464666E-1,3.204787E-1,3.4819186E-1,2.5311434E-1,1.1665685E-1,-6.7919365E-4,2.1235447E-1,9.7501725E-5,1.9953994E-1,-1.3621095E-4,9.437519E-4,4.9619924E-4,1.1508581E-1,3.184698E-1,3.184698E-1,-2.2187518E-4,2.6419267E-1,3.1806287E-4,-1.9820087E-4,-4.8337216E-4,-2.607031E-4,-7.374495E-5,6.2297076E-2,3.204787E-1,2.3012857E-4,-4.4024735E-5,1.1578574E-5,3.1087015E-2,5.0690545E-5,3.5422754E-1,-2.3930295E-5,-1.4735543E-4,-5.686879E-6,-4.601409E-5],"split_indices":[29,29,20,22,10,0,4,22,0,24,0,27,0,0,0,6,3,0,0,5,0,0,0,0,0,0,0,0,0,0,7,0,0,0,0,0,0],"split_type":[0,0,0,0,0,0,0,0,0,0,0,0,0,0,0,0,0,0,0,0,0,0,0,0,0,0,0,0,0,0,0,0,0,0,0,0,0],"sum_hessian":[7.9E1,4.4E1,3.5E1,2.8E1,1.6E1,2.3E1,1.2E1,2.1E1,7E0,1.5E1,1E0,2.1E1,2E0,7E0,5E0,1.5E1,6E0,1.2E1,3E0,1E1,1.1E1,2E0,1.3E1,5E0,1E0,8E0,4E0,9E0,1E0,1E0,7E0,1E0,3E0,1E0,6E0,1E0,2E0],"tree_param":{"num_deleted":"0","num_feature":"31","num_nodes":"37","size_leaf_vector":"1"}},{"base_weights":[-1.9424567E-4,-3.5912354E-2,4.4458784E-2,-4.9582593E-2,-1.0480042E-2,2.3203429E-2,8.027953E-2,-4.087703E-2,-6.732507E-4,-1.2347722E-2,9.701423E-5,2.7157871E-2,-1.3530286E-4,8.351027E-4,2.0755321E-4,-4.5593813E-2,-2.4256232E-4,-8.42147E-3,-2.2021109E-4,1.1032462E-4,2.821879E-4,-1.3460584E-4,-4.683865E-4,-1.163585E-2,-9.512931E-4,1.1520683E-5,-1.3378348E-2,5.0437076E-5,-3.7109703E-3,-2.3810639E-5,-1.4609237E-4,-5.6584176E-6,-4.5707322E-5],"categories":[],"categories_nodes":[],"categories_segments":[],"categories_sizes":[],"default_left":[0,0,0,0,0,0,0,0,0,0,0,0,0,0,0,0,0,0,0,0,0,0,0,0,0,0,0,0,0,0,0,0,0],"id":39,"left_children":[1,3,5,7,9,11,13,15,-1,17,-1,19,-1,-1,-1,21,-1,23,-1,-1,-1,-1,-1,25,27,-1,29,-1,31,-1,-1,-1,-1],"loss_changes":[1.2919036E-1,1.5125331E-2,2.5547013E-2,1.7272457E-3,7.6056353E-4,3.8537271E-3,7.6670945E-4,6.1879307E-4,0E0,4.2223232E-4,0E0,6.5047294E-5,0E0,0E0,0E0,9.536743E-6,0E0,3.010867E-4,0E0,0E0,0E0,0E0,0E0,2.1595915E-4,1.0143838E-4,0E0,7.350603E-5,0E0,8.229941E-6,0E0,0E0,0E0,0E0],"parents":[2147483647,0,0,1,1,2,2,3,3,4,4,5,5,6,6,7,7,9,9,11,11,15,15,17,17,23,23,24,24,26,26,28,28],"right_children":[2,4,6,8,10,12,14,16,-1,18,-1,20,-1,-1,-1,22,-1,24,-1,-1,-1,-1,-1,26,28,-1,30,-1,32,-1,-1,-1,-1],"split_conditions":[1.6428107E-1,1.2492447E-1,3.184698E-1,1.5464666E-1,3.204787E-1,3.4819186E-1,3.2278594E-1,1.1665685E-1,-6.732507E-4,2.1235447E-1,9.701423E-5,1.1405249E-1,-1.3530286E-4,8.351027E-4,2.0755321E-4,1.1405249E-1,-2.4256232E-4,3.184698E-1,-2.2021109E-4,1.1032462E-4,2.821879E-4,-1.3460584E-4,-4.683865E-4,6.2297076E-2,3.204787E-1,1.1520683E-5,3.1087015E-2,5.0437076E-5,3.5422754E-1,-2.3810639E-5,-1.4609237E-4,-5.6584176E-6,-4.5707322E-5],"split_indices":[29,29,20,22,10,0,1,22,0,24,0,22,0,0,0,6,0,0,0,0,0,0,0,0,0,0,7,0,0,0,0,0,0],"split_type":[0,0,0,0,0,0,0,0,0,0,0,0,0,0,0,0,0,0,0,0,0,0,0,0,0,0,0,0,0,0,0,0,0],"sum_hessian":[7.9E1,4.4E1,3.5E1,2.8E1,1.6E1,2.3E1,1.2E1,2.1E1,7E0,1.5E1,1E0,2.1E1,2E0,1.1E1,1E0,1.5E1,6E0,1.2E1,3E0,2E0,1.9E1,1E0,1.4E1,8E0,4E0,1E0,7E0,1E0,3E0,1E0,6E0,1E0,2E0],"tree_param":{"num_deleted":"0","num_feature":"31","num_nodes":"33","size_leaf_vector":"1"}},{"base_weights":[-1.985711E-4,-3.559326E-2,4.4050306E-2,-4.913914E-2,-1.0391861E-2,2.2982117E-2,7.9556935E-2,-4.050669E-2,-6.6735974E-4,-1.2247967E-2,9.6529126E-5,2.6904138E-2,-1.3440085E-4,9.28187E-4,4.86151E-4,-4.174831E-2,-7.216341E-5,-8.349512E-3,-2.1855952E-4,1.9710757E-2,3.1256056E-4,-1.5152484E-4,-4.375037E-4,-1.153709E-2,-9.4196794E-4,2.2586144E-4,-4.5215562E-5,1.146309E-5,-1.3265803E-2,5.0184874E-5,-3.6867037E-3,-2.3691578E-5,-1.4484016E-4,-5.6301055E-6,-4.5402645E-5],"categories":[],"categories_nodes":[],"categories_segments":[],"categories_sizes":[],"default_left":[0,0,0,0,0,0,0,0,0,0,0,0,0,0,0,0,0,0,0,0,0,0,0,0,0,0,0,0,0,0,0,0,0,0,0],"id":40,"left_children":[1,3,5,7,9,11,13,15,-1,17,-1,19,-1,-1,-1,21,-1,23,-1,25,-1,-1,-1,27,29,-1,-1,-1,31,-1,33,-1,-1,-1,-1],"loss_changes":[1.268619E-1,1.4851235E-2,2.5101788E-2,1.7019585E-3,7.50717E-4,3.7899604E-3,8.2206726E-4,6.0807914E-4,0E0,4.1681435E-4,0E0,7.263012E-5,0E0,0E0,0E0,4.552491E-4,0E0,2.960901E-4,0E0,8.6857425E-4,0E0,0E0,0E0,2.1254027E-4,1.00301055E-4,0E0,0E0,0E0,7.1880524E-5,0E0,8.108833E-6,0E0,0E0,0E0,0E0],"parents":[2147483647,0,0,1,1,2,2,3,3,4,4,5,5,6,6,7,7,9,9,11,11,15,15,17,17,19,19,23,23,24,24,28,28,30,30],"right_children":[2,4,6,8,10,12,14,16,-1,18,-1,20,-1,-1,-1,22,-1,24,-1,26,-1,-1,-1,28,30,-1,-1,-1,32,-1,34,-1,-1,-1,-1],"split_conditions":[1.6428107E-1,1.2492447E-1,3.184698E-1,1.5464666E-1,3.204787E-1,3.4819186E-1,2.5311434E-1,3.184698E-1,-6.6735974E-4,2.1235447E-1,9.6529126E-5,1.9953994E-1,-1.3440085E-4,9.28187E-4,4.86151E-4,1.1405249E-1,-7.216341E-5,3.184698E-1,-2.1855952E-4,2.6419267E-1,3.1256056E-4,-1.5152484E-4,-4.375037E-4,6.2297076E-2,3.204787E-1,2.2586144E-4,-4.5215562E-5,1.146309E-5,3.1087015E-2,5.0184874E-5,3.5422754E-1,-2.3691578E-5,-1.4484016E-4,-5.6301055E-6,-4.5402645E-5],"split_indices":[29,29,20,22,10,0,4,3,0,24,0,27,0,0,0,6,0,0,0,5,0,0,0,0,0,0,0,0,7,0,0,0,0,0,0],"split_type":[0,0,0,0,0,0,0,0,0,0,0,0,0,0,0,0,0,0,0,0,0,0,0,0,0,0,0,0,0,0,0,0,0,0,0],"sum_hessian":[7.9E1,4.4E1,3.5E1,2.8E1,1.6E1,2.3E1,1.2E1,2.1E1,7E0,1.5E1,1E0,2.1E1,2E0,7E0,5E0,2E1,1E0,1.2E1,3E0,1E1,1.1E1,2E0,1.8E1,8E0,4E0,9E0,1E0,1E0,7E0,1E0,3E0,1E0,6E0,1E0,2E0],"tree_param":{"num_deleted":"0","num_feature":"31","num_nodes":"35","size_leaf_vector":"1"}},{"base_weights":[-1.9452935E-4,-3.527307E-2,4.3659054E-2,-4.869356E-2,-1.030441E-2,2.2767242E-2,7.887016E-2,-4.013168E-2,-6.6152035E-4,-1.2149017E-2,9.6046475E-5,2.6657514E-2,-1.3350489E-4,9.200653E-4,4.8209974E-4,-4.478328E-2,-2.3766367E-4,-8.278163E-3,-2.1692035E-4,1.9530075E-2,3.096954E-2,-1.9290613E-4,-4.7047186E-4,-1.1439171E-2,-9.3271735E-4,2.2382874E-4,-4.498951E-5,9.2221344E-5,3.2108199E-4,1.1405796E-5,-1.3154212E-2,4.993394E-5,-3.6625937E-3,-2.3573115E-5,-1.4359868E-4,-5.6019426E-6,-4.509995E-5],"categories":[],"categories_nodes":[],"categories_segments":[],"categories_sizes":[],"default_left":[0,0,0,0,0,0,0,0,0,0,0,0,0,0,0,0,0,0,0,0,0,0,0,0,0,0,0,0,0,0,0,0,0,0,0,0,0],"id":41,"left_children":[1,3,5,7,9,11,13,15,-1,17,-1,19,-1,-1,-1,21,-1,23,-1,25,27,-1,-1,29,31,-1,-1,-1,-1,-1,33,-1,35,-1,-1,-1,-1],"loss_changes":[1.2460557E-1,1.4577366E-2,2.4686806E-2,1.6800463E-3,7.4100133E-4,3.728076E-3,8.0029666E-4,6.1040744E-4,0E0,4.114639E-4,0E0,7.130392E-5,0E0,0E0,0E0,1.5839934E-5,0E0,2.9117765E-4,0E0,8.5474923E-4,1.0496005E-6,0E0,0E0,2.0917656E-4,9.9176534E-5,0E0,0E0,0E0,0E0,0E0,7.028808E-5,0E0,7.989438E-6,0E0,0E0,0E0,0E0],"parents":[2147483647,0,0,1,1,2,2,3,3,4,4,5,5,6,6,7,7,9,9,11,11,15,15,17,17,19,19,20,20,23,23,24,24,30,30,32,32],"right_children":[2,4,6,8,10,12,14,16,-1,18,-1,20,-1,-1,-1,22,-1,24,-1,26,28,-1,-1,30,32,-1,-1,-1,-1,-1,34,-1,36,-1,-1,-1,-1],"split_conditions":[1.6428107E-1,1.2492447E-1,3.184698E-1,1.5464666E-1,3.204787E-1,3.4819186E-1,2.5311434E-1,1.1665685E-1,-6.6152035E-4,2.1235447E-1,9.6046475E-5,1.9953994E-1,-1.3350489E-4,9.200653E-4,4.8209974E-4,1.1508581E-1,-2.3766367E-4,3.184698E-1,-2.1692035E-4,2.6419267E-1,1.1405249E-1,-1.9290613E-4,-4.7047186E-4,6.2297076E-2,3.204787E-1,2.2382874E-4,-4.498951E-5,9.2221344E-5,3.2108199E-4,1.1405796E-5,3.1087015E-2,4.993394E-5,3.5422754E-1,-2.3573115E-5,-1.4359868E-4,-5.6019426E-6,-4.509995E-5],"split_indices":[29,29,20,22,10,0,4,22,0,24,0,27,0,0,0,6,0,0,0,5,20,0,0,0,0,0,0,0,0,0,7,0,0,0,0,0,0],"split_type":[0,0,0,0,0,0,0,